1028 128
ATTEND 0.0025010782 -0.0037159377 0.0028316332 0.0011372541 0.0017971756 0.002059664 -0.0020285565 -0.0028026602 0.002933846 -0.00028487534 0.0036021427 -0.0028154969 0.0033786139 -0.003823578 -0.0015245678 -0.0031086018 0.0031912012 0.0025896977 0.0011670699 0.0018839706 0.0010996725 -0.003116226 0.00031662374 0.001011432 0.00011616516 -0.0005429717 0.0025401923 0.0017077597 -0.0027519215 0.0018846213 0.0024316632 0.0005531487 0.0029252486 0.0012747309 0.0001668767 -0.00012280558 0.0024590916 -0.00065107294 -0.0034700811 -0.00052209094 0.003321693 0.0013350664 -0.0017854782 -0.001958255 0.0017224574 0.0012407571 0.0031806554 0.0009383588 -0.0036203144 0.00047670587 -0.00086471334 0.0037612147 0.0028159001 0.0018140324 -0.002484563 0.0037042103 -0.0032481656 -0.003596609 -0.0035503344 -0.0007815678 0.0030258454 0.001234795 0.0033221345 -0.0038812773 -0.0013528834 -0.0031617917 0.0018605479 -0.00037834398 0.0024676428 0.0026483866 -0.0008998461 -0.000551591 -0.0008131744 -0.0002386205 -0.0018689135 0.0020548028 0.0013965933 0.0011016789 0.002774103 -0.00083383423 -0.0018243741 0.0028245086 0.0012581048 -0.00083096186 0.0035183409 -0.0020549127 0.003141749 -3.0831964e-06 0.0024640674 0.0016243723 0.0018567414 1.1109243e-05 0.0014854913 0.0013427886 0.0027021212 -0.0013250187 -0.00095498783 0.0007054889 0.0023695955 -0.0028724996 -0.00384016 -0.0028624495 0.003509502 0.0034103093 0.00047891974 0.0030728036 0.003320013 -0.0020865765 -0.0014226895 0.00023189902 -0.0011002629 -0.0018046886 0.00012929138 0.003592303 0.0020569758 0.0032410144 -0.002463455 0.0021052244 -0.0024657173 0.00072811113 0.0022891571 -0.00342384 0.0036425868 -0.0013498439 0.0026709521 0.0012524754 0.0012985831 0.0018709704
ARRIVE 6.7965426e-05 0.003235726 -0.00011146904 0.00025486024 0.0022758776 0.002230581 -0.002364033 0.0017963445 0.0019206835 -0.0010611932 -0.0015392638 0.0034913628 -0.0028847253 0.0026229757 0.0016341791 -0.0028662912 0.0037361071 -0.002486362 0.0038485944 -0.0035198026 0.0008777039 -0.0033456425 0.0034553001 -0.0002512837 -0.0016087508 0.0018064925 0.0026323302 -0.0021169607 -0.0030082515 0.0015163547 0.001273706 0.0005528823 0.0012556345 0.00364018 0.000877089 0.0036032798 -0.0025549782 0.0012764743 -9.814842e-05 3.46934e-05 -0.0012297056 0.003303885 -0.0025490639 -0.0023457154 0.0017665578 -0.0008672897 0.0038494493 0.0019520253 0.0038997948 -0.00015514066 -0.0019331614 0.002493937 -0.003189977 0.0027040285 -0.0032129695 0.0026713933 -0.0017880147 0.0013057531 0.0026191934 -0.0036646458 0.0011642107 -0.00028202124 -0.0006229146 0.00018296261 0.0005181055 -0.00078742544 0.0032342002 0.002521662 0.0034126663 -0.0028528946 0.0024811684 0.000669491 -0.0034870827 0.0024210706 0.0035614264 -0.0036660084 0.0023521623 0.0031055785 0.00077106804 -0.00069366925 -0.0011085566 0.0015662202 -0.0027343647 -0.0032004437 -0.0005189513 -0.0012273815 0.0023893581 -0.00088872534 0.0013225436 -0.00042841127 4.9483137e-05 -0.00081831164 -0.0028155087 -0.0007596388 -0.0013608679 0.00088742736 0.0011159539 0.0023021204 0.0014825469 -0.0028029766 -0.0006828385 0.0022413363 0.0033081616 -0.0028189996 -0.0029177486 -0.0003008765 -0.0025609825 -0.0035660241 -0.000120343735 0.0030950936 0.0033875545 0.0033975816 0.002544184 0.0019384807 0.00083928654 0.0018736961 -0.0038793753 -0.0031323426 -0.002713823 0.0008476822 0.0022727612 -0.003860469 0.003148354 -0.0030526563 -0.003765217 0.0007897098 0.0018939346 -0.0011161468
COME 0.0017629232 -0.0006979603 -0.0007516354 0.0032029862 0.0018397348 -0.0025030896 0.0022088042 0.0038734726 0.0013350883 0.0014536148 -0.00014025783 -0.0031650017 -0.0017874414 -0.002707559 0.0012154955 -0.002325292 -0.0028962344 0.0014831657 0.00064533117 0.0012932229 -0.0007092979 0.00014814956 0.0032355029 -0.002313572 0.00022997847 0.0012274326 0.0027490815 0.0017079177 -0.0027104456 -0.003616769 -0.002567401 0.0008428635 0.0022963102 -0.0011745463 -0.0014170805 0.0022186432 -0.0036426145 0.0024137052 0.0014855138 0.003466978 -0.0017394056 0.00066720485 0.0023623602 0.0016662497 -0.003636852 -0.001617754 -1.9862453e-05 0.0019587302 0.002180821 0.0031544054 0.0017106986 0.0027266282 -0.0022810935 0.0031593316 0.0030206216 0.0036936451 0.0036146059 0.0019253648 0.0018022128 -0.0028034279 -0.0014814093 -0.0028005475 0.0033626624 0.0025122548 -0.0036953376 0.0007489101 -0.001577579 0.0021942514 -0.0037368513 -0.0037037898 -1.7964781e-05 0.0038720013 0.00030112124 -0.0012670327 0.0025279066 -0.0024490252 -0.0016277948 -0.0006601837 0.0007474511 0.0031464694 0.0013530155 -0.0021807977 -0.0012857734 -0.0019653116 0.001824546 -0.001981177 0.0008457748 -0.003428121 -2.0648886e-05 0.00056451466 0.0025454522 -0.003120998 0.002891858 -0.00097452034 0.0015663602 0.0023359137 -0.0037725873 0.003847031 -0.0038700094 -0.000851242 -0.0032986887 -0.0031628276 -0.003834602 0.001781326 0.002434288 0.0015079717 -0.0017255611 -0.0019093652 0.0015170624 -0.001570493 -0.001692443 0.0019949565 -0.0033044715 0.0016699852 -0.00080044003 -0.0038942534 0.0005377377 0.0031668448 0.002600412 0.0012195575 -0.0028458356 0.0012090803 -0.0021853948 -0.00092725793 0.00031707427 -0.0031298562 0.0030257287 0.0023834335
PLEAD -0.0033234241 -0.00011497837 0.0024799746 0.0017707756 -0.0010747772 -0.00046200992 0.0026633488 0.0032814986 0.00277027 0.0035442472 -0.0014998419 0.0033277045 0.0012638781 0.0033737556 -0.0036235612 -0.0025063364 -0.0033092264 -0.0019833953 0.0034554072 -0.00094747735 -0.0008052331 0.0012425525 0.0008423709 0.0034811452 0.0022844588 0.003172691 0.00013560757 7.3681454e-06 0.0031329035 -0.0022348303 -0.0022308726 0.0030479005 -0.0015706267 -0.0007522171 0.002976177 0.0037291027 0.0016186682 0.0008677086 -0.00016457184 -0.0034217301 -0.0024095476 0.0028099893 -0.0006413644 0.0019301128 0.0002525799 0.0035693161 -0.000603965 -0.0011391771 -0.0016076522 0.0013502655 -0.0007362077 0.001231657 0.0007796291 0.0007345038 -0.0007068599 -0.0016958737 -0.0033905627 -0.0023841576 0.00058985804 0.0032350486 -0.0037461438 0.00071654515 -0.002912805 -0.0001470262 0.002384576 -0.00201472 -0.0007318671 0.0024642006 -0.0007541398 -0.0030299756 -0.0026609963 -0.0036418794 -0.00023930952 -0.002270865 -0.0031648546 -0.0013592724 0.0026916529 0.0034669973 -0.0012174885 0.0008527491 0.0022631122 0.00063559634 0.002923677 -0.00070218294 0.0029241273 0.00014346332 0.003077163 -0.00096117187 0.0025197132 0.002885241 0.0021439684 0.0019018381 0.0021252804 0.002571261 0.002129368 -0.0012071484 0.0037900298 -0.0015611472 0.0033106888 -0.00052869687 0.0017694939 0.0014775688 -0.0016476463 0.00069663423 0.0036121437 0.002169535 -0.0020286913 -4.020691e-06 -0.00035762243 0.003726087 1.0378473e-05 0.0006584491 -0.0023846005 0.002421188 0.001337274 -0.003653592 -0.0030511108 0.00063503074 0.0027747839 0.0023079577 -0.0007293863 0.0026332766 -0.002471311 0.0020478293 -0.0022280472 -0.0029519398 -0.0023775508 -0.0030659402
BEG 0.0010771042 -0.0014827286 0.0026329109 -0.003453577 0.0014812713 -0.00092434394 -0.0012241072 -0.0029728876 -0.0011343474 0.00046897796 0.0024177076 0.0023144684 -0.000770066 0.0033272645 -0.00079274405 0.002518968 -0.0018832089 0.00088329345 -0.0008948006 0.0005443147 0.003902389 -0.0012708984 0.0018910072 0.0036791903 0.0033254568 -0.0028688533 0.002803548 0.002147242 0.0026478013 0.00192778 -0.0037262319 -0.0022714264 -0.0018109827 -0.00013307169 0.00041110098 0.00021614022 0.0035343773 -0.0004145016 -0.0016882949 -0.0017367315 0.0025282986 0.0015846405 0.001986317 -0.0025736608 0.0013522345 0.0015088883 0.0029351893 0.0032733902 -0.0007903755 0.0033493785 0.0019032506 -0.0005377271 0.0027085308 -0.0038222065 0.0017423894 -0.0018709671 0.0032688843 1.0810889e-05 0.00078380085 -0.0016370254 -0.002371742 -0.0032554024 0.0017545045 0.0027046455 0.003100862 0.0038302718 -0.003632584 -0.002739181 -0.0029339714 -0.0010590451 0.0019545814 0.00044113563 -0.0038494645 0.0031396702 0.0034505313 0.0006597476 0.0021425535 0.0028799786 0.0038924883 0.0005758065 0.003380441 0.0017656953 0.0028035343 0.003297652 -0.0013720699 0.003602857 -0.0010083471 -0.0036190213 0.0024606888 0.0012242615 0.002447514 0.0022971025 0.00044070565 -0.0035207977 0.00047023778 0.0011391767 -0.0011482171 -0.0030055116 -0.0037784984 -0.00040521735 -0.0027417243 0.0003500713 6.282595e-05 -0.0009865606 0.00062980247 -0.0011004307 -0.0027869707 -0.0029997176 -0.0010290128 -0.0012537375 -0.0033142134 0.0022302587 -0.0021559866 0.0027681056 0.0017187309 0.0018330172 -0.0033952643 0.00036235907 0.0025324319 0.0036239952 0.0010725247 0.0026073742 0.00076410524 -0.0038841136 -0.0034349908 0.00043602483 0.0012362112 -0.00043475302
ASK -0.0035671443 0.0014411554 -0.0014425486 0.002621 0.0022052042 0.0037787156 -0.0024865218 -0.003657015 0.0007202278 0.0033970808 0.0038048623 -0.0006567367 -0.0034861283 -0.003312663 -0.0018321816 -5.044265e-05 0.0014897743 -0.001627108 0.002217094 0.0021283934 0.0025717635 -0.0023397184 -2.0838004e-05 0.0037466555 0.00043022312 -0.003762423 0.0037864144 0.001908031 -0.0032713055 -0.0037234128 0.0010356208 0.0017660893 -0.0016348315 0.00077951676 0.002437864 -0.002712652 0.0005286213 0.0023044106 0.0038709901 0.0022133654 -0.00015167183 -0.0024837959 0.0027581465 -6.549608e-05 -0.00071521173 0.0013198984 0.002718216 -0.00093896285 0.0037309413 -0.00368105 0.003183214 0.00019811912 -0.0026019893 -0.0036184501 -0.0003567646 -0.0008448467 -0.0025571764 -0.0035194724 0.0015209118 -0.0022493622 0.0009339928 0.0012361485 -0.0010176221 -0.00029499977 0.002013689 0.002634228 -0.0017358977 -0.00019033437 0.0027155676 -0.003760135 -0.00031402506 -5.6036428e-05 0.0034189115 -0.0028097806 -0.00020830167 -0.00026663762 -0.0038952115 -0.001049742 0.002980138 -0.0029225694 -0.00069189025 -0.0013062698 -0.0008217073 0.0004948921 0.0021015543 0.001035899 0.0035039075 0.00024239578 -0.0027261553 0.0016096705 -0.00021868093 0.0038681647 0.0020314727 -0.0018390272 0.0012757264 -0.00043869342 -0.003492198 0.0032366903 0.0014197364 -0.0029854032 0.0007802995 -6.1007526e-05 0.00203806 -0.0036115635 0.0015736583 0.0001841302 -0.0018347088 -0.0036350007 -0.003784683 0.0020096477 -0.0022930233 -0.0006200974 -0.0020626334 0.0027625316 -0.0031032735 -0.00013068091 -0.002405577 -0.0011940656 -0.0022271343 -0.000761881 -0.0025946514 0.000838474 -0.0018204778 -0.0017531313 0.0005138985 -0.002553672 -0.00059872074 0.0012618466
FATHER 0.0017882899 -3.707013e-05 -0.0036717262 0.0025653457 -0.00217661 -0.0006252774 -0.0033442979 0.0034909328 -0.0012444885 -0.0019150255 -0.0018216207 0.002074451 -0.002991332 0.003518516 -0.0035750533 -0.00087979 0.0023668543 -0.0016714832 1.5720983e-05 4.5718225e-05 4.465523e-05 0.0001378701 0.0026128574 -0.0035197285 0.0010557683 0.0013185214 -0.0022418075 0.002716235 -0.0026008848 -0.0035329135 0.0014565916 0.00035502412 -0.0035664288 0.0014752257 0.0022011027 0.0025528756 -0.00074282824 0.0024738442 -0.002651716 0.0006338785 0.0006256114 0.0017051338 -0.0028361946 0.0036746946 -0.0023006673 0.0038171387 -0.0016478784 0.001200681 -0.0037224235 -0.0035481483 0.0022058694 -0.002853101 0.0029331066 0.00045974425 -0.0021949504 0.0023376653 -0.00057489326 -0.0031657123 0.000600186 -0.0021564823 -0.00081956136 0.0023169785 -0.0016934205 0.0028776873 0.0029852074 0.0017641756 0.003623602 0.0020299647 0.0033694766 -0.003599149 0.002715451 -0.0018002624 -0.0015189471 -0.0031081766 -0.0007692979 -0.0020751946 0.0033829927 -7.0398164e-05 0.001428805 -0.0035658688 -0.0014303582 -0.0025058712 0.00061318843 0.0030727342 -0.00017765665 0.0014332599 0.0003264333 -0.0037083246 -0.002986294 -0.003114768 0.0024150638 -0.002588567 -0.0038598536 -0.0015021743 0.0014987907 -0.00067479623 -0.0007004932 0.00026634528 0.0005571145 -0.001878735 0.0018742619 0.0034903178 0.0032560404 -0.0009231434 -0.0018281393 0.0015628355 0.0036815514 0.0010708347 -0.0022077495 0.00093871925 0.00075854576 0.0038961817 0.0017932423 0.00048946304 -0.00062642706 2.424004e-05 0.00145117 0.000461082 -0.0023123722 -0.0030484388 -0.0025971483 0.0022524921 0.0017983579 -0.0005057787 -0.0017643294 -0.001677664 6.2153056e-05 -0.002131691
SON 0.0026821808 0.003178545 0.0010844631 -0.0004832549 0.0010813092 0.0034199462 0.001368514 -0.00011876768 -0.0010870995 -0.0018007616 0.0031585356 0.003854608 -0.00051717984 0.0029680815 -0.003604533 0.0016632283 0.0020461318 0.00055719423 0.002568923 -0.0024301915 0.0011103358 0.0005378368 -0.0018357476 -0.0022030293 0.0018142044 -0.0017404441 0.001997353 0.00012608767 6.2099236e-05 -0.0016186739 0.0009586104 -0.0025631357 0.00041836512 0.0033292018 -0.003397999 0.0017312913 -0.0022420706 0.00040243642 0.0017336647 0.0034722555 -0.002606642 0.0032791703 0.003194881 -0.0030548328 -0.0028614595 0.0033504183 -0.0034657856 -0.0022065637 0.002483168 -0.0037572642 0.003106925 0.0021804068 -0.00054061675 0.0037648566 0.0015479242 -0.0036537903 0.0037837448 -0.0019000847 0.0015504551 -0.0001034447 0.002147844 -0.00067171745 -0.0020779106 -0.00065489876 -0.0002654477 0.00075225736 0.0005005925 0.0015424307 0.0032739511 0.0035600085 0.0032491342 0.00013941735 -0.00069051335 0.00022970706 0.0015227292 0.003484488 -0.0027076877 -0.0028626625 0.0036553221 0.0022399854 0.002522784 -0.002360439 0.0026113417 0.0033065923 0.0031420698 -0.0014365902 -0.001569584 0.0007879471 0.003396034 -0.0023699377 -0.0018425013 0.0023464537 -0.00275638 0.0011799649 -0.00027272088 0.0008303831 -0.0013731406 0.0037541364 -0.0013716602 0.0007819486 -6.775706e-05 0.0034203916 -0.0010998349 0.0004571724 0.00058002217 -0.0033910081 0.00096593803 -0.0015118351 -0.0003248378 0.0025140466 0.0003364031 -0.0027805679 -0.0008889611 0.0024148743 0.0006992233 0.0008964356 0.0023951903 0.0025732294 0.0034689724 -0.0024157758 -0.00043585358 -0.0027258839 0.0034955204 -0.0026730516 0.00083994697 -8.58181e-05 0.0032899447 0.0038590734
BROTHER -0.0031463883 0.00128895 0.003875327 0.0012176236 0.003010222 0.0029436895 -0.0021726433 0.0024032658 0.0025823065 -0.0026264472 -0.002237096 -0.0024416908 -0.00015749405 -0.0010789313 -0.0024832722 0.0035928644 -0.0002663138 -0.0038544019 0.0014252159 0.00254173 0.00040954788 -0.003621515 -0.0004734504 -0.0008715293 -0.0030977936 -0.0020294075 0.0018700786 -0.003252977 -0.0023808181 0.003212239 -0.0034119664 0.001428791 0.0002450984 0.0010797612 0.0013337 -0.0016799783 0.0029248407 -0.00031289653 -0.003824073 0.0006405829 -0.001999072 0.0035686467 0.00011951108 -0.0032263722 -0.0027584778 -0.00058446475 0.0035710805 0.0025932377 -0.0015937394 -0.0029601706 0.0015018418 0.0010749587 -0.0033793864 0.003451353 -0.00147663 0.002142564 0.0020637095 9.2221735e-06 0.0029953737 -0.0018668013 -0.0020874701 0.0032492639 -0.0014732633 -0.0029201768 0.002078197 0.0009507135 0.00076482905 0.002529777 0.0036840832 -0.0001672073 -0.0027380644 0.0024551332 0.0005970795 0.003253523 -0.00049463066 -0.0023824978 0.003329892 0.0006177995 0.0033505827 -1.1522466e-05 -0.0022989803 -0.0037407374 0.0014683377 -0.0033799822 -0.0013582779 0.0021644852 -2.9523171e-05 4.1430503e-05 0.002407743 -0.0010964386 0.0023725594 -0.0026628762 -0.0017735518 -0.0024473257 0.0032440645 0.0037429887 -0.00086556416 0.00245094 -0.0006034649 0.0014137548 0.0029900353 0.0020931177 -0.0014748545 -0.0001460755 -0.0031313084 -0.0035427995 -0.0019834195 -7.709633e-05 0.0030738248 0.0023504747 -0.002355353 0.0024995562 -0.0027375177 -0.0012225916 -0.002624475 -0.0025975935 -0.0009288178 -0.0006066388 -0.0019768872 -0.0038566152 -0.0020665869 -0.00019882219 0.0005213242 0.0034689736 0.00022890882 0.002916384 0.0034966697 0.0012596475
MANAGEMENT -0.0012420447 0.0027122137 -0.0027261407 0.00146831 0.0013899223 -0.0031248094 0.00029366967 -0.0015573364 0.002187018 -0.0035122538 0.0018034171 -0.0021071725 -0.0026575448 0.0025941269 0.0032182755 0.0025500949 -0.0021587634 -0.0004730834 -0.0016287077 0.0033596926 0.0035896846 0.0018821586 -0.0037680166 -0.0012120808 -0.0006189116 -0.0032092736 -0.0031283046 0.001198884 -0.0037197054 0.0012913252 0.0014891988 -0.00023967936 -0.0011201173 -0.000591424 -0.0015834268 -0.003254065 0.00016600668 0.0029002768 -0.0020258299 -0.0017825415 -0.0013127227 0.0010099995 -0.0006172113 -0.002525378 0.00070510403 -0.0036503575 -0.0005395318 8.276429e-05 0.0026801329 -0.0024031335 -0.0027835432 -0.0014376008 0.0024149416 -6.4261316e-05 -0.0028784422 0.0029331967 0.00089940894 -0.0038109338 0.003516998 0.00046419213 -0.0027429115 0.0006030844 -0.00011594829 -0.0026909744 -0.0008767969 0.0027150107 -0.0005608646 -0.00015785747 -0.0007501909 -0.0031711538 -0.00019320687 -0.0016647333 0.0016937559 -0.0013179876 9.284127e-05 0.0028787 -0.001364552 0.0018052101 0.003483126 0.0035586397 0.002158594 -0.0021299415 0.0026966243 -0.0021241268 0.0013164626 -0.0012221773 0.0028291007 0.0028792785 -0.0022472292 -0.0015853647 -0.0037343525 0.0024321678 0.002596398 0.0011525203 -0.0012241639 -0.0023883863 -1.0827718e-05 -0.00038723927 -0.0036016158 0.00044664793 -0.0016559848 -0.00033689616 0.00070065045 -0.00072176155 0.0034836193 0.0014697918 -0.0014387993 0.0036083437 -0.0018882992 -0.0032381646 0.0029867892 -0.0026770784 -0.00062852487 -0.0034136751 0.0020717906 0.0005832625 0.0010065216 -0.0011062243 -0.002091584 0.00305013 -0.0003473059 0.0023001542 0.0018197652 -0.0011795172 -0.002596183 -0.0012028514 1.376652e-05 -0.0036064596
EASY 0.000774497 -0.001920485 -0.00280512 -0.0029454108 -0.0038758426 0.0003093437 0.002098938 -0.0029030587 -0.0036269533 -0.0009575501 0.003424464 -0.0029984105 -0.003008377 -0.0033225492 -0.003074181 0.002915939 0.0013130885 0.0033691386 0.0032907801 0.0012639323 0.0029462746 -0.00012402849 0.0015783553 0.0031712642 0.0027177208 0.0023650678 0.0036317052 -0.0034894582 0.0009516704 0.0029668885 -0.000880725 -0.002320243 -0.0036438238 0.0030529045 0.00082934974 -0.0036562018 0.0014748448 -0.0023629495 0.0019685575 -0.00132714 0.0012577705 -0.0012576212 -0.0014384197 0.0010503097 -0.0027674676 -0.0016016801 0.0014458356 0.003718449 -0.0027662166 -0.00069944334 0.0017354056 0.003758592 0.0032646884 0.002748349 -0.0012659371 -3.3853023e-05 0.002651805 0.0015639758 -0.0006782023 -0.0023468637 -0.0028334695 0.0002261049 -0.0039005135 -0.0003016252 -0.00039175144 0.002858616 0.0009994963 0.0023460577 0.003440018 -0.0003420932 0.0019126872 0.0006204702 0.0015388808 -0.0030740283 -0.00095426576 0.0037063542 -0.0034469173 0.0030666399 -0.0026340797 -0.0024544438 0.0030815625 0.00021818215 -0.0024518482 0.0023410567 0.0025224942 0.002906563 0.00049784186 -0.0014738552 0.0024134978 -0.00093002664 0.0036946982 -0.003727754 0.0032500543 -0.0002989345 0.0021751064 0.0016332724 -0.0006198447 0.003472431 0.0021774764 0.0015937219 0.0029185682 -0.0015266034 -0.0020677927 -0.0005290276 0.0012964387 -0.0024214156 -0.0029324254 -0.0026511261 0.0029502418 0.0013994932 0.0012167236 0.0011757412 -0.0028158296 0.00066621986 0.0009532539 0.0026021015 -0.002244086 -0.0006400199 0.002750746 -0.0034264766 0.0008189261 -0.0019246506 -0.0021031601 0.0011575611 -0.0037108976 0.002018557 -0.001312407 -0.0014852063
SIMPLE -0.0038425003 0.0017568797 -0.001303832 -0.0036843617 0.0018314318 -0.0011444007 -0.0016418954 0.0027642502 0.0007345224 -0.0009952722 0.0016896538 -0.00021345961 -0.00011602109 -0.00023889652 -0.0009065925 -0.0028740203 -0.0036785246 0.00016070131 -0.0022943313 -0.0033279685 -0.00036951574 0.001391914 -0.0032704931 -0.00036447216 -0.0026026415 -0.0030409195 -0.0021942651 0.0017474719 -0.0023081377 0.00053162844 -0.0034285726 -0.002999158 0.0010951665 0.0013626502 -0.0006484362 -0.0022852947 -0.0038309717 -0.0012839148 -0.0017427019 0.0036839503 -0.00071831525 -0.0016274936 -0.0020712 -0.0014800737 0.0005937951 -0.0037389593 0.0005113054 -0.0014344986 0.0010256232 0.00071869616 0.0037133114 0.0008267858 0.0020165222 -0.001464703 -0.002500688 -0.00063327263 0.0026090462 -0.0031868324 0.0036286206 -0.00332014 0.0020588748 -0.0016466908 -0.0012699561 -0.0014007357 -0.0014874506 -0.0015137715 -0.0036689253 0.0020767802 0.001953367 -0.0030063882 -0.0010680982 -0.0012224101 0.0012535304 0.0020478182 0.0014459338 -0.0022076122 -0.0010826143 0.0012042585 0.0033738683 0.0025246337 0.001102818 0.0027367682 0.0006384296 -0.0015841641 0.0028494762 0.0008204286 0.003278506 -0.00017582196 -0.002871471 0.003435965 0.002781901 -0.0024163364 -0.00039795213 -0.002961577 -0.0020907838 0.0014142757 -0.0022633078 0.0024816866 -0.0004471105 0.0013024365 0.0006841961 -0.00071469654 -0.0007081473 0.0025524464 0.00030225984 -0.0020130237 0.0011619747 -0.0008050828 0.0016687306 0.00047993183 0.0014557504 -0.0038711086 -0.00010312468 0.0012830879 -0.0001916084 -0.0013884377 0.0015460022 -7.671391e-05 0.003723115 -0.0028674304 0.0029203608 0.001740143 0.00033222104 0.0010459181 -0.00022346542 -0.002694866 -0.0038454302 0.001909336
DIFFICULT -0.0004570215 -0.00030585955 -0.00048481728 0.0031794722 -0.0007400086 -0.0022748776 0.00013254442 -0.003647538 -0.0002969182 -0.00131401 -0.002700037 -0.001189866 -0.000120382945 -0.0032234548 -0.00067749294 -0.0013637565 -0.0002691204 0.0010231336 0.0017859718 -0.00051829574 0.001080358 -0.0030933062 -0.0038274475 0.0031633698 -0.0010542294 -0.0029031439 -0.0023358355 -0.00037182015 0.0036560718 0.003484793 -0.002791243 -0.0021168338 -0.0031260855 -0.0038823637 0.0035283167 -0.00078514713 -0.002407096 0.003314657 0.0011348823 0.0034791287 -0.0029518858 -0.0034696138 0.0007405878 -0.0037120776 0.0006738703 -0.002308581 -0.0030792404 0.002650361 0.0028191851 0.0014676304 0.0028262169 -0.003160989 -0.0018456317 0.0028166356 -0.0035699503 -0.0027134412 0.0037563057 0.0002846434 -0.0006473722 0.0014971404 0.0017041605 -0.0029370913 -0.0030390616 0.0036000917 0.0035205886 0.003675951 0.0032717055 0.0035492422 -0.0010323856 0.0020276054 -0.0009814921 0.0012532384 -0.002713274 -0.00089543243 -0.0015424611 0.0018600152 -9.650313e-05 0.000773977 0.003178977 -0.003495889 -0.0029302256 -0.0031221434 -0.0037436802 -0.00029935682 0.00047675654 0.0035384416 -0.0026314917 -0.0018612596 0.0003535267 0.0017574073 0.0018968114 -0.0011043565 -0.003318205 0.0038555814 0.0024715702 0.0012545071 -0.00031492097 -0.002715056 -0.002481915 -0.0012842689 -0.0028422514 -0.0023156146 0.0033418399 -0.002017391 0.00038479702 -0.00043940396 -0.0001725073 -0.003501496 0.0016860232 0.0010058653 0.001009348 0.00276367 -0.0012518498 -0.002962683 -0.00016556503 -4.7230602e-05 0.0014755139 -0.002641185 0.0014124467 0.00016335351 -0.0004729657 -0.0037717477 0.00057884137 0.00024548924 0.0032689378 -0.00017161958 0.0036822383 -0.00048135457
BROAD 0.0012359902 -0.0036717588 0.001654395 0.002632075 -0.0016203083 0.0037281706 0.0015779135 -0.00041679642 -0.000107794 -0.0007381657 0.0006634751 0.0005627956 -0.0032840057 -0.0015010952 0.0017714956 0.003829407 0.0031573577 -0.0016612004 0.0030585239 -0.0027323735 -0.00029794837 0.0026040035 0.0023374525 -0.0008857493 0.003321754 -0.0015189628 0.00161782 -0.0032193405 0.0005875056 -0.0031613992 0.002019667 0.0021931827 4.507323e-05 -0.0017211341 -0.0015322962 -0.0033410615 0.0007810153 0.00042522207 0.002007458 -0.0006983269 -0.0011953387 -0.0023220254 0.0011991764 -0.002288238 0.0003086938 0.0033336268 -0.0033278018 0.00075905904 -0.0033774034 -0.00080361735 0.001756897 -0.0026066108 -0.0016135967 0.00013170368 -0.0031326544 0.00040426533 -0.0038393151 0.0035199716 0.00156292 -0.0029157237 -0.0032299568 -0.0014227255 -0.00016683871 0.0022660734 -0.0035553514 0.0034274114 -0.0009696249 0.00037662554 -0.0030274787 -0.0022206674 0.0016340608 -0.0012343348 0.0025016584 0.0038157606 -2.439623e-05 5.24908e-05 0.00049215043 -0.0027766286 0.0025009466 0.0034466393 -0.0021213798 0.001046978 0.0016876033 0.00023728707 -0.00095198787 -0.0023468 0.00026840693 -0.0023275414 -0.0008667902 0.00081325317 -0.00038086597 -0.0011707536 0.0017673888 -0.0012594772 -0.002168101 -0.0007457651 -0.001405443 -0.0023171576 0.0034386986 0.00031091037 -0.00052415323 0.002406436 -0.0018521791 0.0021463037 -0.0029731179 0.0007179961 0.0012768236 -0.0009260335 0.000995591 0.0019058135 -0.002250982 -0.0031742477 0.00046259988 -0.0023906818 0.0020222238 -0.0019891525 0.0010955456 -0.00068588613 0.002855104 -0.0011488893 0.0033543364 0.002828081 0.00084297877 -0.0005763656 0.0036624647 -0.0018786155 0.00023284342 0.002480314
DOOR 0.001137388 -0.00028002006 0.002977736 0.0009180252 0.0022137149 0.00013431931 0.0013418854 0.00057148904 -4.1979216e-05 -0.00030713124 0.00074201514 -0.00010232376 -0.0018793581 -0.0025848977 0.0011283691 -0.0017210855 -0.0017626986 -0.0022047067 -0.002230764 -0.0018802846 0.002420973 -0.00031023103 -0.0005679077 -0.00236701 -0.0015082054 0.001701953 -0.00033877156 0.00115154 0.003400043 -0.0012604112 0.0002738136 0.0006087395 0.00023219192 -2.6538622e-05 -0.000727685 -0.003746885 -0.001164869 0.0018404167 0.0017979909 0.0008443979 -0.0021776834 0.0012333931 -0.0037907148 -0.002837995 -0.0033136755 0.00054988207 0.0010140134 -0.0027939393 0.0024113723 0.0016529391 0.0035090698 0.003878195 -0.00095654407 0.003510409 -0.001086341 0.0001631195 0.00189956 -0.0035171784 -0.0025274465 -0.003834805 -5.15313e-05 0.00028183724 0.00048074787 -0.002484407 -0.0012681037 -0.0037705244 -0.003631909 -0.0007485401 -0.0021517477 -0.002911701 0.0036232253 0.0037942019 0.0011308786 0.0015329474 0.0029757556 -0.00081372197 0.002204309 0.0021483076 -0.0032194972 0.0015192974 -0.0022381356 0.0026486036 -0.003121453 -0.00070572965 0.0034500824 -0.003118421 0.0014947944 0.00066512503 -0.003312398 -0.0013388796 -0.001075372 -0.0006659527 -0.0024310113 -0.0019694155 0.002990118 -0.000892534 -4.1035637e-05 -0.0021717823 -0.0035061298 -0.00057051395 0.0027772442 0.0026317057 -0.0030764432 -0.0024077997 0.001573369 -0.0005939597 0.002275559 0.003146246 0.003184343 0.0023936513 -0.0005959932 0.0014471741 0.0030514915 0.0011891531 0.0002172201 0.0026766406 0.0009420515 0.0018516382 0.0038701661 -0.0014674033 0.0010759211 0.0034116928 -0.0021322486 0.0013655887 0.003463247 0.0015337098 -0.0038135422 0.0032411653
MOUSE 1.5086154e-05 -0.0029298097 -0.0010400179 0.002267197 0.0035893638 -0.002646024 0.00039556017 -0.0011056107 0.0007503819 -0.00068133784 0.00065425853 -0.00039115665 0.000863925 0.0024495518 -0.0014827161 -0.0031424512 -0.002635851 0.0028360747 -0.0001225843 -5.2977575e-05 0.003806089 0.0018044392 -0.0036232364 0.0032990263 0.00048672425 -0.0018220672 0.0031566739 -0.001414573 0.0025984421 0.002954732 -0.0011579874 0.0019847378 -0.0008169711 -0.00055784633 -0.0012848376 0.0033638042 -0.0015457612 5.712215e-06 0.0014421286 0.0024859833 0.0029365395 0.0024391636 0.001832352 -0.0031230412 0.00023656263 0.0013529218 0.00021610934 -0.001770202 -0.0035165087 -0.0014781466 -0.003327346 0.00076749234 -0.002820691 0.0033451442 0.003742525 0.0021245882 -0.0012993177 0.0017746883 0.000596431 0.00092679367 -0.0020067424 -0.0005619566 -0.0027477697 -0.0016493376 0.0027822948 -0.001073976 -0.00053840195 0.0006512319 0.0029681246 -0.002311228 0.0020741045 -0.001874102 0.003670172 0.0019913346 0.0015966125 0.0011014766 0.0014482457 -0.0027783017 0.0001658991 0.0034799762 -0.0032747025 -0.001903069 -0.0025469647 -0.0031947305 0.0006020589 -0.000546237 0.0017514254 0.00034150083 0.0020510864 -0.00063116424 -0.0009391859 -0.0021918297 0.0021716713 -0.0014511377 -0.00027444845 -0.0038434416 -0.0027726325 -0.0018427998 -0.001243678 0.0006275643 0.0009195696 -0.0010813937 0.0015096273 -0.0016087518 0.0007531276 -4.614765e-05 -0.0033743735 0.00014139616 0.002600696 0.0034817704 -0.0020370306 0.0024884036 0.0029918603 -0.0016065164 -0.000662246 -0.0031351964 0.00050874037 -0.0021553775 -0.0026195215 0.001269995 0.00016552075 -0.001492929 -0.0032243156 0.00044349788 0.0030291167 -0.0033549306 0.0029274083 0.0019198597
ELECT 0.002354344 -7.109974e-05 0.0007330832 -9.685007e-05 -0.0012763067 0.0034659905 -0.00040972003 -0.000575506 0.002460143 0.0025676624 0.0029283802 0.0008345969 -0.0020163027 -0.0033354394 -0.0036054193 -0.0034125291 0.00087452494 -0.0032792683 -0.0023824016 0.00090745365 0.0006564173 -0.0027483043 -0.0015551676 -0.003122064 -0.0014842977 0.0025993425 -0.0034104898 0.002038869 -0.00043372886 0.0002818297 -0.0033971376 -0.0035645366 0.0039007736 0.0021433597 -0.00063872436 0.0028239072 0.0010878308 -0.0006164015 0.0019620722 0.0023703983 0.0037961442 -0.0036778408 0.002737449 0.0035910523 -0.0014143479 0.00022123373 -0.002757962 0.0033028277 -0.0031456575 -0.00014176592 -0.00041628873 0.0026050915 -0.00015842098 0.00041598358 -0.0031761513 -0.002024866 -0.0030691866 0.0022757738 -0.0032390489 0.0021148922 0.0038155878 0.001764396 -0.0020265712 0.0019798449 -0.0032169088 0.003264888 0.0036198497 -0.0011407465 -0.00019247957 -0.001792214 -0.00025951132 -0.002412649 -0.00047983477 0.003671533 -0.0019009096 -0.0022709942 0.0023309786 0.0011919729 7.234786e-05 -0.0033423516 -0.00176587 0.0005285808 -0.001315166 -0.00075848965 -0.0037126348 -0.0013154532 -0.00069603097 -0.0005260532 0.0035648695 -0.0010188156 0.0013551186 4.152407e-05 0.00013875039 0.00204573 -0.00017595892 -0.00071311364 -0.0038139154 -0.0006952817 0.0015529536 -0.0018628966 0.002887588 -0.0012321298 -0.0011532538 0.003805956 -0.00097589876 -0.0013426896 0.0014545253 0.0014273016 0.0009205856 0.0037143957 0.003255563 0.0038357354 -0.003495064 -0.0019379292 0.0006450854 0.0033741884 0.0025672868 0.0037926626 -0.00021790549 -0.0027776177 -0.0019233939 0.0006026604 -0.0028672053 0.003616157 0.0017843914 -0.0028056782 -0.0007705254 -0.0022125286
VEIN -0.0015883454 -0.0035076356 -0.001928659 -0.00094019313 -0.0011070252 -0.0003824682 0.0019843886 0.0029554616 -0.00018542977 -0.0034789466 0.0010997723 -0.002713923 0.003169467 0.0024670763 -0.0012722918 0.00077920745 -0.00054220296 0.0011776364 -0.002173744 0.0037907716 0.0037751698 -0.0011703564 -0.0032765288 0.0029905022 -0.0020038935 0.0036106275 0.0016300837 -0.0005577477 -7.421766e-06 -0.00089404866 0.0035996549 0.0020226357 -0.0005668799 0.0015367515 -0.0018252766 0.001822415 0.0023987899 -0.0022828188 0.0030221345 -0.0007172419 0.0021444259 0.002455146 0.001027962 0.0014989689 0.0031847465 -0.002284868 -0.0027708032 -0.002941615 0.0011539488 -0.0033188122 0.002995878 -0.0013849259 0.00081697956 0.0033843834 -0.0012466896 0.003708074 -0.0029762331 -0.0015330781 3.921502e-05 0.0029738534 0.0006019766 -0.00015359829 0.00027637265 -0.0006642247 -0.0012940738 0.0028426854 -0.003289784 0.0022141514 -0.00017470085 0.003373632 -0.0032781826 0.0028431034 -0.0007717918 -0.00101566 0.0013157234 0.0030966327 0.0010437617 -0.001364863 -0.00047978203 -0.00019045427 0.001301536 -0.003418386 -0.0025888197 0.000113616574 -0.0020891153 0.0012777272 0.003794554 -0.0017829998 0.0010207529 0.003508654 -0.0036961169 -0.00043890733 6.53059e-05 0.00025579965 -0.0012774101 -0.0037221832 -0.0009197351 -0.0020331475 -0.0011148924 -0.0033550316 0.0028739034 -0.0023629568 -0.0034947388 0.003613476 0.00084000285 0.003644269 -0.003124469 -0.0025213736 0.002895363 -0.0024639578 -0.0018067828 -0.003502888 0.0035750386 -0.00024261171 0.0027542652 0.0011574156 0.0024414205 -0.0031206035 0.0013106336 0.00066093134 0.0027922802 -0.0018228191 -0.0029355574 -5.877053e-05 0.0013259441 -0.002427555 0.00081425824 0.0038489737
NARROW -0.0030381512 0.0025642128 -0.0024117893 0.0012951628 -0.00038393852 -0.0030611462 0.0010854229 0.0010154982 0.0033143593 0.0025082945 -0.0015205817 -5.9485443e-05 -0.003857169 0.0025214883 0.0029732212 -0.0025930966 -9.027807e-05 -0.003097305 -0.0030448206 -0.0032533538 -0.0005123296 -0.00021108706 -0.0020599104 0.0024159197 -0.0003011646 0.0036114731 0.0022617227 0.0034954962 -0.0001163802 -0.003307265 0.0016627243 0.0027804675 -0.0007910862 -0.002693714 -0.001708181 0.0026796632 0.0036882584 -0.00053745887 0.0016881764 0.003302956 -0.0033121963 0.0034337502 0.0004285955 0.0028366293 0.0011252341 -0.000809456 0.00022665579 -0.0015221393 0.0009853774 0.0011462419 -0.00016368853 -0.0026039458 -0.0028398298 -0.0037204346 0.0026375132 0.0013501532 -0.0020140016 -0.003656389 -0.001796142 0.0032888402 0.0035644912 0.0037883583 -0.00039784072 0.0013735758 -0.0036612838 0.0030202023 0.0013133285 0.0032400764 -0.0017648188 0.00040383902 0.0005944287 0.0009103877 -0.0028176229 0.0015835745 -0.0033131302 0.0021985876 0.0019114307 -0.0027883053 0.0027084711 0.0025318477 0.0030196784 -2.6188254e-05 0.0015587884 -7.221692e-05 0.00017139108 0.003602068 0.00028315478 -0.003805648 0.0035569924 6.125187e-05 0.0016546377 0.0026467675 0.00016332696 0.00052689423 -0.0029285054 -0.0036078154 -0.0037832025 -0.0004002121 0.0031758584 0.00065451104 -0.0016609298 -0.0020443627 0.003431419 0.0026636568 -0.0037613935 7.548053e-05 -0.0029495105 -0.0019211327 -0.002578575 -0.003107798 0.0036943806 -3.938596e-05 -0.0022920214 0.0030534493 -0.0032543268 0.0020520946 0.0016763938 -0.002775308 7.595833e-05 -0.0033282833 -0.0035717818 -0.00067180756 0.0031274946 -0.00220742 0.0010887897 -0.00053471356 -2.1732844e-06 0.002633092
TASK 0.0035996612 0.0027296701 0.0019684876 -0.0038817176 0.00015993253 0.00029464194 -0.00020573952 0.0015495183 -0.0031684646 0.0014327933 0.0032687855 -0.000762672 0.0018702445 -0.0011084935 0.0032552935 0.0011292632 -0.0033127863 -0.0036703337 -0.0024115515 0.0027449892 -0.0020782892 -0.00079072104 -0.0013694462 -0.0027663987 0.0011224959 -0.0023009814 0.0004875599 0.0031649533 0.0038944646 -0.003088278 -0.00077754626 0.0022352876 -0.002260419 -0.0024672642 0.0022249238 0.0032437257 0.0035249253 0.0032349096 0.0038552424 -0.002110492 0.0024434517 0.0005949577 -0.0024035373 -0.00026137725 0.003216285 0.0011928384 0.0017492844 -0.0024874588 -0.0018336134 -0.0034899795 0.0026089589 -0.0021279042 0.0006745432 0.0021626519 -0.0026007395 -0.002491704 0.0024640358 0.0011160531 -0.00042117867 0.0001907241 0.0038374087 0.0013103567 0.0010858502 -0.0027000539 -0.00081187073 0.0019137386 -0.001935412 0.00027279695 0.0012961734 0.0028261214 -0.003626469 0.0010857502 0.001417927 -0.0024316187 0.0003553152 8.110774e-05 0.0023902764 -0.00314026 0.0032943976 -0.0025167428 -0.0022056694 0.00011578838 -0.0037696066 -0.0022213524 0.0018571387 -0.0012562138 0.0020891076 -0.00063302054 -0.0018892373 -0.0029915264 -0.0031744211 0.0032361518 0.0037778064 0.0020620332 -0.002904386 -0.0035481462 -0.00037157358 -0.0009261769 -0.0017907845 -0.0021564895 0.0015183873 0.0016380972 -0.0026843848 -0.0027024571 0.0034353712 -0.0037931798 -0.0008036116 -0.0016980921 0.0015878387 -0.0032513628 0.0032997306 -1.0531374e-05 -0.00019194835 -0.0011278162 0.00079900125 -0.0004035846 -0.0032877836 0.0029437174 -0.0019062642 -0.00020880454 -0.002013554 -0.0019277569 -0.0012888231 0.0017173247 -0.0024923668 0.003885638 -0.0011561635 -0.0032403143
COFFEE 0.0028929955 0.00047528482 0.0033593862 0.0030667216 0.0006532028 0.0015923106 0.0023174195 -0.0027601137 -0.00010088861 0.0026858163 -0.00041393467 -0.0021645231 0.0020411394 -0.0023122835 0.0031725892 0.0013413163 0.0034743715 0.0035911691 -0.0005622347 -0.0021872793 0.0025003224 -0.0018734459 8.197054e-05 -0.0027739087 -0.0024643212 0.0033930836 -0.0029903604 0.003636375 0.003300376 -0.00104757 -0.0015335104 -0.0012350315 0.00096325227 -0.0031678155 0.00251728 -0.002844866 0.0033833326 0.00182826 -0.0014266792 -0.0004905759 0.0029415688 -0.0036754054 0.0005016772 0.0038273716 0.001450293 -0.0031529798 -0.0019958694 -0.0027311891 0.001534318 -0.0021800231 0.0013087484 0.002783247 0.0030385936 -0.003855543 -0.0011987945 -0.002800065 0.0014616568 0.0006716359 -0.0020920807 0.003746413 0.0027340786 -0.002108206 -0.002087406 0.0016246887 -0.0029330004 0.0014903652 0.0023092534 -0.0021307974 0.0017309076 -0.0024388765 0.0017695026 -0.00060167507 0.0024216436 0.0017875666 -0.002114635 0.0019722863 -0.0015948184 0.0037542467 0.0026159463 0.003538558 0.0032801637 -0.0027710437 0.002149938 0.002548107 0.0006197934 -0.0005373343 0.0037909264 0.002714996 0.0026497848 -0.00348671 -0.003431494 9.272164e-05 -0.0011216119 0.001194081 0.002780684 -0.0027233437 0.00078869326 -0.003541938 0.0021069224 0.0016233351 0.0035101885 0.0033602407 0.0021899668 0.0030421333 -0.003469152 -0.0032922742 -6.556584e-05 0.00054365053 0.0019331286 -0.0018745328 -0.0020874727 -0.0006173838 0.0018170691 -0.0022989505 0.003862945 0.0021262758 0.00062244054 -0.0029789158 -9.2406284e-05 0.003585567 -0.0031676153 0.0024294825 -0.0029519119 0.0019964161 -0.0024717518 -0.000994594 -0.0011138879 -0.0037789769
MAYOR -0.0032620046 -0.0030967752 -0.0016250408 0.001738712 0.00037233683 0.00071248465 -0.002195913 -0.0037326063 -0.0034655852 -0.002430835 0.0014638966 -0.0026765869 0.0010025515 -0.00049393903 -0.0026777252 -0.0036325278 0.0009624039 -0.0012970633 0.00305497 0.00041582968 -0.0006582724 -0.0016202608 -0.0019165964 0.0010005854 0.0014503045 0.0018799613 0.0032150247 -0.0008764955 -0.00043964566 0.0026178723 -0.0012397616 -0.0027100167 0.003115963 -0.0007625391 0.000382148 -0.0024673536 0.0033384617 -0.0007991159 -0.0007598285 0.0007487833 -0.0031810561 -0.003586083 0.002296211 -0.00082809967 0.0010514902 -0.003523947 -0.002171897 -0.000899336 -0.0004937227 -0.00025976982 0.002770359 5.9484504e-05 0.0011123936 0.0026743463 -0.00038853497 0.0018847043 0.00014060758 -0.003790445 0.0031042786 0.001408698 -0.0035068325 2.222167e-05 0.0031712726 0.0026122641 -0.0003557845 -0.00021073708 -0.0012200852 0.00065782253 0.0007721785 0.0028160394 0.001086781 -0.0030046087 -0.000666366 -0.0007249913 -0.0026447824 0.0009037406 0.0026110914 0.0038752505 0.0019721456 -0.0018409903 -0.0033627315 0.0023559316 0.00018876158 -0.0017364109 0.001018612 -0.001002386 0.0017443513 0.0015928707 0.0027960392 -0.0005380925 -0.003855407 -0.0005839761 -0.0034899693 0.0010557541 0.0033652275 0.0021445956 -0.0023511825 0.0018572109 0.0023910436 0.0036177495 -0.0024802326 -0.0021463006 0.003737437 -0.0028944616 -0.002777945 0.0038733683 -0.00039812925 -0.0023351598 0.0008367878 -0.0025734454 -0.0035541751 2.9348203e-05 -0.00070550374 0.002704452 -0.0021091318 -0.0024790345 0.001080076 0.0009539841 0.002009171 -0.0037543601 0.0016978992 -0.00053309783 -0.0013037764 -0.0021029576 -0.002273092 -0.00095937063 0.00066852156 -0.0029843545
GROW -0.00041297704 -0.00095576106 -0.0021867934 -0.0023948373 -0.0019284105 -0.0037644282 0.0020207176 0.0017514024 -0.0027443094 0.0020338488 0.0028734007 -0.0034943006 0.0007240394 0.0026001246 -0.003122182 -0.0018569351 -0.0011392338 0.0018195526 0.000999436 0.0016528738 -7.019724e-05 -0.0007735218 -4.178479e-05 0.0033833825 -0.0034121892 -0.002193494 -0.0038098844 0.0016201965 0.0032041678 -0.002122886 -0.0012930485 0.0037353644 0.0034521623 -0.0030173587 0.0036450159 0.0006854507 0.00018693476 0.00022298882 0.0020303898 0.002101548 -0.00223852 0.0030060245 0.0015490474 0.0021521163 -0.0008843928 0.0034104702 0.0009427066 -0.0033785207 0.003074567 -0.0016851975 0.003695815 -0.0022809678 -0.0002913965 0.0031702088 0.00013566989 -0.0009917064 0.0031770852 0.0025144638 -6.4392e-05 -0.0026222013 -0.0018926754 0.0023427252 0.0011975069 0.0025567617 -0.00031232994 -0.0025986512 -0.00055887125 -0.0015015932 -0.0014461143 0.0013458768 -0.0033525687 -0.0022249175 0.0013468877 -0.0001584063 -0.0003380985 0.00080658984 -0.0027676586 0.0003180582 -0.000982185 -0.00011485073 0.00301583 -0.0031810168 -0.0021889582 0.002505236 -0.0003229472 -0.0030199317 0.00075451704 -0.0017430399 -0.0016083216 0.00019751073 -0.0018662494 -0.0036404065 0.0031930015 -0.003847748 0.0026253667 0.0038856568 -0.0030142502 -0.003302422 0.0026334638 6.0841696e-05 -0.0013713493 -0.0027679517 -0.0023181632 0.0026789457 -0.0023045994 -0.0038993044 0.0031023272 -0.0005234484 -0.0018780084 -0.0028680996 -0.0028895293 0.0020543572 0.0024928255 -0.0013283744 -0.001815346 0.0006705959 0.00092613784 0.003029713 -0.0012549242 0.0035901084 -0.0027583656 -0.00038403692 0.0010101245 -0.0030244384 -0.0019774705 0.0010832256 0.0030417861 -0.00026219626
JOB -0.0024930364 0.0016043234 0.002746135 0.0032164482 -0.0014820081 0.0022981314 0.00086476345 -0.0020529784 0.00012514419 -6.5682325e-05 -0.0005001727 -0.0017055549 -0.00092737435 -0.0033737286 -0.0023592063 0.0020439385 -0.0025505035 -0.00083047355 0.0024731732 -0.0035528592 0.0030765971 0.0023779424 0.0007078909 -0.00017058427 0.0029311806 0.0036450159 -0.002291216 0.0015282963 -0.0034884042 -0.003893988 -0.0016919137 0.00023826072 0.0020820415 -0.001056425 -0.0023878047 1.2254601e-05 0.00021576889 -0.0024980395 0.0033448099 0.0007102287 -0.0026400804 0.00089892314 0.002979577 -0.0007643159 0.0002838011 -0.0029454716 -0.0015998696 0.0018208653 -0.0025388584 0.00026438237 0.0028712738 0.0025328533 0.0005822116 -0.0031872867 0.0029107723 -0.0029573487 0.00274433 -0.0013970082 0.0006313409 -0.0038610504 -0.0032635408 0.0034121491 0.0013329698 -0.0014771292 -0.003171971 0.0011641282 0.0008648012 -0.00052876223 -0.0026334182 0.0037529867 0.0010386246 0.0002155609 -0.0021919354 -0.003901916 -0.0015438515 0.00060392445 -0.000882551 -0.0026535236 0.0021014598 -0.0011659616 -0.0014468515 0.0031406207 0.0035678856 0.0032039324 -0.0032931503 -0.00014495064 0.0025860274 -0.0012951787 -0.0028011282 -0.0017854116 0.003864472 -0.0023138288 0.002381592 0.0037610698 -0.0033005252 -0.002323468 0.0025909143 0.0024408174 0.0016184915 -0.0009765474 -0.0026976513 -0.002446867 0.0033548698 -0.0016393767 0.0006178981 -0.0025764634 0.0033080797 0.00044697532 0.0018272616 0.0038279502 0.0022182069 -0.002253788 0.0008365061 0.0003699059 0.0022522612 -0.0008762036 0.00315484 -0.0001738004 -0.0015152505 0.0023384406 0.0023900245 0.0037748308 -0.0005011615 0.0026064895 0.0038467078 0.0023611365 0.0013922733 0.00029285887
BEAN -0.0032839577 0.002443554 0.0009940838 0.0031939307 -0.003840205 -0.00031214577 -0.0008400762 0.0009675678 -0.0012626054 0.0032735982 0.0035336833 0.0006078976 0.0030679698 -0.001315579 -0.0008042961 -0.0034571488 0.0031620376 0.0012532525 -0.0031817087 -0.0029731966 -0.0011931518 0.002139525 -0.0027494892 3.383476e-05 0.0009925365 0.00033679575 0.003885779 -0.0016787581 0.0035124237 -0.0038839385 0.00013370665 0.00024887273 0.0032030046 0.0016444236 0.00043848084 -0.0020141073 0.0021404098 -0.00033472184 -0.00093625294 -0.0027406006 -0.0013499431 0.001317198 -0.0007988662 -0.0011076878 0.0028417804 -0.0033838972 -0.0019930894 0.0037513545 0.0023723352 -0.0023922343 -0.0024066167 0.0012216489 -0.0016772712 2.4830922e-05 0.0013858153 0.0026087873 0.0013887394 -0.0010337008 7.9146324e-05 -0.0007648045 -0.0015426669 0.001388823 0.003240186 0.0009660579 -0.0034060918 -0.00054100534 0.0011667991 -0.0008312868 0.0007011838 -0.0037254367 0.0029558868 -0.0025321415 -0.0009035918 -0.00059308554 0.00359026 -0.003591499 -0.0022998522 0.0030864927 -0.0011883031 0.0008595527 -0.0020964197 -0.002475911 0.0005890488 0.0030076257 -0.0031784556 0.0025695364 0.00024147463 0.0006554482 0.0001330018 -0.0008699218 -0.0008311304 -0.0029784222 0.0017159694 0.00057709985 -0.002455254 0.002832799 -0.0028541496 0.0028759504 8.264774e-05 -0.0015902263 0.0010035532 0.0032834217 -0.0011008307 0.003781833 -0.0037043884 -0.00010026721 -0.0006669823 -0.0026987179 -0.0021122745 -0.00256575 -0.0010239478 0.00018385885 0.0005463751 0.0022761086 0.0025172867 -0.0016991755 -0.0028983026 0.0026222537 -0.0022583085 0.0012556607 -0.002160741 -0.00060622935 0.0032285163 0.0027083245 0.00094193843 -0.0003754494 -0.0015833986 -0.0026158164
KID -0.002038407 0.0015365194 -0.0034623097 0.0015748729 -0.0016520249 0.0004678602 0.00089321006 0.00013360582 -0.0005827133 0.00045043332 0.0016312918 0.0012493251 -0.003618696 -0.0028067478 -0.0020876525 0.0016403553 0.0020394295 0.0018241323 -0.0028329918 0.0033289802 -0.0003166516 0.0037943812 -0.003467835 -0.0024069224 0.0010561347 0.002557341 -0.0025633438 0.00056164153 0.0020309424 -0.003576214 -0.0036198343 0.00072860735 -0.00060138834 0.0013801226 0.0007103311 -0.0023349933 0.0031306583 -0.0017176953 0.0005001112 -0.0024071648 -0.0009733258 -0.0028075574 0.002731064 0.0037650361 -0.003561436 -0.0014715083 0.00041401936 0.0027173748 -0.0006768969 0.00344931 0.0007201808 0.0035296227 -0.0035981878 0.00061482907 -0.0016305246 -0.002476702 0.0029689986 -0.0022565862 -0.0033993856 -0.00023974062 0.0008142201 0.0022576938 0.0036583699 -0.0012367851 -0.0025026249 6.86396e-05 0.0014926435 0.0029870658 -0.00022387855 0.0018908046 -0.0024691622 0.00064628536 -0.00072472246 -0.0031665836 0.002792474 -0.0021117444 0.001168977 0.0033671253 -0.0024242683 -0.0029258945 -0.0035565828 -0.0010966233 0.00026865434 -0.0032432172 -0.0026890694 -0.0026386685 0.0029683087 -0.0014287473 0.0035143367 -0.00036115706 -0.0028309536 -0.0023891476 -0.0017507627 -0.0006312602 0.0025257117 0.0012683518 -0.0018622697 0.0025886993 -0.0019581902 0.0026378215 0.003052682 0.00083618617 -0.00020542878 -0.0011582108 -0.0025704585 0.0038804708 0.0015108549 -0.0019491909 -0.00045989116 0.0016534023 -0.002232254 -0.0016753727 -0.0025359131 -0.0016897466 -0.0011558384 -0.0037636876 -0.0036852136 -0.0005542357 -0.0008971197 -0.0018082459 -0.00075404684 0.0010429381 0.0037904766 -0.003803983 0.0026906915 0.001771455 0.0030386 -0.0027531341
CHOOSE -0.003001661 0.0014847569 -0.000393154 0.0038868315 0.0029469936 0.0029935348 0.0011862677 -0.001600428 0.0014529615 -0.003062253 -0.002649653 0.0016544762 -0.00054766866 0.003093864 0.002122237 -0.0032624279 0.0026880067 6.225211e-05 0.003095315 -0.0036889894 0.0030249828 0.00261829 0.0035259104 -0.000674532 -0.0015087232 -0.0009650292 0.00342872 -0.00082833925 0.0037483862 0.0029241089 0.0031758887 0.0014111574 -0.002657657 0.0036002789 0.0019560605 0.0013470585 -0.0019645526 0.0031818207 -0.0016277093 0.0001893351 -0.002780892 0.0038523504 -0.0015767253 -0.0029941916 0.0038755795 -0.0014582677 0.0013318243 0.0038995307 -0.002839901 0.0012265074 -0.003232428 0.00073257065 0.002962435 -0.002599848 -0.0036663404 0.0038722781 -0.00022571567 0.0027446582 -0.0020505702 -0.0025750229 -0.0037567995 0.00044757518 0.0018786899 0.0015947407 0.0035912541 0.0017271294 3.6406768e-06 -0.0035700137 -0.00061406643 -0.0038783595 0.002054453 -0.0007703036 0.0032644318 0.0019772174 0.0016165726 -0.0006091807 0.0017713478 -0.0021862173 -0.0030205694 0.00018233187 0.003488508 -0.0033290887 0.0024220457 -0.0016567165 0.00069139834 0.0013642231 0.0032187412 0.002723743 -0.0002538939 -0.0020967666 -0.0036443227 0.0030819632 0.003211492 0.001944697 -0.0029963849 0.0018215589 0.0027941598 0.0001290444 0.00088603224 -0.0022583033 0.0021081802 0.0009782752 0.0010593365 3.0220795e-05 0.0007087419 -0.0030747678 0.002252221 0.0018175112 0.0024088225 -0.0017515447 0.0021142645 0.0004964549 -0.00047032686 0.0021647497 0.003030684 0.0030271416 0.001658531 0.00075637497 -0.002938968 0.001302376 -0.0029778103 0.003020938 0.00058948575 -0.0019272699 0.0022984953 -0.0023143652 0.0003635309 -0.0027291798
TAIL 0.0011039298 0.0033044126 -0.00198815 0.0017008882 0.0030310259 -0.00065581 -0.0002208974 0.0038559663 -0.00010684087 -0.0019195501 0.0033728103 -0.0004065796 0.00083188567 0.0015030333 -0.0038762086 0.0012577244 -0.0005432366 -0.0019715654 0.003003188 -0.0016320855 0.0025624665 0.0025137756 0.0015093621 -0.0005332665 0.002095941 -0.0033435663 0.0028868993 0.0018278976 -0.00171265 -0.0005650782 -0.0018262665 0.00058529247 -0.00026883147 0.0029240043 -0.002675968 0.0017628636 0.0015744015 0.0011213939 0.00026949387 -0.0008038301 -0.0027390819 0.0032796867 0.0019631817 0.0013518155 0.003767955 -0.0015265393 0.0017406674 -0.0032878853 0.00022609427 0.0037713626 -0.001376525 0.0006815381 -0.0011788352 0.0033030957 0.0027856354 0.0032284732 -0.0036531517 0.00021684391 0.00076370704 0.0009058729 -0.00317843 -0.001876275 -0.0016355383 -0.0035124202 0.001638628 -0.0021825824 0.002292891 -0.002604947 0.002310902 -0.0032743793 -0.001786596 -0.0008387705 -0.0022294489 -0.0032687807 0.0008485111 -0.0026660203 -0.0015358202 -0.0035477863 -0.003543355 0.003809926 0.0012316261 0.0027495336 0.0005235653 -0.0016409185 0.00025441693 -0.00018567841 0.0008639494 -0.0018119873 0.0018091416 -0.0018497843 0.0006268207 0.0037343819 0.00039466147 0.003363708 0.0013589106 1.0678385e-05 -0.0023772917 -0.0034678492 0.0026584473 0.00029001135 0.0015762143 0.0023145946 -0.0024346912 -0.0014244384 -0.00018907587 -0.0013368307 3.8077185e-05 -0.0010402584 -0.0032370142 0.0013412985 -0.0015826981 -0.0015549237 0.0013537926 -0.0017875491 0.0010324348 -0.00036498858 -0.0036669853 0.001194162 -0.0031371205 9.893006e-05 -0.0010812569 -0.0032501423 0.00051126286 0.000913693 -0.0023449361 0.0036695967 0.0028517076 -0.0030163322
MELODY -0.00316836 0.0032577864 0.0008460889 0.0037488248 0.0017316102 0.0031017717 -0.0015069321 0.00015285928 0.0011314929 0.00072326895 0.0018509631 -0.00061029283 0.0002620863 0.0013734316 0.00076309114 -0.00020683894 -0.0013251811 0.0019843609 0.0033076322 -0.0036532043 -0.00016439769 0.0030099666 0.0018398002 -0.0013326571 -0.0013128568 0.0024780785 0.003262935 -0.00087794266 -2.1251599e-05 -0.0017964786 0.0017628887 0.0029338396 0.00017061768 0.0021794073 0.00086571893 0.0017709689 0.0014896118 0.00075219054 0.0017879141 -0.000604612 -0.002593146 -0.0022947965 -0.0026629146 0.0018739075 -0.0017001142 -0.0005810238 0.0021871382 0.0008379929 -0.0013163394 -0.0020414505 0.0029756387 0.0033363365 0.0009231162 0.0009990443 -0.0012207101 -0.0018425842 -0.0026305143 -0.00095803244 0.0035507206 0.0036435416 0.0018601104 -0.0020256536 0.0016041668 0.00203412 -0.0017918496 0.0006921247 -0.0030493124 -0.0007872557 0.0030303083 -0.0037348028 0.0029874588 -2.1620785e-05 -0.0034926643 0.0011153906 0.00070123246 -0.0033496816 -0.0018798703 -0.0026082124 -0.0036444713 -0.0008357929 0.0008062147 0.00011840512 0.0007759423 0.0033457344 0.0006432021 -0.003604879 0.002832939 0.0036512904 -0.0008894681 -0.0026295984 0.002011563 -0.003033311 0.003632385 -0.002479816 -0.0017981172 -0.0038093165 0.002607609 0.0014999813 6.549297e-05 0.0014930671 -0.0039027764 -4.5379176e-05 -0.003293709 0.0035617906 -0.0038308715 0.0029939248 -0.002816727 0.0015935786 0.0017451497 0.00010672113 0.0031931493 0.0029972307 -0.0025129167 -0.0006909471 -0.0034154744 -0.0010269324 0.0011392183 -0.003723694 -0.0038586434 -0.0035025473 -0.003073138 0.0025145318 -0.00048856734 0.0017093773 0.003699264 -0.00070546364 0.0023265255 0.00044112225
ISLAND -0.002789505 0.0022410424 -0.003807794 -0.0008055172 -0.0020116419 0.0020062886 -4.9094588e-06 -0.0032067026 -0.0033071432 -0.0010676086 0.0024701618 -0.0014394361 0.003691509 -0.0012001283 -0.0008753343 0.0023804735 0.0019128572 -0.0009246721 0.0015229158 0.0011488481 0.00020839393 0.002408181 -7.454612e-05 -0.003546491 0.0011432011 0.0030032678 0.0033632375 -0.0011079654 0.00074676296 0.00012323362 -0.0004987895 0.0023374904 0.00070629106 -0.0012024872 0.00039358457 0.001216908 0.0038479813 0.00262817 0.00026183587 -0.0032987345 -0.0030979614 -0.0015532079 -0.000621844 -0.0001729523 0.0024571295 -0.000336296 -0.0022273308 0.001626017 0.00019682702 0.0028528953 -0.0016985105 -0.002976311 -0.0016848803 -0.0036798527 0.0003891196 0.0011038932 0.0018354898 -0.0022380096 -0.0033191226 0.00034049197 0.00016673375 0.0031387005 -0.002534894 -2.2597997e-06 0.0028525097 0.00189779 -0.0011906973 -0.001393709 -0.00073953054 0.0032752461 0.001158697 -0.0016142445 -0.0015500486 0.00029844578 0.0035568906 -0.0038906247 -0.0025858968 0.0005554186 -0.001821407 0.001031881 0.0007458605 0.0026011688 -0.00079360296 -0.0012230296 -0.00089816866 -0.0038514696 -0.0007584716 0.00043147532 0.003784538 0.0038186435 -0.00089855783 -0.0035667326 -0.0017542379 -0.0022690282 -0.0019814868 0.0008324483 0.00014287661 -0.0016294341 0.0016323453 -0.0037598365 0.0026617113 0.0030882228 -0.0019672506 -0.0034228126 0.001566935 -0.0023209685 0.0036468455 0.002599474 0.00044109768 -0.0032039727 -0.0032839251 -0.0010695962 -0.0028889242 0.0015292543 -0.0007306426 0.0019184321 0.0013724691 0.0012065963 0.0034065107 0.0008150735 0.0034819283 0.003872558 0.0018603349 0.0013721735 -0.0027951791 0.0008560588 -0.0012762612 0.0015774812
NAIL -0.0018012228 -0.002461851 0.0028079338 0.003630324 -0.0003357049 0.00020645521 -0.0033297436 -0.0027612236 0.0026519194 0.000707424 0.0017228967 0.0016843296 -0.0032188636 -0.00029064954 -0.0015405501 0.0031737704 -0.0029434562 -0.000683831 -0.002772874 0.00045670985 -0.0013558199 -0.003780483 0.0015202052 -0.0036995758 0.0033702345 -0.0027996332 0.0006748018 0.0006487403 0.002699393 0.0034570862 0.0037985574 -0.0003102098 -0.00042901945 0.0011329934 0.0019352759 -0.000845919 0.0011286424 0.0034289507 -0.0038714497 0.0009800678 -0.0031009095 -0.0027185 0.0006620112 -0.0002889658 5.000763e-07 0.0034022927 0.002276699 -0.0023419193 -0.00214171 -0.0038460998 -0.0011329724 0.0033308768 0.003840281 -0.0027126942 -0.00014009567 0.0012080191 0.0031506221 0.001064479 0.0034324566 -0.0031203313 0.0022212872 -0.0027235313 -0.00335665 0.0026209687 -0.0029145954 -0.0022791398 0.0010865041 -0.0033287914 -0.0024169656 0.0023231742 -0.00069233857 7.8459256e-05 0.0020197292 0.0019654226 -0.00061696616 0.0022604156 0.00361497 -0.000118398544 -0.00022916023 -0.0026897932 -0.0021203274 0.0029373176 -0.0019329787 -0.00071206427 0.0014336234 -0.0026784013 -0.00086787937 0.0009637543 0.0013749846 -0.00280601 -0.0030050795 0.000991359 0.0038127694 0.0034115352 -0.0025657471 -0.00011968045 -0.0015448603 0.00284659 0.0010957225 0.0015471879 0.0012639189 0.00022555492 0.0023969277 -0.0038205532 -0.0012180258 -0.0012937116 -0.00084513775 1.2839493e-05 0.00043648947 0.0010752521 0.00011342783 -0.0007635488 -0.000552929 0.0022967106 0.0038005812 0.0032296935 0.0031222373 0.002731737 0.00013462546 -0.0006718939 -0.0036651986 0.0038537516 -0.0017850926 -0.0025794327 0.0035346115 0.0017939507 -0.0018799219 -0.0029744732
PLEASE -0.0010440198 0.003334528 0.002244417 -0.0034926771 0.00016940436 -0.0031481432 0.001342634 0.002551196 0.0008713216 -0.0035455995 0.00023418177 0.0027794954 -0.0023060371 -0.001920637 0.0031397059 -0.003201641 0.0030793655 0.0022704501 0.0016631419 0.002059069 -0.0037320415 0.0006453484 3.47055e-05 0.0022869697 -0.0029338293 0.0012656531 0.0015337804 0.0009238616 0.00095608475 0.0017435118 0.00052981544 -0.0006874433 -0.0032581186 -0.0037970392 0.00093419064 -0.0008560894 0.002541292 -0.0009625457 0.0034348157 -0.0016510392 -0.0026522567 0.00059029635 -0.0038455853 0.003181118 -0.0038114064 -0.00087042246 -0.0005500515 -0.00035330706 0.002204714 0.002053543 0.0013425585 0.003357262 0.002896069 -0.00017795734 0.00032914217 0.00015109299 -0.00084573525 -0.00086092274 -0.0014256355 -0.0011037779 0.002914503 -0.0015954095 0.002438722 0.003678286 0.0008027157 0.002592602 0.0018977623 0.0024610062 0.003100134 0.0022519496 -0.0018352271 -0.0015323784 0.0019018671 -0.00030064135 -0.0019117679 0.0020692125 -0.0012700814 0.00015152339 -0.0035766873 -0.00016235736 -0.00015041139 -0.0025240353 0.00048749617 0.0033327206 -0.0025743654 -0.002490772 0.003411521 0.0034033372 -0.0009990889 0.0007783364 -0.00047409342 -0.00038744602 -0.0013093328 0.0014043608 -0.0005102025 -0.0018733316 0.0033310973 -0.00264444 -0.0012033609 0.0020447932 -0.001441349 0.0016256932 -0.003121476 0.00080595363 0.0036667192 -0.00012898374 4.2495827e-05 -0.0038135953 -0.002165771 0.0006796669 -0.0019628634 0.003690887 0.0018353332 -0.00070792553 0.00012901834 -6.414391e-05 -0.000752006 -0.0027850466 0.0016358122 -0.002145755 0.003629217 0.0018419197 -0.0018448919 -0.00039244595 0.000167026 -0.0022882544 -0.00014846618 -0.0015650732
BECOME -0.0030871485 0.0005696943 -0.00025220314 0.0011739746 -0.00010164596 -0.0019185311 0.0011906108 -0.0029174744 0.0011560695 0.00050763786 0.0015896885 0.0010047418 0.001026946 0.00068329216 -0.0026105924 0.0009476427 -0.0029659984 -6.7129506e-05 0.003197779 -0.0037342184 0.0028915307 0.00071500696 -0.00049404916 0.003462148 -0.0012395086 -9.168709e-05 0.00024779764 -0.00059701223 -0.000863578 -8.2074635e-05 -0.0005074785 -0.0029317164 0.0014992431 0.001266419 -0.0019001039 0.0037906277 -0.002711219 -0.0033399398 -0.0029151493 -0.002897991 -0.0033860744 -0.0024149898 0.002100481 0.002419135 0.0037970396 -0.0032324833 0.0037873208 0.0012470577 -0.0020635661 0.0021786767 0.002682871 -0.0020827963 -0.0028273398 0.0020897973 -0.0010497936 0.0020737436 0.003354749 -0.002020703 -0.0012438603 -0.00313136 -0.002186835 0.0030067668 0.0035928292 -0.0029515924 -0.00022288777 -0.003756557 -0.001612293 0.00028890636 -0.0021584032 -0.0019784323 0.00374855 0.0013409188 0.00080109516 -0.0033226463 -0.0015314638 -0.0027676064 0.0013343805 0.0014409961 0.0008450907 0.0031002096 0.0008858593 0.0037838437 0.003289246 -0.0015413107 0.0013032167 -0.0016272835 0.00034904067 -0.00014568269 0.00063826184 0.0026378017 -0.0027561977 -0.0005033762 0.0023587877 -0.0023515627 0.00045985152 -0.0032671373 0.0008068025 -0.0034047724 0.0028398486 0.0021382608 -0.0029022258 -0.0007482117 -0.0031304553 0.0037777196 0.00041408837 -0.0016617627 -0.0020538473 -0.00029476898 0.0025948887 -0.00067358813 0.0024876257 0.0018228205 -0.0038548002 -0.0010809461 -0.00038014102 0.00041051037 0.0012021638 0.000386177 -0.0032307091 0.0014320975 0.0020633813 4.9143233e-05 -0.0018216053 -0.00305059 0.0014847554 -0.0002815738 -0.0029433214 0.0027776537
SHRINK 0.0023901975 -0.002130519 -0.0006879126 0.00088022946 -0.0010424939 -0.003685435 0.0029408685 -0.0031671398 0.0027285328 0.00181514 0.0037574733 0.0031433862 -0.003101281 0.0005580143 -0.0009903826 0.0013156184 -0.0029244027 -0.0016331786 0.0030281052 -0.0022453312 -0.0012602058 0.0011140894 -0.0034507548 0.0034837173 -0.0033188702 -0.0029950433 0.0024363683 0.0035534354 0.0014204709 -0.0010673974 0.0020069915 0.0014807001 -0.0035402628 0.00035176027 -0.0017135693 -0.0018426948 0.0019493034 0.0020151166 -0.00038616822 0.0032830262 0.0013091479 0.00016893017 -0.0034274915 0.000667242 -0.0010481215 -0.0026888086 -0.0027529744 -0.0019672376 0.003503916 0.0010121985 -0.0034952422 -0.0005937621 0.0034337426 -0.0018656832 0.0027484363 -0.0010683748 0.0006827985 0.0021754259 -0.0026846186 0.00049538875 0.0011045904 0.0031286133 -0.0025394268 -0.003884085 0.0030315102 0.0030963272 0.0036751276 -0.0027402556 0.0020791963 -0.001195792 -6.775108e-05 -0.0029416976 0.0005866344 -0.00051659683 0.0019678047 0.00027425136 8.081512e-05 -0.0026807447 0.0010898706 0.0013208311 -0.003288614 0.0005320146 0.0026573315 -0.0023783876 -0.0032761318 0.002374493 -0.0012546957 0.0012432688 -0.0024939822 0.003217873 -0.0008572759 0.0027863828 0.0018545946 0.0018480527 -0.002675816 0.0005626652 0.0024297405 -0.0017901699 0.0028649105 -0.00050995994 -0.0021244416 -0.0016813668 -0.0030253548 0.0038123692 0.0008128829 -4.1096504e-05 -0.0011507365 -0.0015664075 -0.00089890265 0.003196195 0.0021986838 -0.002827365 -0.0010661528 -0.0002971672 -0.00091682177 -0.00023561197 0.00025096105 0.0008155539 -0.0037908356 -0.0008446707 -0.0033827047 0.0034136116 -0.001916796 0.0009832581 0.0016732191 -0.0036632395 0.0019170309 -0.0018117634
PRESIDENT 0.0037985658 -0.0033318922 0.00076038373 -0.0005702387 -0.0026028254 -0.00034362858 -0.0015815436 -0.00075747323 -0.0021697418 -0.003254568 0.0015207264 -0.0027913812 -7.867586e-05 0.00030093605 0.00026320902 0.0034125664 0.0026686823 -0.0028449367 -0.0018066394 0.0038304622 0.000118705626 0.0032010172 -0.0032990784 0.0014215147 -0.0032959576 -0.0009453173 -0.0030150677 -0.00014238128 -0.001945664 -0.00035382452 0.00167346 0.0008308302 -0.001995807 -6.8569374e-05 0.0022084136 0.0032041837 0.003637917 0.0034598706 -0.00277509 5.045931e-05 0.0020373056 0.0038408067 0.0019003644 0.0024559016 -0.0003754887 0.003159866 -0.0008027816 0.002945136 -0.0013954247 0.0023626084 -0.0029328559 0.0017159042 -0.001176868 0.0020184566 -0.0010771505 0.0035103457 -0.002853782 0.0035220797 -0.0024327305 -0.0015759792 -0.0008586269 0.0009955972 0.0026468632 0.00097417587 -0.0018095202 0.00047614568 0.0017400134 -0.00010204521 0.0027176777 0.000638465 -0.0017051632 0.0031017703 -0.00013431457 0.002511467 0.0015848633 -0.0016707651 0.0019730916 -0.003533679 0.0013271101 -0.00090027315 -0.003552683 -0.0014951046 0.0013504907 -0.001237618 0.00069462636 -0.00038521498 -0.0014628468 0.0015536868 0.00011486883 0.0027307179 0.00083803455 -0.0023393135 0.0025817913 -8.250277e-05 -9.534884e-05 0.0011760046 -0.0023916387 -0.0028035447 0.003600954 0.0014475713 -0.0028501905 -0.0030655812 -0.0020294022 0.0004462808 0.0010378745 0.0015637414 0.0014516885 -0.0008856686 -0.0001610414 0.0021778112 0.002102832 -0.0007517814 -0.0018229852 -0.0032893973 0.00158479 0.00042934134 -0.0014751168 -0.0017731324 -0.002225244 0.002763112 -0.0013430304 -0.0036861794 -0.0018480261 -0.0007087498 0.0016258198 -1.9192259e-05 0.0036827107 0.002924122
GLAD -0.0022734012 -0.0018054917 0.003044183 0.00093968766 -0.0024274061 -0.0010563781 -0.0031600387 -0.0023840142 0.0031115739 -0.0033233503 -0.0038433727 -0.0013230664 0.0038945207 0.00086874625 0.0018269812 -0.0012509681 0.0035799653 0.0022260007 0.0021211451 0.0031378889 0.002080716 -0.0038371205 -0.0029802707 -0.002917347 -0.0031864815 -0.0038814344 0.00383487 -0.0001485974 0.0021248737 0.0024286772 0.0030723363 0.00367245 -0.0022912102 -0.0016131612 -0.00055059907 -0.0034277544 0.0036071993 -0.0020005251 0.0020495174 -0.0008043703 0.0011608794 -0.0015704848 0.0010135418 0.00086202903 -0.00012475348 0.0032669054 -0.0022928617 -0.0012386219 -0.0018743976 0.0009165775 -0.0018355835 -0.0016682098 -0.0009207957 0.0009218242 -0.0027284606 -0.00016193088 0.00042776356 -0.0018939348 -0.0014398738 0.00052637735 -0.0019448464 -0.0003856058 0.0029758005 -0.0026663449 -0.0025477184 -0.0033867562 -0.0028316025 0.001894621 -0.0021028898 -0.0035188189 0.0023268347 -0.0032210574 -0.0017602118 -0.00077432225 0.0011410587 0.0015127113 0.003067321 -0.0009842482 -0.0037033397 -0.0011605193 0.0035071096 8.038624e-05 -0.0022204698 0.0029444944 0.0025104282 -0.0021177612 0.0012162456 0.0023402672 -0.003311353 -0.0015999774 -0.00032375506 0.0037108653 0.0013528857 7.276348e-05 -0.0004507691 0.003212534 -0.0019186775 0.0012470623 -0.0035548613 -0.0037838519 -0.0002693116 0.0010687307 -0.0011816521 -0.0023003758 0.0005950725 0.001161691 -0.0012482224 0.0019608391 0.0007781792 -0.0027909656 0.0036323047 0.0020245218 0.002335685 0.0002300873 0.0031796868 0.00094123755 0.0012580119 -0.0009988579 -0.003201331 -0.002295212 0.0011891567 -0.0032815242 0.0030062275 -0.0013759651 -0.0026654608 0.0024372586 0.002926629 0.0005230132
BOY 0.0021034847 -0.00043784516 -0.0018593585 0.0023313628 -0.002143624 -0.0030233564 0.0005743818 -0.0012636409 -0.0022359807 0.0024005687 -0.00024290087 -0.0013697841 0.0031637321 -0.00077159505 0.00047293658 -0.0009610719 0.00025164383 0.0018595092 -0.0038611114 0.0011208546 -0.0012296903 0.0014756749 -0.0007487535 -0.0025029455 0.0031975275 0.0037357218 -0.001522751 0.00068428507 -0.0038391456 -0.0006400417 -0.0027325794 -0.0010790585 0.0032465658 0.0034523723 -0.0038941586 0.003308388 0.0021071974 -0.0038619319 -0.0014991304 0.002210413 0.00264981 0.0018680106 -0.0033321718 0.0033415728 -0.0038632266 0.0006067322 0.0009442176 -0.0028337308 -0.000158397 -0.0012533088 -0.0009552161 0.0011068648 -0.0011515252 -0.0025973376 -0.0017450834 -0.0009881586 0.00017691628 0.0015828052 0.0019245762 -0.0029434988 -2.1917998e-05 -0.0027914268 -0.0033440338 -0.0023652483 0.003331692 0.0016129927 0.0011073867 -0.003896538 -0.0027093256 -0.00043943225 0.0025456205 1.5023352e-05 0.0025804997 -0.002205862 -0.0012245841 0.00199748 0.0023749205 -0.0035428184 0.0035669701 -0.0019141278 0.00037180123 -0.003725706 -0.0007251417 -0.0016639526 0.0012859473 0.0018583395 0.0021095525 0.0036396224 0.0030587038 0.00077123375 -0.00033206484 0.000626427 0.00246983 0.0013787547 -0.002295228 0.002639204 0.00038421393 -0.0022838484 -0.0019021116 0.002425115 0.001532931 -0.0025683804 0.002356464 0.003697013 -0.0030755897 0.0023541045 0.0001939936 0.0011180255 0.002168442 0.0014378108 -0.0033439694 0.0038929465 -0.002482297 -0.0005423072 0.0030619446 -4.865336e-06 0.00010293403 -0.002169016 0.0016768059 0.0024967424 -0.0033592416 -0.00046215532 0.00149217 -0.002806466 0.001961986 0.0027983787 0.0011099625 -0.0011546015
CORRIDOR 0.0033392287 -0.00094633986 0.0035474545 -0.0009880962 -0.0031799236 0.0028795921 0.0026409668 0.0026735952 -0.0018756649 0.0031221574 0.0038527753 0.00042337927 -0.00011294912 0.00026158532 -0.0033173058 0.0037243906 -0.0031800328 -0.002602967 0.0022566593 -0.002301943 -0.0010086847 -0.003251599 0.0022291588 -0.0008042258 -0.0011292285 1.2697362e-05 0.0037851336 -0.00028553524 0.001299244 -0.0038606785 0.0015338969 -0.00045051507 0.0029321762 -0.002647203 0.0015217989 -5.2972146e-06 -0.0025887804 0.0038301281 0.0024721432 0.0038356092 -0.0036129358 -0.0019795164 -0.0017931386 0.001749542 0.0012618587 -0.0032229363 -1.852161e-05 0.00061709195 0.0022499391 0.0027917908 0.003468968 -0.00090450526 -0.0005436459 -0.0025934984 0.0031755904 0.0016719014 0.0024661392 0.0020797616 0.003179551 0.0029381546 0.0012822414 -0.0006622284 -0.0005828127 0.00073896727 -0.0025073832 0.003490701 0.00018150083 0.0037655854 0.0013915078 0.0010443476 0.00050951604 0.0031702009 0.0011463725 0.0025676722 -0.0010675868 0.00070775725 -0.0021758575 0.00287268 0.0029308663 -0.0012509355 0.0018529585 -0.002347012 -0.0015589301 -0.00015843658 -0.00052824913 -0.00080570584 -0.0036395963 0.0027433909 -0.00039592676 -0.003791826 0.001503155 0.0002940473 0.00063309015 -0.0015816792 0.0023087128 -0.0014056452 0.002315204 0.0037628736 -0.0032391308 0.0030885474 -0.0034695412 -0.0013289258 -0.00076724327 0.0006760651 -0.003291341 0.0034334771 -0.00041153748 0.002470884 -0.0014389633 0.0028239326 -0.0031173108 0.0032470427 -0.0033420902 -0.0030643851 0.0035123224 -0.0018742507 0.0033432841 0.0008796132 -0.0018689162 0.00013516261 0.0037557418 -0.002824234 0.0024465343 -0.003447231 0.0032479526 0.0015415287 -0.0006375421 -0.0035771048
MOUTH -0.002601871 -0.00038603257 -0.00064083014 0.002621963 0.00024766164 0.00014411076 0.0029443575 0.0019581127 0.0005210281 -0.0008819455 0.002658275 0.0017796479 -0.00010632765 0.0036767197 -0.0029918482 0.00065147807 -0.0035648253 -0.001572675 0.0033313637 0.0038229323 -0.0024760722 -0.0014634517 -0.0030367642 -0.00014643886 -0.0021093003 0.0011289838 -0.002752833 0.0026683281 -0.0019906454 -0.0008778014 0.00038100494 0.0018761259 0.0025166695 -0.0002647819 -0.0014662633 0.0017752516 -0.0024745779 -0.0021303215 0.0023981715 0.0029640482 0.0015721925 0.0002621905 0.0034386225 -0.00028457041 2.1846123e-05 -0.001046049 -0.0019666348 0.0037322182 0.00017721197 0.0034881635 0.0010482278 -0.0003002753 0.00062560075 0.0012077782 -0.003356631 0.0010270943 0.00026457076 -0.0016414565 0.00079516403 0.0019895348 -0.0015947524 0.0036555398 -0.00041890136 -0.0019839716 -0.0026834954 0.0016920315 0.0021731562 0.000715228 0.0008056878 0.003861831 -0.00013285277 -0.00013009217 0.0037716157 0.0018282264 -0.00020406776 -0.0016831807 0.001761951 -0.0013406662 0.0027213993 -0.0027452172 0.00042309795 -0.0022474085 -0.0010730843 0.0008634172 0.0015227599 0.0020680886 -0.00034402488 0.0009880939 0.0036831556 0.0012903924 -0.003426666 0.0019208839 0.0013505063 -9.601437e-05 -0.0030500693 -0.0035600713 0.0004327863 -0.0018309217 0.002364617 -0.00038079082 -9.0167545e-05 -0.0019795706 0.0023503108 -0.0010195636 0.001234833 -0.000115726645 -0.0015341012 0.0027076297 -0.0026726997 0.0029843207 0.0014640273 0.002208079 0.00088410755 -0.0017806146 -0.0026632547 0.0036584407 -0.0023078558 -0.0021068014 0.00042835978 -0.0017172162 7.085826e-05 0.0006150834 0.0020977692 -0.0005183291 -0.0031762666 0.0025906214 -0.0021906132 -0.0013524817
THUMB -0.0026403484 0.0013414391 -0.0033188644 0.0037975167 -0.0015251524 -0.0024070276 -0.0006219878 -0.0018429048 0.0015045996 0.0006118363 -0.0035724693 -0.0028614074 0.0013649713 0.0025421355 -0.00077816454 0.0033145752 -0.0023543653 0.0015568531 -0.0027892934 -0.0029278472 0.0033969826 0.0007977124 5.9252197e-05 -0.0011305409 -0.0006086926 0.0031856587 0.0033994971 0.0009832644 0.0028002104 -0.00264143 0.0009588721 0.0014267757 -0.0014294923 0.0006945856 -0.0033245194 0.00059367245 -0.003486017 -0.0023782975 -0.000115855786 0.0024793586 -0.0018693659 -0.0018170722 -0.001184748 -0.0032911361 -0.0038794961 0.00032212702 -0.0038968616 0.00076010724 -0.00017675021 0.0024799553 -0.0008691507 -0.0031681089 0.00089978357 -8.8120694e-05 0.0018027265 -0.00074978353 0.0032668 -0.0025488466 0.0002732185 -0.00024168269 0.0017928015 -0.0005835893 0.002658756 -0.0037739605 0.001902565 -0.0024934607 -0.0025956887 0.0007543456 0.0031731585 -0.0004713581 0.0013624245 0.00010062938 0.002084365 -0.0037138204 -0.0024716333 -0.002303133 -0.001583284 0.0013538765 -0.0034987926 -0.0007391126 0.0002569958 0.0025414343 -0.0011929858 0.0024906558 0.0012262112 0.0022097665 -0.0012873355 -0.0036957713 -0.002799431 -0.00061720575 -0.0010952052 0.0029560425 -0.0022683763 -0.00035868422 0.003399629 0.0025521908 -0.0029871922 0.0014062523 -0.0033792215 -0.0008370494 -0.003182307 0.001337762 0.00200639 -0.0024027908 -0.00092821225 0.0036965131 -0.0022219252 -0.0025444445 -0.00013450392 0.0023540393 -0.0024948723 0.0019382933 -0.0025272735 -0.0011998436 0.00255815 0.0016123692 0.0025992696 -0.0038023375 -0.0033732427 -0.0015208726 0.0012535391 0.0005047797 -0.0035168515 0.00041410557 0.0020143408 0.0014294948 0.00011902797 0.0014538402
DEFEND -0.0028758864 0.0003066472 -0.0038043505 0.00070622045 -0.00023384402 -0.00061361224 0.002969856 -0.0031070479 0.0008726767 -0.0022267317 -0.0012258758 0.0015243579 -0.0016872862 -0.00019695696 0.0031820054 0.0008424193 0.0019893306 -0.0018181816 0.0035190112 0.001416576 0.0009806519 -0.0016556351 0.0033030817 0.00021454708 -0.0018125098 -0.0023108847 0.0013598786 0.0011640422 -0.0034038546 -0.0006613532 -0.003035573 -0.0037348948 -0.0035030365 0.00088955974 -0.003324246 -0.003153107 0.00062077213 -0.0028674 -0.0016837725 0.0029066117 0.0022497887 0.0021542807 0.00046917924 0.0034038238 0.002457699 0.001102284 0.0019332884 0.0015191197 -0.0035790382 -0.0032878718 -0.002428262 -0.00072810956 -0.0031214985 -0.0019974883 -0.00083559833 -0.001187988 -0.0032176883 -0.00026733582 -0.00336065 -0.0030230936 -0.0031494256 -0.001168305 0.00023821474 -0.0001281637 0.00078680617 -0.0024673636 0.0028350367 0.0006315081 0.0022207596 0.0030014983 0.0033578433 -0.0028550986 -0.0013810558 0.00013634903 0.0015731824 -0.0013635973 0.0006458011 -0.0022540959 0.0027292892 -0.001381323 -0.0025995316 -0.0038175872 -0.0023897195 -0.0031722097 0.0012320883 -0.0019790495 0.0012977852 0.0037426113 -0.0033267243 0.003765631 0.0008259733 7.105202e-05 -0.00031432934 0.00212802 0.0032251312 -0.0005462446 0.0036846704 -0.0025704182 -0.0012724457 -3.7251564e-05 0.0013853237 -0.002576864 -0.000649809 0.0031061727 -0.0014422414 -0.0033666664 0.0030017046 -0.0011213642 0.00027000165 -0.0012231191 -0.00075238466 0.0005247048 -0.0020888443 0.0011481256 -0.00025415092 0.0011012795 0.003409011 0.003101636 -0.0026813215 -0.00016413303 0.0029061297 -0.0025111432 0.0031025868 -0.002394987 0.002611152 -0.0014847545 0.0010877891 0.0013839207
MAGNITUDE 0.00011931547 -0.0010866888 0.0010085267 0.002846984 0.0031672195 -0.00074438174 0.0012427736 0.002000739 -0.0016041363 -0.0030842472 0.0010818166 -0.0019531146 0.0038491646 0.0017142409 -0.0011355805 0.0018844575 0.0011053521 0.001955953 0.0015994995 -0.0015072756 -0.0030573183 -0.0018421067 -0.0012743204 0.0029788674 -0.0008155171 -0.00383438 -0.0010808401 0.00033985332 -0.0037690229 -0.0013671227 0.00040508242 0.0016702849 0.0038481557 0.0036227847 -0.0017288049 0.0018046445 0.001128925 -0.0014869549 0.00214981 -0.0017489723 0.002362281 8.812342e-05 -0.001711627 0.0032463034 -0.00030458032 0.003424581 -0.0016195853 -0.0033816677 0.0035974497 -0.00083896326 -0.0013915182 -0.0035408998 -0.0032229344 0.001050608 0.0036569913 -0.0008058135 0.0033384657 -0.0009911152 -0.0028226804 -0.0017009119 0.00043966726 -0.0006846041 -0.0009941733 -0.00027416172 0.0007454034 0.0024313405 -0.0012392142 0.0018226549 -0.0013048195 -0.00035990012 -0.0020733369 0.0026459722 0.00083369843 0.0008606437 -0.00086447765 -0.0013545066 -0.00013256629 -0.0029062217 -0.0008333423 -0.0034850119 -0.0029782199 0.0026125305 -0.0012778295 0.00019353647 -0.00013987612 -0.0013694091 0.0029374172 0.0034655647 0.0035936018 -0.0033765808 0.0010398482 -0.0016043453 -0.0019762735 -0.0035112936 0.0029695143 -0.00093951105 -0.003546962 -0.0014538141 0.003486994 0.0038136705 0.0013924699 0.002465273 0.0038563597 0.0012975323 0.0032563237 0.0013576836 0.0010918959 0.001161309 0.0026288445 -0.003088052 -0.0007580565 0.0016173735 0.00230744 -0.00014669719 0.001549671 -0.0020542417 -0.00077538384 0.0016798034 -0.0014114691 -0.0028607254 -3.101194e-05 0.0011592645 0.0007049032 -0.003545499 -0.0026992832 0.0038763597 -0.00050416234 0.0005913136
HEAD -0.0020475544 0.0015979828 0.0018219375 0.002075585 0.0024171134 0.0026072953 -0.0008665568 -0.0018650224 -0.0012170963 -0.00041632063 -0.0028666616 0.0021742624 -0.00121768 0.003250387 0.0025064591 -0.0035314027 -0.0032444599 -0.0004042959 0.0025330517 0.0020847584 -0.0019154629 7.2279916e-05 0.0036676556 -0.0035382279 -0.0021162706 -0.0035488205 -0.002360892 0.0029244858 -0.0017262682 0.0015474204 0.0021690384 -0.0016108999 -0.002483422 -0.002128039 -0.0018475507 0.0017051484 -0.0028460068 -9.3755065e-05 0.0038795355 0.0011377746 -0.0038502787 0.0029717616 6.379413e-05 -0.0025366289 0.0012483795 -0.002855032 0.001962841 0.0031462237 0.0022972068 0.0037573434 0.000855407 0.0023977235 -0.0002777716 0.0003268551 0.0014246475 0.00034276294 0.0009670203 -0.0028305461 0.0027830673 -0.0032313727 0.0011377443 0.0034288669 0.0015179684 -0.0037798148 0.001857131 -0.0012056221 -0.0030609486 5.5885783e-05 0.0006256923 0.0011139086 0.0015835551 -0.0033752644 0.0015600272 0.0006487363 -0.0037590216 -0.00022904159 -0.0018583941 -0.00015226107 -0.0034077484 -0.0030606678 -0.0018268302 0.0025510518 -0.00024851674 0.003463752 -0.003163497 0.0019787482 -0.00024290489 -0.0027416532 -0.0038205509 0.00064840633 -0.0017236568 -0.0025759665 0.0015587185 -0.0022733915 -0.001772623 -0.00022343079 -0.0011635937 0.0024643976 -0.0015666103 -0.0017528806 -2.8513441e-05 -0.0020539477 0.0021293007 0.00045702205 -0.0014236147 0.0032355704 -0.0037287266 -0.0022187761 0.0007448994 0.0008121492 0.0010115318 0.0030668648 0.0019628445 0.002953951 -0.00046760327 -0.0014240026 0.0016942116 0.0017952406 -0.0024597452 4.092369e-05 -0.0007945435 -0.0037919572 0.002941166 0.000758365 -0.0028445902 0.0036849775 -0.0004480741 0.0008951909
GUARDIAN -0.00095113803 -0.003903549 0.0033917122 0.0019869006 -0.0026093358 0.0014108014 0.003622109 0.002372198 -0.0028551389 -0.00024228152 -0.0033817932 0.00043919054 0.0013871301 0.0020418728 0.0023519632 -4.2525895e-05 -0.0006664852 -0.001661277 -0.0023043712 -0.0031046064 -0.0019726153 0.0016565636 -0.002808646 -0.002402762 0.0023604531 -0.00080188125 0.0014399126 0.0015462465 -0.00032194168 0.003864237 0.00053300045 -0.0014129607 0.0019463312 -0.000111107634 -0.0016360339 0.0031863654 -0.001705984 -0.003819348 0.0029621255 -0.00041038412 1.5726566e-05 -0.002706301 -0.0004049272 -0.0035884478 0.0022373628 0.0028668875 0.0018682947 -0.003373408 0.00019985152 0.0020503807 0.0019626934 0.0020355098 0.0021121688 0.0027944033 0.0012396106 -0.00058736326 0.0017686663 -0.0016505526 -0.0010968097 -0.0019562703 -0.0034255907 0.000636332 -0.0005767375 0.0022881527 0.0014047098 0.0036519584 -0.0029110264 0.0001400626 0.0020858657 -0.0018239403 -0.0014616413 -0.0035030812 0.0021276777 -0.0026897318 -0.0015861286 -0.002564187 0.0036230078 -0.0019026736 -0.002545176 -0.0024390968 0.0013687762 0.002837106 0.0010658968 0.0032332777 0.0038083582 0.002195825 0.003660188 -0.0026095675 0.0022126124 -0.001916716 0.003376067 -0.0030048136 0.0032003592 0.0027798943 0.001493896 0.0026260507 0.0023371428 -0.00095222046 -0.002391598 0.0028669217 -0.0035235703 -0.00290833 -0.0023434367 -8.817246e-05 -0.00013656862 -0.0031878154 0.00029195263 0.0025281347 0.0009532251 -0.0015283821 0.00019972096 0.00038304902 0.0030729857 0.0034243264 0.0038145762 -0.0029945502 0.0026315483 -0.0011145108 -0.0024602797 0.0034934445 -0.0018232906 0.0029407344 -0.0034775876 -0.0025017913 -0.0038086397 0.0018971759 0.0016036276 0.0014710196
HUSBAND -0.0015304274 -5.8531852e-05 0.0028542266 0.00067713123 -0.00048064606 -0.0017017004 -0.0009297703 -0.0035900534 0.00045064764 0.0011732071 0.0009483466 -0.0020212694 -0.0036187847 0.0026405037 0.0032617028 0.00037156368 0.0004728009 -0.0026867515 -0.002686503 0.0025530572 -0.001699844 0.0012990775 0.0038611186 0.0019674746 -0.0029067122 0.0032712219 0.002581203 0.0037316494 -0.0027486654 -0.0022173363 0.00046055135 0.0030341146 -0.0038542093 -0.0019897448 0.0038388195 -0.0024970658 -0.00026135085 0.0038661135 -0.0017514152 0.003640715 0.0025214772 -0.0022004012 -0.003241166 0.0035409657 -0.0014575729 -0.0009960473 -0.0011803824 0.0019458733 0.0014571091 0.00024966925 -0.0016939848 0.00039742878 -0.002350429 0.0013896516 -0.0024405166 -0.0031122717 0.0011646006 -0.0017411439 0.0011807873 -0.0031558732 -0.0010809577 0.0028688144 -0.002832444 -0.00047191698 0.00027576985 0.00090903696 -4.691962e-05 -0.0016201528 -0.0035689871 -0.0018661366 0.0020149122 -0.0015553873 0.0036007396 0.002040544 -0.0005244694 -0.0032322626 -0.0026359383 0.0009771026 -0.0024800305 0.002700879 0.0017018003 -0.0030443186 0.0011853859 0.0029778653 -0.0034557187 -0.0011691959 0.0020804948 -0.0014741016 0.0037265017 -0.0027571332 -0.00170127 -0.0016444256 0.003198516 0.0015328043 0.0013593516 0.0005032975 0.0026664033 -0.0036821452 -0.00034178045 0.0034520875 -0.00043922194 -0.0033288554 -0.0018120301 0.0006406048 -0.0024217437 -0.0032555321 0.0035457523 0.001667191 -0.0002410347 0.003747032 0.0008574969 -0.0025972212 -0.0010633548 0.0018029085 4.0478593e-05 0.00040608176 0.00011836989 -0.00028639214 -0.0031493315 0.0011307662 -0.00026943642 -0.0035558275 -0.0024031992 0.00012718656 0.0003244886 -0.003722775 -0.0022898496 0.00024541075
CHOICE -0.0033949362 0.0020223525 0.0001847612 -0.0025420494 -0.0017873144 -0.0011790599 -0.001152419 -0.003432354 -0.0011314662 -0.003087385 0.00086826755 -0.00076594215 0.0036912612 3.7914964e-05 0.0028986903 -0.00014144619 0.0027618192 -0.0009246661 -0.00090653007 0.003690179 0.0010580408 0.003192122 -0.002531216 -0.002111928 -0.0021228252 0.0010273636 -0.0005496127 0.0030127668 -0.0017631685 -0.0028313613 0.0026566635 0.00061102107 0.0026745105 -0.00090675877 -0.00036695483 0.0012236348 0.002058763 -0.003282972 0.0004428283 0.0037219627 0.0022882463 -0.003700995 -0.0024568553 0.002931034 0.0031652874 0.0022879497 0.0035354532 0.0028559242 0.0038704926 -0.0032600479 0.0008764981 -0.002147436 -0.0016263459 -0.002900041 0.0006926402 -0.0034468684 0.0008172245 -0.0038435415 -0.0028883466 -0.0004365681 0.003339988 -0.002731718 -0.00064213853 -0.0010116254 0.0034646417 0.0032055315 -0.002270834 0.00020739649 -0.0029603965 -0.0019609272 -0.0034160141 0.0010667612 0.0036414575 -0.0005976807 0.0011911652 -0.0023390104 0.00070579496 -0.0008666276 -0.0015006674 -0.0036475132 0.0013725425 0.00050782424 0.0034661244 0.00284974 -0.0012548962 -0.001975747 0.00094041316 -0.0017155701 -0.0030086893 0.0024105194 0.00041524062 0.0011850946 0.002942838 0.0029218928 -0.0037291627 -0.00057001517 -0.0016070661 0.0031588045 -0.00094507134 -0.002223899 -0.0012063093 -0.0027863549 0.0016784631 -0.0038587404 0.0037737968 -0.0038213793 0.0015968822 0.00061622134 0.0012428811 0.0033759603 -0.0020233628 -0.0023772311 -0.0037940645 -0.0038381256 -0.0030419535 -0.00025537805 -0.0033366515 0.0016705173 0.000618186 0.0011998338 -0.00044352902 0.0006747212 0.0020329934 -0.0010737205 0.002957084 -0.0025387043 -0.0020287074 0.0016804792
INFECTION -0.0032425178 -0.0035512843 -0.0029908374 0.0022736762 -0.0020650453 -0.0006809828 0.00079546304 -0.0025601948 -0.0021920817 0.0010153488 -0.0005235587 0.0010708336 0.0028016048 -0.00072930567 -0.002683953 0.0035469707 -0.0021778024 0.0005611168 -0.00048366506 -0.00068718946 -0.0007570991 0.002189412 -0.00044349546 -0.00083857914 0.0031144526 0.00010428451 0.0038476638 0.0019907681 -0.0021025166 0.00095444295 0.0028395194 -0.0016763605 0.0037592254 -0.00097391126 0.0005929523 -0.00059942686 -0.0008099205 -0.0016450349 -0.0038342248 -0.0015201435 0.0025135556 -0.0014267851 0.0024293428 0.002001452 -0.00054494437 0.0018429819 -0.0021080435 -0.003319589 -0.0019450984 0.0033918708 0.00325763 0.0010377463 0.00067321945 -0.0033662214 -0.0016903086 0.0027367643 -0.0009809075 -0.0029270698 0.0021710899 0.00074313924 0.00017757677 0.0037585574 -0.0022460436 -0.0026624105 0.00030188882 0.0020705296 -0.0020519788 0.0011442492 -0.0013446343 0.0026223988 -0.0008832523 -0.0029253808 -0.0013529941 -0.00048080724 -0.0014241872 8.068002e-06 -0.0030398946 0.0031036667 -0.0032028353 0.0029534607 5.4193915e-05 0.0024962032 -0.0028683445 0.0030128409 -0.001807187 -0.0034385566 -0.00054748706 -0.0022545096 -0.00062576146 -0.0031454791 -0.0025075234 0.0021651716 -0.00051760016 -0.0008127554 -0.0023860654 -0.0023395792 0.0029637904 0.001025425 -0.0027116528 0.0024763679 0.0036667795 0.0005207935 -0.0009865651 -0.0010263744 -0.00037008536 -0.0034608566 0.002190397 0.0022857548 0.0036021506 -0.0014762377 8.277834e-05 1.185974e-05 0.00054467167 0.003610536 9.26808e-05 -0.0033566318 0.0014103821 0.003183615 -0.0036254225 -0.0036341436 -0.0018572464 -0.002566529 0.0011577796 -0.002018382 0.00010152128 -0.0017404422 -0.0009587735 -0.0031095822
CAT -0.0010315817 0.00017018052 0.0033883732 -0.0012221964 0.0031403345 -0.002285324 -7.683111e-05 0.0019853434 -0.0024712826 0.0018581339 0.0029955362 0.002105499 0.001012055 -0.0022544828 -0.0030802789 -0.0017006783 -0.003067344 0.0018504001 0.00029616608 -0.0014073985 0.00014466386 -0.0013121215 -0.0011028445 0.0033702683 -0.00092386175 -0.0030515743 0.0037571674 -0.0036053867 -0.0012599988 0.0033562407 -0.000115179755 0.0036836888 0.0034754893 -0.00056620815 0.0018512701 -0.003460655 -0.0037481054 -0.0023178214 0.00027926752 0.0024192599 -0.0017865096 0.002940363 -0.000183207 0.00061687274 0.0022887494 0.0030121405 4.0728475e-05 -0.0022397416 -0.002207172 -0.0031228303 -0.0008956108 0.00078050693 0.0035049547 -0.0011957298 -6.727545e-05 -0.00094457687 0.002035829 -0.0023375142 0.0032106924 0.0037565688 -0.002631181 0.00062165293 0.0007347818 0.0026182893 0.0007988748 0.0038657747 -0.0025063613 0.00042504934 0.0021416307 -0.0002541617 0.0018446114 0.0031347775 0.000498199 -0.0019285529 0.0011351336 0.002950199 0.000657511 -0.0012300758 0.0007282636 -0.0011312929 -0.0009627033 0.0028744233 0.0009240778 0.0011587988 -0.0015399033 -0.00052102574 0.0023725808 0.00037122538 0.0038973456 -0.0007452704 -0.0026838612 -0.00022771346 0.0034888894 0.00042347543 -0.00022044124 -0.0016552343 0.0033120282 -0.002664885 -0.00012599144 0.00072616193 0.0012993987 -0.0017064943 -0.0035199795 -0.00024208832 8.99638e-05 0.0008673491 -0.0031195844 -0.000567191 0.0035985112 0.0020262406 -0.003324676 -0.0031951016 -0.0011929608 -0.0036262448 0.0035598364 -0.0038339535 0.0013871223 -0.00035492305 -0.00054087123 0.0016754715 -0.00033696377 0.0010218346 8.210368e-05 0.0023227823 -0.00080914935 0.002091974 0.0017325511 -0.0027656148
APPEAR 0.0016544053 0.0010176532 0.0026548936 0.0034657905 -0.0024920169 0.0017843146 -0.0034240868 0.0038279868 0.0024388907 -0.0011747617 -0.0026459296 -0.0017777804 -0.0024125902 -0.0018558718 0.0014772951 -0.00017659328 -0.0015159112 -0.00080417254 -0.00200148 0.0034916888 -0.0026171156 0.00039559827 1.8268078e-05 0.0026799296 0.0027799776 0.00269244 0.0022705367 0.0007296082 0.0033512027 0.0033789969 -0.0007323682 -0.0019129942 -0.00351154 -0.00051564886 0.0025284593 0.0024102207 -0.0019074716 0.002407329 0.0032826245 0.0003459687 0.000729342 -0.003465132 -0.0027414379 -0.002509932 -0.0022068322 9.1449554e-05 0.000992045 -0.0033044994 0.0023911977 -0.0019237165 -0.0005980598 0.0027888003 -0.0035618006 -0.0033544642 0.001758271 -0.0031712295 -1.9407085e-05 0.002931327 -0.001699574 -0.00085168367 0.00023657343 0.0033207992 0.0030485976 -0.001747345 0.0016293583 0.00045055425 0.002620164 -0.0026444658 -0.0030251245 0.0006162286 0.0019764446 0.002656848 0.003731429 0.0010377722 -0.00091632653 -0.0032767765 -0.0012929372 -0.00031645747 0.00029581765 0.0027227472 -0.0011128263 -0.0021478366 0.0006885149 0.00011813105 -0.0031213614 0.0027905407 0.0027413242 0.002028331 -0.0035005372 0.003733979 0.001219754 0.00028907318 -0.0012712294 0.0016740799 -0.0032015522 -0.00027392956 0.0035497178 0.0024335694 -0.000101593585 -0.0015853427 0.0015435916 0.0016110381 -0.00226638 -0.0020741024 -0.0022776902 -0.0025726256 -0.0026961993 -0.0035268518 -0.0018536049 0.003764921 0.00227947 -0.0019885176 -0.00037716958 -0.00028239016 -0.00086613547 0.003532227 -0.0021003508 0.0017834416 -0.0022947513 0.0036692666 0.0019508068 0.0017378541 0.0027245497 0.0012726036 -0.003123204 -0.0036546157 -0.0033254959 0.0016620302
THINK 0.003386625 -0.0019262258 -0.002718786 0.001226797 -0.0028573072 -0.0023365824 -0.00046525014 0.0038790742 -0.0026608626 0.0011850937 0.0024273132 0.0022494132 -0.0018621796 0.001775772 -0.0034054182 0.0011400526 0.0017927992 -0.0018652183 -0.0014664105 -0.00061894587 0.0002742255 0.00077319314 -0.0023073147 -0.0023403487 -0.0035421446 -0.0019973593 0.0023637689 -1.4987695e-05 0.0033350184 0.0012851525 0.0021574257 9.095303e-05 -0.0010056754 0.0025789407 0.0018900202 -0.0014546921 -0.0006076574 -0.0013323075 -0.0032236595 0.0019160697 -0.00019809134 5.4335447e-05 0.0012993255 -0.00041749395 -0.0008431306 0.0014427024 0.00090028456 0.0013392835 0.0030177452 -0.0009947963 -0.003476106 -0.0024141076 -0.0016881131 -0.0025123893 0.002697517 -0.0032914146 0.001351614 -0.0030303025 -0.0011522276 0.0036968824 -0.00034473513 -0.002413924 -0.0034957787 -0.0021574264 -0.0038843956 0.0022783924 0.00038737903 0.00090351404 0.0037004612 0.003827362 0.0016899665 -0.0030802935 0.0019451488 0.0027458933 -0.0012882813 0.0030070252 -0.001941102 0.0023953775 -0.0019462002 0.00087638956 -0.0029426988 0.003345616 -0.0005827413 -0.0030838016 -0.00051903306 -0.0017151458 -0.0014078094 -0.0028189593 -0.0032892008 -0.0034957938 0.0010836102 0.0022809159 -0.00078869873 -0.002363633 0.0011633396 -0.0013123323 0.00201006 -0.0032106692 0.0035170675 -0.0026065463 0.0017427282 0.0022040338 -0.0025479523 0.00247662 0.001583974 0.00066238403 -0.0015745006 -0.0013436065 0.002293098 -0.0037991698 -0.0012814195 0.003382214 -0.0024645652 0.002118806 -0.002734382 -0.0035654656 0.0016158988 0.00027998787 0.0015296639 -0.00322081 0.003391609 0.000630645 -0.0018678303 1.9087624e-05 -0.0035449064 0.00080810214 0.001427109 -0.0036323164
NOTIFY 0.00060694513 0.0012619222 0.0009251472 -2.8944474e-05 0.0028133814 -0.0032938423 -0.002301113 -0.0008985186 0.0031799295 -0.0009191198 -0.0017169666 0.0015093569 -0.0024625708 -0.000720505 0.0028402216 0.0033626545 -0.0019200366 -0.00065474573 9.687693e-05 -0.0034576126 0.0012841957 -0.0030927712 -0.003507996 0.0014574247 -0.0024523826 0.00022099022 0.0014332966 0.0027878983 0.0037759799 -0.0034038941 -0.0030713866 -0.0017069144 0.003121564 0.0031057983 -0.002995649 -0.0020759555 0.0036188446 0.0023985016 -0.0012535943 0.0024108174 -0.0032797882 0.000303324 0.002042641 0.002858506 -0.0025599424 0.0020799139 -0.0010093688 -0.001427872 -0.0012909406 -0.0016049773 0.0029400461 -0.0024070109 -0.00010619485 -0.0035975943 0.0029496858 -0.0026398653 -0.00017102734 -0.0015441292 0.0005613291 0.0006880991 -0.002917848 -0.002267919 0.0023525585 -0.00311264 0.0032168548 -0.001856889 -0.0011922863 -0.001284996 -0.0021116294 -0.0012622463 -0.0027394847 -0.0037246705 0.00084539823 -0.0020208096 0.0033054214 0.0036280898 -0.0026032326 -0.0027799953 -0.0038211353 0.00086627394 -0.0032754485 0.0030503396 -0.0027450104 -0.0005098675 0.003101338 -0.0007581298 -0.0028498704 0.003304569 0.002228032 -0.0027176875 0.0010991662 -0.0020145641 -0.0014205442 -0.0013333265 -0.003599605 0.0014524196 0.00037382677 -0.0026736485 0.00064563827 -0.000104041654 -0.0026652534 0.0027536598 -0.0033576123 -0.0024895356 0.0020908979 0.0036042584 -0.001960003 -0.0019778986 0.0013603796 0.00079130917 -0.0032765677 0.0035255067 -0.0015583463 -0.0022944678 0.00048274084 -0.0015162308 0.003483348 -0.0031216366 -0.002249613 0.0010433679 0.002847201 0.0021246488 0.003685473 -0.0031249255 -0.0028477854 0.00044209472 -0.0023686087 0.0031836375
BACON -0.0027384835 0.0013114258 -0.0019222231 0.0017699373 -0.001258021 0.00350909 0.0030635088 0.00052286324 -0.0030571218 -0.0027667023 -7.0459544e-05 0.0030373207 0.0025297834 -0.0037184143 -0.0020915673 -0.0022806844 -0.0035051228 0.00059072074 8.46426e-06 0.0031974623 0.0011006459 -0.0032362293 -0.0014831204 -0.00023775596 -0.00040976418 -0.0003471035 -0.002440089 0.0021734298 -0.0020564748 -0.0038805746 0.0021211435 -0.003433434 0.0028742491 -0.0038278569 -0.002253037 0.0020764247 -0.002758634 0.0027907416 -6.934017e-05 0.0004794588 -0.00362291 -0.0012323648 -0.0029317588 4.117599e-05 -0.0026813382 0.0014974038 -0.0015264137 -0.0033062368 -0.00013904033 0.0031530752 0.0016736216 -0.0020225726 0.00038576612 -0.00055303215 -0.0028914465 0.000255815 -0.003203349 0.0012991121 0.0038547744 -0.00090727163 0.00011110676 0.0018739179 -0.0003777218 -0.003804667 0.0023573928 0.0015882112 -7.2376126e-05 -0.0031027144 0.0019315117 -0.0030043565 0.00042508767 0.0039001622 0.0026988848 -0.002313951 -0.0013413446 0.0016984438 0.0009634289 -0.0004946202 0.00038467773 0.002012398 0.0031819793 -0.0024646088 0.0019906377 0.0033905138 -0.0027522603 0.0006379955 -0.0010164351 -0.0022295108 -0.0020656378 0.0029072936 0.002670685 0.0027664208 0.0027171897 0.0029893748 0.002137786 -0.00011234584 0.0035378505 0.003762139 0.0021052684 0.00107944 0.0032579845 0.00056936697 0.0030376592 0.0024189255 0.0034868813 0.0010432131 0.0026731996 0.0012007658 0.0031363762 0.0013754234 0.0025938065 0.0025157558 0.0018416181 -0.0029037076 0.0025185146 0.0022627302 -0.0026349958 -0.0017260332 0.0036887852 0.0028235074 0.0029873694 0.0004154359 0.0034780097 0.00230916 0.0030297544 -0.0020251959 -0.0014355414 -0.0012125338
ENTERTAIN 0.0038485508 -0.0006959183 0.00075510226 0.00062368065 0.0009997924 0.0032644873 0.00042241527 -0.0036739334 -0.002593888 0.002741344 -0.0015825288 -0.002864083 -0.001601528 -0.0029455181 -0.0012958745 0.002513671 0.0006187526 -0.0012001625 0.00343831 0.002684596 0.00033913695 0.0016491275 -0.0016678682 0.0031876697 -0.0028589102 -0.0022297816 -5.102649e-06 -0.0012574919 0.0012140585 -0.0017396895 -0.0022174518 0.0022626596 -0.0006912161 0.002252392 -0.0035699022 -0.0009762768 0.0009092608 0.0007151719 -0.00053212256 -0.001372464 -0.0009198 0.0025974454 0.00091666967 0.0025752755 0.0034229327 -0.002579245 -0.0023673328 -0.0007345219 0.002365612 0.002357264 0.0038587318 0.003531322 -0.000864814 0.0033685546 0.0013435065 0.0030565744 0.00019969957 0.0013877897 -0.00057800324 0.0017028248 -9.093096e-06 -0.0007294388 0.00030332062 0.0003368091 0.0018110676 0.0036462685 0.00082867546 -0.002022719 -0.0031775206 0.0021191423 -0.0021795202 0.001563908 0.0020794407 0.0010259143 -5.6735993e-05 0.0037785624 -0.0016455642 0.00047011866 -0.0013686261 -0.00029076825 -0.0022270363 0.003602667 0.0024997704 0.0018775393 0.00035403104 0.003136407 0.0028638353 0.0011771336 0.0027029025 -0.003176921 0.0024733613 0.0012449544 0.0033319865 0.00013482936 0.00024286316 0.0007459291 0.0027676271 -8.340677e-05 -0.0017075873 -0.0032172876 -0.0012398504 -0.00065065786 0.00023190324 0.0012909836 0.0011122762 0.00224702 0.0026343109 -9.7695105e-05 -0.0008642887 -0.0020093746 0.0020411324 0.0011598429 -7.2335843e-06 -0.0013665085 -0.0032996612 -0.0016733275 0.0014729884 0.002122008 -0.0010379438 -0.0029586984 -0.0018750973 0.00022621315 -0.0022058855 -0.0031344034 -0.0020565325 -0.0027291866 -0.0020104253 0.0029731921
AVOID -0.0038170225 -0.0022456096 -0.0011739236 -0.0014977898 -0.0017881029 0.00063154474 -0.0015624267 0.0010641939 -0.00032660374 -0.0016246411 0.0038485627 -0.0012146502 0.00042945603 -0.002028989 0.0010934352 0.00050827744 0.002636681 0.003613844 0.0037092706 -0.0023659198 0.0022542255 -0.0010135405 0.0013054243 -0.0037162432 -0.0031758077 -0.001400709 0.0017836136 0.0010298372 0.00039198936 -0.0012281658 -0.001866584 0.0020448484 -0.00022996635 -0.00023671871 0.0005401798 -0.0015298293 -0.0013101784 -0.00066146936 0.0037709684 -2.54744e-06 -0.00023807897 -0.0035623594 -0.00018475042 0.00021349835 -0.0012640548 -0.000964199 0.0035145762 0.0018164755 0.00029592804 -0.0017259197 -0.0006709272 -0.003168952 0.0011699288 0.0018870995 -0.0032956377 -0.001178704 0.0017321311 -0.00052906445 0.0015941471 0.0010827444 0.0031340986 -0.0009184905 0.0027814656 -0.0001733637 -0.002791459 -0.002429678 0.0007531483 -0.0026405696 0.002777275 -0.0028903724 -0.0009490285 -0.0023071042 -0.0027531234 0.0004367653 -0.00058498123 -0.0014865517 -0.0025715465 -0.0004152383 0.00016846048 0.00015582806 -0.0019021556 -0.0016797868 0.00088202255 -0.0020230701 0.003295191 0.0032220064 -0.002023948 0.0022517808 -0.00051406055 0.003085832 0.0023771725 0.0020364358 -0.0027612685 -0.003522398 -0.00038860182 -0.0034885344 0.0033352745 -0.0022340855 -0.0027421548 -0.0031792275 0.00017841147 -0.0022245157 0.0008965543 -0.0030462677 0.00016967281 0.0014954678 0.0028826136 0.0029266567 0.002190655 -0.0027260173 -0.00035675365 0.0016785413 -0.0035267544 0.002256927 0.002638 0.002941824 -0.002624515 0.0022839624 -0.0030250326 -0.0026769391 -7.707137e-05 -0.0023853173 -0.0034090658 0.00198794 -9.5242045e-05 -0.001636212 -0.002702974 0.002934017
IMPORTANT 0.0038263197 -0.0028745516 -0.0027423103 0.00026452786 -0.00071964395 0.00056639983 0.0034309765 -0.0031378642 0.0022434613 -3.0944142e-05 0.0008252966 -0.0034655307 -0.0023957617 -0.0014722176 0.0027638364 0.0027347966 0.00096258393 -0.001090105 0.0013437031 0.0015506928 0.0006104587 0.0019094672 -0.00073276844 0.0034871236 -0.0029683153 0.003267928 0.0033311476 -0.0034447308 -0.0009637903 0.002259897 0.0021742769 0.003348942 0.0018696879 0.0015726213 -0.0002060762 -0.0023462235 -0.00033338534 -0.0037252489 -0.0019734341 0.0010325722 0.001951224 0.0012923471 -0.0018256448 0.0022890097 -0.00022614999 0.0006421279 0.0008364655 -0.0006364274 0.0033734685 -0.00032192052 -0.0010515869 0.000978965 -0.0017592891 -0.0015780892 0.0024842198 -0.002731897 -0.0012976275 -0.001048563 0.0017444912 -0.0018148028 -6.98649e-05 0.0026602694 0.0034417857 0.0020016725 0.0029799782 -0.00090999535 -0.0004380498 -0.0007162278 -0.00038026643 0.0021557915 0.0005642375 0.0023059014 -0.0034744325 -0.002081033 -0.0008982791 9.7010474e-05 0.00074675353 -0.0012419666 -0.002125384 -0.0016992071 -0.001240641 0.0027447906 -0.0014945822 -0.0025023306 -0.0014601573 0.00045897134 -0.0006013044 0.002389133 -0.00026078132 0.0033763843 0.0023943516 -0.00018319204 0.002015657 -0.0003072454 0.00051855674 0.0016159686 -0.0036241007 -0.0023947617 0.0030635144 0.0015707543 0.0003629194 0.000945903 0.0012059949 0.000686726 0.0024776899 0.003604835 0.0002894203 0.0028813973 0.0032230332 -0.00017322754 0.0018116974 0.0036971506 0.0032602067 0.0016894395 -0.0011752542 -0.0016265076 0.002239399 -0.00075707893 0.000635587 0.0029370743 0.0024165048 -0.0023224987 0.0029965644 -0.0026093912 0.00092471694 0.0014217165 0.0021791062 0.0023776498
HUT 0.0038324886 -0.00033609747 0.0021524194 -0.0022149517 0.0031065082 0.0015829903 0.00048051061 -0.00219485 -0.00022759839 0.0023924008 0.0030162255 -0.0024964507 0.00078459096 -0.0038367794 -0.0006232086 -0.0005381347 -0.0014690295 -0.0008900844 0.0012615403 -0.00046149114 -0.0009991305 0.0026365025 -0.001166991 -0.0014129326 0.0016658152 0.0019286557 -0.00045164808 0.0018719989 -0.0035153504 -0.0026722173 -0.0023300536 -0.0005643954 0.0038973459 -0.0035131092 0.0028365823 0.0020747066 0.0035628579 -0.0019930825 -0.0025403625 0.0034921847 0.0028763858 -0.00278351 -0.0005406541 -0.000110684035 0.0010659925 -0.00075537653 0.0016987955 0.0014451101 0.003498211 0.0009842302 -0.0021924805 -0.0024198268 0.0018691113 0.003271024 0.0018598299 -0.0018857844 -0.00094609143 -0.0015604673 0.0016523837 -0.0007995862 0.0014794919 0.00084697385 -0.0010130623 -0.0029204602 -0.0028527146 -0.0037180402 0.0013651073 0.0013412511 0.0029718203 0.001187184 0.0007588738 -0.0012958653 -0.00026620965 0.0018686589 -0.0025411425 -0.0016986476 0.002238972 -0.0025686163 0.002056897 -0.0035423439 0.00044500091 -6.342719e-05 0.002444057 -0.0026148173 -0.0036947834 -0.0030985654 -0.0017381153 0.003182879 -0.0027527837 -0.002013832 -0.0020248373 -0.0015796892 -0.0013233642 -0.002470879 -0.0037636065 -0.0020578483 -0.002958697 0.0016263464 0.002049103 0.0012032972 -0.002242108 -0.0033824844 -0.0017587662 -0.0032328798 -0.0032463183 0.0011460634 -0.0004384563 -0.0008321675 -0.0026200528 0.0014751719 0.003115071 0.0016830128 0.0017652982 -0.001992186 0.0011435156 0.0017524941 -0.0024405096 0.0030535217 0.0014791484 -0.00064241677 -0.0019485274 -0.00033541868 -0.0023523201 -0.003470436 0.0012438247 0.0002279161 -0.00025600102 0.0011247306
LIP -0.003443717 0.0022777831 0.002593024 0.0018613536 -0.0005710686 0.00011709173 -0.0007075128 0.0011810316 -1.6161386e-05 0.0011258543 0.0016748008 0.002848038 -0.002474198 -0.00044729203 0.0030934492 -0.0022937453 -0.0022545713 0.003776735 -0.0007848387 0.0013133294 0.0031881528 0.001687748 0.0018830578 0.0038692458 0.0029801992 0.0015908945 0.0016510987 -0.0036524262 0.00254695 -0.0032596823 0.0024732288 -0.0025095255 0.0030626957 -0.0018819561 -0.0020936683 0.0031790463 -0.0038015868 0.0018303355 -0.0025945017 -0.00063748023 -0.000631537 0.0023147152 -0.0012627636 0.0027834135 0.00065177906 -0.002554618 -0.00044165633 -0.00039617473 0.0026294878 -0.0038166798 0.00348068 0.0029815084 0.0031744868 -0.0013385371 -0.0030746013 0.00049727847 0.0027779127 -0.0029165177 -3.3989138e-05 -0.0037216526 0.003383044 -0.0009806793 0.002135943 0.0011853308 -0.0008789574 -0.0020666344 2.748053e-05 -0.0034430951 -0.002045788 0.002662708 0.00015694184 0.0019137247 -0.0024054989 0.0030532435 -0.0012860053 -0.0027013752 0.0031620557 0.0034041067 -0.001100786 0.001694523 0.00072773703 -0.00047827585 0.0030092355 -0.00088584033 -0.0013711466 0.0015343237 -0.0014747209 0.0010211221 -0.0016955853 -0.00357849 -0.002760939 -0.0034881716 -0.0019871339 -0.0031019533 0.0038688404 -0.00039767823 0.0007008965 0.002065375 0.0022886216 0.003010538 0.0019224313 -0.003121705 0.00021518575 0.003608511 -0.0006892848 -0.00080716034 -0.0036704065 -0.0031837902 -0.0007882222 -0.0014408313 -0.0038628154 -0.0014630324 -0.00046051876 -0.0019264539 0.0038191401 -0.0026341535 -0.0018584064 0.00061585894 0.002106086 0.0018906398 -0.00082374836 -0.0008027669 0.0012318944 0.0008174287 0.0033458325 -0.00030156298 -0.0017865129 -0.002362345
