1113 128
writing 0.002908157 0.0036027075 -0.0015844371 0.0010062422 -0.0026579907 0.0020935843 0.00018358135 -0.0016294183 -0.0038019535 0.002538808 0.0035564224 -0.0020272566 -0.0035363352 0.0033204348 0.0021918116 0.0033065486 -0.0011895585 -0.0020769278 -0.003030596 -0.0030579418 0.0017202819 -0.00201074 -0.00046078052 -0.0013126034 -0.00064303295 0.0034886824 -0.00031028254 0.00094484794 -0.0015735872 0.0027975938 -0.0036230308 0.00064856734 0.0032790042 0.0026783505 0.0018234699 -0.0006208975 -0.0012595055 0.0028529912 0.0037372059 0.001660138 0.0020324048 0.0017251895 0.0016408538 0.0032654537 0.003274335 -0.003238924 0.002669933 0.0013982903 0.002842239 -0.0029051336 0.001276519 7.76777e-05 0.0025777703 0.0031405692 -0.0017932963 0.0004106311 -0.0026564626 -0.0029202627 -0.0034497415 -0.00079240423 -0.0024805698 -0.0028319638 0.00085940026 -0.0037591963 0.0015044981 0.0007910153 -0.0035296683 0.002189475 0.0035982376 -0.00052896887 0.003894345 -3.4285724e-05 0.001237888 0.0009209063 -0.0013548807 -0.0019386106 0.0027950888 0.0014399065 9.874439e-05 -0.00072755653 -0.0014638267 0.0017022163 -0.0034738453 0.0014762229 0.0005281463 0.0016165609 0.0024945156 0.00011217694 -0.0017945495 -0.0019869634 -0.0009527785 -0.0019992958 0.002590281 -0.0009412547 -0.0035588595 0.0011027004 0.0005590762 0.001366348 0.0010084191 0.0028712945 0.0035751667 -0.0029240684 -0.0024859456 0.0004947611 0.00095840736 0.0035974064 -0.0024194415 -0.0012425861 -0.0028569917 -0.0011984493 -0.0007373514 0.0036230201 -0.0029212118 -0.0013496879 -0.0023620492 -0.001459057 0.0014618525 0.0035095734 -0.0028482173 0.0018154137 0.0030329707 0.0014692473 9.946482e-05 0.002541955 -0.00082390435 0.00040731422 -0.002544122 0.0018113294
view -0.0017961684 -0.00025735586 -0.0038549625 0.0035287035 -0.0006867268 -0.0019427398 -0.001540213 0.00093864754 -0.0011397657 0.0013382974 -0.001749298 0.0016980756 -0.0021805302 0.0019092894 -0.0018923033 -0.0003564417 0.0014203903 -0.0033667618 0.0014729027 0.002374944 -0.0016114543 -0.0005469468 0.0013603151 -0.0028574534 0.0035354397 0.00011223781 -0.00035764294 0.0024839456 -0.0012754994 0.00086055923 -0.0028837724 0.0012219449 0.0012635381 0.002910394 -0.0029927585 0.0010894139 -0.003454962 -0.00079121225 -0.0035218212 0.00021456566 -0.0034390031 0.0031985068 -0.0003713391 -0.0014385527 0.0015964505 -0.0035007752 0.00039596765 0.00030549758 -0.00014461295 -0.0022965258 0.00075578905 0.0021651632 0.00076067646 -0.0014467046 0.00070979045 0.00030638897 -0.0029772513 0.0029232823 0.0024522122 0.0025954216 -0.00033912383 -0.0029652338 -0.0031238827 -0.0029203885 -0.003611383 -0.0010315924 0.0019783147 -0.003854695 0.002111741 0.0007201784 -0.0007981039 -0.002268423 0.00093713054 -0.0037349751 -0.0035789341 0.0019687603 0.0012870041 0.0020661124 -0.0011097795 -0.003608519 -0.0008744848 0.0020072125 -0.0038197374 -0.0012313242 0.0015117406 0.0038609775 -0.00074488524 -0.0012874149 0.0015131121 0.003449411 0.001207025 0.0022704555 0.0020550047 -0.0021939627 0.0030655623 -0.0037246465 0.0021797025 -0.0012053514 0.0029475975 0.0033314428 -0.0014086433 0.0008472613 0.00071315654 0.0034135233 -0.0006918862 -0.0008901016 0.00043635926 -0.0032251473 0.003501221 0.0029085744 -0.0037018363 6.546415e-05 0.0017743793 0.0011721049 0.0020271102 -0.0029555599 -0.0011615321 -0.0011703628 0.0019405009 9.991244e-05 0.0025635741 -0.0001733239 0.0015361289 -0.0032655303 -0.00015273104 0.0015226209 0.0004408883 0.0032625077
roof -0.002983809 0.0021981443 -0.0020341836 -0.00020491725 -0.0011861033 0.0009390158 0.0030827024 -0.0028858173 0.0006576875 -0.0032136831 0.0006366012 -0.00032228485 0.001479973 0.0009351537 0.002247318 -0.00013620628 0.0006175846 -0.0016722501 0.0012540065 0.00201437 0.0033791438 0.003211132 0.003346175 -0.0020055494 -0.0031655456 0.0023859388 0.00080545887 0.00017224015 0.0037004522 -0.0005071601 0.0018373101 -0.0030588747 -0.0020588832 -0.0037866272 0.002573833 0.0009060732 -0.0028510091 0.0035223057 0.0019225213 0.0010840206 0.0038554948 -0.002546065 0.0015419136 -0.0022845159 -0.000727094 -0.003665128 0.002051942 0.0027898334 0.0024266406 -0.0014156135 -0.0029087109 -0.0009176559 0.0011255238 -0.00076966785 0.0025877717 -0.0020780764 -0.00068884017 0.0027215958 -0.0026640452 -0.0029000242 -0.00052314386 -0.0035940488 0.00016326987 -0.0026274628 0.0029988058 0.0012826256 0.0018206555 -0.0030662534 -0.00079028914 -0.0013497394 0.0026783252 0.00026835865 0.0020572671 -0.0027129396 -0.0031920245 0.0006374733 0.003856525 0.0037496907 0.00039715265 -0.002623021 0.001830143 0.0033808448 0.0013305226 0.0023187925 0.0036553384 -0.0031945917 -0.001156881 0.0035587335 0.003492662 0.00088577555 -0.0029083777 0.00081365765 0.0007620779 -0.003795398 -0.0010892095 -0.0027153068 0.0017844408 0.0033279448 0.0011054861 -7.3875926e-05 -0.0005250779 0.00378578 0.0021753535 -0.0013802034 -0.0012143776 0.0012144409 0.0019081313 -0.0014094091 -0.0019158766 0.001087231 -0.00074174546 0.0017094997 -0.00082560105 0.00044033045 0.003105936 0.0018362169 -0.00078307244 0.0004335615 -0.00067482394 -0.002846077 -0.0019059698 -0.0009002456 0.0033403249 -0.0016571353 0.0027376467 -0.0029319308 0.0030928822 -0.00036787413
sheet -0.0016862046 0.0004981329 -0.0022830085 0.0022473547 -0.0021647217 0.002315207 0.0019817005 -0.0012553675 0.0031535288 -0.0012522729 -0.0027185623 -0.0030282128 -0.0036376608 0.0030499753 -0.0037255397 -0.0036182648 -0.0028059587 -0.0029870765 -0.0031926201 -0.002151524 0.0032931475 0.0023959314 0.0015204686 -0.002818307 -0.0015802368 -0.002550543 0.00048548728 0.0029827273 -0.003677923 0.00016633279 -0.0030103424 -0.0005163896 -0.00028036663 -0.0013976427 -0.0017795503 -0.0021803882 -0.0026466544 0.0037709414 -0.00077064434 0.0016541182 -0.0018461478 -0.00077464496 0.0004265105 0.0035785842 -0.00035461 0.00083539484 0.00021061041 0.0034544754 -0.0029837203 -0.0013390409 0.0008410033 -0.0020437485 -0.0029029641 0.002674144 0.00012735299 -0.0010033094 -0.0032958626 -0.00038876943 0.0006784949 0.0002976569 0.003332036 0.0034865628 0.002008489 7.9508914e-05 -0.0033522965 0.003306829 -0.00017669375 -0.0025896903 -0.0037342464 -0.0034173839 -0.003034078 0.0017227442 -0.0004417172 -0.0033868058 -0.0017222931 0.0027769597 -0.0004097113 -0.0013542146 0.0009882099 -0.00016104575 0.0029943297 0.0037984652 0.0016828952 0.0010411155 -0.0006630498 -0.0036921569 0.0009450955 -0.0031360418 0.0017016559 0.0031860853 0.0022502868 -0.0008118982 -0.0010021171 -0.00029070844 -0.0016359965 0.002889179 -0.0025418387 -8.803614e-05 -0.0025699793 0.00048885547 -0.0014500526 -0.0024902348 -0.0018485115 0.0021283948 0.0032835489 0.0013320916 0.0011137883 -0.002703466 -0.00045787758 -0.0029487428 0.0017864238 0.000573051 -0.00034122207 0.0008150306 -0.0031925181 0.0018911755 0.0028899189 -0.0010112636 0.0011736653 -0.0009794236 0.003537067 -0.002774749 0.0020943147 -0.00068358827 0.0018878566 0.0009979694 0.003442669 -0.0013427333
stick 0.000315303 0.0029653104 -0.0010404873 0.00017135347 -0.0013343645 0.0038017596 0.00066195737 -0.0005190931 -0.0036589024 -0.00038383744 -0.00064654567 -0.0010168108 0.00340587 0.0027438472 0.0012020987 0.002976542 -0.0010635325 0.0036498904 -0.0037146895 0.0013356277 -0.0011092058 -8.037595e-05 -0.002676476 -0.0028492096 0.0013837495 0.0017559602 0.00053551805 -0.002531147 -0.0013004906 0.0034168293 -0.0013756033 0.0031608709 0.00046350257 -0.0026201108 -0.0022024037 -0.0014226307 -0.00016279705 -0.00205435 -0.00077416236 -0.00041880299 -0.0020882187 0.0030511045 0.0036643858 -0.0037184653 -0.00096566783 -0.0014644058 -0.0029652612 -0.00026131704 -0.0032696943 -0.0003340125 -0.0024701012 -0.003489922 0.00080489187 -0.0011459121 -0.0034304084 -0.0031819448 0.0014835896 0.0031533195 0.002747547 0.0021286632 0.0035980868 -0.0021039722 0.0016098034 -0.0004886656 -0.0028986023 0.0033087556 -0.002865536 -0.00092659064 -0.0017682484 0.0019269404 -0.0018782282 -0.001772744 7.413264e-05 0.0038119806 -0.0017275322 -0.0014663639 -0.0031255295 0.0013968281 0.0016708809 0.0015756804 -0.0031499914 -0.0020094733 0.0020720882 0.0021864723 -0.002375571 0.0012202759 -0.002017455 -0.0020691531 -0.0019857348 0.0013819281 -0.0018677313 -0.0034095421 -0.0015474673 0.0011941886 -0.00029934043 0.0016738418 0.0020762102 -0.0037678475 -0.0011422007 0.0006257413 0.0005082959 -0.00017908354 -0.0011775863 -0.0014205895 0.0035446207 -0.0023201068 -0.00044974886 0.0026037588 -0.0021163183 -0.0023107496 0.0018076133 -0.002577707 0.0026107493 0.0029702778 -0.0017868697 0.001665218 0.0002347608 0.00037851653 -0.0012547406 -0.0010649977 -0.0017850068 0.0036922377 -0.0013620867 0.0011598762 0.0014522377 -0.00070287805 0.003832713 -0.0012034326
vision -0.0016196263 -0.0026612673 0.0033343155 0.0029173482 -0.0021883675 -0.0036686554 -6.7662263e-06 -0.0018763973 0.0021605205 -0.0038434241 0.000616138 0.0031288483 0.00025375752 -0.0005062665 -0.0029616898 0.0037152923 0.0004774078 0.00037273308 0.002857409 0.0023549148 0.0011285606 0.0005079504 -0.0031533386 0.0035947126 0.003686848 -0.0017539879 0.0027722048 -0.0030671444 0.0024481616 0.0030110707 -0.0025539056 -0.0013195401 0.0015550376 0.00341571 -0.0024612017 -0.0024581195 0.0016239719 -0.0015428116 -0.00014461602 0.0013782795 0.003469487 0.000982124 0.0020777076 0.0024960993 0.0020004131 -0.0014064034 -0.001548245 0.0028817153 -0.00028338714 0.00033370472 -0.001478334 -0.0036173551 -0.0020446575 0.0013338298 0.0004974039 0.0031292252 -0.001940451 0.0015232668 0.00033766872 -0.002148907 -0.00158706 0.003750806 -0.0032281473 -0.0013928497 -0.0034659128 0.0032979546 0.0031302976 -0.002432836 0.0020938632 -0.0020114516 -0.0011573007 -0.0036579953 -0.0038454707 0.002782205 -0.0025005573 0.0017370309 0.0013853537 -0.0014006956 -0.003798841 0.002144283 0.0037935416 0.001144839 -0.0017973514 0.0033480853 0.00037963598 0.00051487033 0.0013005799 -0.0017723441 -0.0024223896 0.00139674 -0.00231073 -0.00087735744 0.0015119683 -0.0028654048 -0.0022882512 -0.0009635332 0.00013247265 0.0002900431 0.0032733988 -0.0028476112 0.0027155015 -0.0022207578 0.00012697627 0.0033303949 -0.001168945 -0.0018264449 0.003156891 0.0015934416 -0.0026644694 -0.002908421 -0.00046101635 -0.0012241412 -0.0011404817 0.0009052491 -0.0023204344 0.003633457 0.0010771506 0.0025812553 0.00086600863 -0.0023495045 0.0035666192 -0.0016710053 0.001579591 0.0004293763 -0.003286916 -0.0029889236 0.0026127885 -0.0023002988
stake 0.0005489096 0.0032495046 -0.0012924102 -0.0011046048 -0.0014532359 -0.0023118127 -0.002901378 0.002711081 -0.0006269656 -0.0006036918 0.0025813738 0.00052813836 0.0025097157 0.0026043039 -0.0037585595 0.0021632286 0.0020102148 0.0016635184 0.0013862257 -0.003245143 0.0026022277 -0.00023543168 0.002480985 -0.000980129 0.0003461738 -0.0033165761 -0.0038443275 -0.002693604 0.0021680593 -0.0021404154 0.0024439332 -0.0022236533 0.0007526376 0.0005663947 0.00083259295 0.0003048515 -0.0026160325 -0.0037277818 0.0018305676 0.002199475 0.003412724 -0.0015351936 -0.0036514525 -0.0037271706 0.0016720812 0.0034826538 -0.0012493044 0.0006239314 -0.0015868404 -1.9284738e-05 0.00024855652 0.00055548456 0.003635191 0.0008669192 0.0023907053 -0.0030115508 0.0028166154 0.003534432 0.0023327845 -0.0025460403 -0.00206403 -0.000106732754 0.0006128942 0.0019660871 -0.00073538715 -0.0025549994 -0.00036522918 -0.00014967048 0.0032003804 -0.0036544236 0.0021985818 -0.001125317 0.0003317951 0.0028518788 -0.0033430164 -0.0012362243 0.0018836735 0.0028708857 -0.0026005825 -0.0002929767 0.0023354467 0.0018962128 0.0007663036 0.0016632931 0.0034873234 -0.00017544495 5.9923874e-05 -0.00271434 -0.003188647 -0.0021838865 0.00021474173 0.0010714042 0.0033589236 0.0030736534 -0.0024768924 0.0033958636 -0.0033997232 -0.00036193122 -0.0014892092 0.0011469027 -0.002475795 -0.00094408746 -0.00047960054 -0.00035539272 0.0018405707 -0.001648433 -0.003728289 6.504518e-07 0.0035103941 -0.0013975906 -0.0035575302 0.0016069441 -0.00041527185 0.002216312 -0.002483618 -0.00085481576 -0.0032115323 0.0020636984 0.0029317779 0.0013749085 -0.0026345085 -0.0022271152 -0.0019577907 0.0031748074 -0.00076978124 0.0038650061 0.00056493253 -0.00057844195
tree -0.0002709064 0.0015077213 -0.0011482446 -0.0018118456 0.0033647458 -0.0021770706 -0.0022770253 0.0015712111 -0.002683681 0.002175514 -0.0033336615 0.0007385813 -0.0034658515 0.0003365508 0.0016300784 0.002222743 0.003293613 -0.0021236346 0.00011995278 -0.0013850582 -0.0014313647 -0.00031618003 -0.0013496389 -0.0026779114 0.001877787 0.00126623 0.0017842395 -0.0016371695 0.0033182946 -0.0004220139 -0.0033463563 -0.00047838647 0.002795907 0.0017520129 0.003115493 -0.0019999025 -6.697355e-05 -0.0038085391 -0.0006317387 -0.0020498524 0.0012032051 0.001198787 -0.0006215379 -0.00095731224 0.0005379951 0.00018535875 0.0017567574 0.0015483107 -0.0006526263 -0.0036585473 -0.00022877053 -0.0007590366 0.00019375457 0.003261905 0.0009875592 0.0033922063 0.0004616439 -0.0006631447 -0.0005257022 -0.0024209272 0.0033702997 -0.0006672372 0.0009614692 -0.0013618352 -0.0021722268 0.0033579727 -2.2557022e-05 0.003796219 -0.003792033 -0.0017347443 -0.0011734804 -0.0010748443 0.0012856072 -0.0025894754 0.003342729 -0.001611215 0.0009031765 -0.003167959 0.0001346884 -3.2857315e-05 -0.0015549093 0.0031845702 -0.00022764484 -0.00010143331 -0.0024113802 -0.0005296582 0.0014582722 -0.0017787236 0.003773087 0.0033544947 -0.0029698987 -0.002726118 0.0007006769 0.0028323545 0.0014083763 -0.0029715584 0.002619158 -0.00023551047 0.0036896418 0.0035628218 0.0002781816 -0.0009494612 0.0002765579 0.0027579118 -0.0024293233 0.0015709711 0.0019972534 0.0025241626 0.0028348337 -0.0024252825 0.0036602088 0.0010934954 -0.0027115676 0.0005862821 -0.0035773548 -0.0012881533 0.00055884157 0.00015156501 0.000669824 0.0034227073 0.0034483597 0.00069112674 0.0019977759 0.0019735899 0.0011620997 0.00297077 0.002716484 0.002541689
worker -0.00326784 0.00045989812 -0.0016038192 -0.00284505 -0.0010953103 0.00019935289 -0.0027306203 -0.0017488525 0.0015359432 -0.0010904499 0.0031828505 0.00025232256 0.0036457581 0.0018454858 0.0021533547 -0.0014648691 0.0017688503 0.00021940525 -0.0028062803 0.0033873264 0.00028373773 0.0012483301 0.0013618025 -0.0027819138 -0.00021676805 -0.0005854635 0.0027538396 0.0011463735 -0.0018362682 0.0013957567 0.0020360684 0.0025947907 -0.00080191117 0.0027096 0.0008093645 -0.0030459275 0.0010259347 0.0009090582 0.00053706265 0.003785155 -0.0021162862 -0.0007706731 0.00022646144 -0.001537506 -0.0036075343 0.0010486149 0.00016946199 -0.00027191595 -0.0026065472 0.0006898775 -0.00048309378 -0.0017956473 0.0034564803 -0.0016669815 0.0008048946 -0.0029396887 0.0036269373 -0.0033103668 -0.002400023 -0.0012024421 0.0007006295 0.0017815111 -0.0010279558 0.0008486556 -0.003902366 0.0011944127 -0.0018411124 -0.002179731 -0.002785254 0.00023234167 -0.0015526715 0.0015213642 0.0033561585 0.00043211304 0.00316548 0.0011898283 0.0036649613 -0.0016684517 0.0010712955 -0.0032624155 -0.0028900034 0.0006765321 0.001633863 0.0010183909 -0.0026994485 0.002681072 -0.0015607965 0.0021916125 0.0017445686 -0.00073147385 0.0014417743 0.002346443 0.0030914673 -0.0005397621 -0.0025279433 0.0035337394 -0.0036187444 0.0006942999 -0.0018751777 0.003176103 -0.0037135968 0.0026659186 0.0038603162 -0.0021819852 0.0020902501 0.0031517763 -0.0021628325 -0.003310013 0.00089435343 0.000814119 -0.0026189885 0.0023717836 -0.00093376584 -0.0025535421 -0.0036427972 -0.0017090436 0.00085969805 0.0026211082 0.0036756813 -0.0030438271 -0.0007579288 -0.0012842229 0.0031869488 0.0010302445 -0.00017243126 0.0007156351 0.0037579911 -0.0027912916
table 0.0018829512 0.0008095565 3.9150473e-05 0.002084825 -0.002305662 0.0019276651 0.0031930767 0.000634533 0.003762667 -0.0012805108 -0.0013562221 0.0020732337 0.0022556204 -0.0038364858 0.0034797247 0.0012508049 -0.0030417053 0.0023420386 -0.0016887446 0.0024209237 0.0012891357 0.00057730154 -0.003870619 -0.0006944049 -0.0009427491 0.0020976937 0.0023902282 -0.0031910557 -0.00013076601 0.0024304064 0.0005893097 0.000492253 -0.003677147 0.0028159951 -0.0018765156 0.0012123301 -0.0036887627 0.0031515611 0.0024893146 -0.0020024993 0.0005058021 -0.0021934335 -0.0020718772 -0.0015387721 0.0014535608 0.0007788435 -0.00028586935 0.0004617282 -0.002319861 7.774397e-06 0.0031801614 -0.0009551339 0.0038692954 -5.1666197e-05 0.0009039271 0.0028184326 -0.0034823213 0.0010478594 -0.0035142142 0.0034202854 -0.0038939787 0.0026717354 0.0020843523 0.0018436733 0.0020844257 -9.3005845e-05 0.0012890509 0.0027357086 -0.0007227896 0.0028517183 -0.0017245631 0.0022666198 0.00199613 -0.003670466 -0.00054552144 -0.0034321698 0.0030850414 0.000442554 0.0032666882 0.0013221931 -0.0024928153 -0.00074647873 0.0016956843 -0.0032405166 0.0036238409 0.0012808171 -0.0012154105 -0.0005502437 -0.0016853923 0.002471189 0.0019773191 0.0031109059 0.002831584 -0.003764153 -0.00096091843 0.0030309996 0.0009882995 -0.0016943074 -0.0023305838 0.00016156604 0.00018910144 -8.062374e-05 0.0038660874 0.00064380176 0.00093327044 0.0028525854 -0.0022916852 0.0036460892 -0.0020769294 -0.0012182753 0.0015457951 -0.0027913142 0.0022157123 0.0023805778 -0.0010689353 -9.804292e-05 -0.00022841767 -0.00052386115 0.001045247 0.0015257514 -0.0017261793 0.0014776083 -0.0012425709 -0.00047175592 0.0009434724 -0.0026255692 -0.0017961633 -0.0011460481
position -0.0024923724 -0.0038275379 -0.0031287032 0.0015915264 0.0018063396 0.0012266717 -0.0011455717 0.0013950962 -0.0018093528 0.0033107663 0.0027684541 0.0010926051 -0.0026949693 -0.0035483225 -0.0024610276 0.0016008092 -0.0023447818 -0.0012899678 -0.0020401946 0.00022972282 -0.0011630483 0.0031981934 0.0020362334 -0.002538426 -0.00024905975 0.0008992866 -0.0033358654 -0.0016710126 -0.0024589787 -0.0023493294 0.0014234817 -0.0025057641 -0.002701912 0.00087723555 -0.00031943095 -0.00020215579 0.0027103813 0.003643194 0.0009529766 0.0003120595 -0.00061271474 -0.0021848683 0.001392376 0.0017218548 -0.0008495209 0.00043623365 -0.0032448692 -0.0030958566 0.0038307868 -0.0014363583 0.0017726057 0.0023532968 -0.0029670638 -0.0013780693 0.0026308722 0.003121259 -0.0014619742 -0.00041201327 0.0023489639 -0.0014160586 -0.0026697365 0.002895001 0.0024012467 -0.00098059 0.0004539087 -0.00015845093 0.0022544737 0.0007724838 0.0038159504 -0.0032505416 -0.0009411291 -5.11856e-05 0.0016261146 -0.0010385192 0.0027716549 0.0027901116 -0.0014768733 -0.0018297728 -1.9384177e-06 0.0017807066 -0.0037060573 -0.0015127914 -5.3275475e-05 -0.0023295803 0.0016415904 0.0020887745 0.0034222342 -0.0019965444 0.00018004894 -0.0037159466 -0.0038196025 -0.0032382584 -7.971925e-05 0.001250384 -0.0007931758 -0.00024087219 -0.00059243967 0.0029815168 0.0021970372 0.0015362952 -0.0018750438 -0.00027529063 -0.0032812706 -0.00018487033 -0.002990256 -0.00026619036 -0.00048643243 0.00013426923 0.0026016692 0.00080975494 -0.0032598444 -0.0009026063 -0.002227814 -0.002180898 0.0028777511 -0.0015696184 0.0038834186 -0.00022882744 -0.0014530375 0.00034608398 0.0016990008 -0.0021999876 0.0005066113 -0.0023333863 -0.0032094796 0.00039517294 -0.0012352613 0.0013593418
sweet 0.00092498184 0.0032925685 -0.0015131035 -0.0016529176 0.0029911476 -0.00034333442 0.0005636818 0.003528565 -0.0023238552 -0.0014964653 -0.0015281879 -0.0018981263 0.0012755371 0.002257981 -0.003785784 -0.0006825052 0.0038992031 -0.0017805586 0.003455373 0.002655949 -0.0020027366 0.003384049 -0.00071801175 0.0030424234 0.0017974994 0.0037031786 0.0012134615 0.0008580926 -0.0023619435 -0.0012055801 8.248872e-06 -0.0027223441 -0.0016107906 0.00161873 -0.003030516 0.0032386454 0.0034745499 0.0013645138 -0.0023650355 0.0020583593 -0.0013641611 0.00023822182 0.002917915 -0.00245069 0.0034191618 0.003620307 0.0014976866 0.0029288 -0.002557169 -0.0021340367 -0.0026578198 -0.0015810892 0.0037067563 0.0019368696 0.002712461 -0.003471866 0.0038316872 -0.0038831953 -0.0021010751 -0.0018155499 0.0020841304 0.0009866708 0.0019842717 -0.0036842497 0.001670131 0.0018408297 0.0031997217 -0.00081989175 -0.0005412271 0.0010077911 -0.00051996624 -0.0031629424 0.003078931 -0.0005359288 0.0038511513 -0.0024625685 0.0022616894 -0.0024861644 0.001632642 0.0014385516 -0.0007631957 0.0031425273 -0.0022108457 0.002346401 -0.0020228787 0.00052761706 -0.00341494 0.0037008415 -0.0026199736 -0.001999853 0.0021886537 0.0030719037 -0.0023733934 -0.003386186 0.002011656 -0.0003839358 -0.00024745296 -0.0015873155 0.0028410323 -0.0037411787 -0.001618686 -0.0007609007 -0.0010137252 -0.00058000267 -0.00085124414 0.002230889 -0.0026685921 0.0030203518 0.0024065766 0.0033121165 -0.002010184 0.0020073834 -0.003674181 0.00011530237 0.002079367 0.0020275265 -0.0002970823 -0.00028972718 0.0017760019 -0.001076435 0.0004140973 -0.0016671703 0.0032365285 0.0036124177 -0.00093139545 -0.002862954 0.001877651 -0.0012053634
study 0.0014043581 0.0026871879 -0.0009907106 0.0025628973 0.0021046414 0.002824978 -0.00031003522 -0.0011859885 -0.002737012 -2.9220271e-05 0.0005249555 -0.00038989278 -0.0032804527 0.0005121166 0.00095789495 -0.0018035466 -0.0028555861 0.0027073596 -0.00053054246 -0.003733122 0.0017382388 -0.002269126 0.0008262439 0.0028101413 -0.0019499589 0.00040478277 0.0027793422 -0.0003272472 -0.0015723424 0.0020623174 -0.0026784993 0.0029421756 0.0014164291 -0.0030987225 0.0005661507 -0.0014390935 -0.00093467435 0.0023182177 0.0031232422 0.0014917689 0.0031068474 -0.0011094651 0.0024169201 0.0012972235 0.0030000946 0.002887011 0.0019048068 -0.0032157453 -0.0017199037 -0.00036912304 0.0030056478 0.0036919832 0.0028838702 0.0017793588 0.00180086 0.0007834501 -0.0023258948 0.0025899832 0.002270084 0.003031998 -0.0017150027 0.002785281 -0.0009946213 -0.00044038985 0.0035724454 -0.0018437586 -0.00355225 -0.0025531196 -0.002170617 0.002026791 -0.00068801775 0.00017966611 -0.00015765309 -0.00015110946 -0.00074022834 0.00050433556 0.00091338163 0.0024907517 0.0012944293 0.00019530764 0.0038732875 -0.0038854673 -0.003889684 0.003381623 -0.002337109 -0.0003541852 0.0030289206 0.00020820402 0.0004495346 0.002991717 0.0024380886 0.00062482303 0.0038758554 0.0032569899 0.0011098708 -0.0033668429 0.00318132 -0.00118805 0.0015746388 0.0009875231 0.0017445185 0.0028697297 0.0027057624 0.0024004544 -0.0024638698 0.00283675 0.0019125276 0.003190789 0.00059828156 -0.00033086867 -0.0017798074 -0.00074754644 0.00275116 0.0035842564 0.0006857366 0.0006184502 0.003834589 0.00029780596 0.00071723014 -0.0019585094 -0.00078709197 -0.0015100234 -0.002917768 0.0005183612 -0.0015120135 0.0005869664 -0.0029384443 -0.0005061438
time 0.0007641359 0.00021611739 0.0010783634 0.0028824164 0.00093027734 0.0011319356 0.00041861707 0.0018463115 0.0014957732 0.0011669087 -3.8575163e-05 -0.00028122278 -0.0022338894 0.0010159457 -0.001168098 0.0035392705 -1.4774249e-05 0.0029148012 -0.0017870539 0.0020445501 0.0022008284 -0.00039245497 -0.001501233 -0.002944417 -0.0011479086 -0.0028087548 -0.0013181694 -0.0024735825 -0.0016662712 0.0030913225 -0.0021388961 0.00095120847 -0.0035240536 -0.001487809 -0.0010998442 -0.002009375 -0.0030716874 0.0030562966 -0.0014062468 0.0006111616 0.0013465415 -7.101402e-05 -0.0007993542 0.0022694136 -0.0025598886 -0.0018143848 -0.00071599905 0.0017548659 -0.0024113671 -0.002367057 -0.0029836148 -0.0032120363 0.0033981653 -0.0038039756 -0.00037280505 0.00065078185 0.0010161013 0.0005098192 0.0009514801 0.003571375 0.0011068538 -0.0037375821 -0.0031895328 0.0019963884 -0.0030407077 0.0006705321 -0.0006019929 -0.0028365375 -0.0014461785 -0.0021175188 -0.001920458 -0.00044945782 0.0036817275 0.0012197127 -0.0036075872 -0.0030648622 0.0032898504 -0.0038564678 0.0005457502 -0.0015925643 0.0002836021 -0.0019480961 -0.0016129409 -0.00061860454 -0.0020324932 0.0006691616 0.0019234992 0.001471934 0.0034414886 -0.0001574796 0.0014429863 0.0010335514 -0.0008821878 -0.0028357843 -0.00061709684 0.003745677 0.0022474262 0.00017788423 -0.0016970255 -0.0038732549 0.0031263467 0.0038743217 -0.001426207 0.0009963283 -0.0033642433 -0.000981338 0.0030405354 0.0034080967 0.00034377637 -0.0037487932 -0.0013610468 0.0019726695 0.0005982778 0.0030294426 0.0028938234 -0.001116758 0.003048488 0.0003500723 -0.0009345933 -0.0008488105 0.002744897 0.002327134 0.00047733696 0.00053068006 -0.0015056756 -0.0026299316 0.00074177096 -0.0014343767
possession 0.0028447134 0.00087671593 0.00029292816 -0.00026813275 0.00014912218 -0.0019250102 0.0015765157 -0.0014918869 0.00052453764 -0.0022312787 0.0010533519 -0.0038013053 0.0012870413 0.00223275 -0.0023141475 -0.000677174 -0.0014034775 0.0037628352 -0.0024730244 0.0029739677 -0.0039044768 -0.0007742505 -0.0019534477 -0.0031961515 -0.0013740616 -0.0027087526 0.0010557539 0.0034658636 -0.0013927175 0.0007274419 -0.0038716688 0.0025347616 -0.0014087113 -0.0028872169 -0.001290623 0.0005351107 0.0034623877 -0.0019222229 0.00049263577 0.0029024594 -0.0028283354 -0.00097119936 -0.002949131 0.0036908723 0.0014238561 -0.0029576102 -0.0032973485 0.00019242072 0.0025511524 7.31487e-05 -0.002492666 0.0004649334 -0.0026190158 0.0024234895 -0.0018695521 0.0027612313 -0.002403469 0.0016053444 0.001622726 -0.0026537527 -0.0007110068 -0.001794205 -0.00232363 -0.0016211406 -0.003167257 0.0012694368 0.0010841605 0.0009454737 -0.0004104368 -0.0017800751 -0.003734439 0.0006085032 0.0022292545 0.003091071 -0.0034589989 0.002948299 -0.0026049647 -0.00076859473 0.0038042152 0.0030847946 0.0017280258 -0.0038921023 -0.0036994868 -0.00035440538 -0.0012614042 0.0022552013 0.00027232175 -0.0032427516 -0.0026159668 0.0013920584 0.0016886615 -0.00015682787 -0.0010847037 -6.3320076e-05 0.0021976305 0.001317647 -0.0004538288 -0.0020238536 0.00051209156 0.0036109504 -0.0020460973 -0.0019451047 -0.0019841797 -0.0025036368 0.0009694186 -0.0030286177 -0.0027421208 0.0002034014 0.0027652427 -0.0015141919 0.0038439217 0.0023956269 0.0025819498 -0.00014228698 -0.0019754143 0.0016924058 0.002129579 0.0014818099 0.00083060615 0.0018455517 0.003450872 -0.0032249657 -0.0009571607 0.00092079944 0.0006660864 -0.0024634656 0.001664892 -0.0009631996
radar -0.0010622136 -0.0026406415 0.001565272 -0.001438762 0.0003990248 -0.0014448807 -0.0014690445 -0.0031876657 -0.0028891638 0.003229635 -0.0033188213 0.0013497833 -0.0011551367 0.0020385254 -0.0034825786 0.00079460186 0.000654493 -0.0017843605 0.0028763902 -0.0022353171 -0.00367334 -0.0032806764 -0.0034384083 0.0019793452 0.002378292 0.00081428373 -0.0019995065 0.0036755023 0.0022090191 0.0013966284 0.003032124 0.002412146 -0.0005529507 -0.0033666987 0.0014832423 0.002965781 0.0004956495 0.0004625805 -0.0014161331 -0.002571028 0.0007674741 0.0027991144 0.0024233046 -0.0017501757 -0.0035421955 -0.0025922856 0.0014859507 0.0035995627 0.0013236618 0.0008432887 0.0016478616 0.0037845005 0.002051147 -0.003011551 0.0012468528 -0.0008317459 -0.0023515692 -0.00046000662 0.00235496 0.00021212369 0.00117587 0.003411171 0.0016355326 -0.0010110947 -0.0010392639 0.0036583997 0.0021577657 -0.002565042 0.0013789439 0.0035319943 0.0016730747 0.0015605399 -0.0035231414 0.00031939603 0.00036413802 0.0037631048 -0.0018587455 -0.0037835247 -0.000749599 -7.956608e-05 0.00047856994 0.0011952714 0.0034031635 0.0025022519 -0.0034205462 0.00019175459 0.0038703743 0.00021400861 0.000719479 -0.0027479632 0.002477314 0.0015962841 -0.0023467792 0.00013145195 -0.003562526 -0.0032253219 0.0007200459 0.0019284663 0.0001294257 -0.0029000281 0.0028719376 -0.0014318487 -0.0013355968 -0.00031289068 -0.0023131478 0.0022710697 -0.0003009955 0.002968485 -0.00061785075 -1.9790036e-06 -0.00014464991 0.0024929189 0.0021807218 -0.0037689148 0.0024652646 0.003621115 0.002181894 0.0007606265 -0.00025194543 0.0012223762 0.0015926248 0.0034324524 0.0020290997 0.00228248 0.0024622392 -0.0036587142 -0.002911843 -0.0036940833
security 0.0028610448 0.00035100375 -0.0017954558 -0.0031031882 0.0014375924 -0.00039408708 -0.0014437198 -0.00055203924 0.0021362249 -0.002590081 0.0032643245 0.001116767 -0.0013825201 0.002711553 -0.00049651513 0.0016360307 -4.6074703e-05 0.0021021906 0.00039457096 0.0017994319 -0.001287086 -0.0021665317 0.0011098011 -4.575648e-05 -0.0024452992 0.00050868856 -0.00064893416 -0.003798943 0.0007639124 0.0029939036 0.0018246606 -0.0013289211 -0.0007247136 0.0023353277 -0.0018364305 0.0032110324 0.0014786237 0.0022707942 0.0007246643 0.0037010945 -0.0024139443 0.0028082544 0.002015547 0.0006886408 -0.0015138075 0.00035099342 -0.0011316662 0.002040087 -0.0025040493 -0.0024819241 -0.002301168 0.0017918415 -0.00026327057 0.0017259573 0.0021062735 0.002510028 -0.00010719475 -0.003403724 0.0010616102 -0.00011680772 -0.0017722284 0.0030967977 -0.0025899985 0.0024165085 0.0021005226 0.0023956983 -0.0024903356 -0.0033283678 0.0007983583 -0.002071869 -0.0013568692 -0.0016580852 0.0037507953 -0.003242406 -0.0023634823 0.0008849563 -0.00073959376 0.0033394264 0.0018124656 0.0016237678 0.0033873385 0.0021723497 -0.0027230156 -0.002113993 -0.0017286 0.0032718896 -0.00045266535 0.001984486 0.0033689395 0.0022082971 0.0035651308 -0.0012619221 0.002789497 0.0012820944 -0.0011630282 -0.0005076134 -0.0038079147 -0.0015850528 -0.002920608 -0.0030440981 -0.0008744624 -0.00024100135 0.0012865965 0.0014688042 0.002490359 -0.0035910904 0.0021351692 0.0012296373 -0.0036766597 -0.00048521886 -0.002153663 0.0021958132 -0.00071176863 0.0023070732 -0.0019577239 0.0012020267 -0.0001200785 -0.0011476026 -0.0031811635 0.0008741354 6.701864e-05 -0.0028519826 0.0034410143 0.0028452626 -0.0016637051 0.0024003233 0.0033056103 0.0034679708
region -0.0034790526 0.0014270851 -0.003216856 0.0012234579 -0.0026674974 0.00077993545 0.0017520873 -0.0022302663 0.0011630142 0.000518194 0.00014092062 0.0009394535 -0.0037942654 0.0034096502 0.0005677518 0.0016166121 0.0026721144 0.0012213053 -0.0036746 -0.0005967827 -0.0029080468 0.0021372624 0.0017605844 0.002590315 0.00047486357 0.0011890745 -0.0029848344 0.0008568641 0.0028811484 0.0023572857 -0.0037339677 -0.0015105036 -0.0028162103 -0.0015340861 -0.0011532664 -0.0023473601 -0.0026917304 -0.0028042565 0.0030643966 0.003618009 -0.0024015785 0.0021718233 0.0023079824 0.0011582626 0.0020248662 -0.000998911 -0.0026758765 -0.0024566692 -0.002125549 0.003039017 0.0006206792 0.0011916338 -0.0030824605 0.0020396763 0.0034053903 -0.0002532326 -0.0017130702 -0.0022565383 -0.00065915816 -0.0035127911 0.0034726846 0.001369115 0.0026085263 -0.0036828392 -0.0008601146 0.0038493972 -0.003105023 0.0006815435 -0.0014893254 -0.0007020019 -0.00015851464 -0.00031664988 -0.0005102702 0.0032885005 0.000544726 0.0019168684 -0.0033074303 -0.0026151985 0.0035010953 -0.0035538918 -0.0034054415 0.0014293133 0.002188011 -0.0031876767 0.0014663254 -0.00248981 0.0018878562 -0.0011399842 -0.0023860177 0.0012734146 -0.0024511833 0.0007409924 -0.0019333338 -0.0014649916 0.0031521486 -0.0036936451 6.4882064e-05 0.002083603 -0.0033545715 -0.0019075895 0.0022369274 0.0015404843 0.001750611 0.0036036335 -0.0020053594 -0.0011993565 0.00059040455 -0.0025176413 0.0010426891 -0.0028576504 -0.0029785093 -0.003125872 0.0026109978 -0.0019365557 -0.00066261913 0.0008952889 -0.0028658938 -0.000312396 0.003055426 0.0013838032 0.0025302963 0.0017829337 -0.00014498022 0.0013584909 -0.0004272359 -0.0027346706 0.000626038 -0.0026062278
substance 0.00037956669 -0.0026248123 0.0012273969 -0.0028092815 -0.0023742854 0.00076747825 0.00040919828 -0.0018921401 -0.00062534306 0.0008035266 0.0017208775 7.065021e-05 0.00042804828 0.003306863 0.0019829764 -0.0015012863 0.0029045637 -0.0012886233 -0.0023993088 0.0028883747 -0.0012199814 -0.0005619268 -0.0016226406 -0.0014415776 -0.0032211775 -0.0031072204 -0.0034909511 0.0018868028 -0.0011690523 0.003486013 -0.0030815452 0.002340585 -4.3605207e-05 -0.0010015841 -4.0961575e-05 0.00013515489 -0.0008599107 -0.0034671118 -0.00027774202 -0.0020038858 -0.0036615105 -0.003450369 -0.0036023797 0.002713491 0.00035720153 -0.00010071591 0.0020375852 0.0013104696 0.0007074138 -0.0014119992 0.0033503547 -0.0011724896 -0.00064669305 0.00052635826 0.0020771879 0.00065830775 0.001343651 0.0005087038 -0.001976916 -0.0014492137 0.0011700307 -0.0037319977 0.0006157854 0.0029269706 0.0032886562 0.0035394975 0.00045235764 0.0028952817 0.0023414935 0.003902906 -0.003593375 -0.0036521934 0.003298134 -0.00010498746 -0.0007878431 0.0014809952 0.0017713235 0.0015061054 -0.0019988185 -0.0019699181 -0.0034831779 0.0017109491 -0.0013167314 0.00047207923 0.0030290366 0.0029554965 0.00179268 -0.0020649275 0.0035503262 -0.0011469752 0.0028190152 -0.0012651301 0.0035719594 -0.0012240859 0.00050206116 0.0014235427 -0.0009613034 0.0016989779 0.0034159631 0.0038108255 0.00238274 0.0012190884 0.002010165 -0.0015218994 0.00054454675 0.0025275196 -0.0010589012 -0.003297075 0.0014142704 0.0036294393 0.00090876914 0.002139191 -0.0016663173 0.0026092434 -0.0012455357 0.0013936597 -0.00019240736 -0.0005642226 -0.00025254142 0.0004143334 -0.00312665 -0.00080442417 -0.0011093223 -0.0011367811 7.2977804e-05 0.0014345202 -0.0023297358 0.003675151
processing 0.00038128087 0.0027528265 -0.0036890772 0.002378194 -0.00059360126 0.0024849125 -0.0030808947 0.0029063227 6.9597045e-05 0.002590491 0.00031446054 0.000113657894 -0.00022334812 -0.0003220837 -0.00043163126 -0.0035617829 -0.0033613655 0.0032427823 0.0012109304 0.0035735145 -0.003883274 -0.00049635937 0.003493706 0.0013659758 -0.0019478671 -0.002172108 0.0038225448 -0.0020005743 -0.0014378557 -0.0023238491 0.00082109263 -0.0007934531 0.0022081523 0.0002811138 -0.00031103517 0.0017364147 0.0014506651 0.002926117 0.0026861036 0.00095795654 -0.001842269 0.0018839618 0.0020037622 0.00149101 0.0014802131 0.003017943 -0.0031853134 0.002998124 -0.0009623137 -0.0033700024 1.094971e-05 -0.00103799 -0.0033873154 -0.0032947585 -0.0018378287 -0.0019061733 0.00035103722 0.0007993824 -0.0018013428 -0.002972073 0.0019992606 0.0036308144 0.00041807955 0.0027436903 0.0002314803 -0.0012303527 -0.0003783145 0.0036701602 -0.00082188705 0.0013662392 -0.0029711565 -0.0015154433 0.0017298074 -0.0008944775 -0.0017220468 0.0026959097 0.00031651952 0.0029749854 0.001848982 -0.0009775631 0.003609727 0.0014019747 0.0021532946 -0.0005782888 0.00042217984 0.0012303008 -0.0010855171 -0.0017708933 0.0009530982 0.0025207696 8.022055e-05 0.0001386484 -0.002220223 0.0034471008 0.002162296 0.0014698822 0.0008112273 -0.0035746915 0.0015726425 0.0034159452 -0.0025319802 -0.0017953055 0.0009998461 -0.0033236565 0.0007003364 -0.0018059113 -0.0028913575 -0.00087055523 0.0025028035 -0.0038265293 -0.0024699958 -0.0023858468 -0.0019285049 0.0019670923 -0.0011776809 0.0032909145 -0.00208602 0.0012006147 -0.0004720655 0.003192607 0.0032689457 0.0030552824 -0.00059607613 0.0037044608 -0.0010211531 0.0007503276 -0.0030856605 0.0024385648
tub 0.0025812443 0.0009065762 -0.002862841 0.0022601022 0.00087231665 0.00094536424 -0.0018631314 -0.0031665112 0.0011204355 0.0028473036 -0.0031202813 0.00066865754 0.003499884 0.0009816417 -0.003067041 0.0029497207 -0.0021387606 -0.0019909353 0.0005638585 0.0037505587 0.0011323665 -0.00376674 -0.0038797196 0.0003895719 -0.00014976937 0.00043224878 -0.0027697452 -0.0034268766 0.0033484271 -0.0035732815 0.003212755 0.0030039563 0.003893452 0.00076214614 -0.0019131231 0.00013357625 -0.0020182824 0.0021677339 0.0034810214 0.0015194545 0.00043190233 0.0022557306 -0.0038919065 -0.003317308 -0.0019358805 0.0020848475 -0.00096706743 -0.0034026229 -7.594011e-05 -0.0019534833 0.0032906097 0.00022614861 -0.0029950403 0.0018187553 0.0012918771 -0.0004758766 -0.0014725879 0.0016303667 0.001849571 -0.0036634123 -0.0010240818 0.0012324107 0.0035253095 0.0035968425 -0.0034008725 -0.0034063247 0.0008794826 -0.0025855284 0.0027773122 -0.002888084 0.0028562306 0.0005380534 -0.00027484627 0.0023624972 -0.0018980646 -0.0023795383 0.003638772 0.0027871183 -0.0011145868 0.0004780467 0.001509129 0.0019471965 -0.0024147367 -0.00037665723 -0.0020372858 -0.00044837152 -0.003246236 0.0030125396 -0.002893055 2.6009677e-06 0.0029465775 0.0010182591 0.0014984073 -0.0020938327 -0.00076361425 0.0011459752 -0.0007189401 0.0013798017 0.0037959877 0.0013453749 0.0021298577 0.00083508564 0.0013425604 0.0005321761 -0.0004202495 -0.0017335425 0.00078016653 0.0033084059 -0.003829745 0.001289854 0.00065459317 -0.002409271 -0.0016892324 0.0035231956 -9.478689e-05 -0.00271602 0.0017133649 0.0019354647 0.00052867626 0.0013319581 -0.0025528215 0.0005634901 -0.0011069478 -0.001695892 0.0015780295 -0.0029702885 -0.0032851966 0.0011840466
surprise 0.0019753226 -0.0014023338 -0.0029621709 -0.0015752598 -0.0029104871 0.00029820463 0.0037251227 0.0038905297 0.0016830373 -0.00058727927 0.002128472 -0.0020773027 -8.284798e-05 -0.0020901172 0.00037595668 0.0033061644 -0.003158767 -0.0024801826 -0.0036835605 0.0022877355 -0.00018033477 -0.0022822234 0.0017683301 -0.00070977956 -0.0012556213 -0.0035711387 -0.001677008 -0.0024715338 -0.002817499 0.0027528077 0.0011555555 0.002887246 0.00040742088 0.00047361993 0.0032178876 0.0033399167 0.00030564575 0.001363307 0.0038643724 0.002897865 -0.0010538538 -0.0018974959 0.0012781619 -0.0011048644 -0.0004739885 0.00054760306 0.0025764646 -0.002920956 0.0009394424 0.0028610057 -0.001890171 0.0028001352 -0.0034305921 0.0036889578 0.0014893237 0.0014989674 0.0011572939 -0.0034563143 0.00074340263 -0.0021965017 0.0033925062 -0.00201417 -0.0033388543 -0.003057119 0.0032838911 -0.00059306715 0.0017013308 0.0011386516 -0.00318125 0.0038053843 0.0025788024 0.0028161507 0.001523721 0.002022139 0.00033753164 -0.00020717304 -0.00093458005 0.0016618168 -0.00090315787 -0.003430888 -0.0019639276 -0.00044701912 -0.00082871434 0.0016540968 0.0022615674 0.0026094262 -0.0031474067 0.0014724786 -0.00028419893 0.0021336488 -0.0036906428 4.403399e-05 0.00057745184 -0.002213573 0.0032686729 0.0027787632 -0.00075535814 0.00038607974 -0.0027082625 -0.0016904697 -0.0017423863 -0.00052370684 -0.0031694185 -0.003267746 0.0028545624 -0.0033571112 0.0028843507 -0.00081129477 -0.0011883365 -0.0012145997 0.0007766467 0.0025512634 -0.0034516826 0.0032938295 0.0027274226 -0.000958372 -0.0024491523 0.003760396 -0.0009805243 0.0006595634 0.0025497123 -0.0038203457 -0.0037249688 0.002638751 -0.0037419866 -0.0017951225 0.0014933901 0.00035307885
solid -0.00062415714 0.0010227025 -0.0032036034 -0.0029600556 -0.0012284569 -0.0035862576 -0.0029603066 0.0036341976 -0.0025085863 -0.00347564 -0.000654736 0.0014779763 0.0031895663 0.00071468257 0.003540816 -0.0008497553 0.0036010752 -7.731897e-05 0.0024522142 0.0005962218 0.0011642539 0.00047328425 0.0027458412 -0.0006251928 1.4051611e-06 0.00028690125 -0.00052231515 -0.0017281352 0.0019299417 -0.0005218529 0.00089680695 0.0027679289 -0.00043772525 -0.0026128157 0.000100341116 0.0025028104 -0.0016560978 0.0028373976 -0.003000387 -0.0022919425 0.0037855713 -0.00033122694 -0.0014115289 0.0020941487 -0.00034927487 -0.0019155735 0.0032736454 0.0011284718 -0.00027289407 0.0033708916 0.0010914789 -0.0028839926 -0.0018784982 -0.00050037575 0.0037057307 -0.003037348 -0.0038124952 -0.0037357104 0.0017347767 0.00090958376 -0.0025286558 0.0016801746 0.0024171704 0.00084442005 0.0037680126 -0.0027179376 0.00383818 -0.0039021345 0.0011039355 -0.0018382852 -0.0017382766 -0.0037889965 -7.8780955e-05 0.0018807687 0.0005381318 -0.00037152052 0.000721669 0.001764728 0.0032471407 0.0019468641 -0.0016972824 -0.00077637733 -0.0010523127 -0.0012217415 -0.00066440884 -0.0012759571 0.0015417797 0.0017734348 -0.0027820256 -0.001363067 0.0013217356 -0.0022605127 0.0024301703 -0.0008286348 -0.00063900073 -0.0020662139 0.003103433 -0.0016149665 -0.0020619982 0.0023036231 -0.003415067 0.00019532056 -0.00044025935 0.0016754891 0.0016688943 0.0025492776 -0.0021463628 -0.00025549837 -0.0014098609 -0.0029787263 0.0017072159 -0.0034184954 -5.095211e-05 -0.0031619244 -0.00349666 0.00030508862 -0.0017913238 0.0021777148 -0.0008470968 0.0027572354 0.0011735325 0.0039031513 -0.0024313198 -0.0036269957 -0.0019813927 -0.0024367378 -0.0037444422 -0.0023782765
texture 0.0012799402 0.0024580471 -0.0031153203 -0.0015487474 -0.001576642 -0.0014834846 0.0003644884 -0.002505239 -0.0011743342 0.0035451406 0.0024375983 0.0008194759 0.0031798687 -0.001531231 -0.003837633 0.0028840187 0.00013999804 -0.00024224762 0.0037574235 0.002079356 -0.0037640322 -0.0018536423 -0.0006810231 0.0021653117 -0.002919788 0.002876815 0.0021775377 0.0013283328 -0.0011094649 0.0017713327 0.001036266 0.00015857344 0.0012247192 0.0024205933 0.0016696086 -0.0024520024 -0.0003825024 0.002648034 -0.0029097982 -0.001198037 0.00097364705 -0.0024943366 -0.0034762255 0.0029279569 -0.0023789592 0.0009813141 0.00029798705 -0.0008606025 0.0006116097 -0.0025718878 0.0011984246 0.0016348313 0.0002717014 0.0031496577 -0.0023271819 0.002942358 0.0033935816 -0.0013971399 -0.00078747625 -0.0012513495 -0.00049044855 0.0033717693 0.0036622991 -0.003865627 -0.002869339 0.0018236772 0.0037538134 -0.0010395711 0.003323494 0.0018483794 -0.0015957791 0.002635497 -0.0014721665 0.0027581656 0.0014804603 -0.0029497843 0.0010391787 -0.0014534069 0.0008754216 -0.00017844909 0.0030278186 0.0013267256 0.002579437 0.0014688672 -0.0008040439 -0.00374056 0.00077787874 -0.0013554188 -0.0029538847 -8.004073e-05 -0.00050079555 0.00026520586 0.001494012 -0.0010748152 0.0023093987 0.0033968696 0.0035455686 -0.002498717 -0.0014582901 0.0030880903 0.00060127425 0.002403995 -0.0030968683 0.003286791 0.002640542 -0.0014262521 -0.00018381966 0.0011505879 -0.00076543505 -0.000667363 -0.0022988424 0.0014967616 0.0034823571 0.0019745457 0.0030031968 0.0019888387 -0.0020720426 -0.0013036767 0.0017426069 0.0030744285 -0.0032386375 -0.003710699 -0.0023780235 0.0020797632 -0.0012038447 0.0019477361 -0.0019577683 -0.0010806212
status -0.0027176854 -0.0013602251 0.002282778 -0.0026834537 -0.00033418435 0.0018138395 0.0014290153 0.0035077326 -0.0034882932 0.0024114575 0.0016621478 -0.0007561461 0.0019079456 0.0015753023 0.0030251204 -0.0034567232 4.823042e-05 -0.00385982 0.00073339103 -0.001901441 -0.0037652561 -0.002517537 0.0017641351 -1.5361e-05 -0.00069375406 0.0025586975 0.003101147 0.0008909543 -0.0017359682 0.0026304221 -0.0031132028 0.0020869258 -0.0017874182 -0.0018822068 0.0036708892 -0.0030602806 0.0029374782 -0.003783909 0.002044145 0.0012297546 0.0032066365 0.0018697224 -0.0005279414 -0.0034371077 -0.0018565959 -0.00043588813 -0.0006068942 0.002033543 0.002641663 0.00023700294 0.0017259327 0.0031247237 0.001088405 0.0020706092 -3.459357e-05 0.0008253864 0.00062402483 0.0006534493 0.00042936948 0.0012489965 -0.0009313272 -0.002605966 0.00026194094 0.0020216238 -0.0014355505 0.003004188 0.00023208855 -0.0011255497 0.0033956044 0.0033747628 0.0010635242 0.0032595575 0.0023161354 0.0012255483 -0.0035742978 0.0010550614 -0.0017147484 3.3310065e-05 0.0020785523 0.001334413 0.0021599114 0.001183179 0.0011453343 0.0021315503 -0.00017529845 -0.0033218046 0.00041208582 0.0029462716 0.001304126 0.0027245113 0.0026360354 0.0031797187 -0.0019734148 -0.0024673084 -0.0026283655 0.0027478905 -0.0038461268 -0.00028670204 0.0037875199 -0.001182294 -0.003361024 -0.0008419633 0.000971893 0.003675764 -0.0010096917 -0.00037152658 -0.0033176835 0.0018440955 0.0013390582 0.0004577817 -0.0035752386 -0.0023726018 0.001303646 0.0001271094 0.0008597147 0.00016871754 -0.0018815878 0.0011025475 -0.0019285579 -0.00014772138 0.0032130317 -0.0030684804 0.0015705933 -0.0014488935 0.0031535793 0.0032333252 -0.003767267 0.00038337268
rainbow -0.0034556084 0.002043006 -0.003361516 -0.0018646114 0.002593717 0.00321767 0.0013716859 0.00176129 -0.0028450706 0.0031208205 0.003457478 0.003421447 -0.0030685035 0.0015488779 -0.0012405766 -0.00076658634 -0.00014644083 -0.0027265165 0.0014288893 0.0037246926 -0.0011548736 0.0029070247 0.0014759483 0.0034535218 0.0024924036 -0.0027785616 -0.0034395545 0.0038404125 0.0021874763 0.0022390066 -0.0020925608 0.002597733 0.0027293481 3.4434837e-05 -0.0017928843 -0.000715286 0.0007263313 -0.0001569991 -0.0012524895 0.0012420411 0.0018141299 -0.0030044126 0.0012741914 -0.0035365804 0.0038877886 -0.0012754992 0.00026531337 -0.002836411 0.002049646 0.0007702045 0.0035996065 0.00023666586 -0.002990607 0.0019123001 0.0006195612 0.003361245 0.00047945898 0.0003392252 0.00062761956 -0.0035152908 0.0012883714 -2.572888e-05 0.00016351801 -0.0004456092 0.0037047013 0.00084009586 0.00118741 0.0024223465 0.0007281719 0.0025336696 0.0033202996 0.0015909678 -0.003671119 -0.0016743747 0.0021506918 -0.0015263391 -6.686435e-05 -0.0027679724 0.0029509782 0.00058617804 0.0010028967 0.0025181517 0.00042022226 0.00044033324 -0.0021484427 0.0022879757 0.0025931385 0.00029670118 0.0021165549 0.0026943425 0.0031378474 0.0020581698 0.0014761017 0.0030912044 0.0030240023 0.0038211227 -0.001829279 -0.00051252067 -0.0038683414 -0.00039235989 -0.002886255 -0.0003264714 0.0035483548 0.0008228964 -0.0038719836 0.0021546984 -0.0022650154 0.0010115121 -0.0031805802 -0.00231137 0.0016591046 -0.0009170576 0.0024221663 -0.0016626315 0.0029069518 -0.0010098709 -0.0016239046 -0.0011714571 0.0032512278 0.0008310802 0.0019389999 0.002458655 0.0026331446 -0.0010043251 0.0029392987 -0.0017034813 -0.0014834341 0.0013354145
weather 0.0029238062 -0.00031296676 -0.0015390761 -0.0035806997 0.0020833348 0.0013121499 0.00019326415 0.0037234453 0.0017911033 -0.0013862237 -0.0024738251 0.0027100625 0.00096222677 0.002514117 -0.0031515313 0.0030113508 0.002401248 -0.0027376877 0.00013567336 -0.0037827261 -0.0009718808 0.0019417999 -0.002400969 -0.0011285421 0.0036850949 -0.0019079436 0.0006215954 4.992786e-05 -0.0032502566 0.002557644 0.0030986338 -0.001763297 0.0006125332 -0.0010353121 -0.0015460192 0.0031911766 0.003059491 -0.0028891088 0.0029550868 -0.0015426403 -0.00029161392 0.0028962074 -0.0018574956 0.0024512718 -0.00029630194 0.0025271978 0.00049520424 -0.0034408036 0.001882838 0.00036946154 0.0024913657 0.0012974535 -0.000521737 0.0007861909 0.002274196 0.0023708388 -0.00023632463 -0.0009808558 0.0023647263 0.0005928174 0.0012909445 0.000770993 -0.0031945603 0.002563524 -0.00030501073 -0.0014073604 0.0034800274 0.0031800142 0.0028573629 -0.003352291 0.0016881904 -0.0025369236 0.0034346483 -0.0007795895 0.0002480121 0.002213624 -0.0026404331 0.0029424443 0.0032522 0.0033968294 3.881279e-05 0.0003083408 -0.003520226 0.0036310572 0.00095660676 -0.0026832367 0.00021593545 -0.0009804759 -0.0035050602 -0.001371396 -0.0007668507 0.0012696452 -0.0009544583 -0.0028472596 0.0023193653 0.0038188756 0.0028978616 0.002937086 -0.003013224 -0.001429887 -0.0012275352 -0.00063484104 -0.0004620483 0.0013614441 -0.001635413 0.0018417327 -0.002878993 -0.001945411 -0.0023995934 1.2454488e-05 0.00035203982 0.0027213285 -0.0027165276 0.0028773122 -0.0009916505 -0.00131549 -0.0030452332 -0.0016687925 0.0010768463 -0.0009951046 -0.00051510666 0.0035286644 0.0008390614 0.003753683 -0.0022519443 0.002707132 0.0033793743 0.001087254
toy 0.0025293436 0.0015749232 0.0012849764 -0.0034071808 0.0024197358 0.00335683 0.0027099266 0.0023214507 0.0010445974 -0.0034083906 -0.0027460714 -0.0011925667 -0.002386821 -0.0036379204 0.0033774336 0.00063806697 -0.0023304697 0.0016690127 0.002451769 0.0023804423 0.0035476976 0.00037161924 -0.0038723655 0.0005801249 -0.0028637298 0.00093171984 -0.0014982326 0.0007433539 -0.0026905003 0.000699688 0.0020791984 -0.000397115 0.00081334024 0.0023743792 -0.0012064625 -0.0018694988 0.003347536 0.0032236304 0.00062459154 0.002155026 -8.622143e-05 0.00045750957 0.0001781193 -0.003796555 0.0024631796 -0.00061284605 0.001530092 -0.002798798 0.00030311773 0.00042669472 0.001040917 0.0011953329 0.001836789 -0.0016371934 -0.0012342267 0.000670698 -0.0011666967 -0.0017184383 0.0016166415 -0.0027777106 0.0016708425 -0.002306522 -0.002103433 0.0036741032 0.0010700071 0.0013991763 0.0005344357 0.0027359517 -0.0034332965 0.001202251 -0.0017803303 0.0011844236 -0.0038835923 0.00063503545 0.00048709617 0.0025147805 0.0023555122 0.0020503085 0.0031002907 0.0032707907 -0.0032152962 0.0024034088 -0.0024162077 -0.0037150201 -0.00016757044 0.0033193983 -0.0019626745 -0.0010998442 -0.0029033632 6.54534e-05 -0.0012585825 0.0026870428 0.0020041466 0.0019390446 0.0026422564 -0.0010380556 0.00011659779 -0.0037869015 -0.0018191987 0.0010714914 0.0031143804 0.0010780179 0.0034649828 -0.0027681016 -0.0003872872 0.00038830287 -0.00017391235 0.0015470635 -0.0034250892 -0.0034375067 -0.00067487895 0.00012264845 -0.0025276775 0.00047818106 0.0007650337 0.0021769786 -0.0015965529 0.0012269991 -0.0015749842 -0.00047587737 -0.0010477416 0.0011859505 0.0019512265 0.002985363 0.002175511 -8.93402e-06 0.0038784258 -0.00087093085
pond 0.0018597388 0.0015094251 -0.0011538777 0.0022785384 -0.002039987 0.0022059337 0.0023640427 0.0005301604 0.0021970964 0.0014718738 0.002117969 9.164142e-05 -0.0029147503 0.0021420126 -0.003539709 -0.0024100365 0.00020583784 0.00052700564 0.0038098258 -4.276793e-05 0.00236203 -0.0014807562 -0.0023004648 -0.0032793134 -0.0016031114 -0.0010436958 -0.0026014214 0.0003687539 0.0016105083 -0.0035312725 -0.00064540736 -0.0036700005 -0.0027423014 -0.00025454056 0.0006992583 -0.0014653049 -0.00012625629 -0.002848152 0.0021567163 -0.0012734677 -0.00135269 0.0013160256 -0.00046265507 -0.0021723225 -0.003290806 0.0013861731 0.00034869264 0.00051312515 -0.0034926694 0.003431275 0.0030885953 -0.0008644111 0.0012608067 -0.0029415272 -0.0030464618 0.0022537392 0.0008821587 -0.0022234737 -0.0032462124 0.00025469618 -0.0008933204 0.00042402177 -0.0015617488 -0.0030890913 -0.0033759992 -0.00014258226 -0.0033018913 0.0032440396 -0.003716265 0.0030701088 0.00087188504 -0.0034385866 0.0030009754 -0.003095686 -0.0032469335 0.001618039 0.00052914256 0.0029611187 0.000226077 -0.0020635927 0.0016369466 0.0035839498 0.0035019515 0.0012795865 -0.0006856056 0.001048307 0.0009947842 0.003663673 -0.0038947836 0.0032528646 0.0032231389 0.00071230956 -0.0003607884 0.0029404955 0.0020284853 -0.0015684705 -0.00087095844 8.139189e-05 0.0013024613 0.0026953279 -0.0025818306 -0.0008308241 0.002632546 0.0020753443 -0.0033304573 0.00012964242 5.5910892e-05 0.00360019 -0.00074997405 -0.0034929211 -0.00023858645 -0.0007175507 0.0018071084 0.0013882172 0.0032415905 -0.0032523733 -0.003557217 -0.00018570546 0.0031657044 -0.0023910333 -0.0030315348 -0.003615324 0.0025295974 0.0031307747 0.0032560653 0.0032906707 -0.0016882346 -0.00028349838
trainer -0.0036120883 -0.002391166 0.00085850514 -0.0025198306 0.00081207673 0.0031076807 0.0030786197 -0.0015102344 -0.003878257 0.00056882674 -0.0036542632 0.0004647509 0.0024235738 -0.00044561055 0.0035004595 -0.0024988444 0.0025689122 -0.0025213067 -0.001787754 0.0013430654 0.001915554 0.00017059984 -0.0029441186 -0.0018425788 -0.0031481977 -0.002978769 0.0024703536 -0.0016375976 0.0012971163 -0.0020705685 -0.0034512647 0.0034550496 -0.0034364837 0.0038919342 0.00332263 0.0023959198 0.0006969018 0.00076980295 -0.0013360523 -0.0010215453 0.0026061242 -0.001212108 0.00013602628 0.0030352657 -0.0028801493 0.00020069629 -0.0019809864 0.0027272226 -0.0010689911 -0.0031646043 0.0019139093 0.002925242 0.0024120514 -0.0013978297 0.0037155817 -0.0029986615 -0.0011592626 -0.0038030013 0.0018302292 0.0028353832 -0.0013143808 -0.0024225772 -0.0036298344 0.0034642415 -0.0026023074 0.0027793949 0.0036245345 0.0021563685 0.0019367938 0.003636036 0.001586644 -0.003597882 -0.0016344474 0.0015417172 0.0021795977 0.0034049884 -0.003470703 0.0017667904 -0.0013881808 -0.0022744345 0.0034956045 0.0038690388 -0.0014545228 -0.0029201738 0.00356739 -0.0024551977 -0.00047916622 0.0033256477 0.0007657351 0.0036218837 -0.0012602283 -0.0032699862 -0.0015934033 0.001849181 0.000717099 0.0038076197 0.0017018361 0.0024483579 0.003254049 0.0004899889 0.0002822065 0.0023971826 -0.0015774546 0.0009992064 0.0005188232 -0.0005042874 0.0030130441 0.0001802629 0.0018553669 -0.00029165085 -0.0015563931 0.00055549905 0.0021979748 -0.00034782322 0.0036968102 -0.00092756556 -0.0034309349 0.0029040927 -0.0013949154 -0.0008963028 0.0016952646 0.0018950352 0.0025319853 0.0022328154 0.0019096112 0.0027959007 -0.0035364814 -0.0003118825
radiation 0.0024407096 0.0029761386 0.002376392 0.0024021028 -0.0025935124 0.0017329636 0.0023489494 -3.3164158e-06 -0.0009792572 -0.00038913233 0.0029681723 0.003505782 0.0017610586 -0.0014180546 0.0038212608 0.0027293654 0.00032447377 0.0010558781 -0.0020017982 -0.0025553934 0.00022425392 -0.0010224415 0.0025341923 0.00010012934 0.002114099 -0.0015210224 0.0037554454 0.0012407504 -0.002762766 -0.00069587916 -0.0014974234 0.0012573565 0.002337677 -0.002112491 0.0028162994 0.0008472788 -0.0017864582 0.0008993974 -0.0038617447 -0.00040718346 0.0028674994 0.00069941697 0.0021983392 0.002913868 0.0025803146 0.0012700818 0.0011088216 0.0026798032 0.0038896468 0.0023373177 -0.0020793083 -0.0019949821 0.0020659917 0.00071642955 -0.0012406032 0.0017058349 0.0021455856 0.001043855 -0.003690421 -0.002293677 0.003854032 -0.003636526 0.0018853425 0.00044152327 -0.0012618401 0.00012707185 -0.0023611481 0.0034952569 -0.00031120534 -0.0015748845 0.00015811036 -0.0029806101 0.0026408038 0.00010044056 -8.9038556e-05 -0.0029562851 0.000679067 0.0022566651 -0.0018783218 -0.00016039837 0.0025666717 -0.0017032011 -0.0028167875 0.0014950805 0.0015209194 -0.0003941359 -0.0024073177 0.0024868564 -0.002003605 -0.0012324131 0.0013724058 -0.0015688495 -0.000118446565 -0.0038947612 0.00080555794 -0.0021554714 0.00027446382 -0.0027006834 -0.0010605607 0.0018097298 -0.000981478 -0.0014875447 0.003001626 0.0022505485 0.0038457657 0.0007076472 0.0019874873 -0.0021405953 -0.0008063233 -0.0020558487 0.00013550626 -0.003511071 0.00040196406 0.0027780705 0.0024726044 0.003506758 0.00045363337 0.0034041072 -0.000501712 -0.0024547337 0.00062161096 0.0028953657 -0.0020806938 -0.002557382 0.0010741076 -0.0028292146 0.0027278292 -0.0031167055
store 0.0037994212 0.0024816066 0.003677503 0.00017771171 0.0011870412 -0.0018656829 0.0010666527 0.0031539723 0.0006626679 -0.00053193717 -0.0026897276 0.00210756 -0.000844747 -0.0038610208 -0.0006462833 -0.00087818375 0.00018785612 -0.0013408168 0.0027097743 -0.00060743955 0.0014787469 0.0024143904 -0.0015520591 0.00015524327 -0.00313411 0.002526568 -0.0010005434 -0.002941469 -0.0037070785 0.0036042652 0.0034654303 0.0034955184 -4.7470265e-05 0.0027157445 -0.0008545145 0.00078824576 -0.0025945406 -0.0024941142 -0.00020065227 -0.0008205191 0.0010105012 -0.0028803428 0.002976206 -0.0028928206 -0.0011940169 -0.0024351848 0.0014901169 0.0035904606 0.0021610595 0.0011652769 0.0026543518 -0.0034677947 -0.0034038879 -0.0033815743 -0.0035297133 0.000716676 -0.0037832404 0.0027332816 -0.00086343504 0.0018240638 0.000944647 0.0019983244 -0.0010718598 0.00019876844 0.0028620202 0.0038334948 0.0032657227 -0.0038096064 -0.0028708384 -0.00023485195 -0.001591373 0.0012424578 -0.0024104358 -0.003473796 -0.00163932 -0.0007970859 -6.2400766e-05 0.0007993494 -0.00066889555 -0.0024227968 0.0010993303 0.0022128432 0.0018395478 0.0020397897 0.0015417035 0.002420248 0.0031846524 0.0033486167 -0.0010652867 -0.002637486 -0.0031178922 0.0038908713 0.0037575848 -0.003840773 2.3792065e-05 0.0030450204 -0.0013831514 0.00013073553 0.0007491019 -0.00081083365 0.0016245728 0.0029644223 -0.0008569882 0.0023592662 -0.0016333323 -4.3789616e-05 -0.0026982292 -0.00033786416 -0.0021389495 0.0007180069 0.0028953769 -0.0035465772 0.00039892466 -0.0030312326 0.0027567858 0.0037432525 -0.00097437436 0.0031714286 -0.0032848043 -0.0013921654 -0.0036045704 0.0023119184 -0.0025452957 -0.0013565302 -0.0031030686 -0.0035226461 0.00014644195 -0.0007104243
slope 0.0028227998 -0.001726718 0.0021834322 -0.0028115918 -0.003100211 0.002788385 0.003552475 0.003292899 0.0025480094 0.00080991746 0.003045519 -0.002435015 0.0015837973 0.003189467 0.00097508554 -4.8689082e-05 -0.0011949134 0.002981052 0.00034378792 0.001847073 0.0025542905 -0.0016928605 0.0010022413 0.0021887356 -0.0014294913 0.0014080615 -0.0024311112 -0.0003482526 0.002319298 -0.0018618138 0.002007829 -0.0028771649 0.0013082923 0.0036390303 -0.00132684 0.00014115087 -0.0033239182 -0.003891961 -0.0028298444 0.0022992676 0.0015619376 0.0025490928 -0.00096500805 4.9302664e-05 0.00013347843 -0.0035760968 -0.002835005 0.0034960003 0.002350657 -0.003615766 0.0036023455 -2.012027e-05 0.0029397744 -0.0011414342 0.0001670818 0.0015828902 -0.0011685141 -0.0011298916 0.0030562382 0.0029495624 -0.0022292037 0.002389527 0.00045152 0.0030626385 -0.0014676125 -6.461153e-05 -0.0015835047 -0.0008666548 0.0014174231 0.0035727513 -0.0034792833 -0.000109164605 0.0005496744 0.0013738656 0.002823232 0.0038962807 -0.0032000649 0.0016430228 0.0023932923 -0.0004830796 -0.0036180192 0.0012326478 0.003870528 -0.0012859979 -0.00078680855 -0.0013011073 -0.003868118 -0.0021291263 0.0008377451 0.0012132715 0.002968098 -0.0035320797 -0.0009420865 -0.0010826179 0.0012204526 0.0029887133 0.0028423637 0.0036552367 4.4421533e-05 -0.0028767448 0.0037192393 -0.0012398208 0.0036310186 0.001696813 -0.0033189545 -0.00332814 -0.0020782778 -0.002643973 0.0035853973 7.100089e-05 -0.0005483594 0.0002562885 -3.7703994e-05 0.0034651633 0.0033339013 -0.0017284253 0.0002213269 -0.0039005508 0.0036240139 -0.0002311011 0.00073065603 -0.0017093994 -0.0011417164 -0.0027387904 0.0026334412 0.0023955712 0.0026453785 -0.0002880539
volcano 0.0011231061 0.0021786168 -0.00016751818 0.0020012087 0.00022272916 0.0025314495 -0.0019837392 -0.0014603214 -0.0025361127 -0.0025361532 -0.0020062646 0.0020286478 0.0030213112 0.003594693 0.00357403 0.000934411 0.002017986 -0.000613266 0.0003040078 0.0032299357 -0.0013981985 0.0035301368 0.0019497579 0.00068542815 0.0035651308 -0.0038524359 0.0035172752 0.0037254607 -0.0035599584 0.0015879107 -0.0018721987 0.00086742267 0.0018438154 -0.0011329667 -0.0028892749 0.003196235 -0.003060376 -0.0016052594 0.00092587975 -0.0036191544 -0.0031598515 0.00016979942 -0.0008136093 0.0034454889 -0.0014841626 -0.0031326395 0.0004010269 0.001471578 -0.0012122616 -0.0015105893 -0.0027379142 0.00073839206 0.0035787493 0.002539598 -0.0011049617 -0.0019300643 0.00031284217 0.0029757204 -0.00059326115 0.0016409805 -0.0036223773 0.0024778547 -0.0023175743 -0.0038563074 0.0014652689 -0.0034066462 0.0015516479 -0.00034205362 0.00030664774 0.00033786605 0.0015976708 0.0010185675 0.0004436532 0.0018189502 -0.0034832433 0.00063382095 0.003802074 -0.0028726452 -0.0028706365 -0.0012011201 0.0007349828 0.002197442 0.0011230734 0.0032303073 -0.0035860797 -0.00035487386 -0.0038817541 -0.0029746774 -0.0010682071 -0.0026288894 0.0027589663 0.0025207344 -0.0011240885 -0.0037190488 0.0009933288 -0.0016332967 0.0008358006 0.0036266937 -0.0008015958 -0.0023762651 -0.00291317 0.0019267221 0.0014609504 -0.00020557949 -0.0003849217 0.002356788 -0.002882969 0.0016306299 -0.0024256788 -0.0022943283 -0.000988154 0.0037711351 -0.0003220658 0.0010542329 -0.0023981761 0.00010416576 0.00010200629 -0.0037293737 0.0015103394 0.0012376012 -0.0024669894 0.0017683922 -0.0017978165 0.001619263 -0.00044932947 0.003150613 0.0020952832 -0.0012719372
target 0.00038777335 -0.0012454375 0.0035626714 0.003726019 -0.0033892626 0.00096573995 -0.002213444 0.0006753801 -0.0016548673 -0.0036687113 0.0035319347 0.0014701554 -0.00230385 0.0013107202 -0.003398391 0.0028357753 -0.0032018232 -0.0003463781 -0.0032247284 0.003568381 -6.3289524e-05 0.002683722 -0.0024258597 0.0020853141 -0.0014974917 0.0038247148 -0.0036496997 0.0029353634 -0.0018179688 -0.0013238011 -0.0029482462 -0.0011317771 0.0010577759 0.00073652045 -8.702252e-05 0.0019261296 -0.0012699272 0.0036980906 0.00030081513 -0.0034971226 0.0009677447 0.0011652383 -0.0018742201 -0.0028756903 -0.0006752011 0.0012494307 -0.0029438643 0.0007827086 0.00054275745 0.0022556128 -0.0017478922 -0.00072642515 0.0025189526 0.0035441837 -3.6865165e-06 -0.002754675 0.0006709441 -0.00046574118 -0.0019242457 -0.001209709 0.00388706 0.0021912805 -0.0024699226 -0.0003650461 -0.001087071 -0.003555127 0.0033411284 -0.0023883372 -0.0009794832 0.0016910834 -0.0019955703 0.0022450443 -0.00087319623 0.002206793 0.0012756691 0.0011514688 -0.00046437015 -0.0017644407 -0.0038466637 -0.003784675 0.0032903543 0.0010866406 0.0032900504 -0.0036878325 -0.0024122477 -0.0039041447 -0.0038592676 0.0018350462 -0.002451098 0.00030990213 0.0025495666 0.0029937893 0.002459213 0.0034617954 0.00018964255 0.00042849785 -0.0013075394 0.0034440632 0.0033696285 -0.0034064134 0.0015178535 0.0004445034 -0.0016787759 -0.0019498289 -0.0014718533 -0.0001756468 0.00038213457 0.00067242107 -0.0035785427 -0.00023738219 -0.0010504054 -0.0014718645 0.001216064 -0.0013178379 -0.001212675 0.0025459344 0.0035104482 0.0026805503 -0.003683617 0.0025697774 -0.0005937493 -0.0017719102 0.0019095119 0.0013710828 -0.0030252424 -0.00088313705 -0.0013533534 0.0021456033
success -0.002880357 0.0012922297 -0.0014852624 0.0010833757 0.0028690668 -0.0019296745 0.0023305723 0.0035041017 0.0031165022 -0.0034636303 -0.002513366 -0.0033099018 0.0033026936 -0.0029803603 0.0014370475 0.0024274108 0.0025396594 0.0035111988 -0.002176149 0.00020610025 0.00079147314 0.002818538 -0.0018921179 -0.0029215897 0.0012660441 -0.0011399098 -0.0034729487 -0.0012363337 -0.0012850304 0.0026856607 -0.0012066397 0.0030348313 -0.002008248 -0.0030082734 0.0004494669 0.0004149976 0.0035179511 -0.00016274053 -0.0025002882 -0.0013898225 -0.0024939515 -0.0016753234 -0.0025015036 0.0033767303 0.003481858 -0.0021271242 -0.0019984753 0.0024501581 -0.0013819997 -0.0028351357 0.0007351522 -0.0030121405 0.0022756825 -0.0026235152 0.002490688 0.003260075 -0.003669664 0.0020187157 0.0033801922 -0.002202087 0.0004531358 9.485708e-05 0.0004613144 0.00072870625 0.0008357322 -0.00084129284 -0.003110276 -0.0024817577 -0.001130019 -0.003553325 0.0037188472 -0.0036885797 -9.366454e-05 0.001714593 0.0010168978 0.00091309496 -0.0028985993 -0.003603913 -0.0032599678 0.002043036 -0.0021511924 -0.002466896 -0.0010948963 0.0032593359 0.0037534807 0.0025460026 -0.0034109144 -0.0010087511 0.0036928614 0.0013138282 0.003010255 -0.0020367631 0.0021009748 0.0017081061 0.0017751318 -0.0018895635 -0.0007520346 -0.0011550892 -0.00292466 -0.0018845984 0.0010614411 -2.717544e-05 3.6221696e-05 0.00022068275 -0.003221358 0.0034978935 -0.0014905317 0.002523648 -0.0027786854 0.00029367686 -0.0020948232 -0.0013030114 -0.00122011 0.0013087261 -0.003833752 0.0022519622 -0.00053373596 -0.0030480938 0.0034559823 0.00043290545 0.002192899 0.0019318346 -0.0036754964 -0.0036065383 0.0004930221 0.0035519945 -0.0014388664 -0.0004664746
script -0.0025668587 0.0017173501 0.0023827592 0.0025104142 -0.0038528347 -0.0004672116 0.0038543562 -0.0019346403 0.0004852642 -0.00059195526 -0.00043605713 -0.0027859805 0.00088023645 -0.0017554951 0.0033749153 0.0030774889 -0.00066341227 -0.0028313382 -0.0011867333 -0.0004085991 -0.001908354 -0.0023003689 0.0019087007 -0.0019459301 0.0024695236 -0.0035119003 -0.0024868783 0.0021449178 0.00053556304 -0.0014965903 0.0031200172 0.00024065153 -1.0859007e-05 0.0008181941 0.0013326416 0.0010098119 0.00033420167 0.0005991663 0.0010819399 -0.0013028373 0.0020005784 -0.0017156859 -0.0017663034 -0.0017876097 -0.00053401606 -0.00049366575 0.0020233314 0.0037386331 -0.00048834406 0.0034278433 -0.000432049 -0.000494593 -0.0031581486 -7.286128e-05 -0.003543919 0.00013239235 0.002898437 -0.00071287766 0.003556882 0.00033677006 -0.00032658037 0.0015650905 0.002699765 -0.00045747653 0.0032463116 -0.0025357811 0.00025508422 0.0020367089 0.00047645762 -2.4688463e-05 -0.003173583 0.0018013354 -0.0011531657 0.00064994453 -0.0027041216 -0.001020143 0.0008931698 0.0010795438 0.0003015324 -0.0007583686 -0.0027528491 -0.000686948 0.0034560948 0.0015211734 0.0023460307 -0.0019337462 -0.0025877354 0.0024322073 -0.0005359732 -0.0028358665 0.003714865 0.0014814988 -0.0028144575 -0.0021008102 -0.003748636 -6.569643e-05 0.003579333 -8.42274e-05 0.0011342642 0.0003985785 0.0038955603 -0.00019486326 0.000706922 -0.0032277724 -0.002700268 0.0033689118 -0.003381163 -0.00012437961 0.0037281818 0.0036443253 0.0032823079 0.0034918212 0.00089932437 0.0038749718 -0.0030447806 -0.00018878841 0.0003894185 0.0031226547 -0.0019295141 0.0011402335 0.002478468 0.002325679 -0.0002492292 -0.00050486485 -0.003752951 0.0010046208 0.0035932625 0.00031113776
share 0.0016536829 -0.0020200617 -0.0030765051 0.0022693237 -0.00042333815 -0.0015052847 -0.0034480866 -0.0012528213 -0.0011403421 0.0013203572 -0.0014648715 -0.0022158916 -0.0036371169 0.00086837524 -0.002797387 0.0036054407 -0.0017247983 -0.0019497155 0.003427994 0.0030531464 -0.003055245 -0.0032665832 -0.0029157586 -0.0016808277 -0.0011354791 -0.0010781018 -0.00038305428 0.0034114912 0.0004397405 -0.0031347356 0.0009878222 -0.0021267277 0.0033000456 0.000994256 0.0017569019 0.0025159197 0.00073719927 -0.0013143852 -0.0020983792 -0.0037626803 -0.0021557545 0.00027642175 0.0032362642 0.0032575082 0.003358473 0.00077176985 0.0018737318 -0.0022827173 0.0018555276 0.0012353604 0.0010910403 -0.0026186015 0.0005482017 -0.0003035043 -0.003191008 -0.0008061402 -0.00342948 -0.0037208293 0.0020809777 -0.0013061212 0.0020337517 -0.0015691592 -0.0038552035 0.0020122994 0.0011973791 -0.0014616447 0.0036078845 -0.002547759 0.0010761082 -0.002854961 0.00067782734 0.0018340558 0.00028194647 0.0034664127 0.002413563 -0.001500274 0.0024396842 0.00012321895 0.0035471115 -0.002875482 -0.0011925386 0.0035079578 0.003299902 0.0013772903 -0.003596175 -0.00088078534 -0.0032345012 -0.001963042 0.001874501 0.0027761874 -0.0029720622 -0.0011770664 0.0037563993 -0.0037578293 0.0031739443 -0.0007364677 -0.0022438616 -0.001487265 0.00031584324 -0.0025735456 -0.0014727712 0.0023195974 -0.00044340096 0.0036487377 -0.00023307659 0.00378217 -0.0008660074 -0.0022665015 0.0019392836 -0.00023345584 -0.0028065145 0.0017162798 0.0031552445 -0.0036545733 0.0019838617 0.0026086003 -0.00035536467 0.00022972983 0.002456053 -6.2193656e-05 -0.0014497401 0.0023537548 0.0038649559 -0.0032485458 -0.0038031389 0.002780244 -0.0009182641 0.0037113058
rule 0.0018549223 -0.0035709145 0.0025177416 -0.0009304214 0.003331553 0.0028421301 -0.00013287073 -0.00077307475 0.002434314 -0.0025571142 0.0033517755 0.0036860919 0.0017023608 -0.0009514184 -0.0006864719 -0.00040072206 0.0036581228 -0.003620596 0.0032856674 -0.0017528945 0.0017112578 -0.0021644111 0.0034132686 -0.0037550658 0.0034331752 0.0033844213 -0.0025364251 -0.0022906929 -0.0028238166 -0.002798316 0.0029770755 0.0017659996 0.0038606545 -0.0037619264 -0.0023110167 0.00080911367 0.001004121 0.003408191 0.0032439383 0.0004944023 -0.0034606615 0.0029413244 6.886784e-05 0.00024705144 -0.0027087913 0.0022057185 0.0019917963 -0.00087007094 -0.0033390713 -0.002360582 0.0005082367 -0.0037479633 -0.0030876182 0.0016964154 0.0018790765 -0.00092652166 0.00021084063 -0.0031471846 -0.0003506383 0.0015652808 0.0026745657 0.0008722496 0.0013802549 0.0033614386 -0.0019878855 0.0034706446 0.00086306455 -0.00022446905 0.00040009466 -0.0037502313 -0.0023767275 -0.00075710076 0.0037045567 -0.002503156 -0.00017408596 0.002724326 -0.0021298544 0.003117177 -0.0015369453 0.0032628675 0.0013433228 0.0017636323 0.001689613 0.0027221213 0.0034935507 0.003790461 0.0034721293 -0.0015988916 -0.0011764774 0.0012139477 -0.002119031 0.00089160557 -0.0012509176 5.4250436e-06 -0.0011037439 -0.00048630618 -0.00039804765 -0.0022015625 -0.00034699257 0.0012778016 -0.0012344741 -0.00074661995 -0.0008922717 0.0038181983 0.0017957105 0.003658964 -0.00060754846 -0.0031321016 0.0023604257 -0.003058417 0.003621171 0.0029451116 0.0028159826 -0.0031369405 0.00025681677 -0.0029330072 -0.0013088323 -0.0034833557 -0.0022760332 0.0026380182 -0.0013198841 0.0009748374 7.90485e-05 0.0029621741 -0.0005906242 -0.0023395205 -0.0011328021 -0.0024264366
stance -0.0018135337 -0.0005696021 -0.001379159 -0.0037209194 -0.0016575113 -0.00076729053 -0.0033036834 -0.00094584835 0.00035958397 0.0008897123 -7.4668445e-05 0.00066909444 0.0017039733 -0.0011070353 0.0005495992 0.0032307403 -0.0017549787 -0.0026561671 0.0023307633 0.0007978573 0.0013490976 -0.0014020649 -0.0002988012 -0.0017074519 0.002697867 -0.002607238 -0.0014692317 0.003853575 0.002103956 0.002684327 -0.0015986548 -0.00046001517 0.0031013612 0.0033878915 -0.0036867086 -0.00093691796 0.0013696487 0.003207592 -0.0022451116 -0.0017404224 -0.001894581 -0.0017956686 -0.001973147 0.0004930358 -0.0007280084 0.0018314068 -0.002157268 0.0034428001 -0.0027255986 -0.0031054593 0.0035871866 0.0005170421 0.00043262384 -0.0037264114 -0.0014947599 0.0008719262 0.003097428 -0.0016923982 -0.0033967157 0.0037454292 -0.0006494988 0.0019857693 0.002159445 -0.0024903566 0.0034302152 0.0036791395 -0.0038120172 -0.0021066621 0.0022953267 0.0019042714 0.0011130662 -0.0005652772 -0.0006736533 -0.0023343954 -0.0028999685 0.00015009372 -0.003154892 -0.0018789496 0.0023801643 0.00051749713 -0.0031666015 1.29026575e-05 0.0027675903 0.002101849 -0.0030772767 -0.0031220717 0.00310546 0.0003286545 -0.0026894016 0.0028141725 0.0011751157 0.0030328354 -0.00017488282 -0.0013622418 -0.0030231662 0.0031950837 0.0016558446 0.00054332777 -0.0028542287 0.0021216546 0.00020484817 0.0021258064 -0.0019106827 0.0022819482 0.0012155797 0.0025613194 0.0017485584 0.0022852398 -0.0014806353 0.0009315018 0.003133789 0.0009207861 0.0029440087 -0.0034035484 -0.0007683911 0.0017548054 0.0036425027 -0.003647228 0.003727186 0.0023466973 0.00026621134 0.000804102 0.0013365974 0.0032316137 -0.0013486942 -0.0016637037 -0.0015536193 0.0035049939
glue 0.000291812 0.0014397273 0.000152927 -0.0035681708 -0.001437757 0.0017524683 0.003596183 0.00084444974 0.0036967094 -0.0021811398 -0.0013094218 -0.0037538712 -0.00069382065 0.0024301512 -0.0020627407 0.00185021 0.0020001193 0.003451987 5.1892853e-06 -0.0012559647 -0.0032194306 0.0011734824 -0.0009772333 0.0006894878 0.0034737496 0.0005738022 -0.0033935108 -1.4109052e-07 0.0019326077 0.0014774079 0.0036016535 0.0017558672 0.0028768352 0.0038803078 0.0009228391 -0.0010113671 -0.00022437329 2.9999694e-06 3.1439288e-06 -0.00047756723 0.002456235 -0.003468952 -0.0025086575 0.0017634215 -0.00010881375 -0.0012697211 -0.0015418917 -0.00080763927 -0.0018899748 0.0026599104 0.0015354591 0.00096784387 0.0027042194 2.4106852e-05 -0.002771359 0.00061770837 -0.0028478743 0.0023826107 -0.0028237992 -0.0015127123 -0.0026113393 0.00091166614 -0.0006948313 0.0002530314 0.0025539848 0.0023021118 -0.0030527594 0.00024646497 0.00045216264 0.001341714 0.00012407415 -0.0008404527 2.5232762e-06 -0.0033875988 -0.0025800152 -0.00031355032 -0.0036547042 -0.0029625273 -0.0008136378 -0.0038951435 -0.0005159827 -0.002056526 0.0035071913 0.0002632779 0.00032568525 -0.0019152543 -0.0011353963 -0.0005775504 -0.0025794841 -0.0009500146 -0.00017093793 0.00019716816 -0.0017509295 0.0024065294 0.00021326625 -0.00046181135 0.0017530666 0.0006376463 0.0034762665 -0.002578702 -0.0032509412 0.0018583202 -0.0023607584 -0.0023531625 9.224851e-06 -0.002591217 -0.0003837781 -0.003320269 -0.0028164848 0.00055529684 -0.0035797278 0.0036818006 -0.0021663178 -0.0014694209 -0.0026970503 -0.0017841125 0.0013035205 -0.0012002103 0.0011963551 0.002643344 0.0024688926 0.0027314175 0.0024583586 0.00017755554 -0.00025949287 0.0012087235 0.0019668234 -0.0009857855
seat 0.0010331881 -0.0009067655 -0.003440153 0.0031298227 0.0024283212 0.000291247 -0.0014949223 -0.00081463176 0.0028955888 -0.0034704315 0.0031272995 0.0031835763 -0.002203314 -0.0013134001 -0.0011945432 0.0019671866 -0.0031386127 -0.0031360495 -0.002874477 0.0018576967 0.0011921047 0.00053875253 0.0017162865 0.0007371938 0.0012004753 0.0028815735 0.0015654336 -0.0006539216 -0.0028811807 0.00061651575 0.0009135095 0.0032851626 0.00025780222 0.0032880437 0.002304472 -0.0018660341 -0.00023880515 0.003875256 -0.0025748545 -0.0008782008 0.0032968638 -0.00040445698 0.0030591963 0.0028489525 0.0005755864 5.6944406e-05 0.002130314 -0.0005582621 0.0035264536 0.0018332488 0.003120654 -0.0033500302 -0.0018058439 0.0025982496 0.00075001776 0.0008358673 0.0017133995 0.0025162934 -0.0021418943 0.0037676336 -0.00048646485 7.245227e-05 -0.00019406342 0.0021663967 -0.0003880416 0.002516014 0.0014904706 -0.0019753098 0.00074572954 -0.002492385 -0.00013993953 -0.0021370694 0.0010595666 -0.0020965824 -0.0017265192 0.0015069416 -0.00073196937 -0.0025440864 0.0030383684 -0.0033335655 0.0017295216 0.0018988833 0.0005176073 -0.0035879062 0.00062440604 0.0015358886 -0.0034586876 0.0020770794 -0.0028515882 0.00067357754 -0.0017296055 -0.0015670579 0.0010949264 -0.00030215867 -0.0005886216 -0.0010579485 -0.0006471217 0.003564253 -0.0024482305 0.0019367833 0.0025404638 0.0031440281 0.0027217346 0.002462196 0.00093722757 0.0011399172 -0.0014329379 0.0011814486 0.00053037185 0.0010234414 -0.0030683905 -0.0024981468 0.003791694 -0.0037938 -0.0010173357 -0.00024252782 -0.00010434578 0.00093931187 0.0013673006 -0.003176834 0.001694986 0.0011798528 -4.7597946e-06 -0.0021161241 0.0026627237 0.0015488926 -1.0504056e-05 -0.0020035289
turn -0.003098558 -0.0037345507 -0.0018586434 -0.00096069963 0.0036565047 0.0036489156 -0.0016331343 0.0031794475 0.0017466274 0.0023405985 -0.0004890507 0.0014920903 -0.0034849956 0.0021763912 0.0018981878 0.0017107187 -6.490446e-05 -0.0027679785 -0.00033672873 0.0028449374 -0.0024897014 -0.0013050133 0.0030772614 -0.00079304643 0.003634246 0.00071294885 0.0035664807 -0.0017784776 0.0027216054 0.0025704966 0.00041804952 0.0023716185 -0.0016515781 0.0012745494 0.00041194388 0.0008158421 0.00218031 0.00032375136 0.0013980101 0.00069906696 0.00019543059 -0.0019468089 0.0018000423 0.0008519377 0.002555834 -0.00027885375 -0.0004813188 -0.00058705057 -0.0022832807 0.003036603 0.002873722 0.0015236514 -0.0002793342 -0.00070743024 0.0018982558 0.0012622013 0.0009790114 -0.0034142572 -0.0014883977 0.0015718425 0.00057993975 0.003884953 -0.002202045 0.00028589994 0.0033742453 -0.0022534104 -0.0025211037 -0.0024379853 -0.0034077356 0.0026750476 0.0022014815 -0.002919973 -0.0017224251 0.0034222463 -0.002656848 -0.0028684158 -0.0030282603 0.0011982567 -0.0001451617 -0.0033309401 0.00075778575 0.0027977868 0.0010532779 -0.0012239127 0.002388232 0.0019666092 -0.0035525346 -0.003649926 0.0010992461 -0.0021049206 0.0022124085 0.0034889597 -0.0023225858 0.0019354244 0.0027456542 0.0038452481 -0.002094778 -0.0010899634 0.0017227767 -0.003824417 0.003576804 0.0027409128 -0.0010676162 0.0004961254 -0.00018333226 0.0026781557 -0.0006645706 0.003643821 7.831106e-05 -0.002120896 -0.002380049 0.00040088152 -0.0012343939 0.0037291953 0.0013214799 0.0014107653 -0.002120278 -0.0025525584 0.0036328544 0.00095773785 -0.0023897376 -0.0033859045 -0.0009788986 0.0013100859 0.00030227477 0.0038603996 1.2051755e-05 -0.001756943
soldier 0.002464733 -4.1207346e-05 -0.0032448655 0.0026109791 -0.000584071 0.0019198274 -0.00014650647 -0.0035607154 -0.0002893312 -0.0013596867 0.002893325 -0.002612776 -0.0006933188 0.0019023778 -0.00054418173 -0.00077333115 0.0032078417 -0.0017042655 0.0014946365 -0.0005431396 0.003587103 -0.0018602936 0.0020142738 -0.0029576602 0.00030187744 -0.00089364045 -0.00040373785 -0.0019936585 0.0035290997 -0.0010853175 -0.0033683714 0.0028557756 -0.0038813213 0.0022383549 0.0033190679 0.0026736013 0.0010669755 0.003835019 -0.0010692718 0.0006846118 -0.0016698434 0.0011164631 -0.0025046174 -0.003069269 0.0020510023 -0.0015299524 -0.0028118494 -0.0022847967 0.0028970777 -0.00070623535 0.0017822327 0.00019057926 -0.0025166995 0.0018991532 -0.0015950039 0.002907996 0.0022634414 0.0020229851 0.0027420137 -0.00020020978 -0.0023067011 0.0035398796 0.003697304 0.0035662376 0.0024044071 -0.0010572014 -0.00215369 -0.0022579306 -0.0012706739 0.0038575884 0.0032459823 -0.0027048169 -0.0020641948 0.0008365835 -0.0016497636 -0.0032213787 -0.0031761709 -0.0010637516 -0.0023876545 -0.0024032723 -0.0028527179 -0.0005055797 0.0034144428 0.0032362386 -0.0037955658 0.0013618851 0.0021124142 0.0005795961 0.0017444855 0.003512606 -0.0003570921 -0.0038469012 -0.0027701785 0.0008918922 0.0036621378 -0.0034119892 0.0010648615 0.0020611752 0.0017605411 -0.0019500046 0.0026981847 0.0020142568 0.0019439147 0.002829479 0.00056548906 -0.0007587244 0.00019965824 0.001717785 -0.00030538448 0.0006902849 -0.001487772 -0.0038590056 -0.0006683478 -0.0010513262 0.0022702757 0.0015554285 1.3552746e-05 0.001391785 -0.0009530874 -0.000640867 0.0012878967 -0.0037896193 0.0029538914 0.00033728583 0.001255733 -0.0010722543 0.0018580882 0.0020146007
purpose 0.0037649148 0.00012256284 -0.0005331504 0.002148961 0.00084714656 0.0026179971 0.0020379263 0.000501756 0.00043300065 0.0026984531 -0.002747728 0.0012392325 -0.0031952504 -0.0007431469 0.0030977998 0.0015775762 -0.0022167522 -0.003171095 -0.0032580586 -6.045595e-05 0.001728112 0.0029757302 -0.0007385561 0.0001215861 0.003266397 -0.0016685337 -0.0030331 -0.0018244182 0.0014899235 -0.0029794802 0.0032287298 -0.0026071905 -0.001946604 -0.0029991607 0.0018276137 -0.0002627148 -0.003752816 0.0018192776 -0.0037895145 0.002747079 -0.0017577743 -0.00046462283 0.0036343965 0.0015759105 -0.0006653053 0.0020049117 0.0015954426 0.0014716274 0.0016020016 6.365234e-05 -0.0036636756 -0.0006094406 -0.0001844856 0.0023952425 -0.0017437999 0.0011170394 -0.0022872644 0.0037178425 0.002506125 -0.0010269082 0.0038815313 -0.003220202 -0.0026993717 -0.0016778458 0.00074718916 0.0036822362 0.0037977428 -0.0037371824 0.0014768012 0.00014720036 -0.0010275481 -0.0019020163 0.0014029145 0.0034265579 -0.0024809828 0.002867775 0.0016170753 -0.0010035741 -0.001575832 0.0027612941 0.0010588707 0.0033991276 0.0028450368 -0.00252521 0.0038342988 0.000944192 -0.0010630859 0.0014464982 0.0002124699 -0.0024823265 -0.0016843969 0.0039054956 -0.0027484908 -0.0011875945 0.0013522395 -0.003571607 -0.0010234852 -0.0014427779 0.0008581816 -0.0023417901 0.00061369006 0.0010473349 -0.003207595 0.0020046376 -0.0011876877 -0.000602633 0.0029133775 -0.000813674 -0.001994301 0.0021805388 -0.00066195626 1.3352202e-05 0.0028792417 -0.0027884904 -0.0022781782 -0.0004946983 0.00014988413 0.003618027 -0.00046461003 -0.0034294885 0.0033765992 -0.0032056514 0.003392263 0.0028263796 0.003496395 -0.0028446452 8.996051e-05 -0.00012194466
print -0.0014933584 0.0009495049 0.000551673 -0.0013695699 0.0024305636 -0.0007702445 -0.0010852712 3.475471e-05 -0.0016915407 -0.0020922117 0.0010990713 -0.0035056628 -0.0011292372 0.001068382 -0.003226039 0.00280748 -0.003085283 -0.0021155945 -0.0009137788 -0.003371036 -0.0034535613 0.0006371055 0.0002973119 -0.0011533635 -0.00035418227 0.0009247118 0.0019815664 0.0019012338 -0.0020981198 -0.0013532438 -0.0009579991 0.00072984677 0.0009501709 -0.0028954027 0.0009359587 0.0016329304 0.0017441681 -0.0036183086 -0.0013145322 -0.0011572588 -0.003416299 -0.002359489 0.0017874188 -0.0031126689 0.0034953402 0.0030147918 0.0003021131 -0.0014442764 -0.0003163477 -0.0007570867 0.0030866035 0.0032917121 -0.0018152108 0.0019057048 -0.0011247554 -0.0038876499 -0.0038246312 0.0012525647 -0.0035225863 -0.0036059124 0.001082962 -0.0024581451 0.0011068269 -0.0023488593 0.0031060732 0.0012939583 -0.00024286096 -0.00029565685 0.003383517 0.0027736297 -0.0023982455 4.996568e-05 0.002487876 0.0022188216 0.001860057 0.0015855957 0.0023747731 -0.00025087383 0.0024822864 0.003224294 0.0012546298 0.0008581653 -0.0025082622 0.0037017635 -0.0008413076 0.0021187072 7.03402e-05 -0.000873382 0.0030603148 0.0021746187 -0.0023049146 -0.000486707 -0.0027346306 -4.312768e-05 -0.0032820597 0.00091364863 0.0027655456 0.0037434122 0.0016302916 -0.0018233459 0.002058111 0.003836417 0.0020474663 0.0020116197 -0.003543137 0.0012105941 -0.0023829492 -0.00040575676 -0.002897788 0.0016240799 -0.0036645676 0.0016624947 -0.0025138033 0.0012012067 -0.0038377612 -0.0007693098 0.0033177382 0.0025466713 -0.0009165732 -0.0028541656 -0.003404805 0.0025910635 0.002760205 -0.0012190853 0.0013285392 0.0015614486 -0.00028354145 0.00067348924
place 0.001612385 0.0032147914 -0.0004155556 -0.0021621662 0.002746908 -0.0007958642 0.0017986008 0.003814859 0.0019668965 0.00028185482 -0.0004408381 -8.211716e-05 0.0005395751 0.0010126795 -0.0022821212 -0.0035457385 0.0021926912 -0.0020130198 -0.00056319963 -0.0035439949 0.003670133 -0.0027650672 0.0012495179 -0.0027073752 -0.00073450495 -0.00041345792 0.00053028663 -0.002127701 0.0032455656 -0.00026873307 0.0028527388 -0.0008332189 0.0005233853 -0.003156784 -0.0017586803 0.0024702041 0.0014537704 -0.0026254603 0.0033166544 0.0017516303 -0.0020485723 -0.0017592454 -0.003272405 -0.0024488354 -0.002503781 0.0021941634 -0.00075812405 -0.0031266587 0.0010218808 -0.0015170278 0.002872576 -0.001135824 -0.00046906437 0.0012163644 -0.00025785805 -0.0012091337 -0.0015999756 0.003441557 0.002790193 0.0032498776 0.00040999285 -0.0021113618 -0.0007957197 0.00088655954 0.001444525 -0.0035797684 0.0013441704 -0.003814757 0.0023540151 -0.0024601656 0.0019034958 0.0009121887 0.0009841216 0.0038032332 -0.00014312431 0.001456988 0.001276444 0.00075852725 0.0037025085 -0.0005887768 -0.0014283408 -0.0036247 0.0028089911 -0.0006314658 0.003678023 0.0026418406 0.001678039 -0.0027342103 -0.0022823259 0.0026487203 0.0027339472 0.0015729546 -0.00081232726 -0.0007501288 0.0027661622 0.0026547962 -0.0013911439 -9.6466e-05 -0.002996206 -0.0015540103 0.002925672 -0.000548884 0.001035652 0.00209446 -0.0020399678 -0.0024288278 -0.0037433284 0.0026314051 0.0027378774 -0.0022241387 6.257301e-05 -0.0017863923 0.0006546791 -0.0013685285 -0.0036193936 -0.0022528097 -0.0027208242 -0.0036582763 0.0031877158 -0.0011428838 0.0017191477 0.0010736812 0.0022927318 0.002179735 -0.0030496293 -0.0019107106 0.0032444126 -0.001521437
opening 0.0034698811 -0.00055688125 -0.0003816679 -0.002222611 -0.002842368 0.0029191065 -0.0036764084 -0.0023735927 0.0016906178 -0.0025548504 -0.0013445122 -0.0011335122 -0.00050087867 -0.001089992 0.00083373836 0.0017126808 -8.958179e-05 0.0015860336 0.0033294456 0.0012154295 -0.0021950963 -0.002329565 -0.0016869431 0.0032409893 0.0008714486 0.00020270585 0.0013949375 -0.003406646 0.001340418 -0.0005506787 -0.0021677553 0.0038824927 0.0016729932 -0.0025027695 -0.0023365086 -0.0033565047 0.0031276017 0.0015336015 0.0009919105 -0.0038506163 -0.0034410255 0.0013024497 0.0022528265 -0.0035435574 -0.0009972176 -0.0036813861 0.00049951155 0.0015607575 0.0037887492 -0.0017831738 0.0016144029 0.0012228156 -0.00067358016 0.0028773497 -0.0007947989 -0.0010435333 0.0017091867 -0.0025563105 -0.001888073 0.003805999 -0.0007223263 0.0018918816 0.00058155967 0.00013916177 0.0016594699 0.0026487664 -0.0018564744 0.0016763933 -0.0013935304 -0.0034784402 -0.0015478212 -0.00010441929 0.00043821783 -0.0024775967 -0.003621936 8.90699e-05 -0.001961208 0.003265775 0.002344221 -0.0035284336 0.0016918756 -0.0024416493 0.00034132367 -0.0009552508 -0.0021374573 0.0006239334 0.0022939206 -0.0018819222 -0.0014152812 -0.00022174443 -0.0034284818 -0.0038915907 0.0007762315 -0.0018909327 0.0013504424 -0.0031991801 0.0022231087 -0.0019427787 -0.0038392553 0.00089557725 -0.002658749 0.0018122429 -0.00070221175 0.0020977173 0.00039092594 0.0013657619 0.00010021345 -0.0028997357 0.0005408154 -0.00017804334 -0.00085077446 0.0005151322 0.0012589947 -0.00014063793 3.703144e-05 0.0027478402 0.003140732 -0.0009928173 -0.0029793975 -0.0035433876 0.0033799214 -0.0024399124 0.0038253556 0.00088193023 -0.0012879794 0.0016261156 -0.0007879993 0.0023873167
skiing -0.0014738962 -0.0021312218 -0.0004375159 -0.0012353573 -0.00038092944 -0.0028674095 0.00040628578 0.0024041384 0.0031200668 -0.0036597315 -0.0038118868 0.000618214 0.00089311675 -0.0030274289 0.0005535661 0.0033635376 0.0034262342 0.0033236747 0.0007003207 -0.0035327242 0.0035311999 0.0024092288 0.0025635837 0.0010588017 -0.00026589216 0.003010219 -1.367459e-05 -0.0010611205 -0.0037168048 -0.0020961433 -0.003503085 -0.00042382212 8.22574e-05 0.00068113947 0.003320951 0.0024725588 0.0020127746 0.0016196177 -0.0001353359 0.002216166 0.0023602785 0.00010028423 0.0038900932 0.0010598237 0.0008099342 -0.0024747532 0.0011611904 0.0013698263 -0.00024460786 -0.0033284675 -0.002608581 0.00010101483 0.00038517528 -0.0034843849 0.0023589893 -0.0022594568 -0.0018088006 -0.0019335157 -0.0038079785 -0.0015046725 -0.00060046004 0.0025123474 0.0020267882 0.0017452614 0.0010866725 -0.0022201028 -0.0018920827 -0.00096776744 -0.0011327357 -0.002703004 -0.003529727 -0.00380025 0.003717599 -0.0031788428 -0.00266259 0.0016550396 0.00016806425 -0.0005688662 0.0026442057 -0.000972831 0.0011172257 0.00044820664 0.0013660326 -0.0034280282 0.00086851884 0.000744995 -0.003744765 -0.003454108 0.00065980025 -0.0029732443 -0.0033900877 -0.0013625745 -0.00091306196 0.0034334494 -0.00016729612 -0.0015138335 0.0022972191 -0.000881146 -0.0033969479 -0.00016641499 -0.0028601876 -0.0031573232 -0.00058253016 -0.00020302185 -0.0038159434 -0.0032338535 0.0036840409 -0.0023009258 0.00088436785 0.0024550925 0.0030322801 0.00012895708 0.0024102842 0.0019391129 0.00014556857 0.00034290805 -0.002546401 -0.002083428 0.0038290434 0.00019605318 0.0012930577 -0.0005211306 -0.0023486596 -0.0022864507 0.0027273344 -0.0007035949 -0.0024070314 0.0034666217
window -0.00013786915 0.0033579485 0.00046884964 0.0028010285 0.0032407271 -0.0030142437 0.0020684097 -0.0012770143 -0.0019071116 0.0016464556 -0.0017856922 -0.0016363455 -0.003501354 -0.0030710858 -0.00067244936 0.0016296086 -0.0005457758 0.003786765 -0.0020261582 0.0014641528 -0.0016856443 0.0019981356 0.00022054338 0.0025008556 0.0006643789 0.0034179308 0.0037080832 -0.0037014133 -0.0031433438 -0.0029060717 0.002841192 -0.003342715 0.0003276156 0.0032208676 -0.003867199 -0.0015191954 0.0009490887 0.0030769692 -0.001684147 -0.0032033825 -0.00030776174 -0.0030733694 -0.0038412292 -0.0021012903 0.0023350483 0.0022449594 0.0029144583 -0.0018824441 0.0031308439 0.0038543933 0.0009250824 0.0016017132 -0.0014149935 -0.00015128037 0.00042233226 0.002480354 0.00011986374 -0.003389955 0.0003598838 0.0024089015 0.0010317385 0.0023362464 -0.0003392199 0.0019937009 -0.002690436 0.0003964345 -0.00010601194 0.00035480113 0.0022131226 0.0028872322 0.0013387833 -0.0032092023 0.0037297753 0.0026286226 -0.0020338208 0.0032127313 0.002845814 -0.0023007782 -0.0005552626 0.0020714884 0.001762338 -0.0012297216 0.0021127225 -0.0007747563 0.0031014502 -0.003628758 0.00091790094 -0.003566094 -0.00038747027 -0.0016792405 -0.0026795045 0.0012286812 -0.0035330488 0.0020849386 -0.002983994 0.0029672363 -0.00021790464 0.00086153613 -0.0008262359 0.0018572854 -0.002633229 0.002294936 0.0037580093 -0.0024185346 -0.00015232417 -0.0007029409 0.0025454103 -0.0016060116 -0.002815219 -0.00033833442 0.0014606258 -0.00045792246 0.002965528 -0.002860064 0.00030076646 0.0027430577 -0.0026144874 -0.0024336262 0.0013045208 0.00013060225 -0.0004317274 -0.0024542958 0.0022612677 0.002340226 0.0019982113 -0.0036920866 -0.0013286469 -0.002391532
wear -0.002282455 -0.0020325503 0.00090965035 0.00046014573 -0.0026911416 0.0031055966 -0.002905764 -0.00015380692 -0.0021220788 -0.0013444765 0.0023358916 0.0024965254 0.00046948253 0.0008372085 0.00073339464 -0.0022415777 -0.0019947935 -0.0027021389 0.003342241 -0.0007721704 -0.0033307415 0.0025601515 0.0038627486 -0.0019100046 -0.00044338117 -0.0013596297 -0.002139075 -0.0015408566 0.0026722047 -0.00208091 -0.0030173399 -0.0027874361 -0.0013422846 0.0019463857 -0.0014977211 0.0032641646 0.0029366922 0.0029171614 -0.0018763734 0.0025614765 0.00036479018 -0.0024263088 0.003339874 0.0031247428 0.002959243 -0.0029350042 -0.003156597 -0.00021538691 0.0008475219 0.001809428 -0.0015916732 -0.0023578855 -0.0030223294 0.0026303763 -0.0005606026 0.00060848275 -0.0033970836 0.0014010725 -0.0013796366 -0.0021664393 -0.0023438185 0.0014205265 0.001845707 0.0022044322 -0.0013868237 -0.00025862304 0.00037348812 -0.0001370936 0.0004841596 -0.0037882046 -0.0012834969 -0.002581273 0.0019549746 0.00095110515 0.0012753401 0.00022434462 0.00379703 0.0009822034 -0.0010783249 -0.000587234 -0.0018681873 -0.0015702139 0.001853321 0.0010013382 -0.0028418265 0.0029946323 -0.0023575271 0.0016096529 -0.001240867 -0.000591649 -0.0005870053 -0.0016744339 -0.00088719773 -0.0008215662 -0.0019881004 -0.0012332561 -0.00015284999 -0.0015406716 -0.0021948745 -0.0025197314 -0.0022150564 0.0033591806 -1.530416e-05 0.00241614 0.0017161301 0.0012807586 0.0015380617 -0.0023477972 -0.00050690136 -0.0011571916 -0.00016898593 0.0033920624 -0.0004368261 -0.0022057395 0.00017169338 0.0029586966 0.00011707641 -0.0011322944 -0.0010463673 0.00095690554 0.003395109 0.0036169956 0.0032374247 -0.0032918663 -0.00027495672 0.003731194 0.0036355087 0.00034379814
orange -0.003627086 -0.000110293004 -0.00087087933 0.0032281089 0.0015352597 0.002478709 0.0036251037 0.0025076007 -0.0024613515 0.001085907 0.0030926282 0.0015529018 -0.00023566135 0.00083411747 -0.0005720465 -0.003115323 0.0032813558 -0.0012490106 -0.0006944101 -0.0032466883 -0.00042209358 0.0013711815 0.00048446364 0.0035699273 -0.0015147437 -0.0019031096 -0.0038466281 0.002462141 0.0010481185 -0.0025891874 -0.0026800293 0.0023227187 0.0028437497 -0.00032350363 0.00022744689 1.1918691e-05 0.0020555595 -0.0015456768 -0.0007812936 -0.0013646996 -0.0020521174 0.0038646827 2.1839554e-05 -0.0027597148 -0.0032165856 0.0011843065 0.0026985172 0.003311257 0.0039060335 0.00026205185 -0.0015334619 0.002281018 -0.0026981686 -0.00013551865 -0.0010343126 0.0011926179 0.0021617932 0.0010765527 0.0023738255 0.00031880708 -0.0025383746 -0.0021417409 0.0005122473 0.0013272734 -0.0012387816 0.002344222 0.0014190887 -0.0004034035 -0.0004258722 -0.002995839 -0.0026697582 0.0008597769 0.0033263848 0.00060011796 0.0002746269 -0.0025334638 0.0009048131 0.0022958 -0.000798128 -0.0028924511 0.0017599262 -0.002949998 0.0028113802 -0.0009778118 0.0007030852 -0.0012205559 -0.0015786956 0.0019139485 -0.0006480983 0.0007772651 -0.0024381657 -0.0031981769 0.0036771626 0.0023142276 -0.0012435231 -0.0024613792 0.0028354418 0.0012437124 -0.0015959864 -0.0008060545 0.0034254894 0.0010124962 0.0026500996 -0.0026208677 0.00048884394 0.0029168648 0.002547832 0.0025348593 0.0014642356 -0.0034582682 -0.0024524345 -0.00035607952 0.0022124378 -0.0032178406 0.002818903 0.00017034529 -0.00069013785 -0.0012565779 -0.003299396 0.00089738745 -0.0028445153 -0.002912037 0.00085080223 -0.0026204574 -0.0026773647 -0.0022176488 -0.0032969771 0.003174894
travel -0.001562737 -0.0012430411 -0.0030991384 0.0021906076 -0.0018474021 0.00075875677 -0.0007336259 0.0015112477 0.0010111696 0.0034331887 -0.00015287487 -0.0038217104 0.0028295938 0.0024431804 -0.0024358456 -0.0021002288 0.0023326199 -0.0016988296 -0.0023952457 -0.0006760607 0.00072012405 0.0004354042 -0.0026677141 0.0032488978 -0.00083971384 -0.0012218 -0.002881649 -0.0015099072 -0.0025633224 -0.00051320833 -0.0018408858 -0.001329128 -0.0036644344 -0.0038478572 -0.0027540184 -0.0025847952 0.0034606522 0.0028923927 -0.0037214966 -0.0015142551 0.00013735711 -0.00058919325 -0.00045077785 -0.0006536383 -0.0017887354 0.002663777 0.0022143002 0.0017155946 0.0007084274 0.003304163 -0.0014111103 -0.003398209 -0.0024255796 0.0032075353 -0.00043029923 0.0034853609 0.0034884333 -0.0033522812 0.0010173916 -0.0005296747 -0.0026269285 -0.0018665395 -0.0028364433 -0.0030607372 0.0005791038 -0.003441718 0.0015946857 0.0035487295 -0.0017111525 0.00018093812 0.0024149853 -0.0016719196 -0.0038492878 0.0025544018 -0.0031597326 0.0018981876 -0.0024236734 0.00077881454 -0.0014521617 -0.0011541735 -0.00017916998 -0.0017372019 -0.0017825168 -0.0029210884 0.0006053081 0.0024114486 -4.0759725e-05 0.0031944157 -0.0019414873 -0.0031076956 -0.0034927453 0.0015547664 0.0011508983 -0.002926827 0.0024689082 0.0032261063 0.003718846 0.0019023836 0.002453616 -0.0017365707 -0.002831729 -0.0033283308 -0.0016150534 0.0028422738 0.00029112268 0.0030782237 0.0013562636 0.00207438 -0.0022623455 0.000992555 0.003443506 -0.0019021089 0.0012380816 -0.0014613374 -0.0037210935 0.0025620225 -0.00082789885 0.0038046206 -0.00061045337 -0.0017844177 -0.00065580866 2.8687728e-06 -0.0019654592 0.0031598432 -0.0016531281 -0.0034676902 -0.0033079593 -0.0010648277
distribution -0.0036192248 1.2583632e-05 -7.9247904e-05 0.0015227697 0.0008200014 -0.0024356786 -0.0014298522 0.0021437719 -0.0008416209 4.7664216e-05 0.001379547 -7.602226e-05 0.003309071 -0.0036430836 -0.0031014667 0.0019069068 -1.0211583e-05 -0.00089034426 -0.0023221 0.0018736103 0.0033873774 0.0016164118 0.0004225078 0.0034189257 -0.0036202648 0.0034547024 0.002805494 -0.0023814978 0.0038764456 0.0007763294 -0.00011112528 -6.0291834e-05 0.0030781156 0.0013994583 -0.0032902027 -0.0013943452 -0.0005096533 -0.0016996926 0.0024384344 0.0026127985 -0.00018966416 -0.0006433946 0.00015350037 0.00058914284 -0.00239918 -0.003197399 -0.0038320802 0.0017569617 -0.0034225702 0.001886263 0.00032886406 -0.00066592474 0.0036608947 -0.0027258515 -0.0017626613 -0.0015062547 0.0016998185 -0.0033390177 -0.001312973 -0.00017691455 0.0018226637 0.0033056021 -0.0030996273 0.0026141382 0.0010510356 0.0028276474 0.0029502225 -0.0003201459 -0.00070527743 0.002564092 0.0017986303 -0.000837097 -0.0007104369 0.001660137 -0.00235381 0.0015435943 -0.0009820826 0.0025268155 -0.0014136799 -0.00041399404 0.0021679664 0.0029789128 -2.816989e-05 -0.002265504 -0.0031364856 0.0014026416 -0.0010224528 0.0015204593 0.0021131546 0.0018411074 -0.00081056065 -0.0032397977 0.0032505782 0.0024651757 0.0030163953 0.0017382437 -0.0024671457 -0.0033944044 0.0036519864 -0.0033015693 0.0026285104 -0.0026152465 0.002995901 -0.0010229098 0.0008031716 0.0028818822 0.00017365885 0.0015462756 -0.0021040004 0.0017883842 -0.00345067 0.0032502394 -0.002995728 -0.0007849763 -6.1211e-06 0.0017944232 -0.0004999032 0.0025042607 -0.00027548135 0.0020185886 0.002526436 0.0030309577 0.0031821663 -0.0024681408 0.00036935345 0.0037625358 -0.00053373055 0.0007812478
wind 0.0026188078 0.0013132036 0.0008775591 0.00086380186 -0.0030088206 -0.00289761 0.00059441815 0.0038388495 -0.0037915825 -0.0033749177 -0.0027502496 -0.0022826619 -0.0018088766 -0.002085608 0.001049687 -0.0030702304 -0.0029406867 0.0014951568 -0.0015147286 -0.00034708975 0.0012756243 0.00085962954 0.0030865713 -0.0008467355 0.0018278743 0.0017143298 -0.002551273 -0.0007665105 0.001972567 -0.0002399539 -0.0032893706 0.00091124227 0.0026455803 0.0024145273 -0.0011111045 0.0037059525 0.0030167869 0.00075850484 -0.003393622 -0.0008953846 0.0024940604 -0.0029415656 -0.0031804342 -0.001191295 -0.0009472741 0.00093952887 0.0034377545 -0.0006238678 -0.0018696265 0.0005328744 -0.0017480765 -0.0018722715 -0.001883222 -0.0036906651 0.0010608886 0.0019176222 -0.00083538995 0.0014164939 0.003406968 -0.0034119627 0.00043026728 0.0033073758 0.00022382246 -0.0023749112 0.0037638533 0.00038188795 0.0016915885 0.002324887 0.0014375718 0.0011197792 -0.002348409 0.00050222006 -0.0036896719 0.0005943068 -0.002864357 0.0011921166 -0.0034160647 0.001822382 -4.305596e-05 0.0017856772 -0.0028753057 0.0013039811 -0.00084361347 0.0010379256 -0.0029231845 -0.0018852688 -0.0028718135 -0.002487989 0.0017797777 -0.0032450096 0.0009467654 -0.000983611 0.0016817623 -0.0012644236 0.0019914971 0.00063234085 0.0013912496 -0.0037529513 -0.0025618467 0.003590094 -0.00177302 0.0031531972 0.0020665796 0.0033762648 0.00019224324 -0.003712463 -0.0015817018 -0.0011979617 0.0017607273 -0.002624954 -0.002442796 -0.0019205055 0.0017800028 0.0030296913 0.0005080838 0.0009902418 0.0008981942 -0.0032945776 0.003521647 -0.00038169746 0.00072180625 0.0028549866 0.00033704672 0.00017861115 0.0035288527 -0.0023789967 -0.0015359104 -0.0015922637
tail 0.00020558928 0.0025192979 0.0035466459 -0.0036361965 -0.0019557537 0.00050809357 0.0012366978 -0.0033772218 0.0003328775 0.0037114 -0.0016777532 0.0033220327 0.0012435603 -0.0011732886 -0.000568452 0.0013837419 0.0025472948 -0.003705156 0.0012122988 0.0018220599 0.0012391014 0.0002866097 0.0024745269 0.0038845479 -0.0012493109 0.0036804385 -0.00081450865 -0.0037828654 0.0025511011 -0.0008336899 -0.0032622751 0.0030658236 -0.0036990116 0.002854849 0.0035700088 0.0011602491 0.00067924923 -0.0020428533 0.0025681793 -0.00065150234 -0.00084288104 -0.00080294197 0.0018115408 0.0024672204 0.0011639514 0.002272234 -0.003867013 0.0022235992 -0.0009487326 -0.0025379274 0.0030027921 0.0014689957 -0.0020258874 -0.00027576217 -0.003111109 -0.0021154108 0.0006133645 0.00051637937 0.0026592184 0.0011203558 -0.00046793986 0.00029743198 -0.0018638062 -0.0019644308 0.0036402433 -0.0035567775 0.0004115879 -0.00027416038 -0.00077704247 -0.0028780487 0.0007954423 -0.0033585564 -0.0013892516 -0.0003290655 -0.002645901 -0.0020586988 -0.0037631798 -0.0012672002 0.0035532848 -0.0024601778 0.0015841372 -0.001462877 -0.00036103424 0.0032540204 -0.00047210665 0.0016970339 -0.003202545 -0.00070943165 -0.0017256532 -0.0020661894 -0.001099071 0.0018823873 -0.003518328 0.0037765 -0.00049927324 -0.002660315 0.00066986476 0.0027119692 0.0029950563 -0.0021058386 0.002195267 0.0010562578 -0.0015337244 -0.0023989067 -0.0015721059 -0.00040213318 -0.0028885358 -0.0018864209 0.0030251816 -0.0006581627 0.00061691523 0.0021780503 -0.00025831646 -0.0019590985 -0.002920795 -0.0015471195 -0.0012896636 -0.0025495924 0.002175906 0.0027407168 0.00029823277 0.00071737834 -0.0012070112 -0.0010041851 5.0840885e-05 0.0037111314 0.0025389108 -0.0004718376
religion -0.002847076 0.0020321016 0.0017634946 0.0017585285 -0.0014830416 0.0009877535 -0.003229655 -1.4108707e-05 -0.00071311655 0.00037785945 -0.0016458349 0.00089597446 -0.00034436595 0.0006120432 6.9241534e-05 -0.0035633522 -0.00042685738 0.00090743013 -0.00077073555 -0.0021665145 0.0034051258 0.0018707255 -0.0012570376 0.0007348422 -0.003594739 -0.0024972921 -0.0032214615 0.0011588583 0.0011965252 -0.0014776638 -0.0009211538 -0.00138567 0.0010361444 -0.002961815 2.651101e-05 0.0010621476 -0.0038502107 -0.00023248303 0.00029216424 0.0015243527 0.001987354 0.0022158462 -0.0019766989 0.00251675 0.0008299396 -0.002788558 -0.0006392554 -0.0028758182 -0.002932475 0.00093920593 -0.002556179 0.0016731907 -0.0032345569 0.0008773392 -0.0035425369 -0.0030410998 -0.0034893046 -0.0035941626 -0.003217526 0.0014106499 -0.001319469 -0.0028886958 0.0018697323 0.0033125132 0.0032774175 -0.0010962548 -0.0015865127 -0.00078023085 -0.0023279628 0.0012843938 -0.003712582 0.0018887438 0.0019857087 0.0014852677 -0.0018138763 -0.0015575398 -0.0025290777 -0.001736712 -0.0004632664 -0.0030804244 -0.0029300307 -0.0010092903 0.0037813492 0.0004442263 -0.003890873 -0.0023873618 -0.0037818577 0.0026728127 0.0028431711 0.0027955985 -0.0017519137 -0.0026102131 0.002625629 0.0032536073 -0.0019501649 0.0022336717 -4.221594e-05 -0.003693379 -0.0015825124 0.0008541759 -0.002865033 -0.003679094 0.0014280168 0.003322829 0.002558358 -0.0022312556 0.001760903 -0.0037253876 0.0011678706 -0.0015567534 0.0030968927 -1.7917599e-05 -0.0012007819 -0.0037970564 -0.0002990244 -0.002421358 -0.0036625734 0.0005443899 -0.0009097179 -0.00043804076 0.002698279 -0.0028521316 0.0012803056 -0.0028062281 -0.0017285539 -0.0037396564 0.00086964975 -0.0032609277
