276 128
news 0.001614483 -0.0038351028 0.0030418367 0.0019303373 0.002793012 0.0033405528 -0.0008351756 0.0035007878 -0.0017584984 0.0011941539 0.0001492023 -0.00060510996 -0.0027501096 0.0028266786 -0.002669801 -0.0033040768 -0.0032889394 -0.0031020264 -0.0021446487 0.0021870963 0.0023085945 -0.003604679 -0.0006282766 -0.0018667697 -0.00043742778 0.0003222806 0.001846559 0.003081573 -0.0018562209 -0.0030894363 0.0028955338 -0.0006821152 0.00084099034 -0.0005196739 -0.0025509347 0.002752595 -0.0034680148 -0.0035164624 -0.0012390558 0.0035704132 0.003660793 -0.0021606623 -0.00125288 -0.003519841 0.0015277594 -0.0016740167 0.0015435953 -0.0005787694 -0.0034406479 0.00074989 0.00064792775 -0.0037356017 -0.0005586233 0.00051772 0.0021201507 -0.0029040356 0.0019356259 -0.003060137 -0.00031382588 -0.0009089662 -0.000820125 -0.0018387648 -0.002329653 -0.0017634225 0.0002901324 -0.0027151762 0.001516368 0.0027704055 0.0023729096 0.00317042 4.12015e-05 -0.0014608152 -0.0015125861 -0.0016452357 0.0024051932 0.0013570646 -0.0022502688 0.0017508314 0.000586148 -0.0014296209 -0.00042045568 -0.0034624871 -0.0020908152 -0.0031614036 0.0030800425 0.0019036368 0.0013930331 0.00020583672 0.002660508 0.0029685542 0.0022331297 -0.0005517078 0.0012648351 0.0017316424 0.0027189115 -0.0009480626 0.0036110575 0.00028619956 0.0035409406 -0.0015401492 -8.455829e-05 -0.002570443 -0.002242054 -0.00013236991 -0.00070818345 -0.0014077813 -0.0031636388 0.0005424142 0.0018466056 -0.0023735287 0.0014521633 0.0015328432 -0.0038126388 -3.8904443e-05 -0.00011718509 0.0036291247 6.4734355e-05 0.0005615191 0.0010939009 -0.0012261375 0.0030425237 -0.0017620524 -0.0016128152 0.0009935007 0.0009501107 0.0033460918 2.9628993e-05 -0.00023775174
voyage 0.0037018312 -0.001294862 -0.0030401468 0.0009806961 0.00290589 -0.00062079413 0.001039615 0.0036426464 0.0023561215 0.0030926839 0.001778257 0.001243962 0.0005256651 0.0018527457 -0.0007887001 9.038318e-05 0.003165276 0.0015604993 -8.3846346e-05 -0.0012040617 -0.0031102838 -0.0017699677 0.002647296 -0.002857541 0.0027845087 -0.0029376214 0.0033169447 0.0005112971 0.0010506205 0.002304151 -0.0019842456 0.0036231605 0.0015084606 -0.0016721671 -0.0030114916 0.0017568235 -0.000914981 0.0034107151 -0.0021690312 0.002032721 0.0027858326 0.0038308538 0.00013327702 -0.0036035462 0.00073962053 -0.0034721647 -0.0020387596 -6.0532977e-05 0.0023145585 0.0024211728 -0.003250296 6.7483124e-05 -0.0030118146 -0.0029354272 0.0014512513 -0.0034807548 0.0006072735 -0.0034807827 -7.2691146e-05 0.0034791555 0.0014182068 -0.0038113599 0.0036378838 0.0009703235 0.0010582427 -0.0033054864 -0.0011204444 0.00010996398 0.00055456435 0.0038906836 -0.0011115914 0.0020929934 0.0014046356 -0.0013976658 -0.0007404753 -0.0030749068 0.00218098 -0.0010198762 0.0028918395 0.0007750072 -0.0027548647 -0.0033148257 -0.0008443352 0.0022895928 0.0017918489 0.0038865255 -0.003748356 0.00095004594 0.0013506886 -0.0012277401 -0.0009944593 0.0027570918 -0.0010365406 -0.0035429562 0.0023445217 -0.0032909063 -0.003727563 0.0036046586 3.562863e-05 0.00092305616 -0.0023011332 0.0034641565 0.0034240973 -0.0028301852 -0.0017180071 0.0036508194 0.0037789196 -0.0034438039 0.003329712 -0.00014336278 0.00016704488 0.0025664975 0.0027039975 0.00083076436 0.0037457559 0.0027291265 0.0027403012 0.0024597198 0.00046400205 0.002248585 0.0024486869 -0.003469994 -0.0030037859 -0.0005970904 -0.002788157 -0.0026025458 0.00179466 -0.00059439265
woodland 0.00010197774 0.0037256845 -0.0029388652 -0.0019538763 -0.003067514 0.00069134793 -0.0023012878 0.002303754 0.0017859823 -0.0009832595 -0.0025554765 0.0030679298 0.003336141 0.002115563 -0.0030998476 -0.0005254708 -0.0026185154 -0.0024332842 0.00013237722 -0.002241507 0.003507246 -0.002154104 0.0011444826 0.00040933106 0.00071965484 -0.0031817362 -0.0034170651 -0.00043061006 -0.0018051894 -0.00028794532 -0.0020618485 0.0006768007 -0.0025486995 0.0018222826 -0.0007712929 -7.638559e-05 0.0018577982 0.001696678 -0.00377749 0.00016437225 0.0010185153 0.00073532376 -0.0026299416 0.0023987102 -0.0026170628 -0.0032689401 -0.00029411586 0.002064398 0.0024538466 0.00108181 0.0011457672 0.003453368 0.0006081815 -0.0012725496 -0.002283578 -0.0015465964 0.000526606 0.0035385708 -0.0009251587 0.00010284107 -0.0012069227 0.0006459394 0.0021440552 -0.00028598672 0.0026723626 0.00041355906 0.003848877 -0.002584756 0.002367649 -0.0028464184 0.0014909697 -0.0033593953 -0.00029393454 -0.0031576932 -0.0014278817 -0.002210005 -0.0012177665 0.0037357146 -0.0016320216 0.0020591135 0.0036158552 -0.0038705566 0.00016337233 0.0021989073 0.0033153896 0.00315254 0.00065448636 0.0016342198 0.0019532891 -0.001945662 0.0034150686 -0.0038530086 0.0018274675 -0.0007803525 -0.00086126785 -0.00017281323 -0.0006063583 -0.0010067944 -0.0038576867 -0.0034088644 -0.00015573097 -0.0035561807 0.0030663954 -0.0015217738 -0.0033411249 -0.0026275576 -0.00017798161 0.00022627028 -0.0037348447 -0.0012773399 0.002679805 0.0036506937 0.0019655984 -0.0019544458 0.002791399 -0.0024865358 0.0013012526 -0.0015138835 0.001958962 -0.00043645245 -0.00032957958 0.0027652197 -0.00056547794 0.0011463773 0.0024424277 -0.00031822867 0.0017625378 0.0010903088
doctor -0.0012704496 -0.002259548 -0.00040462497 -0.00041639528 -0.002000191 0.0020926334 0.003524096 4.798619e-05 -8.643282e-05 0.003084401 -0.00267336 -0.0023076027 0.0022333136 0.0021484466 -0.0007322084 -0.0012323074 -0.002342887 0.0016232507 0.0004258356 -0.0016748551 0.0031633864 8.121096e-05 0.002378607 0.0009356379 -0.0023429482 0.0011659481 0.0037628377 0.00043749754 0.0006417657 0.0024775753 0.0018524361 -0.001787436 -0.0037371442 -0.0035055047 0.0034589702 -0.00176671 -0.0038704062 -0.003836928 0.0010342192 0.002493204 0.0011019551 -0.0015888566 -0.002429577 0.00039244894 -0.0026690299 -0.003453316 -0.0032815845 0.0001357868 0.0022482853 0.0028245454 -0.0008712582 0.0035073403 0.0011327115 0.00225048 0.002274777 -0.0030215944 0.0007256648 -0.0015903723 0.0038695203 0.0013303485 0.0033673292 0.002140558 -0.0031693843 -0.0016258876 -0.003571645 0.001454516 -0.0009779938 -0.003200021 -0.0036201517 0.0027172067 -0.0032142468 -0.0020602825 -0.00018797287 0.00058382424 0.000931873 0.0021223708 0.0015762877 -0.0021567133 -0.0009606942 -0.0033755533 0.0038990167 0.0013932793 0.0037535303 0.001494528 0.0004305804 0.0013508227 3.4183216e-05 -0.0004735606 -0.002572853 0.0018315035 0.0032713427 -0.0034487273 -0.0026903804 -0.0018080925 -0.0030879444 0.0019636196 -0.0010766499 1.5281375e-05 -0.001986086 0.003135258 -0.0019362145 -0.0016400863 -0.0016440783 0.0006852419 0.0027597696 -0.003902616 -0.0026520453 -0.0012770096 -0.0005455046 -0.0019181359 -0.0010530197 -0.000293136 -0.0020652951 -0.003441668 -0.0024572508 -0.002398499 -0.0003980945 -0.0031768891 0.0016017177 -0.0008654613 -0.0024725294 0.0009845967 -0.001348599 0.002745279 0.0038733745 0.003627388 0.0027872485 0.0003556248
car -0.00022196744 -0.0012223091 -0.00027092083 -0.0022578253 -0.0023165266 0.0015144796 -0.0024901645 0.0021124405 0.0010774004 -0.001307399 -0.0025767381 -0.0029630354 -0.0026397556 0.0020021815 0.0012608237 -0.001905884 0.0021348298 -0.0016521988 0.0017873675 -0.0013167593 0.0020906848 -0.0035147371 0.0038307696 0.0001228424 -0.0024654944 0.0016228089 0.0014229836 -0.0016620861 -0.0032172478 -0.0011763092 -0.001943707 0.0030013605 0.0033885352 -0.00047070527 0.00097393326 -0.003195322 -0.0030073267 -0.0008853068 3.6101475e-05 8.7877626e-05 0.0011029377 -0.001103206 4.3923108e-05 0.0034449222 -0.0010933242 -0.00062609866 0.00055625086 0.0020578983 -0.0012222632 0.00026702444 -0.0019587565 0.0009338184 0.0022735673 0.0014167384 0.0027193471 -0.0032481153 -0.00046049178 -0.002381482 -0.001379451 0.0018630185 0.0017446455 -0.0024665145 -0.00021015991 -0.00027730395 -0.00017917434 0.0017251126 0.0013737973 0.00051937095 -0.002588375 0.00025959613 -0.0021947604 -4.0994168e-05 0.0014947696 -0.0011031856 0.0005893495 -0.0037274265 -0.000942528 0.002016914 -0.003465917 -0.0009753881 0.003041909 -0.0026884812 0.00072312885 -0.0002767475 8.677577e-05 -0.0023216566 0.00063382584 -0.0029586784 -0.0017658336 0.0019881662 0.0025973655 -0.0025175489 -0.0036179405 -0.0031617817 -0.002563774 0.0032727618 0.0017970743 -0.0031163632 -0.00064869534 0.0032526553 0.0024423888 -0.0025642077 -0.0021628868 0.0012039492 0.0016255864 -0.002518802 0.0012177373 0.0032021445 0.0023888838 -0.003194044 -0.00075760036 -0.0023676574 0.0024283899 -0.0002922223 0.0016436243 0.0036521284 0.0006340079 0.0021291727 0.0005858568 0.00062344014 0.000992705 -0.000894174 -0.00015739811 -0.0010010437 -0.0038020818 -0.0034754486 0.0022785547 0.001761784
year 0.0027874396 -0.0011167789 0.0023518077 0.0010903396 0.0030378893 -0.0034975363 0.0014781371 -0.00057068554 0.00247691 0.00041962464 -0.0030406176 -0.0019081776 0.00083872204 -0.00063095026 0.0016303947 -0.0017314381 0.0007155853 0.0012869381 -0.0020548997 -0.00036123706 0.0024385646 -0.002612851 0.0012201475 -0.0011267688 -0.002488073 -0.0006376952 0.0032226674 -0.0020287335 0.00095860363 0.00256115 -0.00025354928 0.0038702267 0.0038481497 0.0026244929 0.0035559486 0.0023420553 0.0027413815 -0.00048116696 0.001495257 0.0009246389 -0.0009325488 0.001658533 0.0002747279 0.0027092807 0.0022474662 0.0012769293 -0.0027084039 -0.0017042457 0.0028396845 -0.0019498923 -0.0006945288 0.002879079 -0.0032669264 0.0016924603 -0.002771801 0.00026433653 6.34348e-05 -0.0022338121 -0.0018238453 -0.0032861219 -0.0014238184 -0.0024424621 0.003786783 -0.0031008357 0.0038580985 0.0012678956 0.0009602014 -0.0008012322 0.00110304 -0.002641732 0.0007999331 -0.00014218902 0.0006790354 -0.0016417877 -0.0024895896 -0.00290556 -0.0020626085 -0.0038051438 0.0016751476 -0.0025263603 0.00020149811 -0.0014286259 -0.0008183448 0.0016790131 0.00028148468 -0.0014798198 -7.377205e-05 0.0002800141 -0.0013400934 0.0017221044 0.0022133319 0.0014708369 0.0029670002 -0.0012497037 5.5685887e-05 -0.003422567 0.0033477212 0.0009976557 -0.003058912 0.0015732637 0.000488637 0.00090254884 0.0032478918 0.00057555246 -0.0030175704 -0.0021990612 0.0035626264 -0.000507684 -0.0024255232 0.0015847501 0.0024483367 -0.003863172 0.00012398874 -0.0023183657 0.00026177877 0.00355875 -2.0965941e-05 -0.00082612125 0.0023169792 0.0017719781 0.00057674357 -0.001063509 -0.0027155012 0.0033839187 -0.0010001976 -0.00057575287 -0.0033192008 0.0012582166
graveyard 0.0005787558 -0.0030018105 -0.0027233085 -0.00035021015 0.001555281 -0.002693809 0.0013443851 0.0036656319 0.003833358 0.0024734216 0.0003048409 0.0019760996 0.0004541736 0.0033701358 0.00079026044 0.003065838 -0.0008863712 -0.0028372174 0.0026569534 -0.0015586109 0.0038004061 -0.003188418 0.002654836 -0.0032789246 -0.0018397651 -0.00072188216 -0.0025760403 -0.0025237855 -0.002863342 -0.0009867166 -0.0017154845 -0.00044259735 -0.002820668 0.0006657391 -0.0011277461 0.0021718862 -0.0032888618 0.0027408474 -0.0019864317 0.0020503174 -0.0011990753 0.00029996017 0.002336942 -0.0025304058 -1.12275775e-05 0.0036518762 -0.0015968094 0.0022832702 0.001301604 0.0011038091 -0.0017525845 -0.0035567135 0.0017812195 -0.0007153908 0.002405166 -0.0038621328 -0.0031526 -0.0022269646 -0.00031328006 0.00060775894 -0.00053373136 0.003529849 -0.0038751506 0.0008902806 -0.0032275869 0.00326397 0.0026020077 0.0030965463 -0.001596515 0.0016868977 0.0013220017 -0.0034432784 -0.00020859446 -0.0008336459 -0.0028687795 0.0007397395 0.0023464554 0.0003138058 0.0021390053 0.0033733165 0.0032656284 0.00088967016 0.0025128208 0.0019913937 -0.0024230855 -0.0026178553 -0.0031642313 0.0005964072 0.0008902806 -5.2806325e-05 0.0016703854 -0.003193584 0.0010688483 0.0020022246 -0.0020642611 0.003331246 0.0021770764 0.000728769 0.001784825 -0.0008263116 0.0006219344 0.002302739 -0.00010976357 -0.0008952573 -0.003750802 0.00048214183 0.0029821012 0.00037183694 -0.0018739928 0.0035413166 0.0036387732 0.0017316247 0.00095998583 -0.0018458727 -0.003724005 0.00073903543 -0.0016385098 0.0037979013 0.0028522958 -0.0030088322 0.0029909762 0.0022370112 -0.0033432783 -0.00034099328 -0.001546792 0.0033501303 -0.0032273738 -0.0014925861
automobile 0.0025468068 0.0025866118 -0.0007940011 -0.003046092 0.0025311473 0.0017964571 -0.0018358958 0.0014385706 0.0028375338 0.00077450456 0.0034842785 -0.0010013387 -0.0022744946 -0.0023158102 0.00036430504 -0.00030992014 0.0031494882 0.0029988938 0.0010799842 0.0008504418 -0.002311939 -8.3315914e-05 -0.0018891763 -0.0022132434 -0.002583664 -0.0020515528 -0.00042368573 0.00015671381 -0.0029115283 -0.0033770527 0.0016949098 -0.0022580004 -0.0020929682 0.0036390182 0.00015355668 -0.0019031498 -0.0002392541 0.002680146 0.00046062545 0.00028622098 0.0026905937 0.0010050035 -0.0020512799 -0.00278158 -0.0022095616 0.0038791518 -0.0020497085 -0.0028648754 -0.003624692 0.0036310654 0.0012683972 0.0036257107 -0.0030487194 -0.0006532948 -0.002982579 0.001493841 0.003536675 0.0025904798 0.0019038534 0.0022615665 0.00079990376 -0.0023349083 -0.0006244164 0.0011657852 0.003317095 -0.00011735034 -0.0035136936 -0.0014337833 0.00040201237 -0.002030756 -0.0007880964 0.0027510321 -0.0033747007 0.0037380205 0.0034723054 -0.0036685907 0.0036828092 0.0006283464 0.0035528284 0.0014808072 -0.00085154717 0.0023349943 0.002308529 -0.0036543042 -8.156227e-05 -0.00020036842 0.0036034305 -0.00231943 -0.0010252495 -0.0015301409 -0.0019183616 -0.0034848948 0.00073974225 0.001733375 0.0019176909 -0.0003733244 0.001089086 0.0030359754 -0.0008112368 0.002242119 0.0026308773 -0.0037209596 -0.002577701 0.0032985117 0.003238341 -0.0008403258 -0.0014867319 -0.0012142704 -0.0029628077 -0.0016523526 0.0038757182 -0.0014608925 0.0018334179 0.00079143594 -0.0032322677 -0.0022211499 -0.0009120785 -0.0017085827 0.0032945995 0.0038510037 0.0003632465 -0.0001586448 0.0030168337 -0.0014363016 0.0028138135 2.316496e-05 -0.003516724 0.0022235177
equipment 0.002133544 0.0035009852 -0.0035079813 -0.0033283974 -0.0025652251 -0.003039142 -0.0014808535 -7.1516283e-06 0.0035771602 -0.0038754577 -0.0015055808 -0.003036387 -0.0009945562 -0.0015575206 1.891306e-05 0.0008635945 -0.0013207854 -0.001737787 0.0021552185 -0.0035688884 -0.0009775346 0.0031687065 -0.003782189 0.0037612866 -0.0030280293 -0.0013472709 -0.0028276236 0.0027807632 -0.002226474 0.00036886905 -0.000934364 -0.003816784 -0.0014160209 -0.002628937 0.0013006084 0.0026807147 0.0023451599 0.0036325955 0.0030780216 0.0021626956 0.002644308 0.0020417424 0.0029315015 -0.003185343 -0.0019927572 0.0017272219 -0.0010950455 -0.002969406 0.0027528384 0.0012072349 0.002604141 0.002103034 0.0027847479 -0.0036973455 -0.0014509733 0.0037495731 0.00074342807 -0.0029150485 0.0008640128 -0.0030667884 -0.0025021732 -0.00037804438 -0.0032300537 0.0015405538 0.0002661364 -0.0012121896 -0.002950678 -0.0009604093 -0.0017260562 0.0032629676 0.003450035 0.0024639235 -0.0016260524 0.00014205388 0.0027547267 0.0019391101 0.0033602647 -0.0037473007 -0.0015581726 -0.0023073624 0.0028794738 0.00051402353 -0.0016286924 -0.0033043977 0.0022653202 0.0005815301 0.000300031 -0.0024803756 -0.0038611656 -0.0015446596 -0.002707165 0.002924578 0.00015835688 8.250166e-05 -0.0031379638 0.002591706 -0.002624497 -0.00054365 -0.001281351 -0.0020186186 0.0027410244 0.00026752774 0.0001395479 -0.00297094 -0.0030258312 0.0030261267 -0.0007029404 0.0020861726 0.0024304083 0.00029859052 0.002085721 -0.0038061028 -0.0010264021 -0.0007864564 0.0017210324 8.381079e-05 0.0008586766 -0.0011525977 -0.0022168292 0.0009522366 -0.0034233457 -0.0018050153 -0.0029626016 0.00058750174 0.00056974223 -0.00019914242 0.0013772424 0.0024594949
fruit -0.002679718 0.00040847846 -0.0032968868 -0.0017282974 0.003757956 0.0031847074 0.0037558728 0.0038871258 0.0007230958 -0.0017926334 -0.0018956906 0.0019783678 0.0034509082 -0.0023046983 -0.003439023 7.998293e-05 -0.0013211034 0.0022685684 0.0022388333 0.0028251132 -0.0024971133 -0.0033428764 0.0017920476 -0.003362928 -0.0002760414 -0.0015448646 0.0016073083 -0.001343368 0.0020222587 -0.00023036296 -0.0030109256 0.003728512 0.0033544565 -0.0015932425 0.0006208944 0.0033863068 0.0013809048 0.0024690444 0.0019902254 -0.0015692472 0.0003069913 -0.0033284451 -0.00051928894 -0.0038883598 0.003628631 0.00097530906 -6.179883e-05 -0.00030736031 -0.001256351 -0.001143488 -0.003869611 -0.00032762188 0.0017670516 -0.0012706063 -0.0024954092 0.0012345234 -0.0003454437 -0.0018817108 -0.0032117472 0.0025885366 0.0023977063 -3.740185e-05 -0.00085594907 0.002828883 0.0021520085 0.00092233694 0.0012248228 -0.0020224238 0.0027871924 0.00032125204 0.0037072059 -0.002177117 0.0027603474 -0.002610012 -0.0038085005 0.0017976596 0.0013339139 -0.0003192947 7.2999246e-05 -0.0034424516 -0.00036399165 -0.0005709207 0.00229777 0.0010702296 0.0002925038 -0.0017801147 0.0027276224 -0.0006138518 0.0019402135 0.0002781787 -0.0021291769 -4.603562e-05 -0.0023566305 -0.00070432975 0.0037521836 -0.0016261119 0.0030690602 -0.0031508699 -0.0037064087 0.000390086 0.0016772323 -0.0017189169 0.0034565732 0.0013491322 -0.0005722912 0.0028134827 -0.00025001893 0.0035260879 0.0010214101 0.0023300147 -0.0014690886 -0.0001183463 -0.0017354448 -0.0006106752 -0.00024992888 -0.0030848247 0.0037054385 0.0018489796 0.0031647016 0.0036990973 -0.0029269354 0.0022284547 0.001958066 -0.002814162 -0.0031997066 0.0023648487 0.0034922166 -0.0013026225
history 0.0024170456 -0.0021742396 0.00046638324 -0.0015901816 -0.00020716661 0.0012266674 0.0012696288 -0.001396374 -0.0022862596 0.0009209151 0.002331322 0.0002056199 -0.0011281949 0.0029007208 0.0010900295 -0.00047705974 0.0024837176 -0.001269372 -1.1793112e-05 -0.0005280655 0.0020910483 -0.0032087676 0.0029253846 0.0028227912 -0.002624486 -0.0014247522 -0.0026762905 -0.0020248892 0.001303603 0.0029270053 -0.003562963 -0.00046588638 -0.0035813986 0.0018664195 0.0030750805 -0.0037253487 -0.0029958796 -0.0021676512 -0.0027475508 0.002349554 -0.0018085234 -0.0010654168 -0.0016161853 0.0019003232 -0.0030974727 0.0023723303 0.0026772786 0.00042411382 0.0026330552 0.00069133664 -0.0028131409 -0.001945791 0.0030991158 0.00024612166 -0.0030729999 -0.0030408273 -0.0004936495 0.002938729 -0.001104407 -0.0018056374 0.0004887859 0.0011043814 0.0035767218 -0.0023664585 -0.0027881828 0.0007396998 0.0032879347 -0.0018138972 -0.0006297091 0.0038820938 0.0013002452 0.0036246127 -0.0028016975 0.00275418 -0.00041519737 -0.002422298 0.0024701746 -0.0009830114 0.0011590018 0.00072458724 -0.0011971227 -0.001469873 -0.0013745315 0.001341359 -0.0023668557 -0.0023192787 0.0025556486 0.0018543339 0.0019021743 -0.0035523532 -0.0034265153 -0.00063554686 0.0022793703 0.0014897166 0.0004494405 0.00024036827 0.003896353 0.0027406767 -0.0033913343 0.0027563015 -0.002151221 0.0024823349 -0.0018426445 0.002821775 -0.0006472519 0.0020597843 -0.0021804238 -0.0033524728 0.0034661829 -0.0030738867 0.0026811138 -0.0031872084 -0.0021550304 0.003609392 -0.00068971765 0.00040338194 0.0013860661 0.0033198127 0.0016773305 -0.0017921306 0.0024802207 -0.0022276652 -0.00027543554 0.00038431122 -0.0010455544 -0.00015096975 0.0024468477 0.0018940384
peace -0.002013362 -0.0038261714 0.0024944094 0.001498117 -0.000738473 0.0027052888 -0.0010352436 0.0027036502 -0.0013440003 -0.00081687403 0.003104593 -0.0009348093 0.0010284926 -0.0007097283 0.0003770842 -4.840239e-05 -0.0015333685 0.00372525 -0.0011783205 -0.0027690688 -0.0036998584 -0.0013052805 0.003437239 7.609703e-05 0.0010311744 -0.0023922785 0.002565769 -0.0017721177 -0.0018327737 -0.0004913752 0.0011644083 0.0021010654 -0.0009978211 -0.0031097548 -0.0027357044 0.0013234637 0.0015825424 -0.0011966405 -0.003642161 -0.0019701452 -0.0034244629 -0.0014387834 -0.0007752093 -0.0032261703 -0.0018954196 -0.002759695 -0.0015806501 0.0014504248 -0.0036954612 0.00035848038 -0.0030948939 0.001850514 -0.0021615387 -0.0029794506 -0.002837974 -0.0016238183 -0.003349127 -0.0036027243 7.95811e-05 -0.001975989 -0.0032717697 0.0036665783 0.0026944464 0.0005141925 0.0032797616 -0.0034389317 -0.0026102262 0.0033212178 -0.0026695055 -0.0005845522 0.0018746592 0.0032754696 -0.0001016891 -0.00078189484 0.0028126289 0.0022209375 -0.0016886769 0.0012134743 0.0025156797 -0.0031641813 -0.00035036608 0.0029023841 -0.002098455 0.00028684354 -0.002710744 -0.0010642101 -0.0026666385 -0.001605327 -0.0017236088 0.0021188133 0.0013021093 0.00043317425 -0.00089825253 0.0009968468 -0.0019554582 -0.0022323679 -0.0031053983 0.000796824 0.0013817833 0.0026762753 -0.00077329035 0.0024980768 -0.0028522876 -0.0032512513 0.0018006447 -0.003113496 0.0008054245 -0.0006592775 -0.0006906667 3.4158966e-05 0.0022807058 0.0028729755 0.0024444908 0.0016894032 -0.0003720312 0.0032437437 -0.0016268003 -0.0008754263 0.0015213351 -0.00037352458 -0.0038381577 -0.0033867008 -0.0011705834 -0.0034843576 -0.0025381004 -0.0015815208 0.00039575988 -0.0026706918
century 0.0026462479 -0.0018419857 0.0012662121 -0.0014800986 -0.0033802087 0.00031748644 0.003785676 -0.0038833036 0.0028427185 -0.0005391676 -0.001227619 0.00065803534 -0.0031440635 -0.0025066743 0.0029154376 0.0007966216 0.003193307 -0.0024238906 0.0021182522 -0.0025590868 -1.7107674e-05 -0.0023940671 0.0026677842 0.0028188843 -0.0020896925 0.002546674 0.003410412 4.621434e-05 -0.001434048 -0.00016162395 -0.0013371791 -0.00092107157 0.001034009 0.002616236 0.0033270388 -0.0031310685 -0.0008375056 -0.0027718316 0.0010601335 -0.0017498139 0.002127372 -0.0019184559 -0.0021820168 -0.003692536 0.0014260863 0.00077022467 -0.002783152 -0.0016840852 -0.0021868544 0.0012052708 0.00367451 0.0032408678 -0.00081334484 -0.0023617737 0.0027659496 -0.0038432311 -0.001958833 0.00040230216 -0.003301581 -0.0018650388 0.0033892028 0.0029108361 -0.0033760853 -0.0029099032 -0.0038447361 -0.0014226414 0.002206954 0.0023343684 0.0026567378 0.0022846027 -0.0020900783 0.002473208 -0.0020616422 -0.0030461415 0.0009819801 -0.0032930255 -0.00057276303 0.0004399507 -0.0004150561 0.0017382147 -0.0038367037 -9.307624e-05 0.0018267236 -0.00030947215 -0.003261216 -0.0007936891 0.0026016408 -0.0019070691 0.0016608774 -0.0035644774 -0.0016684628 0.0012340085 -0.0023580396 -0.0011209968 -0.0021898034 -0.0028166664 0.000638434 0.0025924104 -0.0032498601 0.00031957432 -0.0019651426 -0.003212538 -0.0033925923 -0.0012756994 0.001982738 0.003133876 0.0024835852 -0.00026105737 -0.0010546738 0.00031092745 -0.0033559804 -0.0027829339 0.0009436608 6.934133e-05 -0.0035895172 0.0021378852 -0.002225452 0.003000741 0.00338881 0.0019985873 0.0011391029 -0.0020587554 -0.0031380064 0.0013963073 -0.0027575055 -0.003693517 0.0002798832 -0.0013305432
issue 0.0002755829 0.0029827734 0.002712432 0.0027487688 0.0016519551 0.0007202013 0.0016677352 0.002355234 0.0037733824 -0.0013709534 0.0011056283 -0.0020836708 -0.0038268056 0.00073994877 0.0004406311 -0.0019584873 -3.752065e-07 0.0024143078 -0.003395958 -0.00257961 0.0019455572 -0.0022611662 -0.0026669349 -0.0010571799 -0.0027300743 -0.00086410786 0.0020561665 0.0012120681 -0.0017727491 -0.0019188452 0.0008480457 -0.0011694466 -0.0038463832 0.00028876367 -0.0016734162 -0.0035607275 -0.002228651 -0.0019942867 -0.0035705138 0.0016354248 0.003510406 -0.003432255 0.0014260138 -0.0014503445 -0.0033838039 0.0007381635 -0.0030551634 0.0016756414 0.0023699882 0.0037174067 0.0034891514 0.0035240897 -0.0018432526 -0.003506212 -0.0034179143 0.0038001048 -0.00268967 -0.0036545522 -0.00022088418 -0.00095447234 0.0006822131 -0.0011112182 -0.0034943733 0.00083506905 0.0019157653 0.0019153968 -0.0029148944 -0.0025555594 0.0025053704 0.0012132123 -0.0010221109 -0.0038245018 -0.0030664168 -0.0026874663 -0.0020533202 0.0034865034 0.0019691316 -0.0012074522 0.0020456335 0.00035970335 0.0022825927 -0.0034476933 0.003080239 -0.0030920042 -0.0004055039 -0.00089738786 -0.00045056752 -0.0011579882 -0.002182257 0.0012973024 0.0029202218 -0.002127109 -0.002571987 -0.002466371 -0.0019554044 0.0032802147 0.0006324321 0.0010359294 -0.0025008079 0.0037832323 0.00030971537 0.0032662575 -0.0030783957 0.0020576084 0.0032046298 0.0027315877 -0.0025580195 0.003722459 0.0034432698 -0.00038047048 -0.0016923476 -0.000941256 -0.0035195395 -0.0024071422 -0.002388607 0.0014876781 0.0001236929 0.0037695302 0.0031045622 0.0038700025 0.0037689367 -0.0038240298 0.003478767 -0.0038404397 -0.0026049998 -0.0014945588 -0.0002888964 0.00020722116
water -0.0022631239 -0.000805323 -0.003208427 0.0032964894 0.0006801622 0.002780181 -0.00086316786 -0.0028964153 -0.001572799 -0.001213781 0.003282525 0.0032654444 0.0004991682 0.00032534936 0.0015048612 -0.00073671085 -0.0029561152 -0.0026823862 0.001660688 0.0025406799 0.00071553624 0.00026122123 0.0033524975 0.00027794382 -0.00045135204 0.0023087186 -0.0031280664 -0.0038471755 -0.0038505627 -0.0016736893 0.0038550692 0.002291264 0.0014169255 -0.00054162473 -0.0018789666 0.0034714357 0.002684162 -0.0023871183 0.0036900842 -0.0005298274 0.0015396337 -0.0035879188 -0.00382528 -0.00018105943 -0.0016804527 0.0016710826 -0.0018673625 -0.0002759095 -0.003370177 -0.0013782945 0.0012452304 -0.0012815432 7.361344e-05 0.002071753 0.0028783637 0.00075862196 -0.00017216569 -0.0005012152 0.0016173096 0.00094307394 -0.0011833493 -0.0014836132 0.001878841 -0.002229655 0.0011435996 -0.000662588 0.0012526145 0.0018095897 0.0034987447 0.0013454987 -0.00033457202 0.00054747297 -0.0007233959 0.0014166203 -0.00033743592 0.003312712 0.0036933748 0.002768245 0.0019937272 0.0015610713 0.003184535 0.0034528973 -0.0032344526 -0.0028859195 -0.0013996367 -0.001691328 0.0006853618 0.0001798389 0.0016687751 0.0015207581 0.0013317679 0.0022800737 -0.0035180342 -0.0027640623 0.0035644348 2.5928712e-05 0.0023364527 0.0017688771 0.0032251389 0.0029023385 -0.00088967767 0.001924205 -0.00061893393 -0.0002359028 0.0038543756 -0.002634654 0.00095778506 0.00050500815 0.0017723866 -0.0009869527 0.00030541612 -0.0024419297 0.00014990366 -0.0005866089 -0.0026284277 0.00054980407 -0.0037696732 -0.002332703 0.0014658803 -0.0024691727 0.0008438975 0.0027848545 -0.001957234 0.0009085796 -0.0012211517 0.0020970532 -0.0016246015 0.0029072016
hotel 0.0013412006 -0.0002821241 0.00048766215 -0.0020045158 0.00023876222 0.0012407146 -0.0037646503 -0.0028424524 -0.0027409254 -0.001675572 0.0011398626 -0.0037311674 -0.0028021224 -0.003166587 -0.0013440239 -0.0007690822 -0.0021118836 0.0019691668 -0.0024651717 0.0021831251 -0.0032073953 0.0022904312 -0.0023864491 0.0031451362 0.0032537223 0.003336135 -0.002296898 -0.00016022733 -0.0019781392 -0.00322838 0.0034570615 0.00068139145 -0.0005202619 0.00205309 0.0011578101 0.0033448737 0.0009436851 0.0017821238 0.002075636 0.0016329372 -0.00013688217 -0.0030413463 0.0010138659 -0.0034434495 0.000617394 -0.001666393 -0.001114874 0.00088861474 -0.0017682981 -0.0030829436 0.001547193 -0.0029567687 -0.0011648737 0.003787838 -0.0002940446 0.0026221606 0.0008349294 -0.0035330418 -0.0007375119 0.002365771 0.0016492801 -0.0019535325 -0.0034605989 0.0016991211 0.0011987 0.0030690774 0.0011208623 0.0018844845 -0.003745308 0.0037954883 0.0012550219 0.0028280048 0.00088347605 -0.0006588057 0.00026270092 -0.0018943432 -9.095463e-05 0.0015725803 -0.0013916431 8.0010956e-05 0.0024144896 0.0028199926 0.003889054 -0.00027809854 -4.694214e-05 -0.0031666665 -0.0031146302 0.0022507638 0.003058525 0.0028208971 0.0036073467 0.0011689579 0.001349009 -0.0026411703 0.0027581279 -8.13506e-05 -0.0013295241 -0.0030084013 -0.0035189053 0.00016272385 0.0028131981 0.00012628012 -0.0030494994 0.0017860938 -0.0034469827 0.0015884464 -0.0017569427 0.003792371 -0.0007797948 -0.0026930124 -0.003477435 -0.0015598639 -0.00169618 0.0008746665 -0.0007416182 0.0029898605 -0.0017014195 -0.002727375 0.0005804384 -0.0015674199 0.0034311074 -0.0019858633 -0.0020601803 0.00032802403 -0.0035571237 0.003608649 0.0029322742 0.0012456606
project -0.0030089745 -0.0015535707 -0.0013958137 0.0037670168 0.0017290931 0.0036934584 0.0020350346 0.0012702624 0.0015316522 0.00029529905 0.0031931933 0.002448573 -0.0038599835 -0.0019577872 -0.0014733541 0.003903789 0.00015040646 -0.0006018303 0.00045531406 -0.00014703561 -0.002695277 -0.0008619014 0.0023585954 -0.0026378443 0.0012072574 -0.0015673287 -0.0011667678 -0.0018110139 0.002733868 0.0035462643 0.002171331 0.0024825402 0.0026714285 0.0031864534 -0.0012466824 -0.00069418456 -0.00054314843 -0.0013411698 -0.003200594 0.0037657134 0.001191946 0.0030260973 -0.0029503577 0.0024605528 0.0012801817 0.0031787984 -4.008163e-05 0.001530734 -0.000683356 0.0026699244 -0.0023166928 -0.0024107855 0.0015429663 -0.0028608358 0.003754708 0.0007659352 -0.0015523172 -0.0011168437 8.4513005e-05 0.00045181185 -0.0003134647 -0.00063442526 0.0002137149 -0.0035572262 -0.001430712 0.00037730281 -0.003473616 0.00038005688 0.0009218769 0.0030853245 -0.0033754641 0.0036057974 -0.0006233884 -1.917517e-05 0.0029597997 0.0025922745 -0.002951965 -0.002685829 -0.0013346903 0.0018136603 -0.002773395 -0.0037832316 -0.003868253 0.0009345342 0.0012685449 -0.0015102163 9.312037e-05 -0.00016274698 -0.0027583553 0.0014827163 0.0012607822 -0.00065436505 0.0027222363 -0.0014123727 0.0006279424 6.797568e-05 0.001067728 0.00029540813 0.002263928 -0.0008509447 0.00032180644 -0.00055519195 -0.00023150517 -0.0023984779 -0.0023340213 0.003393521 0.0031591784 0.0018380055 0.0029559613 0.0019614964 -0.0006875335 0.00050328346 0.0031489532 0.000332678 -0.0029531857 0.0022520637 0.0033618347 -0.0004343124 -0.0016542407 -0.0037299145 -7.721337e-05 -0.0034456046 0.0019954422 -0.003754801 -3.465889e-05 0.0013302513 4.61368e-05 0.003499564
string -0.00135487 -0.002285812 0.003178689 0.0035295554 -0.0029543187 -0.0009851991 0.0032725248 0.0009639989 -0.001096317 0.003170883 -0.0010887269 -0.0020904765 -0.0013982651 -0.0028845198 0.0035101543 0.0011878307 -0.0031161453 0.0010864905 -0.0007559069 -0.0016573684 -0.0015904465 0.00076176843 -0.00035136132 0.002681328 -0.0036589662 0.0018641608 0.0010729696 -0.0019415845 0.0037891476 -0.0029183615 0.0007835753 -0.0012408725 -0.0013427947 -3.1411506e-05 0.0009326501 -0.0007611893 -0.0011405859 0.0038841125 0.0027488482 0.0013057721 -9.692825e-05 0.0014515755 0.003645104 0.002750543 -0.0004071206 -0.0025964917 1.2961751e-05 -0.0010329881 -0.002579342 -0.0004226536 0.00047906823 0.00087813433 -0.0014712889 -0.000502373 0.0038655112 7.436753e-05 -0.0005552995 0.0032086684 0.00083233876 0.0023216826 -0.003372813 -0.0017257561 0.002628406 -0.001173961 0.0007174563 -0.0009544469 -0.0008446112 0.0030517988 0.0014637529 0.003561185 0.0023095678 0.0017834365 -0.0030819073 0.00048422537 0.0023973924 -0.0032440342 -0.0010544984 -0.0026003954 -0.0017779191 0.0018836127 -0.0028607266 0.0014227241 -0.0014198202 -0.0027768689 0.0034873076 0.00028914615 0.0029314877 0.0030697617 0.0014946501 0.0005081475 -0.0013246912 -0.0024821328 -0.0015290066 0.002984793 -0.0016836569 0.00068402954 -0.00045848425 0.00021918378 0.00065738295 0.0026596684 -0.0023708825 0.0036508346 -0.00037982393 -0.0024255358 0.0006943233 0.0024360847 0.0025561717 0.0016228136 -0.0024135278 -0.002801641 -0.0036160676 -0.0006959581 0.0029392126 0.002761429 0.0026043858 -0.00017444008 -0.00056860683 0.0021316 -0.0036257743 -0.0033310724 0.0019255347 0.0027876617 -0.0027211548 0.0023686842 0.003725848 0.0035369778 -0.0032881577 -0.0016439342
chemistry -0.0012873773 0.00052855414 0.0003263101 -0.0034590438 4.503882e-05 0.0019901083 0.0024893293 -0.0007727125 -0.0033084261 -0.00039781752 -0.0002889873 0.002735036 -0.00096591667 -0.0013086566 -0.0037372978 -0.0024636292 -0.0036965897 0.0024337107 0.00249196 0.0010556186 0.003645977 -0.0018874143 0.0025213778 0.0037171957 0.0036713078 -0.0015455652 0.0026589916 -0.0031315177 0.0037593334 -0.0036089192 0.00031938523 0.0030153878 0.001162796 -0.0014590672 -0.00310618 0.0029282803 0.0017730239 0.0006823196 -0.003893001 0.0019000495 -0.0024966786 0.001065562 -0.002571883 0.0002797902 -0.003462071 -0.0023316573 -0.00050942996 -0.00040555376 -0.0020434766 -0.0015499862 -0.0016951439 0.0015002887 -0.0017987607 -0.00048910483 0.003347273 0.00012979536 -0.003112189 -0.0018956646 0.0022818034 -0.0026160919 0.0020703943 -0.0005819305 0.0015685388 0.0033525801 -0.002825053 -0.0038923752 -0.0022995446 0.0036288996 0.0012435383 0.0010545384 -0.0033440953 0.0019081766 -0.0035978253 0.0028342106 0.002030837 -0.0015929615 0.0021310416 -0.00042970854 0.00057370577 0.0005153325 -0.001972487 -0.0017980873 -0.0024234531 -3.772006e-05 0.0016888015 -0.0021284292 0.0027648576 -2.7042417e-05 0.0018637857 0.00013039778 0.0036614197 -0.0014852734 0.0013655336 -0.003401727 0.0027048239 -0.003241581 -0.00084760174 0.0013503819 -0.0014251969 0.0030338322 -0.0034413852 -0.00028318536 0.0021852404 -0.0019817585 -0.0037311795 0.001179557 -0.0011594183 -0.002705015 0.0011532789 -0.0038375969 -0.0015979782 0.00051157066 -0.0034492707 0.0010617021 -0.0017044349 0.002156936 0.00029176197 -0.0026467722 0.0028880455 -0.00056877994 -0.0013542195 -0.00085724716 -0.0011407997 0.0030597867 -0.0012779759 0.0014037266 -0.00018663179 -0.002559542
nurse 0.00239894 -0.002385856 0.00026666516 -0.0027740651 0.0021087423 -0.0018578706 -0.0010460789 6.713473e-05 0.0029986722 0.0025113705 -0.0036094293 0.0035992987 -0.00014132605 0.0036757453 0.0011112614 -0.0034750805 0.0026193224 0.0006453584 0.0006595402 -0.001982694 0.0013381026 0.003790938 0.000751255 -0.0028406936 0.0032519193 0.0029226406 -0.0029227093 0.002785603 0.00260534 0.00042389092 0.003761536 -0.002562947 -0.0023642008 -0.0024485271 -0.000992652 -0.0029618226 0.0018453265 0.003904776 0.0024643217 0.003622904 0.0037471284 -0.0037243457 -0.0036069243 -0.002148547 0.003816297 0.00072465354 -0.0033880442 0.00096733833 0.002909967 -0.0006928767 -0.003285357 -0.0033766017 0.0002947666 -0.0016665278 0.0024122589 0.00043712254 -0.003873615 0.0013789425 -0.0019038464 -0.0032093665 0.0031848047 -0.00083092804 0.002952562 -0.0035588765 -0.0007882197 0.0017904793 -0.0024299237 -0.0015594154 -0.0038717922 -0.0007471531 0.003105348 0.0038092972 -0.0008389592 -0.0015710751 -0.001759911 0.0032043112 -0.0014860885 -0.00015666643 0.0032952384 0.0007129043 -0.003831683 0.00059023086 0.0025484157 -0.00054445944 -0.0020507742 -0.0037772704 0.0010358668 -0.003627291 0.0010467217 -0.00095635385 -0.0026095328 -0.00055467675 0.00311435 -0.0025476725 0.0010549257 0.0038355654 -0.00103913 -0.00080556056 0.0035243377 3.0226121e-05 -0.0034057712 -1.156444e-05 0.00031829404 0.0011531104 0.0035860264 0.0034762912 -0.0013278864 -0.0032427618 -0.0016419286 0.00041869117 0.0009653894 0.0038450363 -0.00090712745 8.0031976e-05 0.00029735971 -0.00076916965 0.002379641 0.0021520364 0.002865033 -0.0018503582 -0.001976807 -0.0030126336 0.0024497332 -0.00017032516 0.002298875 0.0038793415 -0.0018837912 0.0018334239
landscape 0.0036049522 -0.00091923005 -0.00023484191 -0.0017948494 -0.0012370133 0.0038671764 -0.0017849247 -0.003464642 -0.0033789931 -0.002938536 -0.0022630065 0.002044156 -0.0004053165 0.0037746448 0.0014155515 -0.0009962687 -0.0017316801 -0.0014527566 0.00066874555 -0.0034848563 -0.003566409 0.0007758098 -0.0023368178 0.001389854 -0.002940003 0.0037885231 0.0007700928 -0.0034573004 -0.0012984569 8.799466e-06 -0.0009736924 -0.0019499089 0.000667396 0.0032748394 -0.0009443171 0.002673773 -0.0029041271 0.002910851 -0.0005862384 0.0003013288 0.0024813137 -3.86768e-05 -0.00012779115 -0.0009963972 -0.00022940477 2.9238921e-05 -0.0017884178 0.00010662408 0.002824107 0.002679243 -0.003343368 0.0019112388 -0.0011441462 -0.0034282722 -0.00031609484 0.0035311717 -0.001657007 0.0011333416 -0.00293856 0.0022228763 0.0004224953 -0.001560701 -0.0037855604 0.0037245231 0.00015698672 -0.0027411764 -0.002561756 0.0006944812 0.00041816873 -0.0021881375 0.001603137 0.0012965341 5.2053198e-05 -0.003373203 0.0017127051 0.0029682817 -0.00081123476 -0.0030087673 0.0032117115 -0.00053097046 -0.002032496 -0.00010120259 0.0030201017 0.0024872997 0.00076005637 0.0021949257 -0.00092448696 -0.0038546547 0.0019185083 0.00017452383 -0.0011757602 -0.002622792 0.0024149155 0.00011254357 -0.0032041157 0.002602185 -0.0004677776 0.0036289296 -0.0018701345 0.0018560623 -0.001828028 -0.003495337 -0.0038726656 -0.0010436806 0.0013204884 -0.0031617 -0.0013177347 -0.00015648133 0.003232132 -0.0037485764 0.0013310924 -0.0015321845 0.0014590345 0.0017424454 0.002377941 -0.0018639963 0.00032952375 -0.0016481427 -0.0017852609 -0.0028105814 -0.0031217057 0.0007564002 -0.002689211 -0.0021725255 -0.00016947195 0.00053207006 0.0012528908 -0.0027743096
insurance -0.0017817196 -9.395438e-05 -0.003094563 -0.0026686224 0.0006696044 -0.0015189083 0.0035170165 0.00028728807 0.00073414674 0.001112682 0.0025751528 -0.0024660532 -0.0015132794 -0.0008238523 0.0020923081 -0.00023710403 0.003867176 -0.0038104611 -0.0026282885 -0.0026173336 0.00037332345 -0.00218841 0.0029126129 -0.0033735328 -0.0025441765 0.002723141 0.0038313533 -0.0018080963 -0.002366737 -0.00032269803 0.002131376 0.0012943343 0.00093101995 0.0026094974 -0.0029644424 0.0003453841 0.0025926097 -0.001980966 0.00065005675 -5.4154563e-05 -0.0030819993 0.003891308 0.0031485676 0.0008287348 -0.003266218 0.0015495867 -0.0009235797 -0.0029558977 -0.0015858825 0.00079391344 0.00043566813 8.701272e-05 0.0011323985 0.0037519406 -0.0037509846 0.00040827307 -0.0029742408 0.0027085012 0.00090493663 -4.2968037e-05 -0.0014032397 -0.0009303829 -0.002288349 0.0018964983 0.0027442167 -0.0018658236 -0.00021891594 0.0035168203 -0.0017942234 0.0014862855 0.0031449134 -0.0011832565 -0.001891948 0.0028135863 0.0030435438 0.0037152234 0.0028086277 -0.0037697237 0.00083549647 -0.0031591172 -0.0028920586 0.0016141754 7.48411e-05 -0.0002933038 0.0030667016 0.0005634619 -0.0004623794 -0.002852503 0.0033749864 0.0025834804 -0.0033003953 0.0007362984 0.00019821154 -0.0015232229 -0.0017380728 0.0016634357 0.00021268253 0.0021181465 -0.00279684 -0.0034880694 0.0003938941 0.0038916403 -0.0029397337 0.002526236 0.0014351374 -0.0002228545 0.002180431 0.00051883154 -0.0032627683 0.0003044921 -0.0033800518 0.0029381919 0.0020756058 0.0021985443 0.00041575005 0.0015501229 -0.0037952915 0.0014418904 0.0036600938 -0.002191731 0.0011973121 0.00019999935 0.00032124508 0.003468092 -0.00226167 0.0013521723 0.0025997711 0.0027369733
metal -0.0024360279 0.0020717627 0.0006272686 -0.0025387155 0.001905351 0.0010815696 0.00032104464 0.0025108133 -0.0020981366 0.0036885664 0.0025011194 0.0037436744 0.0033394594 -0.0016396383 -0.00023922266 -0.000356275 0.0009606592 -0.0023507255 0.0029302347 0.0026375563 0.0025799875 0.0019050981 0.0035572874 0.00384759 0.0008504991 0.003560273 -0.0017251857 0.0021156736 0.00038833672 0.003749914 -0.0035320423 -0.0028354486 -0.0007388757 -1.3782556e-05 -0.0035995292 -0.002323287 -0.0013530767 -0.0015504465 -0.0031789287 -0.003878869 0.002658184 0.00039286693 -0.0003877842 -0.003180165 -0.0038073966 0.00074912014 -0.0008341858 -0.00038039932 0.002481464 0.0013034057 -0.003057635 -0.002306062 -0.0025122657 0.002956298 -0.0024151944 -0.0032491235 0.0027276196 -0.0005229991 0.0009747374 0.0035240264 -0.0036656605 0.0026449917 -0.0023848244 0.0009938475 -0.00087097666 -0.00089107 -0.003658268 -0.0007468755 -0.0017477571 -0.0035426717 0.0015961997 0.0020637554 -0.0021126212 -0.0009134331 -0.0016991749 -0.0036647057 0.0019684797 0.0037066578 0.0032343094 -0.00321645 0.0018387631 -0.0032076542 0.0029092478 0.0037488914 -0.002982025 -0.002968466 0.0020809772 0.0028695124 -0.0036337764 -0.00097131886 0.0035080216 -0.0035120533 -0.0033016645 -0.00052383594 -0.0005494148 -0.0036587887 0.0016639116 8.953614e-05 -0.0038919144 -0.0007669711 -0.0009288151 0.0019483264 -0.0004290889 0.002731146 0.00091505336 -0.0030518633 -0.0032101911 -0.00011250944 0.0036248493 -0.0038414954 0.0029004887 -0.002262179 -8.7981316e-05 0.003446798 0.00349384 -0.0035073657 0.00077334384 0.002428528 -0.002376829 -0.0031527064 3.3239394e-05 0.0029929872 -0.0010879779 -0.0015053042 0.002594134 -0.0009847133 -0.0031296778 0.0038990628
wizard 0.0027397345 -0.0013481115 0.0011672946 0.0005035411 -0.00052604487 0.00039797448 0.00013328937 0.0038152186 -0.00093755143 -0.0018063122 -0.0025695239 0.0036251114 0.0020884897 -0.00065744424 -0.0012392788 -4.327503e-07 0.002020066 0.0027980406 -0.0011721012 0.0027774188 0.0027255125 0.00013942264 0.0019234454 0.0015686662 -0.00020276941 -0.001720542 -0.0011489069 -0.002313545 0.001273056 0.0014495852 0.003356994 -1.0821211e-06 0.001511452 0.0033530535 0.00045987373 -0.0024765318 0.00063926354 -0.00038203754 0.0037585206 0.0033979432 -0.0034298713 0.0031405329 -0.0012385432 -0.00044643262 -0.0005244008 -0.00087995094 -0.00034011065 -0.0015908071 0.0026327327 -0.0024722025 0.001916619 0.0022992264 0.0020698588 -0.0014791535 -0.003161988 0.00016344672 0.003327718 -0.0019100351 0.0033349632 -0.0009611077 -0.0024383161 0.00040382062 -0.002969796 0.0013922082 0.00030414687 0.0033930666 -0.0038591987 0.002471464 0.0028189165 0.0027335184 0.0037992403 -0.002870436 -0.0010308512 0.0022974056 0.0031262154 -0.0027675093 0.00017040667 0.002991169 -0.00092776323 0.0023878005 0.00052279845 -0.00040622553 -0.0031561344 3.622586e-05 -0.0015672893 -0.0019524256 -0.0036150226 -0.0020269074 -0.0025262353 0.0012954588 0.0017825562 -3.297009e-05 -0.000951583 -0.0010639217 0.002187655 -0.0019724856 -0.0029512215 0.0030373575 0.0014956471 0.0005599014 -0.003063256 -8.1719896e-05 -0.0019532936 0.0019763403 -0.003317816 0.0025005324 0.0038867414 -0.0019870363 -0.0018452198 0.0024387771 0.0025125756 -0.0017077881 0.0026208437 0.0017334012 -0.0012116955 -0.0014299907 -0.00329296 -0.00190462 -0.0032491286 -0.0003459521 0.0017802943 -0.002563793 -0.0012455801 0.0026468935 -0.0019232058 0.0002997313 0.00030340612 -0.0032573503
food -0.0009938003 0.0011685095 -0.0012366511 0.0025484741 0.0036075413 -0.0011843636 0.0008899185 0.0017711271 -0.0029110317 -0.00027099464 -0.0020570736 -0.0010495209 0.00046834262 -0.0034522938 0.0015986735 -0.0022831333 0.0016974274 0.0030014901 0.0031562014 -0.001947059 0.001244871 0.0034419065 -0.0005480474 0.001171753 -0.0016471256 -0.00021778115 -0.0025540492 0.0035755879 -6.308722e-05 -0.0012638329 0.0036571266 0.0029690743 0.00067377376 -0.0018484024 -0.0028133977 0.0010182644 0.0035858264 -0.0015692482 -0.00056433375 -0.0022484101 -0.0006405265 0.0031007975 0.00087260484 0.0028994025 0.000441701 -0.0028398398 -0.0029288046 -0.0024332795 -0.0002471972 -0.00083678594 -0.003285456 -0.0007627552 -0.0018157943 0.0031992306 -0.0033343036 0.0030019546 0.0023534603 0.0037436245 0.0008053013 -0.001195679 -0.0030907076 0.0003286804 -0.0019240484 0.001201316 0.0027696392 0.000938411 -0.0014611788 0.0015883395 -0.00046543762 0.0037814106 -0.0022023993 -0.003680903 -0.0023475005 0.0021104382 -0.0008298856 -0.0028358651 0.00011911067 -0.0007910717 -0.0036413835 -0.0014428913 0.00045914252 -0.0011737406 0.0003999897 0.0031388188 -0.0019381247 0.00022828027 -0.0024640216 -0.000139622 -0.0019396202 0.0030485347 -0.0026169193 -0.0015562793 -0.0016164641 0.0032016549 0.00069780264 -0.00092571747 -0.0001340524 -0.0030152244 -0.001548261 0.0007401101 0.00045158042 -0.0028270034 0.0013767156 -0.0005441708 -0.0017415899 0.00084211427 -0.0028836913 -0.0009403177 0.00050028623 0.0019275321 -0.0038390988 -0.0010305912 -0.0018847951 -0.0023162768 0.001271667 -0.0036680682 -0.0030383575 0.00088619516 0.002645581 0.0019382625 0.002106624 0.00071271363 -5.9024785e-07 0.0028407553 0.0026655798 -0.0022257734 -0.000659232 -0.0035757856
brother -0.002543104 0.002487453 0.0021466962 -0.0020509898 -0.0016261467 0.0034784249 -0.00045337135 -0.00016939784 -0.0021086228 -0.00034755567 0.00231516 0.0009299401 -0.0018415125 -0.00076437806 -0.0034651242 0.0011019277 -0.0028070214 0.00171005 0.00013748684 0.0028924563 -0.00065387075 6.566607e-05 -0.002252068 0.0019907418 -0.0017867499 0.002194043 0.0007760488 0.0025858067 -1.972465e-06 0.0010666238 0.00029738605 0.0035865458 -0.0010059695 0.0019948126 0.0021704226 -0.0035025356 -0.0032011159 0.0016643855 -0.002771368 -0.0007695753 0.0015614153 0.0025878844 0.00035268397 0.0015063278 -0.0031823835 0.0032276202 -0.00011832773 0.0014371639 0.0018288093 0.0025464927 -0.0012886487 0.0033193957 -0.00052201713 -0.0035282457 0.0022761442 -1.8589798e-06 0.0020402963 0.003088553 0.0012615398 0.0019131609 0.00023087919 -0.0028309869 0.0038620483 -0.00078647136 0.00170203 0.0035572732 0.00072097155 0.0023125268 -0.002577483 -0.0026389435 0.00082263874 -0.0025993672 -0.0005588376 0.0035707734 0.0007119386 0.0014668881 -0.0023531774 -0.003573142 0.00046793104 -0.0033777955 -0.00032732394 -0.0017137796 -0.0022868514 0.0026844495 0.0005063474 0.0026562235 -0.0019789976 0.0027500307 -0.0024495535 0.001516021 0.0018797223 -0.0023078632 -0.0005054462 0.0036371408 0.00020973233 -0.0031746551 0.003138639 0.003734164 0.0015070852 -0.003004981 0.0019700502 -0.0014130515 0.0031732463 0.0002767956 -0.0037268412 0.0019779867 -0.002715403 -0.00033570395 0.00017359275 -0.002135648 -0.0004677741 0.0033859024 0.00080593186 0.0016226887 0.0034712763 0.0021298528 -0.002190382 0.0035815476 0.0012041798 -0.0014605831 -0.0006507152 0.00025199744 0.0028382987 -0.001458365 -0.0031227723 0.0014775511 -0.0006693853 0.0025829554
personnel 0.0038850491 0.0009897898 0.000100591424 0.0038335987 3.931757e-05 -0.0026759712 -0.0036773442 -0.0033720944 -0.003454487 -4.065598e-05 0.0023140968 -8.443023e-05 0.0027930439 -0.0016171024 -0.0036539084 0.0037320014 -0.00037041216 -0.001511713 -2.03201e-05 -0.00076031295 0.0026841369 0.002742138 0.0037914605 0.0035207057 -0.002770747 -0.0018886769 -0.0013859251 0.0030515902 0.0032177034 -0.0028243498 -0.00081427465 0.00037949544 0.0005808998 0.0007952592 0.002765942 0.0017455175 0.0012483554 -0.0036480473 0.0021747325 0.0036406 -0.0028699525 -1.5063885e-05 -0.00013093893 -0.0022211866 -0.00041830208 0.003437602 -0.003051293 0.0006972049 0.0012689981 -0.00061610265 -0.0024913743 -0.0033903862 -0.0033930766 0.0018582874 -0.00059708924 0.0006027238 0.0007308839 -0.00053226284 -0.0027999273 -0.00016303368 0.001809387 0.0034265418 -0.0036769102 0.0038030846 0.0002073091 0.0015388695 -0.0027306187 -0.002920752 0.0024291521 0.00051992596 -0.0008329241 -0.0038120225 0.0010789882 0.0035342413 0.0019494198 0.0011091831 -0.0003838266 -0.0010218057 0.00079555647 -0.002044265 0.003889204 0.0034382963 0.0025437493 -0.0035278874 -0.0018961366 -0.0010126668 0.0037728818 -0.0026101675 0.0011835294 -0.000624502 0.0018739353 -0.0030159163 0.0010337549 0.00357378 0.0032540304 0.0014843652 0.0024431278 -0.00048641974 0.003704675 -0.0021253815 0.0016948634 -0.0033699493 -0.0019671791 -8.89169e-05 -0.003299197 -0.00023963071 0.0011464369 0.0019051718 -0.00025075985 -0.001732911 0.002206869 0.0007321181 0.0018254009 -0.0022884933 -0.0019131171 -0.00023141646 -0.0007918091 -0.0027509232 -0.0028088028 -0.0007009513 -0.0027852734 -0.0019736714 -0.0034963686 0.003689356 -0.0027359384 0.0012613685 0.0024403823 0.0014774412
professor -0.0026666399 -0.0026719496 -0.0018908876 0.0018905968 -0.0028659336 0.0028193882 0.0003629841 0.0019388341 -0.0012846449 0.00083558005 -0.0035739008 0.002323676 -4.4689696e-05 0.0023285367 -0.0022004142 -0.0019235614 0.000513255 0.00018026354 0.0015028288 0.0010519795 0.0029715798 -0.0011390909 -0.0014884797 0.0015845412 -0.0037925828 0.0038692076 0.0034044583 -0.002054831 -0.0027277227 0.00044059305 -0.0030215266 -0.0037273662 -0.0011270962 -0.0024455364 0.0023638632 -0.0024205837 0.0033694536 -0.0016517758 0.0015244021 0.0032100722 0.0008960653 -0.001472039 0.001688483 -0.0012678272 0.0017010075 0.0032099828 0.0032836802 0.0026528486 -0.0005582247 0.0023403591 -0.0011811315 0.00059490546 -0.00038715755 -0.0031626564 0.0035866054 0.0010661142 -0.00025289456 -0.0019399594 -0.0031255751 0.0014728187 -0.0010697863 0.0005642074 0.0036981532 0.0011924248 0.0010655172 0.0029739093 -0.0009134918 0.0017193796 0.0035976612 0.002444138 -0.0017284779 -0.0028487924 -0.0025587801 -0.0002819337 -0.003000386 0.0019493446 -0.0035333692 0.0018599257 0.0037390387 0.0014738733 0.0025866267 -0.0037396725 -0.0004289834 -0.00073332613 -0.00090764667 -0.003794749 -0.0030477762 9.250318e-06 0.0006288281 0.00055442733 0.00053017517 -0.003420471 -0.0034565409 -0.0024146023 -0.0015852253 -0.0016315364 0.0026619907 -0.0002217448 0.0011041092 -0.003900338 0.0014052251 0.0013030713 0.00063976937 0.0020911063 0.002892777 0.0038652096 -0.0029812444 -0.003588567 0.00035506857 -0.0024251349 -0.0005451371 0.0034447191 0.001395295 0.0026706958 0.0010170839 -0.0037796558 -0.0009135223 0.0018246965 -0.0018902668 -0.0011801438 0.0018706197 0.00032119505 0.0009256067 0.0006264788 0.003680071 0.000753229 -0.0015532982 0.0029348498
implement -0.0038943863 0.0020480887 -0.0005340535 -0.003226907 0.0011402577 -0.002348283 -0.0019029952 -0.0014926186 0.00017329029 0.00093117694 0.0011465118 0.0025084864 0.0016106616 -0.0038154116 0.0012999956 -0.0017908385 0.0012509015 0.0033733181 -0.00062007736 0.0035984651 0.003436202 -0.0014564184 0.0034761666 -0.0017323918 -0.0019948087 -0.00019412732 0.0006237361 0.0031638881 0.0007963097 0.0023712262 0.0020644686 0.0027212864 0.0037049449 0.0037865655 0.00035438567 0.0017490729 -0.0001359529 -0.0006937248 -0.0013320395 -0.00022488015 0.0004965793 -0.0015158245 -7.719288e-05 0.0015508666 0.0025490026 -0.0035569866 0.003902868 -0.0016804263 -0.0016724854 0.00074945524 -0.0012893055 -0.0020282841 0.0021008626 -0.002784787 -0.003098738 0.00023566523 0.00079803995 -0.0038847136 0.0016912456 -0.0017795168 0.001955395 -0.0030053041 -0.0024855644 -0.00095934194 0.0017300592 -0.00268057 0.0005267826 -0.0023915826 -0.00066663424 0.0006690148 0.0030320669 -0.0018710265 0.0023770109 0.00046380094 0.0011274857 0.0016791809 0.0014702637 -0.0029729581 -0.0024950276 0.0026162255 -0.0034997235 -0.0005881175 0.0028610926 -0.00019175792 -0.00116627 0.0010178322 0.00060058036 -0.0036611962 0.0032991976 -0.0022778858 -0.0010452362 -0.0015353435 0.0007774111 0.000118688266 0.0001758704 -0.0030524868 0.0014025505 0.0002810235 -9.672745e-05 0.00010317145 -0.0022154378 -0.0015982933 -0.0025912938 -0.0005108362 0.003030568 0.0016385665 0.003632872 -0.0025832236 -0.003865565 0.0020983033 0.0033548675 0.0033499459 0.001818011 -0.000704797 0.0019337517 -0.00019152748 -0.001396034 -0.003302009 0.0008944067 0.0024438354 0.003517089 0.0025393814 -0.0019772542 -0.003104189 -0.0011094705 -0.00064009026 0.003869226 -0.0029393015
radio -5.6494396e-06 -0.0014590527 -0.00072951574 0.0015910235 -0.0012929642 0.0032985243 0.00066221115 0.0022090343 -0.0038333458 0.0030333989 -0.0009782373 0.0010941083 -0.00072468095 -0.00102953 -0.0013658592 -0.003567615 -0.00024994244 -0.0028146121 0.00023151028 0.003086591 0.0006344935 -0.00052578497 0.0016369023 0.0018474449 -0.0017413963 0.0008985475 -0.00046208463 -0.0038509874 -0.0016354092 0.0029697467 0.0009532306 0.0026010652 -0.0018883309 -0.0021996945 -0.0031634471 0.0026000799 -0.00079737033 0.00088695774 -0.0013787679 0.0034819664 0.003597117 0.0023756397 -0.002009194 -0.0012792873 0.0013613555 -0.0015164206 0.0008467564 0.000103085775 0.0036501104 -0.0033876358 0.002349716 -0.002278776 0.0015726173 -0.001926391 0.0014659 0.0035511972 0.0024501733 0.00023942303 -0.0016037573 -0.0033872416 0.0007306445 0.0030783417 -0.0017892629 -0.0020515341 -0.0022617024 -0.00378241 0.0037137943 -0.0021064996 0.000766012 -0.0018661829 -0.0005833519 0.001657571 0.0030410518 -0.0008209749 -0.0018991656 -0.003208781 -0.0013591977 0.0013335429 0.00020224687 0.00024244595 -0.0037867108 0.00019770447 0.0003948814 0.0011152459 -0.0019189756 -0.0032649285 0.0008816062 0.00013773092 0.0034649195 0.00030825316 -0.0009170557 0.0010490858 0.0005212993 0.002892239 0.0012972273 0.0031606432 0.0022861827 -0.0018719161 0.00038006133 -0.0020296376 -0.0015928663 -0.0029781666 0.002391327 -0.0032964777 0.0013168595 0.0038213136 0.0019670876 -0.0011186424 3.1511565e-05 -0.002973221 -0.0016835714 -0.0012996042 0.0003625966 -0.002485121 -0.0034356355 -5.723394e-05 0.0037453687 0.0022153552 0.0009981976 0.0012582513 -0.003861548 -0.003829874 0.003605357 -0.0016971044 -0.0007435649 -0.0025926882 0.002578325 0.0014145393
flight -0.0026766593 0.003712511 0.001705726 0.000102424216 0.0016517988 -0.0013670217 0.0035135057 0.0028903554 0.0014953589 0.003608092 -0.0009823578 0.0035883347 -0.0016072917 0.00017202919 -0.002836674 0.0012940612 -0.00013332523 -0.001604442 0.0013545479 -0.0013946572 -0.002311393 -0.0014684353 0.0020470116 -0.0004943548 -0.00084604265 0.0032662586 0.0027636217 -0.0038991666 -0.0015759892 0.0022029844 0.0034535222 -0.0037028259 0.0036125418 0.0025465416 0.0036319785 -0.0025368086 0.003059746 -0.0034855357 0.0004731035 -0.002044431 0.0007831081 -0.0026129137 0.00087353005 -0.0032309028 -0.0006960852 -0.0035459634 -0.002265203 -0.00020121381 0.0025239247 -0.002870525 0.0015481879 0.0020615535 7.579174e-05 -0.0012576348 -0.0031829635 0.0010962394 -0.0019896415 -0.0003087029 0.0030716707 -0.00028054588 0.0006785564 0.0016986197 -0.0028751383 0.0023379999 -0.0011922002 -0.0025426063 -0.0017437318 -0.001765349 -0.0020782754 -0.0013839327 -0.0027758582 -5.941785e-05 -0.003036577 -0.002991789 0.0038255106 0.0010528462 0.00016255915 -0.00093454786 0.0024631626 -0.0020632746 0.00036332163 -0.0005355728 -0.000578072 -0.0034994613 0.0005941078 -0.0008575026 -0.0032310616 -0.0031056756 -0.0026759303 -0.0014448061 0.0036949539 0.00052046217 -0.0012180805 -0.0015870894 -0.0011456019 0.0012948255 -0.0036453223 0.00044802442 0.0011352972 -0.0031051012 -6.0439055e-05 0.00041860592 -0.0006658917 -0.0016569662 0.0015186983 -0.00064606714 0.003184937 -0.0037229925 0.0028692149 0.0022116983 0.0002306536 0.0018951971 -0.00011955048 0.0022836258 -0.0021217288 -0.0022860067 -0.002388809 0.0026972133 -0.0029461395 -0.0013617647 -0.0030796507 0.00055403955 0.00035905043 0.0022333018 -0.002870324 -1.43208845e-05 -0.0006938188 0.0016877918
secretary 0.000106037805 0.00037793798 0.0032027767 0.003129173 -0.0032127528 0.001357643 -0.0012783092 0.00018445127 0.0038024262 -0.00093891687 -0.0004916841 -0.0037104618 0.0016119083 -0.0037610077 -0.0023952513 0.0027450607 0.0027771734 -0.0011251153 -0.00026521776 -0.0007111641 -0.00347057 0.00021007922 -0.0033584447 0.0032082337 0.0002425245 0.00284196 0.0004753972 -0.0031061594 -0.00060769636 -0.0018450526 -0.0038993321 0.001498302 -0.0030046685 0.0032447868 -0.002224558 0.0014471244 0.0035312977 0.0025391316 0.0031618227 -0.0028901133 -0.00082612573 1.3820485e-05 0.003199373 -0.0035812324 -0.0025410617 -0.00045988822 -0.0019724462 0.001928311 -0.00015328631 -0.0022520842 0.0033928864 -0.0024866718 0.0020407196 0.0012938996 -0.0021771414 0.0031626339 0.0018034633 -0.00071589765 -0.00074004306 0.0005202081 -0.0033256472 -0.00086594763 -0.0034877018 0.0030835175 0.0014995127 0.0021666007 0.003175107 0.00037946392 0.0037005518 -0.0024330893 -0.00043174863 0.00091122196 0.0035106791 8.115162e-05 -0.00045410192 -4.5339577e-05 -0.0038592874 -0.0013319632 -0.003284489 0.0038860044 0.0012177756 -0.0035538448 -0.00085637736 0.0019023466 -0.0013440516 -0.0019743277 -0.0027826473 0.000631601 -0.00013428506 -0.0034746348 -0.0027668672 0.0029327383 0.0029740962 0.0016759641 0.003488889 -0.0022386964 0.0027637598 -0.0035554068 -0.003428736 -0.0024626988 0.002848103 0.0013649263 -0.0021386875 -0.0015203756 0.0019716814 0.00056875305 -0.0038132255 -0.0029376722 -0.0007280844 -0.0033644582 -0.0037020703 -0.00010742578 -0.0015934437 -0.00085861835 -0.00025574112 -0.00011988949 0.0006420694 0.0011495835 -0.003789951 0.0037094618 -0.0029178278 -0.00036961047 -0.001279607 -0.00026671137 -0.0024827912 -0.0023375747 -0.0004381733 0.0014942555
plan -0.001339782 0.002055103 -0.00016415156 -0.003702271 -0.0020409208 -0.0007116026 -0.0025791852 -0.00039499917 -0.0028013715 -0.0006176552 0.00020781053 -0.00058980414 0.003111617 0.0024098158 0.00034893816 0.002741195 0.0008571011 0.0024212499 0.0027535353 0.0009233826 -0.002108336 0.0022408885 -0.0006245994 0.00034884186 0.0008681053 0.0036101565 -0.0005500499 -0.0034406167 -0.0034324874 0.002737758 0.0029047406 0.00087032997 0.0031608485 -0.00036024122 0.0026790635 -0.0017984002 -0.0007122096 0.000865469 -0.003691092 -0.0028019424 0.002012922 0.0026100273 0.0024951897 0.0017844497 0.0038572464 0.00058138516 0.0032294323 -0.002231312 0.0026690934 0.0026477098 -0.003697091 0.002114273 0.0016671731 0.0016509049 -0.0034049535 0.0014341931 -0.0024798082 -0.0008356404 0.0029985695 -1.1391419e-05 0.0013167332 -0.0014548161 0.0015193565 -0.002076409 0.0016043731 -0.0009494084 0.0007378588 -0.0028489712 -0.0016179812 -0.00066290074 -0.0028952528 0.0016566683 2.4208352e-05 1.8814522e-05 0.002234949 0.003643937 0.00037602615 -0.0023416572 0.0031863134 -0.0018777662 -0.0008377786 0.0031820782 -0.0018543683 -0.0028561954 0.0021088053 0.0023338578 -0.0023847364 -0.0027206715 0.0026463892 -0.001973035 0.0016793781 0.00015456956 -0.0029048896 -0.00025986793 0.0008761043 -0.0030198153 -0.0013401114 -0.003706151 -0.0024115345 0.0018509419 0.003127518 -0.00031632348 0.0022185917 -0.0034170493 0.0004947715 -0.0015888776 0.0010439134 -0.0027761967 0.0032314586 4.2960604e-05 -0.0020358434 0.0022408545 0.0020241197 -0.0030955137 0.002599909 0.0013100294 -0.0017148092 0.0015749732 -0.0032252716 0.0034381682 0.0031717676 0.0023168365 0.0022883755 -0.0024641764 -0.0014287219 -0.00076991 -0.0021577373 0.003694387
forest 0.0021691173 -0.0030007253 0.0011212715 0.002560203 0.003060849 0.00065252295 -7.130529e-05 0.00041494495 -0.0016379764 0.0033414024 0.002073407 0.003654794 0.0007594861 -0.00025179045 0.002837667 -0.002203042 0.00036645398 0.003529076 0.001334738 0.00080997514 -0.000934771 0.0008841744 -0.0015926638 -0.0028476834 -0.0037820865 -0.0030931763 -0.0014990846 -0.00045921744 -0.00043749315 0.002663081 0.0037933935 -0.0018494698 0.00019929979 -0.0022864959 -0.0030776407 -0.001231844 0.0008110276 0.0011640367 0.002762251 0.0030183692 0.0029977192 -0.0027706586 0.0019965419 -0.0012691569 -0.0028854215 0.00051579694 -0.002943707 -0.0023338136 -0.0032692107 0.0017722738 6.2577936e-05 -0.0025763086 -0.0035142188 0.0014520905 -0.0032394626 0.0014074593 0.0020553744 -0.0023797497 -0.002838397 0.00062441255 0.00065476197 0.00082233996 -0.0007489495 -0.0037354766 0.0005415656 -0.00027402694 0.0025629287 -0.0009383504 -0.0037125163 -0.0021951098 0.0015488215 0.0005503814 -0.0014518969 0.0035306239 -0.0010036485 0.0015958282 -0.0024801523 0.00051061006 -0.0031081722 0.0029099893 -0.003383807 0.00058266276 0.0038304694 -0.0022799592 0.0017065274 0.00028442784 -0.0034380283 0.00020632733 -0.0028001762 0.0010350324 -0.0017270017 0.00045182405 -0.0029094408 -0.0018110169 -0.002063857 0.0019270724 0.0008193455 -0.0014662103 -0.0034179813 0.002075069 -0.0026257175 0.0030755505 -0.0011481872 -0.0033206034 -0.00050028064 0.0011818595 -0.0032451139 -0.003646511 0.0011537313 -0.0011559793 -0.001033695 -0.0021101164 -0.0003707293 -0.0012690003 0.0021236914 -0.0006546355 0.0038848661 0.0029137116 0.0012380991 0.0037417617 0.0007732448 -0.003096272 -0.002840089 0.0008031572 0.00070299197 0.0036840911 0.0033061984 -0.0025157314
gain -0.00019787929 8.02316e-05 -0.0023275749 -0.00026591838 -0.0020529958 -0.0029804853 -0.000161067 0.0023627686 -0.0014339966 0.00084070256 -0.0029901562 -0.0018004013 -0.0025355737 -0.0024903915 0.0027931978 -0.0032988354 0.0035978358 -0.002202934 0.0009200659 4.2735246e-05 0.0020348702 0.00013605756 -0.0015939213 -0.0010381289 -0.0028650118 -0.00031548247 0.0029607448 -0.0027712295 0.00017055072 0.0020098647 -0.0038243155 -0.0037175554 -0.0020530175 0.0014770561 0.001276052 0.0016935206 0.0037054718 0.0009821247 -0.000584133 0.0030495273 0.0036750478 0.0028164613 0.0011811797 -0.0034839322 0.0036393849 -0.0017884079 0.0038813471 -0.0013530551 -0.0015337019 -0.0023035184 0.002642713 -0.0011064039 -0.0021932777 0.00085789623 -0.0013955735 0.0030836144 -0.00032810602 0.0006737597 -0.003225184 -0.0034040129 -0.00226554 0.0024376565 0.00044815178 0.0020719701 0.0022552237 -0.0036437046 0.0021231598 -0.0015968442 0.0037085349 0.0024304916 -0.0030325772 0.0021948316 -0.0031471697 -0.0019863977 -0.0012925575 2.498489e-05 0.002154975 -0.0024285302 -0.00031942214 -0.00067954196 0.0022927262 -0.0035377552 0.0005973684 0.0009638139 -0.0036061883 -0.0028226876 0.0023073873 -0.0037851473 0.0035689091 0.0033099211 -0.0011623395 -0.0034395608 -0.0025112715 -0.0018473633 -0.00056513044 -0.0011201598 0.0033387004 0.0012450211 0.003273547 -0.0010930918 -0.0005160191 0.00035513923 0.00051190506 -0.0009564181 -0.0005147777 -0.0009530063 -0.00087561196 -0.0028149835 0.0036262847 -0.0016160711 -0.002643783 -0.0024309934 0.00212909 -0.0012672018 -0.0028284213 0.002376076 -0.002794705 0.000371607 0.001695695 0.0035534424 0.0010053852 -6.4808e-05 0.0027504875 0.0002820821 -0.0008383246 -0.003592153 -0.0014698866 0.001143848
effort -0.00065415207 0.002873085 -0.0036272632 -0.0030463622 -0.0019159887 6.860155e-05 -0.0013072559 0.001311847 -0.0010307557 0.00016557728 -0.0017405787 -0.0037647136 0.0016614856 -0.0033406997 -0.0038571213 0.0005800898 -0.002251531 -0.0017358536 -0.0024714516 -0.0014251374 -0.002301937 -0.0003632476 -0.00010515076 0.0012593779 -0.000872531 -0.0021128631 -0.00057121844 -0.0015541416 0.0035939375 0.0008421454 -0.0010823003 0.0007762848 -0.0009226981 0.00022274576 -0.0016896356 -0.0003029003 0.0026896868 -0.0024396218 0.0034146856 -0.0008508489 0.002031035 -0.0009148578 -0.0022288375 0.0023391705 0.00373579 0.0029918705 -0.0019803154 -0.0024975708 0.0022237203 -0.001304991 0.0013111236 -0.0036058885 -0.0008774229 0.0021537354 0.0011577597 -0.00054569676 -0.002927368 -0.0030017016 0.000473871 -0.0018105076 -0.003525477 0.00078016997 -0.00062654744 0.002898055 0.0018151774 0.0007436938 0.00352971 0.003398809 0.0031584967 0.0013853835 -0.0034761336 0.0016089437 -0.00160878 -0.00057587563 0.0019421146 -0.0016399656 -0.0021829377 0.0007811291 0.0027669522 0.00053621083 0.0015728796 -0.0021753842 0.0027022718 -0.0022165666 0.0028189197 -0.0014371203 -0.0017489729 -0.0005873151 -0.0031950746 0.0036668836 0.0014857433 -0.0011985331 0.0009020731 -0.0011514557 -0.002599208 -0.001709527 -0.003226383 -0.0014439046 -0.0029675167 0.0034067843 -0.00021401928 -0.0010872331 -0.003735728 -0.0037985316 0.0005560816 0.0022723072 4.218621e-06 0.002271012 -0.0019594722 0.0014568395 -0.0012619541 0.0020838447 -0.0020456351 -0.00012806008 -0.0015371611 0.0036921683 -0.0030792537 0.0013519059 -0.0035740645 0.0008303337 -2.609978e-05 5.108386e-06 0.002923365 -0.0020922534 0.0031734519 -0.0025762278 0.0023305959 0.0034805597
phone -0.0013893278 0.0024093543 0.001146475 0.0012061271 -0.0003252648 -0.0018191165 -8.095776e-05 -0.0031542464 -0.0026406562 0.0011260269 -0.0017503329 0.00064702757 0.0028208066 0.0031035487 0.0024839044 0.0018525642 0.0028580625 -0.001884329 0.0012247686 0.0015906453 -0.0031544107 -0.001134156 -0.0010567026 0.00095112977 -0.0003619221 -0.0038161736 -0.0028715748 0.0027863286 0.0020610797 0.0018093301 0.002083611 0.0010776957 0.0031464149 0.0033010768 0.0010487163 0.0018615456 -0.0018030073 0.0033828781 0.003361688 0.0030468116 -0.0022333923 0.00053469796 0.0004385313 -0.0036330912 0.0024554187 0.0027059289 0.00027881877 0.0003822846 0.0022479983 0.0014167855 0.0031729336 0.0020177779 0.0029614037 0.002015003 0.0014353173 -0.00091148855 -0.00079950516 -0.0032573512 0.0014198959 -0.0012250046 -8.20921e-05 -0.0020288024 -0.0035049052 0.0032700878 0.0008645533 -0.0017664994 -0.0015303302 0.002309655 0.00045727388 -0.0016854713 -0.003613331 -0.0037860568 -0.003027878 0.0010833935 0.001319454 0.0013130433 -0.0028268532 -0.0026540703 0.0016757618 -0.001270201 0.0037848677 -0.0038939724 -0.00060285744 -0.00052120775 0.002666373 0.0031846121 -0.0018644572 -0.00038262754 -0.0030699985 -0.00060682395 0.0009022647 -0.003587503 0.000110793844 5.305559e-05 0.0013502908 -0.0019498107 -0.002868793 -0.0010926782 -0.00361052 0.000993992 0.001592662 0.0020381652 -0.0037924366 -0.0030902913 0.0033858684 0.0017163212 0.00062352 0.0029248132 -0.0034550023 0.000312174 0.0033733454 -0.00078594405 0.00030105733 -0.0007598363 0.0017683482 0.00071028195 0.0030730139 0.0012214811 -0.0002281727 0.0016926501 0.0002894749 0.00068418635 0.0010756964 0.0029204858 0.00049777725 -0.0019293304 -0.0011665665 0.0005521715
interview 0.0019207455 0.00038690525 -0.00088000443 0.0034733347 -0.0011613035 0.0038493432 0.0011126221 -0.0017317813 0.003388493 -0.0035599356 -0.000483001 -0.0013625727 0.0037301702 -0.0026708865 -0.0016404284 0.0037353286 -0.002788518 0.00014493451 -0.0032352668 -0.000120497105 -0.0036746913 0.002201753 -0.0017841178 0.00015549816 -0.00290931 0.003569215 -0.0014305244 0.002003408 0.0005312399 0.0026136762 -0.001290044 -0.0013961153 -0.0019608622 -0.0018876634 0.0032259668 0.0012765003 -0.0021103935 -0.0033059004 -0.00262634 0.001772951 0.0025812297 -0.0015761838 0.0034589719 -0.003719967 -0.0031970574 0.0025448257 -0.0012371993 -0.0035984055 -0.0018660343 0.00044964164 0.0021912116 0.003161545 -0.00087285036 -0.0031184533 -0.0019404648 1.4933016e-05 0.00064577 -0.0006692588 0.0014458414 -0.0033449028 -0.00048286992 -0.0037888833 -0.0024379008 -0.00040339187 0.0019937882 0.0005212766 0.00029039083 -0.0002420202 0.0034153291 0.001601965 7.70317e-05 0.0021803502 -0.0015763826 -0.0028689955 -0.0026199352 0.00063217763 0.002014006 0.0034687996 -0.0010516944 0.0038422216 -0.0014002426 0.0033475452 -0.0012991349 -0.0027907523 -0.00064016116 0.0038790938 -0.0020726647 -0.0007200693 -0.002452886 0.0025589408 0.0015430752 -0.0029918272 0.002216033 -0.0014638111 -0.0012323664 -0.00083316176 -0.0029197736 0.00015711249 0.0015240302 -0.0028149765 0.0010431652 -0.0005286282 0.0028945818 0.00070813874 -0.0027383969 0.0019458099 -7.658565e-05 0.00015334645 0.003253907 -0.0006238558 -0.001592122 0.002935145 0.0028052486 0.0032678887 0.00015294828 -0.0032911575 -0.0016401913 0.0015845794 0.0026459084 0.003403728 0.0033772183 0.0018743447 -0.0035829183 -0.000470421 0.0033255098 -0.00017703508 -0.0006807938 0.0021816979
potato 0.0038045552 -0.0034216645 -0.0007856987 -0.003856085 0.0010466898 -0.0012540852 -0.0020058388 -0.0031774146 -0.00079058576 -0.0015982762 0.0020031563 -0.0007219366 0.0017892744 0.0028332944 -0.003493834 -0.0012306145 -0.0031709555 -0.0019248656 0.0021828844 -0.003259504 0.0007363349 -0.0017464992 -0.0015445192 -0.0006397866 0.0025482476 -0.0035429734 -0.0023583013 0.002052775 0.0030802232 -0.0026795424 -0.0029280933 -0.0016121372 -0.0005848445 -0.0002073871 -0.0008022498 0.0032069886 0.0003042061 -0.0034911681 -0.0008103506 -0.0029334328 -0.0024034977 -0.0013164452 0.0030587155 0.0014173501 0.0009275187 -0.0015393199 -0.0033329106 0.0015366105 -0.0023220498 -0.003247614 -0.00080887973 -0.00090785924 0.00049074634 -0.00022661305 -0.0013210297 -0.00029796874 -0.003749426 0.00090828567 0.003866642 -0.003591514 -0.0023124274 0.0019389801 -0.0012539679 -0.00040207678 0.0008801984 0.0006082888 0.0026237431 -0.0023620531 -0.0029467705 0.0011637971 0.0018982864 -0.0037617562 0.0016723783 0.0022041684 0.001986277 0.003030541 0.0032160413 0.0037163456 -0.0030219506 0.0031975983 -0.0029424743 0.0011292073 -0.0011659662 -0.0029419253 -0.00032722089 -0.0028870865 0.0025587468 -0.00066888536 -0.0016870494 0.003149714 0.0008974692 -4.5061075e-05 0.0017461224 -0.003157368 0.0033577764 -0.0012008579 -0.0007856264 0.0023776996 -0.0035814485 -0.0022302794 -0.0024534133 -0.00086719164 0.003128335 0.0011199513 -0.0037352084 0.0030075773 -0.00095946377 0.0011365548 0.0017374773 0.0006066914 0.0035909493 -0.0012143117 0.002250004 -0.0031322723 -0.0029809126 -0.0033089707 -0.00044119792 -0.003525844 0.0036596344 -0.0016814832 -3.490808e-05 0.0022917239 0.0017530455 0.003775946 0.0025907427 0.0022070648 -0.0028754836 -0.00021236122
hike -0.00030777705 -0.0028207586 0.00018754689 -0.0021417649 -0.0019008985 0.0019355904 0.001168393 -0.0012342065 -0.003610552 0.0021166783 -0.00072329043 0.0035770466 -0.00013013459 -0.0035809353 0.0024126228 0.0007681334 0.0027497238 0.000495555 -0.002501688 -0.0021758627 0.0026973186 -0.0022342904 -0.001353245 4.1343857e-05 0.0004485906 0.0021268697 0.001983914 -0.0003596546 0.0020600283 0.0026900661 0.0022537722 0.0016471912 0.0037696513 -0.0005318903 0.002531134 -0.0025318016 0.0014226619 -0.0032344656 -0.0032814161 0.00032991898 0.00058610045 0.0035785264 0.003865056 -0.0012107323 -0.0017622933 0.0006233736 0.00257991 0.0031265793 -0.0021836173 -0.0021832827 0.0016594742 0.0015175985 -0.0035161632 0.0005570504 0.0015067697 -0.0017965455 -0.001884526 0.00023747931 0.0032476531 0.0020880825 -0.00080998 0.00084516406 0.0014364707 0.0012690235 -0.0038949244 0.0005712295 0.00043065238 -0.0021168455 -0.0016535068 0.0031320963 -0.0038805893 -0.0018306337 0.0024225204 0.00033933079 0.0026991947 -0.0021132599 0.00034302464 0.0028510112 1.1391599e-05 -0.0015915115 0.002343326 0.0009845031 8.7885506e-05 -0.0005327745 0.0017245137 -0.00035645717 -0.003018082 0.0035661394 -0.0037685668 0.0035358937 0.00012442493 -0.002275059 2.2996912e-05 0.0018881644 0.00016284034 0.002811382 -0.00077514804 0.0034366604 0.002857027 -0.002072431 -0.0036260763 -0.0021013257 0.001755867 -0.0005221737 0.0010302805 0.000681522 -0.0016437413 0.0012952627 0.0021857456 -0.00045337738 -0.0030211764 -0.0034697712 0.0004065795 -0.0015486961 0.0029656007 -0.0022206234 -0.0018530793 0.0038958897 0.0026506376 0.0007637333 0.0036033725 0.00046143754 -0.0011436963 0.0014759601 0.002926745 0.0022659693 0.0007480073 0.00084936846
girl -0.0011084925 0.0024393357 -0.0015187216 0.0016068958 0.0021369562 0.0013940883 3.71354e-05 -0.0012384362 -0.0016843285 -0.0025145488 -0.0008927954 0.003177992 -0.0011000381 0.0017093775 -0.00063394435 -0.0024380926 0.0009176104 0.0010800287 0.0015760523 -0.0018159033 -0.0021968866 0.0026254968 0.0028872725 -0.0036740692 -0.002873868 -0.00015594071 -0.0016503513 -0.0012529076 0.0025871445 0.0036688296 0.0023082301 0.0037157757 -0.0017255836 -9.540089e-06 0.0006767894 0.003630108 0.00078806846 -0.001559785 0.0021776198 -0.00267021 -2.6941352e-05 0.00062330975 -0.0013838251 0.0019113515 0.002221144 0.0018718321 0.0026983214 -0.002384069 0.0018086086 0.0032976742 -0.001975319 -0.0014437415 -0.0011869841 0.003202116 -0.0005065451 -0.0030458593 -0.0017201605 6.0483726e-05 -0.002051735 -0.0009373471 -0.0013174528 0.00087445293 -0.0003183075 0.00040557832 -0.003801342 0.00036238352 0.0032012044 -0.003759716 -0.002893853 0.002832989 0.0014677775 -0.00030533833 0.0030024766 -0.0011506696 0.0020959005 -0.0038813504 -0.0036969178 -0.0012610262 0.00045496298 0.0011914078 -0.0007962861 -0.0010085963 -0.00082101236 -0.00073592085 0.0020516939 0.0003123304 -0.0018633112 -0.0005544567 0.0029914898 0.0027203618 0.00055569614 0.0036224006 0.0036094182 0.0005290123 -0.0025395206 -0.0033476106 0.0009852117 0.003419872 0.0005267021 -0.0003353399 0.00070528535 -0.0023984488 -0.0019785084 -0.0030149913 -0.0019348311 0.0014616877 -0.00163156 0.002339079 -0.0030574186 -0.0019676504 0.0001788478 0.0021175034 0.00040303034 0.0021730496 0.00244003 0.0023119354 0.0025624428 0.0015914716 -0.0006508642 -0.0028705902 -0.003677496 0.003761263 0.0034373906 -0.0038336439 -0.0025951955 0.003681859 0.002466374 0.0027939891
sprint 0.0028315652 0.002231889 0.001905243 0.00014545213 -0.0012658078 -0.0006403794 -0.0037698701 -0.0029592635 -0.0022921301 -0.00053157867 -0.00140946 -0.0012942487 -0.00094203366 -0.0016115296 0.0027758267 0.00024557963 -0.00027651968 -0.002000698 -0.0038677133 0.00016708967 0.0013633728 -0.002080351 -0.0027087305 -0.0032924062 -2.3869918e-05 8.928183e-05 0.0032409688 -0.0027109084 9.7723154e-05 0.0023936385 0.0032780108 -0.00061206263 0.0038256603 0.0006184232 -0.0028410596 0.00023346585 -5.982913e-05 -0.0035563863 -0.0037144155 0.0027868596 0.0032999502 -0.0025208052 0.0036781146 0.0021025296 0.0011346109 -0.0038906084 0.003844899 0.0020901894 0.0011159654 0.001070925 0.0007971931 -0.0033400536 0.0014398886 -0.000817767 0.0013739079 -0.0026034135 0.0025419893 0.0001450321 -0.0013342767 -0.002029525 -0.0020978644 0.0010260944 -0.0031952728 0.0030246542 -0.0030593707 -0.0032674472 -0.0020413704 -0.0025506946 -8.295186e-05 0.0035702693 0.0036846057 0.0032254432 0.003285448 -0.0034462663 -0.0009637658 0.001493762 -0.0008866124 0.0014267471 0.0037217874 -0.001008741 0.0023218645 -0.0023153939 -0.0031984285 -0.0027897237 0.002393679 0.002856887 0.0034255728 0.0005543406 -0.0035673617 0.0021225906 -0.0014260769 0.0026386094 -0.0022406143 0.0020535807 -0.0027856769 0.002900719 0.002590592 -0.0024222615 -0.00290969 0.00016244243 -0.0009394639 4.0087958e-05 -0.00042954032 -0.0006825928 0.00077067123 0.0018949733 0.00023896182 0.0015166431 0.0031544 -0.0007082354 -0.0005244701 -0.003102948 0.002307168 0.0013005057 -0.0017160105 0.0010559466 0.0005718805 0.003453354 0.0006850324 -0.0032472145 -0.0016710409 -0.0029612943 0.002667662 -0.0034446556 -0.0031788999 0.0013454248 -0.0020613032 0.0012287457
approach 0.002132878 0.0011028073 5.226735e-05 0.0013899085 -0.0015259066 0.0032230134 0.0025328908 -0.0011657806 0.0022883767 -0.0025699125 0.0035054921 -0.0015421119 0.0027920716 0.0011936692 -0.0030166502 -0.0013317971 0.0022348324 0.0018430823 0.0032357555 0.0004953953 0.00026319677 0.0022546346 -0.0017409119 -0.003822065 -0.0012793407 0.0038621253 -0.002356711 0.003628658 -0.00055664475 0.00034886034 0.00067780196 0.0015261795 0.0011749393 0.002786798 -0.002176069 0.0034233949 -0.0022346508 -0.0010794 0.0013501012 -0.003587242 0.0038661733 -0.003325832 0.0012432256 -0.0011336395 0.0024867514 -0.00010278807 -0.0036510627 -6.102774e-05 -9.8379445e-05 0.00024714874 -0.001960045 0.0002736975 -0.0022379113 0.0013292113 -0.003352242 0.0025641094 -0.0025100275 -0.0011859029 -0.0023822475 0.0005882381 -0.0010920756 -0.0026124357 -0.0027472205 -0.0021042274 0.0038425848 0.00036120493 0.0007039708 0.0026649886 0.0013060465 -0.0012236101 0.0017192411 0.00015397578 0.00010020747 0.0033786013 0.0020789595 -0.0015897263 0.003095911 0.001465516 -0.0033048354 0.00013355762 -0.0024742757 -0.0037146036 0.0019494254 2.0756239e-05 -0.0034455275 -0.0038913856 -0.001018447 0.000258856 -0.0010216598 0.0032110885 0.001147267 -0.0017016076 0.002830639 0.00039786316 0.00022659819 0.00039590374 -0.003013302 0.000741194 0.0037691374 0.0029734508 0.00017100137 0.0018208303 -0.0018770827 0.0009469096 0.0014974393 0.0027834133 0.0021924684 -0.0031489043 -0.0010269028 -0.0013516928 -0.0027792393 -0.0026262174 -0.002170402 0.0037806423 0.00019234642 -0.0029014053 -0.0016560592 0.0019660331 0.000864673 0.002304038 0.0015670522 0.0011402747 0.0011661375 -0.0014063378 -0.001671624 -0.0031578103 -0.0015534479 0.0013732505
theater -0.0035320472 -0.0011381863 0.003226114 -0.002421081 0.00059612765 0.002166444 0.0018412665 -0.0004634368 0.003385909 0.0016662292 -0.0009699006 0.0032142673 -0.0018044054 8.3068124e-05 0.0009422923 -0.0021109306 -0.003488164 -0.002734181 0.0027189916 -0.0015889499 -9.988994e-05 0.0028628975 -0.0016939063 -0.0015073405 0.0036340174 0.0026322748 -0.0008901407 -0.002711401 0.002936074 -0.0029203463 0.0014406584 0.00051879935 0.0019532626 0.0015791067 0.00068664184 -0.0020966283 0.00039948666 -0.0003985287 0.0019117476 -0.00033394777 -0.001890804 0.002273342 -0.0014037339 -0.0030273986 0.00035925332 0.0027845372 -0.00083250046 7.9777594e-05 0.0021589654 0.002825991 0.0016704125 0.0027246654 -0.0007519532 0.0033239943 0.0036948663 0.00092832226 0.00048281785 0.0029782786 -0.0038660374 0.0027950213 -0.0013372827 0.003169968 0.0010993821 0.002967239 0.001113988 -0.0015864072 -0.0011629858 0.0023919058 0.0026171664 0.0027553313 -0.0014587691 0.001717661 -0.00018337806 -0.0017919164 -0.00021033683 -0.003804693 0.0036651376 -0.00034933622 0.0028159227 -0.0016976561 0.002142808 6.66868e-05 -0.0016438068 0.0016314015 0.001241721 0.0037360853 -0.0007894977 -0.0014823624 -0.0031558487 0.003566209 -0.0019459265 0.0019332814 0.0038747448 -0.00019010002 -0.0024562029 -0.001667726 0.003598221 -0.0028638071 -0.0020085403 0.0031403352 0.0038377047 0.0020196037 -0.0037987127 0.00010509052 0.0012280662 -0.0031470316 0.0022061437 0.0036068244 -0.003823733 0.0013946698 0.00037128184 0.0016571558 -0.002060947 0.0009808382 0.0017929486 0.0025889932 -0.0018497093 -0.0037488742 0.002819977 -0.0015787059 0.0038763853 0.0034490328 -0.0037582791 -0.003095089 -0.0019000726 -0.002437008 0.0030161918 0.002638058
sex 0.0037165144 -0.0027545774 0.0023979652 -0.0009438565 0.0018700034 0.0033928894 0.0018409531 0.003854683 -7.1667004e-05 -1.6542312e-05 0.0029278854 0.0018281436 0.003550419 0.0027842254 0.0018710734 0.00011374818 0.0002353965 -0.0027732563 6.366134e-06 -0.0023603842 0.0010232788 -0.0025158736 -0.0023426514 0.0027609626 -0.0027152775 -0.0016203513 -0.0009255961 0.0022198237 0.002957688 -0.0036826532 -0.0023279611 0.003886533 0.002229435 0.001234483 0.002504537 0.0020733394 0.00018800408 0.0012668181 0.0009428415 0.0017387844 -0.00042486767 -0.0015521807 -0.0015232196 0.0031881584 0.0001272471 0.0037628612 -0.0015322858 -0.00036871672 0.0032137015 0.0010555316 -0.00013332265 0.00060200633 -0.0016152811 -0.0007714085 0.003333602 0.0022187757 0.0015860625 -0.00055995246 0.0015398109 0.000652869 0.0009452085 -0.0018907678 -0.0016775132 -0.00238063 0.002921219 -0.003498539 0.002094939 -0.003648777 -0.0016264613 -0.0017142359 -0.003537046 0.0017521883 -0.001893561 -0.003202217 0.00034812748 -0.0014974229 -0.002143122 -0.003489445 -0.0030700685 0.0018869222 -0.0006007415 0.00053056434 -0.0026807997 0.0007695443 0.0029674668 -0.00070039555 -0.003487416 -0.002272722 0.0027260103 0.0034807923 -0.0004723893 4.5061704e-05 -0.0015390707 0.00040141353 0.0037374562 0.0038182435 0.00048520128 0.0014525829 0.0012452241 0.0032353632 0.0012151612 0.00066260353 0.00092474266 5.4070635e-05 0.00012694873 -0.0031684728 -0.0013710215 0.0031117506 -0.0032517505 -0.00062250486 0.001994581 0.00071895344 -0.0014192961 0.0027571877 -0.003226226 -0.003184683 -0.0019644494 -0.000337952 0.0030767217 0.003255142 0.0008930958 -0.00052455044 0.0038125543 -0.000794607 0.00029609015 -0.0011707294 0.0021064023 -0.0026295735
similarity -0.0003769293 -0.0017402119 -0.0033327944 0.00039653675 0.0011443191 0.0019317925 0.0013633907 0.00045736437 0.00041935727 0.002409295 -0.0034155077 -0.00080755545 0.0038192994 -0.00086776674 0.0011556615 0.0009881817 -0.00044945543 -0.0007682092 -0.00310249 0.0030086483 -0.0028156491 0.0011389914 4.0495885e-05 0.001308064 -0.0012701693 0.00016186175 0.0038371861 0.0029002405 -0.0016909176 -9.871636e-05 0.0034113252 -0.0020749825 -0.003380532 -0.00049810513 -0.0034256482 -0.0024409613 0.0024116838 -0.0024162044 0.0028538986 -0.00036048325 -0.0037508127 -0.0030844645 -0.0024498487 0.00013027554 -0.0006142117 0.0011239145 -0.0026603919 -0.00022728457 -0.0021322176 -0.0013889618 -0.0012598081 0.0011899254 -0.00016548387 0.0011771356 0.0029695758 -0.0033549203 -0.0021931827 0.003573328 0.00045656273 -0.0030641293 -0.0023922743 -0.0007730002 -0.002146459 -0.0033980957 0.0027524126 -0.0028416885 -0.0018315547 -0.0015447827 0.00027581252 0.0026449177 0.002120479 -0.002832331 -0.0021493344 0.0033577802 0.00021017417 -0.0037124385 0.0013556024 0.0034419177 -0.003070125 -0.0038854764 -0.003390792 0.0020723045 0.0020731085 -0.002975973 3.202498e-05 0.0013282058 0.0015301809 -0.0008689158 -0.0025224295 -0.0032493966 -0.0022774036 -0.0001962436 -6.0853345e-06 0.0026057274 -0.0031821413 -0.0011611449 0.003381511 -0.001511331 -0.0013445878 -0.0031928977 -0.0035726463 0.0029887569 0.003006476 0.002812776 0.0022235957 0.0004334887 -0.001337137 -0.0038394418 -0.0025321103 -0.00092988013 0.002015404 0.0032554516 -0.0024356686 -0.0028782804 0.000825721 -0.0016315667 -0.0020708812 -0.0013376534 -0.0013222569 0.003127851 0.0023831634 -0.0033316035 -0.00026858918 0.0028730265 0.000680651 0.0020751029 0.0038550128 -0.0019941432
combination 9.253338e-05 0.001251711 -0.0003613273 0.0016490524 -0.0025102429 -0.00028211088 0.0016581056 0.0014724635 -0.0005103584 0.003204056 0.0021417167 0.00044449067 0.0023320045 0.0026178113 0.00080745714 -0.00065667444 0.0008686566 0.003301678 0.0001415301 -0.0026546898 -0.00038612637 0.00073517556 0.0010368304 0.00035876565 -0.0027130002 0.00028997147 0.003282963 0.0037946994 -0.0024037133 0.0015870117 0.0011524829 -0.0028852273 -0.00035767714 0.0030980299 0.0031004692 -0.0016181164 0.00048774434 0.0014970006 0.0014636982 0.0030337062 -0.0017451422 0.001135897 -0.0011895574 -0.001854204 -0.0007440076 0.000580789 -0.0015509321 0.0015592036 0.0023459161 -0.00046205317 -0.0024724428 -0.0030768907 -0.0019286918 0.0032073078 0.0016120141 0.0037439852 0.00025875945 0.00032786862 0.0035602937 0.0024049215 -0.0004487223 -0.003393487 -0.0034376509 -0.003259839 0.0010645967 -0.003729532 -0.002527492 0.0026651814 0.0028547847 -0.003708604 -0.0021605433 0.0025027671 -0.0013526846 -0.001721779 -0.00081615633 -0.0003303141 -0.0026578922 -0.0033682236 0.002542712 -0.002260574 0.0035555195 -0.0010343363 0.00040244983 0.0036883266 -0.00078255613 0.0017566683 -0.0012461753 0.0013402036 -0.00036712625 0.00032285924 -6.741974e-05 -0.0015035628 0.0026347071 0.003077843 0.0023374492 -0.0024131497 -0.0008350408 0.002612365 -0.0007508854 0.0026292133 -0.0009836854 -0.0028094202 0.0010861924 0.00061975257 -0.002119398 0.0031160116 -0.00045374167 -0.0011222372 -0.0014687036 -0.003473355 0.000844892 -0.0037301872 -0.0012871749 0.0020276606 0.003493686 0.0033548467 -0.002074918 0.0033873594 0.0018068196 -0.0034413799 0.0018252328 -0.0027590157 -0.0031715957 0.00030473468 0.0024934425 -0.0038954916 -0.003547045 0.00025885983
computation 0.0022071912 0.001976636 0.00189471 0.0033918505 -0.0020250478 -0.00194508 0.0016764203 0.00017287368 0.0006151097 -0.0031602222 -0.0018977149 0.0025677532 0.0009304619 -0.00043505765 -0.0019308303 -0.0035642108 0.0034505052 0.0033752664 0.00039955197 0.0033921122 0.0024708135 -0.0033297779 -0.0024402952 0.00029091604 0.0007418155 0.0024949124 -0.003180635 -0.0024170873 0.0024726994 -0.0006470616 -0.0003132096 -0.0017468246 0.0019181082 -0.0018827469 -0.00029398393 -0.0013143253 -0.0024432258 0.00041854527 0.0022276419 0.0011013182 0.0026275099 0.0006521172 0.0023145818 -0.0033731223 -0.0014258678 -0.0019235122 -0.0035372511 0.0020057943 0.002193927 -0.0037513005 -0.002851528 0.0035325228 -0.0020357093 -0.00012765439 -0.0027641312 -0.0029861566 -0.003785239 -2.4175924e-05 -0.0038989137 0.0016440457 -0.0028550166 0.00083796657 0.00056328834 0.0011478774 0.00088377006 -0.00045069848 -0.00096518814 -0.00082968525 -0.0027330432 -0.0006467169 -0.0016037005 0.0009219399 -0.0002421962 -0.0024262695 0.0026986646 -0.00048783992 0.0023741578 0.002058997 0.00031138185 0.00081362884 0.0028101418 -0.0019336225 -0.0021417134 -0.0029525298 0.0033332661 0.00048234328 0.0009335393 0.0032195274 0.0035891058 0.0039052598 -0.00046524446 -0.0036136182 -0.0014727294 0.00045872215 -0.002271296 -0.001979207 -0.0001892788 -1.0211712e-05 -0.002982474 -0.0028558485 -0.0021931385 0.0010422011 0.0024746596 -0.0014407758 -0.00058688194 0.0033734199 0.0008643532 -0.00074604026 -0.00090720627 -0.0013207956 -0.002876792 0.0037846426 0.0004013471 -0.0033192555 -0.00033032493 -0.0018256 0.0026544537 0.0015612264 0.002466439 0.0021082943 -0.0019996061 0.0034324175 -0.0027627533 -0.0030242584 0.0028684156 -0.0028557093 -0.001547921 0.0009495257
series 0.00020860211 0.002145764 -0.00046809425 0.0026133507 0.0028988577 -0.00013140458 -0.003775811 -0.0025318952 -0.0011077422 -0.001293319 -0.002315943 -0.0024542012 -0.003331231 -0.00033910252 -0.0011258299 -0.0013556441 0.0022949753 -0.0009331158 -0.0014772348 0.002531851 -0.0028403222 -0.0022028908 0.0034903355 0.0007086023 -0.00027468428 -0.0030043551 -0.00094470975 -0.0008958868 0.00033286217 -0.0014743282 -0.00019884303 0.00073743897 -0.0036433034 0.00041270876 0.0021376559 -0.0022965998 0.003555688 -0.0018320478 -0.00040394693 -0.0036608188 -0.0031827628 -0.0026563287 -0.0023548303 0.0015353339 0.0031099417 -0.0014586039 -0.00017319969 -0.00081674085 -0.0029783924 0.0005959029 -0.00013399303 -0.0026424394 0.003001521 -3.6524805e-05 -0.002107023 0.003389825 -0.0017995461 0.0036281364 -0.00032971063 -0.0020085827 0.0033862055 -0.0009715342 -0.003743672 0.0023811664 0.0015430119 -0.0031890764 -0.0039021035 0.0034535169 0.003102828 0.0017315713 -0.0015761366 -0.00021283522 0.0028487071 -0.001823468 0.0035948046 0.0026293208 0.0029963518 0.0005306083 -0.0022543657 -0.0011439822 0.0007469485 0.00047488487 -0.0012554958 0.002443023 0.0013418614 -0.0025015213 0.00036631708 -0.0012375085 -0.0024292206 -0.0026488658 0.0035564387 0.0021222418 -0.0037743154 -0.0016620674 0.0033469799 -0.0025055883 -0.0019837825 -0.0030908273 0.0020098488 -0.0021114906 0.0016467789 -0.0038058672 -0.00024212821 0.0012315977 -0.0013714518 0.003862413 0.0007524376 -0.0022623185 0.003242263 0.0020474154 0.001446686 0.0010545435 -0.0013986225 0.0032722082 0.00052750023 -0.00088277715 0.00033231746 -0.0012140347 0.00024553656 0.002594624 -0.0016632266 0.0036119507 -0.0022309066 -0.003301988 -0.0017836759 0.002712734 -0.0027416754 0.0019752635
Brazil 0.0018104067 -0.00037652964 -0.0034917763 0.0012421435 -0.00044047594 0.0038069934 0.00020154167 -0.0015262644 -0.0032871165 -0.003365378 0.0015473982 0.00047807663 -0.0026941749 0.0013364975 0.0010982639 -0.0036586982 -0.0028907724 0.0014504578 -0.0021278204 0.0034158372 -0.0037683942 0.0030623316 -0.0015241649 0.001858082 0.0038064718 -0.001815151 -0.0020496035 0.00064161693 -0.001977584 -0.0022211883 0.0006569853 -0.0010473125 0.002202549 -0.0026598673 -0.0005280619 -0.003067505 0.002051351 0.0015058743 0.003851526 0.00044325527 0.00032583324 0.0025561266 0.0014350208 -0.0027296229 5.45655e-05 -0.0035947603 0.0032350745 0.0017584992 0.0023916415 0.002857809 0.0015240218 -0.0014931258 0.00092367234 -0.00083855476 0.0030869008 5.5614768e-05 0.0010111146 -0.0031035678 -0.0024394614 -0.0030382762 -0.0016426708 -0.0019327496 -0.0018346317 0.0016487004 -0.0002738136 -0.0038488933 -0.0011554615 0.0019559676 0.0021112387 -0.0037404576 0.0038918338 -0.0021004374 -0.0027610296 -0.0014300791 2.8903922e-05 -0.000411377 -0.0038371296 0.0013479899 0.002285619 0.0013146313 0.0013758247 0.0038993435 0.00088826136 -0.0024551337 -2.3244946e-05 -8.439175e-05 0.0012842162 -0.0028649822 -0.00054432085 -0.0003693614 -0.00024451746 -0.003570968 -0.0024530124 0.0027314727 0.0035021687 -0.0014895914 7.865172e-06 -0.0011236763 -0.0012293949 -0.0006084608 0.0035842736 0.0016921959 -0.0027813618 0.0006960969 0.0028898867 0.000581718 -0.0011608343 -0.0021973762 0.00036546655 0.0014291446 0.00026709947 -0.0023305798 -0.0008148749 -0.0032141327 -0.002338225 0.0016063873 -0.0029056265 0.0007085655 0.0009708637 0.0036115977 0.0007542278 0.0006377938 0.003790021 -0.0016063704 0.0023160293 0.0027190684 0.0027361948 0.001905841
surface -0.0010720467 0.0032284467 0.0029943318 -0.00034145653 -0.0024200566 -0.0011529047 -0.00044172184 0.0026193971 -0.0020911405 0.0014689132 0.0032454084 -0.0022529291 -0.0014833595 -0.0015005835 0.00020640923 0.0012564387 -0.0038489597 -0.0035431725 0.0026489487 -0.0018311508 0.000916789 -0.0012691364 -0.0016410793 -0.0014444224 0.003334144 -0.003486179 0.000935477 -0.0020029766 -0.0020582096 -0.0004789437 0.00029598415 0.0015413143 -0.00043569502 -5.853767e-05 -0.003573397 0.00016487969 -0.0031850757 0.00012456611 -0.0027974553 -0.00217706 -0.0031338264 0.00011425217 -0.0010788429 -0.0038349077 -0.0035907154 0.002441601 0.00023302971 0.0013281561 0.00022485104 -9.547615e-05 0.0038634196 0.0022247508 -0.0001468196 0.0028398766 0.000684549 0.0005444937 -0.0033495983 0.00057392265 0.0011265525 -0.003892793 0.001715525 0.0034921535 -0.0017727935 -0.0013888174 -0.0021793721 -0.0029215391 -0.0008345687 0.0025127982 -0.002676324 0.003219471 -0.0025559976 0.00019953339 0.0009632983 -0.0021706957 0.002481914 -0.0023020653 0.002739676 -0.0023661293 -0.00029780186 -0.0019625705 -0.0038741052 0.00085517624 0.0009816339 -0.002871445 0.0035135227 0.002471932 -0.0034643821 0.00044659915 -0.0021693914 -0.0022092217 -0.0027849835 -0.0020456975 0.0030288275 -0.003140829 0.003059116 0.0022790818 -0.0014155983 -0.0027940467 -0.0033732879 -0.0030933558 0.0012494954 0.00038768933 -0.0026872081 0.0025827824 -0.0012463749 -0.0011044517 0.0032421579 0.0010970352 0.00092624297 0.0027215502 -0.0024649922 0.000102013415 0.0030296138 0.001217694 -0.002852634 -0.0034518638 -0.00070096133 0.0019676695 0.0009522948 -0.0003687794 0.0021669932 0.0023659153 0.0013782184 -0.001744202 0.00057494466 0.00092818786 -0.00376653 0.0025129877
development -0.001373498 -0.0010721928 -0.0005549775 0.0033973376 0.003540549 -0.00054054154 -0.0014678617 0.0020587265 -0.0030885765 -0.0034033507 0.0032677674 -0.0017047257 -0.0009322889 0.002410911 0.0014943453 0.0028208387 -0.0014808655 -0.0022253091 0.0012935865 -0.0013133163 0.0012458798 0.00077070796 -0.001951035 -0.0024890548 -0.0029383164 0.00204886 -0.001162374 -0.0030683328 -0.0032608134 -0.0014952224 -0.00055073376 -0.002224305 0.0035644893 5.1301645e-06 -0.0011366752 8.7527915e-05 -0.0033952878 9.993314e-05 -0.0008558376 -0.0031435133 0.0029424012 0.00045754478 0.002197944 0.0016635797 -0.0011192793 -0.0006556754 -0.0015835894 7.509467e-05 -0.00010968874 -0.003649215 -0.0025429544 -0.0032583156 -0.0016753667 -0.00049630174 -0.0027853185 -0.0034009977 -0.0025681455 -0.002529426 0.00065022794 -0.0036457502 0.00020804144 0.0015047502 -0.0012129229 0.0012215253 -0.0037398653 -0.003487119 -0.0020603794 -0.0025820697 0.0005972623 0.0017217215 -0.0025217603 0.0021712468 -0.00056794187 -0.0036756876 -0.0014012796 0.0016499537 -0.0017194536 -0.0011488291 3.536624e-05 0.0023382322 0.0015192489 -0.0018787521 -0.0001804109 -0.0008100925 0.0036878295 -0.0010391206 -0.00047118322 0.0012370062 0.0029265916 0.001045088 0.0036538595 -0.0012828273 -0.0015004809 -0.00015359544 0.0005053288 0.002681027 0.0032101783 0.001867396 -0.0027436616 0.0010379254 0.00237797 -0.00028882365 -0.0024325433 0.00069025345 0.0021042523 0.003546481 -0.0024322483 0.0008075438 -0.0006833422 -0.0033364675 -0.0026521578 0.0029857915 -0.0032388945 -0.0023991861 -0.0017520493 -0.003061915 0.0031315782 -0.0021695592 0.0032984908 -0.0009331106 0.003473273 0.0034315821 -0.0018594896 -0.0010288148 -0.0010317006 -0.0031532883 0.0038305272 -0.0010528712
lad 0.0009035841 0.00370313 0.00010549935 -0.0013134181 -0.0031622523 0.0012854529 0.0011488697 0.0027710616 -0.0034545732 0.0027257425 -0.0025605587 0.00074478006 0.0004329879 0.0027334767 -0.00020253214 -0.0022888645 -0.001932722 0.003629659 0.0036351224 0.0019228233 -0.0012379437 -0.00012158202 -0.0015611832 0.0020939196 -0.0025442368 0.0023973172 -0.0012598559 -0.0028734973 -0.0030145107 -0.00012378166 0.0017500849 -0.0023054734 4.0654282e-05 0.0027475783 0.00027951886 0.0038312303 -0.001308595 -0.003604349 0.00229324 -0.0013999065 -0.0033324321 -0.0006667796 0.00038363188 0.002769105 0.0022984946 -0.0007771622 -0.0017135873 -0.0011934974 -0.0027561344 -0.0025453083 0.0028650595 -0.0029568481 2.8397231e-05 -0.003289843 -0.0031800873 -0.0028883612 0.00212958 -0.0018473068 -0.002850437 0.0012328852 0.0005479685 0.001001407 0.0029784876 -0.0034978928 -0.0034267574 -0.0016970952 0.0018053302 -0.0038372306 -0.0013856059 0.0022260302 -8.141979e-05 0.00031244833 0.002918003 -0.0027290762 0.0018284568 -0.0035497507 0.00030569243 -0.0016459759 -0.00096828974 -0.00058980304 3.3349927e-05 0.002040407 -0.0025797894 0.002268018 0.0017592215 -0.0035634828 0.0017016176 -0.00079086906 0.0032755497 -0.0026806851 -0.001558208 0.00077459443 -0.0011282131 0.0029176802 0.00032809898 0.0005717824 0.00064761314 0.0018340455 0.0012349504 -0.0021505463 9.93835e-05 -0.00050231273 0.00036681877 0.001648032 0.0028268313 -0.0012473608 0.00060592644 -0.00031596623 0.0006783329 0.0030450092 -0.0028527104 0.0028975378 0.0008093521 -0.0028996866 0.002918136 0.00017245632 -0.003506965 0.0019425957 0.0037826425 -0.0029531412 0.0031177471 0.0037283306 0.0035549877 -0.00023192809 -0.0033477927 0.00071005145 0.0032450573 -7.429767e-05
architecture -0.0010585424 0.00028234627 0.0008119021 0.0024685685 0.0038531523 0.0031347806 -0.00063849497 -0.003339469 0.0007893709 0.00072149985 0.0014753469 0.0036686822 -0.0034813012 0.0030684378 0.0010853093 0.0016175549 7.2397015e-05 0.0028067594 0.003384572 -0.00045399633 0.0034723608 -0.002133209 -0.00065547175 -0.0011389299 -0.0025387364 0.0017224619 -0.0039040826 0.00013897855 -0.0017829827 -0.0004428653 -0.0003299599 -0.00316998 -0.0007335358 0.0010952243 0.0029796683 0.0013071576 0.0031773376 0.0016787169 -0.0014350226 -0.0013051255 0.0030398902 0.0016927269 -0.0033407453 -0.0011576847 -0.0007113578 0.0036052756 0.00019566243 0.0029936242 -0.0038038294 -0.00072465563 0.0035315775 -0.0038060178 0.0038517234 0.0035477213 -0.0003563697 0.0034443252 0.0016053456 0.002338186 -0.0031776847 -0.0023378578 0.0004240774 -0.0029663837 0.0007158623 0.002878781 -0.0028416908 -0.0028138675 -0.0030673137 -0.0017260354 -0.0010956075 -0.0031809162 -0.0020185017 0.0028282492 0.0033725013 0.00039610313 -0.0018193889 -0.0008990949 0.0036625748 -0.00309892 -0.0013301403 0.0011391707 0.00014391572 0.0015740187 -0.0025549314 0.00041282462 0.0032808024 0.0034438404 -0.00292616 -0.0032444876 0.0038555257 0.00061059237 -0.0032289615 0.0029802108 0.0022417395 0.0008546982 0.0008135442 -0.00015612309 -0.0008841917 0.0035209397 0.0031676493 0.001155738 -0.003872477 0.0015718988 -0.0013938514 0.0033369483 -0.0031315049 -0.0005341476 -0.002376977 0.00074510335 0.0018575029 2.4244577e-05 0.0012162111 0.00021834615 -0.0014218219 0.0003901145 0.0020535344 -0.0023551867 0.00024302001 -0.0016582583 -0.0021892427 0.0012621065 0.0017128219 0.00027901324 0.000987425 0.00068151933 0.0008180009 0.0023801269 0.0034954324 0.0035495714
hypertension -0.0007782387 0.001811019 0.0012661372 0.0031463436 0.0035068172 -0.002315061 0.0012601016 0.0022391838 0.002598318 -0.0028008318 0.0019248336 -0.0037803787 -0.00247357 -0.0032607075 -0.0015432014 -0.0017921226 8.293289e-05 0.0031961072 -0.002980112 0.0012906187 0.0016593653 0.002857739 -0.0038828666 0.0029489435 0.0013156151 -0.00037013396 0.000675502 -0.00019021425 -0.0022872959 0.0015387292 -0.0034028029 0.0032351494 -0.0024940637 0.0005365404 0.00066441874 -2.303958e-05 0.003593167 0.0025091493 0.002804116 -0.0019336833 8.9323083e-07 0.0029104396 0.00017290672 -0.0011884152 -0.0008769968 0.0021795598 0.0015044525 0.003712816 -0.0013826295 0.0015956747 0.0030017663 0.0016664161 -0.0035478033 -0.00332577 -0.0017446293 -0.0014555386 -0.0034647451 -0.0027751366 0.0026073477 -0.000998542 0.00036051107 0.0002742563 -0.0011639181 0.001823831 -0.0021597226 -0.0026812004 -0.00025570462 -0.00222989 -0.0010877354 0.002189964 -0.00036833188 0.0015972257 -0.0023366248 0.0030552691 0.0005416569 -0.0024024046 -0.001724541 -0.0024538552 -0.003516751 -0.0017268352 -0.0027895805 0.0017832419 -0.0013394922 -0.0029953117 0.0024174238 -0.00038613126 -0.0015883332 0.002286982 0.0029563056 -0.0015350739 -0.003867309 0.003472284 4.3705266e-05 -0.0013158546 -0.0012721805 0.0016646417 -0.003773289 -0.00047708146 0.0014354072 -0.00020786551 0.0038145846 -0.0013619906 -0.0017927518 0.0030013705 0.0008982407 0.0018117969 -0.0012717645 0.0008482622 0.002380259 -0.00035626782 -0.0022833531 0.0010224767 0.00018947331 0.00016321502 -0.0007016993 0.0028809875 -0.0005224519 -0.0002891129 -0.0037977654 0.0010407038 -0.0037857187 0.00039905522 -0.0032425036 0.0020255337 -0.0025207014 -0.003596697 0.0003808034 -0.0013733581
motto 0.002194085 -0.0028591147 -0.0033319897 -0.0015296285 -0.0035133928 -0.0028809805 0.001732716 0.002107519 0.002371569 0.0030517438 -0.00039457684 -0.002188703 -0.0023493655 0.002504272 -0.0035201097 0.000807178 0.00085322885 0.0015786572 -0.002614269 0.003392578 -0.0011154735 0.0018062377 0.0013165054 0.0032584735 -2.1708813e-05 -0.003667098 0.0034148335 0.0010686538 0.0022824083 -0.0018150168 0.00107599 0.00037568834 0.0022059535 -0.000968423 -0.000103033126 -0.0010720489 0.003691428 -0.0020125515 0.002706869 0.0013740502 0.0019234755 0.0023200123 0.0035878285 -0.0012468608 -0.0025560693 -0.0030416045 0.001425716 -0.001768165 -0.0034479804 -0.0011336156 -0.001657746 0.0010922246 -0.0023439603 0.0021639313 0.0037603923 -0.00309973 -0.0021931862 0.0023580173 -0.0008351408 0.002494231 0.0020070574 0.0022243408 -0.0012552746 -0.0005553374 0.003563079 0.003317841 0.00054634083 0.000892151 -0.001465986 0.0032729867 0.002586301 -0.0023422907 0.0029819778 -0.0009071505 -0.0028140617 -0.0012571852 -0.0021948607 -0.0026431782 -0.0013192232 0.0027003263 -0.0018108636 -0.002928498 -0.0029095197 -0.0037434162 -0.00064313214 0.0019100936 0.00045939235 0.0021028365 -0.0015586804 -0.00074017275 -0.0029490388 0.0010154947 -0.000804593 0.0006513203 0.003023619 0.0010068145 0.0021527498 0.0029573527 0.0031417455 -0.0012371801 -0.0024205644 0.0019572312 -0.0009738315 0.0019154687 0.0025970077 -0.0011968118 -0.002230016 0.0007556681 0.0029486145 -0.0017204573 0.0022773047 0.0031138207 0.00018063067 0.0037560852 -0.0008736426 0.0017887442 -0.0008837543 0.002080842 -0.0016621903 -0.0033434117 0.0023018247 0.0023050418 -0.0022819836 0.002036399 0.0039025368 -0.0030379656 -0.0013087533 -0.003224898
index -0.0010737692 -0.0016651385 0.0021643003 -0.0020810415 0.0019375124 0.0012085249 -0.0024210282 -0.0028532075 0.00161878 -0.0020004488 0.0031460612 -0.00019244314 0.00012497493 -0.00031801217 0.0031555544 -0.0029480169 0.0030821809 0.0013037813 0.0034477282 0.003788591 -0.0036369849 0.0013668783 0.0034324 0.001087538 -0.0018527923 0.0028368118 0.00027021856 -0.0034313744 -0.0015540463 0.0006874665 -0.0020322048 0.0019694883 0.0024879242 -0.0019392616 0.0010757848 -0.0004829636 -0.0034918825 0.0012248612 -0.0032695676 -0.0018064922 -0.0028647722 -0.0009933169 1.5154186e-05 -0.0019291553 0.002172422 -9.6681746e-05 -0.0025338917 -0.0009451267 0.0034617116 -0.002249953 -0.0015110936 -0.0016289216 0.0002857145 0.003888935 0.0020811358 0.0008455738 -0.00061234814 -0.0003411483 -0.0036183042 3.8523e-06 0.0016655409 0.0017510995 -0.0018011557 -0.0035299284 0.002967288 0.0027920157 -0.0011251955 -0.0013213456 0.0012586975 -0.003009916 0.0037239576 0.002132861 -0.0011120233 -0.00030138504 0.002086743 0.001525817 -0.00068035006 -0.0035436894 -0.0031631307 0.0004919314 -0.001737384 -0.002565795 0.0009279464 -0.003222752 0.00040241863 0.0027713901 0.0009815857 -0.0021287603 -0.0015245486 -0.0024945466 -0.0035834752 -0.0015009899 0.003021119 -0.0009917404 0.0027996383 0.0033227417 0.0017608311 -0.0018216711 -0.0016371713 0.003895897 0.001279084 0.0011400109 0.0023312042 -0.0015604595 -0.0021942859 -0.0019108965 -0.0024195707 -0.0020194117 -0.0025518455 -0.0033225368 -0.00058874727 -0.0010554537 0.0005201861 0.0006766788 0.003069589 -0.0023966238 -0.00017188801 -0.0006156565 0.00027913076 0.00010379152 0.0035412947 0.0012131691 0.0010353882 0.0022549261 0.0020606937 0.0014797696 -0.0018935407 0.0006252727
