346 128
money 0.0033419142 0.0008895779 -0.0031565926 -0.0022457275 -0.00010959292 -6.558692e-05 -0.0031209118 0.0031524377 -0.0007419278 -0.0010690719 0.0005856528 0.0031197472 0.0006701814 0.00084579043 0.0010824901 0.0012303093 -0.003472675 0.00036608274 0.00011038153 0.0006025082 -0.002451317 0.003750831 0.00104414 0.0031636911 -0.0018014852 0.0037165484 -0.0017391784 0.00012017619 -0.0028399113 0.0033563033 -0.003260303 -0.0025353166 0.0013729848 -0.00037246724 0.0016627864 -0.003363997 -0.001969994 0.0006911403 -0.0010637266 0.0031593416 0.0016415569 -0.0037475564 0.0035578357 0.0035980833 -0.0034385785 0.0020972893 -0.001907343 0.0031076674 0.0027695675 -0.0033559254 -0.0022165605 -0.0004693436 0.00092288945 -0.0025877738 -0.0010095688 0.0008959368 -0.0017505494 -0.0028217323 -0.0011319773 0.00017697828 -0.0019451802 -0.0036014752 8.0597056e-05 -0.0029191864 0.0021261824 -0.001422933 -0.002695202 -0.0035115583 -0.0013491593 0.0012676874 -0.003787795 0.001165342 -0.0037304533 0.0008041631 -0.0023385494 -0.0028946684 -0.0031858431 -0.0020222694 -0.0011757303 0.0017518349 -0.0013981047 0.0009042275 -0.0002981083 -0.0035505001 0.0019328056 0.0018334261 0.0026327847 0.0033022496 0.0021775211 0.0033322216 0.0024857752 -0.0005499742 0.002471631 6.98218e-05 0.0026423216 0.0034008294 -0.00061623496 0.0031031112 0.002412619 0.003579766 0.0025444 0.0013271401 0.0008532813 0.0008403794 0.0025847729 -0.0020529758 -0.0038606345 -0.002205623 0.0009429363 0.0020116686 0.00032059802 -0.0032607312 0.002768615 0.00084358465 0.0003156194 0.0008738731 -0.0014841717 0.00014132212 -0.0036184948 0.00090049935 -0.0024445911 -0.0015218442 0.0017548999 0.001071005 0.0009787447 9.6967255e-05 -0.0018108541 0.002734355
gain 0.0015304418 -0.0001429314 -0.00029302848 -0.0018362743 0.00069813104 -0.0037708646 -0.0018220543 0.00025730667 0.0031489288 -0.0023044287 -0.0012129357 -0.0034933235 0.0017339141 0.0004896537 0.0023573725 0.0019015481 0.00070686976 0.0034483536 -0.0006709931 0.002805411 -0.0010694984 0.002730481 -0.0023089491 0.003283476 -0.0007513149 -0.0014979837 -0.0038630932 0.0022554891 -0.0030229453 -0.0008371802 -0.0006164278 0.0032389925 -0.002331538 -0.003288891 -0.0034381284 -0.002211957 -0.0028890825 0.0036489211 0.0021403285 0.003584055 0.0022393381 -0.0032369522 0.00078784354 0.0023900256 0.00031010632 0.0025328079 0.0038054136 0.0007898019 -0.0030279746 0.0023676162 -0.003766072 -0.0013830055 0.0007217837 0.003771955 0.0025386035 0.0017926932 -0.0030653058 0.002854554 -0.00096789584 0.00018497289 0.003362952 -0.0008619361 -0.0026814747 -0.0026674473 9.5527925e-05 0.0022266496 0.0026613418 0.0023102106 0.003903603 -0.0025304917 -0.0017356136 -0.00034889707 0.00018006544 -0.0023445317 0.0006323865 0.003225294 0.00011329264 0.001921198 0.0018215021 0.00078413234 0.0018212349 -2.8094435e-05 0.0024036393 0.003378878 -0.0013942689 -0.0035673433 0.0028021652 0.002805036 0.0031160298 -0.0026437752 -0.0036373085 -0.0024197707 -0.0038186589 0.0008699042 0.0022346682 0.0033054962 -0.0023746379 -0.0010506563 0.0012217744 0.00077821093 0.0022815152 -0.0037966322 -0.002288088 -0.0015454391 -0.003739897 -0.002471161 0.00038133483 -0.0003939139 -2.2507089e-05 0.0035739262 0.00032514468 0.00036661787 0.001770152 0.0010900985 0.0011963517 0.0011370392 -0.0008382133 0.0010396013 -0.0033014193 -0.0022846628 -0.0013822071 -0.0031752142 -0.003740783 -0.00042351312 -0.0012302228 5.57805e-05 -0.0012986719 0.0020443657
reservation -0.00047098103 0.0022320107 8.913936e-05 -0.0022466518 0.0019691037 0.0013917421 0.00079066976 -0.0028987385 0.003410797 0.00056541956 0.001194417 0.0034900105 -0.00272787 -6.521948e-05 9.053227e-05 -0.0035873004 -0.0020263856 0.002416109 -0.0033819908 -0.0019051953 -0.0037305304 0.0013980971 0.0011802336 -0.0018941553 -0.003300974 -0.0015438684 0.0005353863 0.0015864859 -0.003649238 -1.0062454e-05 0.0036884802 -0.0005694608 -0.0022262067 0.00029773713 -0.0022407898 -0.0034567437 -0.0010691122 -0.002405631 -0.0038980334 -0.002882889 0.003004673 0.0012625522 -0.0016612938 -6.460436e-05 -0.0021735805 -0.002917815 0.0005073774 0.0010952508 -0.0019690087 -0.0035970812 -0.00015431797 0.0019289935 -0.00089263555 0.00285871 0.002433137 0.0010211723 -0.0026753626 -0.0037609213 0.0026831622 -0.0004623273 0.0032817563 -0.0032149076 0.00192969 0.003850899 -0.00085109135 0.0009896891 0.0023524475 0.0016251253 7.164278e-05 0.0028611156 -0.00067707663 0.001501122 0.0035658434 0.00028837542 0.0025323431 0.0036938828 0.0001608406 0.0028766713 0.0021018612 0.000553391 0.0022491363 -0.0038486675 0.003805062 0.0036815612 0.002669614 -0.003162256 -0.0015439508 0.0008079494 -0.0025215575 0.0032269896 -0.00014394775 -0.0036079893 -0.0034773299 -0.0012484074 0.0014462572 -0.0001416194 -0.0034908438 -1.4681382e-05 -0.0007694851 0.0023800598 -0.001641063 -0.0009020531 0.0014212582 -0.0020987948 -0.00010078143 0.0017393293 0.0029167894 0.0030426066 -0.001789619 0.003123301 -0.0013304321 0.00056640286 -0.0017223904 0.0006742309 -0.0029087916 0.0030179096 0.003230808 -0.0009386636 -0.0026541003 0.00084299303 0.0018295761 -0.0011055894 0.0024214166 0.0007409144 0.0017303836 0.001700917 0.0027834885 -0.0030966096
insurance 0.0009068107 -0.0013699156 -0.0011063903 -0.00254249 -0.00012570736 0.0036795603 -0.0020926066 0.0025686896 0.00058635435 -0.0024352623 -0.0006158029 0.0030513464 0.0031913868 -0.00034863158 0.0033739659 0.0010384318 -0.0012483847 -0.0008679468 -0.001204329 -0.0015113736 -0.0012765258 -0.0030820325 0.0018609278 -0.0011718536 0.0011749957 0.0020341626 -0.0008247013 -0.0038171308 -0.0028567254 -0.0023094348 -0.001406358 0.0017280313 5.315417e-05 0.0011814804 -0.003532112 -0.0008439344 0.003310913 0.0035104526 -0.0035304977 -0.00010955073 -0.002732212 0.0013598434 0.0028455227 0.0027205646 0.0022215697 -0.00030971944 0.00066733995 0.0032625254 0.0014566459 -0.00030678156 0.003471182 -0.003623752 0.0023096618 0.0037707877 -0.0029669711 -0.000416622 -0.0008096595 -0.0006023934 0.0032688251 -0.0038293756 -0.0033916614 0.0025595184 -0.0013584951 0.00267527 0.0035542408 -0.0027781923 -0.0006530483 0.00289322 0.0035694872 -0.0019569062 -0.0034462528 0.0025391285 -0.0007497193 -0.00048530186 0.0031788351 0.00016009947 0.0038747485 -0.0027831418 0.0037355842 -0.003286278 -0.0028304409 0.0021658775 0.0005055555 0.0004623112 0.0024871945 -0.0036174238 -0.003711345 -0.0015313335 -3.308022e-05 -0.0006606879 0.0027144984 -0.0021961017 0.0010418816 -0.0034286135 0.003638215 0.0032140329 -0.003438831 -0.00064196816 -0.0015171986 0.00027184517 0.0022809682 0.0024998377 -0.0016166051 0.0037572898 0.001437499 0.0033161642 0.003362942 -0.0014365285 0.002447356 -0.0004040434 0.0006070746 0.0027119764 -0.00042079957 0.0005166609 -0.0010042571 0.002967228 -0.001654541 -0.0018181652 0.002281327 -0.002745574 -0.003351452 0.0018531483 0.0014264295 -0.0033524667 -0.001565984 0.0037853753 -0.0007857507 -0.003426694
landscape -0.0029969702 -0.0022649223 -0.0029834486 0.00026697086 0.0009005768 0.0008644151 0.00081120286 -0.0018918872 -0.0014663056 -0.00065532257 -0.0024311396 0.0030115305 0.0017657246 -0.0004479454 0.0018286053 0.0010670985 -0.0036205098 -0.0001746839 0.0026189769 0.002391709 -0.0030224412 0.000934572 -0.00047064244 0.0010065642 0.0034625886 0.0015873052 -0.00088315125 -0.0009807383 -0.0014269219 -0.0025256393 -0.0021971245 -0.0016239242 0.0027850554 -0.0027472572 -0.0010609532 0.0024155257 -0.0004556771 0.002478413 -0.0006651769 -0.0030905767 -0.002804682 -0.0017128184 -0.00039588902 0.00241091 0.0014432027 0.0019474298 0.0019413644 0.0011964709 -0.0026142905 0.0029574605 -0.002060367 0.0015322065 0.00056551135 8.833205e-05 0.00011701258 -5.3818158e-06 -0.0030145189 -0.0027145096 7.188876e-05 -0.0017398982 0.0012258256 -0.0033589837 -0.001337334 -0.0010589837 0.0031051857 0.0038720316 -0.0002366224 0.0008966126 -0.0015637417 0.0011139271 0.0003128837 0.0021916658 0.0027341007 0.0026630252 0.0015709001 0.00090699707 0.0025378452 -0.0034079873 -0.0032640505 -0.0037097253 0.003620579 -0.0031403676 -0.0034783636 0.0019222206 -0.00084392424 -0.00012465894 -0.0015406345 -0.0037647844 0.000547799 0.0032210387 -0.0028008688 -0.003402816 0.00095589383 -0.0013488397 -0.0021551417 -0.0038965994 0.0021625538 -0.0033970685 0.0017339981 0.0012532291 -0.0012564724 -0.0035232136 0.00030082124 -0.0038595623 0.001081514 0.002745149 0.0008682485 0.001646524 0.0034518251 -0.0023197648 -0.0035379878 0.0021064165 0.0007694993 0.00057497004 -0.001216544 0.0022933069 -0.0022049155 0.0025026796 -0.0024808678 0.0023801387 -0.002580247 0.0031791115 -0.003086092 -0.0016956705 -0.0029887743 -0.002535415 -0.0025744063 -0.003285012
flight 0.00054047233 0.0032956817 0.0031218308 -0.0014878006 0.003508289 0.003412336 -0.003730355 -0.002988491 0.0015017712 0.0031342278 0.0009184347 -0.002033238 -0.0020760882 -0.0030858475 0.0025737118 -0.0032123895 0.003451978 -0.0006682645 0.00072549394 -0.0004787461 -0.0017658751 -0.0010467994 0.003332663 0.00026100897 -0.000322706 -0.00037302152 -0.0020096954 0.00056165387 -0.0038809585 0.00010297887 -0.00069982134 -0.0027605705 -0.0011426429 0.0037055467 1.00145735e-05 0.0038578135 0.002269434 0.0021677113 -0.000711712 0.0012503915 -0.002746575 -0.0012651362 -0.002278298 0.000108117165 -0.0018846049 0.0017058318 0.0026861196 -0.000617148 -0.003382449 -0.0018870501 -0.0007849447 -0.0005707991 0.00046919804 -0.00043346643 0.0007975401 -0.0009721809 -0.0007809312 -0.002619784 -0.0033175184 -0.00038035063 -0.0032197512 0.0037171699 0.0035724118 -0.002579752 -0.003183002 0.0022881045 -0.00042347945 -0.001841925 -0.0004929505 0.0036071627 -0.00066659885 0.00063610537 0.0035676504 -0.0006214159 -0.0030552316 -0.0021034114 -0.0028766703 0.0038587465 -0.0006285396 0.0028715227 -0.0026292824 -0.0017630445 -0.0017792019 0.0026403044 -0.0003433866 -0.0033057113 -0.0006181653 -0.0014567251 -0.0019177259 0.001035241 0.00019990624 0.0016286704 0.0020458712 -0.00021989357 -0.002819877 0.001394969 0.003518917 0.0019185386 -0.0035204068 -0.0020686933 -0.0018774333 -0.0021950519 -0.0027970914 -0.00034727255 -0.0013043914 0.00063105 0.0034900552 -0.0029833484 0.0017496239 -0.0016805428 0.0029995327 -0.0013098451 0.0033506919 0.00093961123 -0.0010205028 -0.0016683489 -0.002292782 0.0009270873 0.0017430771 0.0016750346 0.0010146728 0.0015860221 0.0002590449 0.00199447 -0.0013416031 -0.002904117 0.0007253789 -0.0037542845
bank 0.0013431197 0.0012687466 -0.0010637187 0.0023461028 0.00010794261 -0.00062627386 -0.0014973236 -0.0018447256 0.0032682207 0.00087809167 -0.001206364 0.0033754841 -0.0005612671 0.0008748177 0.0032261123 -0.0006800074 -0.0033628913 0.003095308 7.0451955e-05 -0.0033945597 -0.0023835949 0.003892027 0.0026417512 0.0038939097 -0.00031350594 4.202584e-05 -0.0031628716 0.0010496847 -0.00077672105 -0.0030436479 -0.0009396842 0.002876499 -0.0022951195 -0.002498102 -0.0006886378 -0.0033312342 -0.0007897869 0.0007901043 0.0025817205 -0.0019310201 0.00077372673 0.0022942463 0.003096996 -0.0014450477 -0.002013125 -8.010534e-06 -0.00094046793 -0.0008460701 0.0030692576 -0.0013591679 0.0020366604 -0.0009860107 -0.0013138892 0.002683597 -0.00094562874 -0.0019062648 -0.0017792735 -0.0014862067 -0.0005731692 -0.0011408242 0.000131249 0.0013968364 0.00059594674 -0.0035333962 -0.0013559122 -0.00090542994 0.0010812193 -0.0034906163 0.00043535055 0.002729671 -0.0038153215 -0.0004346675 -0.0014698327 -0.0008291124 0.003084393 0.0023072364 0.0030243592 0.0024131874 0.0013341964 0.0022716045 -0.0008668773 -0.00038103457 -0.0023508903 0.0018750095 0.0038568436 0.0036738187 0.0016974688 0.0018229267 -0.0013932441 0.0017335456 0.0027175331 0.0014418162 -0.0031980374 -0.00338458 0.00035506053 0.002841974 0.0018820267 0.0005101409 0.0029030226 -0.001045739 0.0010614198 -0.002527992 -0.0019466013 -0.0036628367 -0.0023208975 0.0012797015 0.0030211422 0.00073230657 0.0024362276 0.0030866705 0.0010546624 0.0018943333 0.001085295 0.000322281 -0.0016525197 -0.0017795617 -0.0013031326 -0.0015473779 -0.0013300433 0.0034772616 0.0011116526 0.0022868274 0.0034164137 0.0008823415 0.0036356254 0.003879885 -0.0006611928 -0.000605332
nation -0.0017153145 0.0010616792 0.0022578272 -0.00090729195 0.003167237 -0.0011806198 -0.0034814866 -0.003652974 -0.0012500891 -0.0038977833 0.0036571287 0.001896593 -0.0014123734 0.003471806 0.00015004392 -0.0013707965 -0.0019720218 0.0018058814 -0.0024148386 0.0034903728 0.0013338194 -0.002847252 0.00050392974 -0.00018154788 0.0014935307 0.001363897 0.0027695834 -0.001807945 -0.0007388428 0.00077080395 0.0008528044 0.0031489416 0.0021468766 -8.3336905e-05 -0.0037465878 -0.0029054654 -0.0036716394 0.0034681093 -9.106944e-05 0.0033807089 0.0026013858 -0.0018269022 -0.0016627387 0.00184272 -0.000850752 0.0015381025 0.003048529 0.00045835334 -0.0015177669 0.0026652934 0.0036275222 0.0013472897 -0.0027737387 -0.003389064 0.0010465382 0.002052045 0.003351091 -0.002391947 -0.0022231261 -0.0009931419 0.0024651685 -0.003379479 0.0035995392 0.0037372282 0.0029722862 0.001682351 0.0038778414 -0.002271872 0.0020410423 -0.0027272685 -0.0027893807 0.003280968 9.435256e-05 0.0016703024 -0.0017517571 -0.0023739522 -0.0019492654 0.003128752 0.0013176224 -0.0014661987 0.00010223749 0.0023270692 -0.0020701655 0.0008450949 0.0010056152 -0.0033619693 -0.0028800939 -0.0022792518 0.002330886 0.0024455176 0.002265987 -0.0008292377 -0.00027573743 0.0037418858 -0.0013140588 0.002178067 -0.00037796763 0.00038540122 0.0027228072 0.0032581778 0.0014799656 -0.0030368573 -0.0013682966 -0.002554777 -0.0006963592 -0.0024168717 -0.002080733 0.00040754653 0.0017461367 0.002049676 -0.0017717959 -0.003496156 0.0015857109 -0.0038916953 -0.0028431823 0.0010544605 -0.0010112593 -0.0001602832 -0.001654198 0.0020541227 0.0009841233 0.0025288418 0.0019458705 5.6826455e-05 0.0009950907 -0.0004525085 0.0017917039 0.0018911592
hotel -0.0016686909 0.0030255583 -0.0007938184 -0.0009617452 -0.00025508399 0.00046908078 -0.0010322018 -0.001166973 -0.0023590212 0.0003952987 -0.0031740495 0.0017663055 0.00093330786 0.0015796315 0.0034060564 -0.0011205 0.0030648848 -0.0035152298 -0.001143674 7.38048e-06 -0.0014624891 -6.742147e-05 -0.0023156411 -0.00062287453 0.0001280165 -0.0002390176 -0.0019809827 0.002018532 0.0003229221 0.0016706287 -0.0012119281 0.0016704599 -0.00049898674 0.0007260984 0.0019947034 -0.0010057742 -0.0023549555 -0.0025093623 -0.0030636815 -0.0021758417 -0.00014518102 0.0010829739 -0.0015511272 0.0015723634 -0.00234096 -0.003570638 -0.0015041992 0.0032333687 0.00062004774 -0.002253219 0.003605682 -0.0021632903 0.0023847728 0.0023108725 0.003120611 0.0015033873 0.0038429045 -0.00064934813 -0.0014977225 -0.0037527962 -0.0024998118 0.0010060888 -0.0010992817 -0.0007832239 0.0005364857 -0.0039042681 0.0037673737 0.0023053875 0.0035969925 0.0016543106 -0.0024785514 0.00085855223 0.003031634 0.0023394201 0.0026577178 -0.002601061 -0.0018189381 -0.001627839 0.0006898774 4.685375e-05 0.0014555689 0.0016344653 0.0019415603 0.003120917 -0.0010651384 -0.00046682238 0.0028473013 -0.0038227113 -0.002325431 -0.0013253032 0.002296119 -0.0020355394 -0.0027917319 -0.0016171798 0.002054799 0.0021852623 -0.0016088687 0.00027044106 -0.0032113115 -0.003785735 0.0011674956 0.0026762718 0.0037174844 0.0011467445 -0.00042919457 0.0025531296 -0.0024749404 -0.0013065145 -0.000100763864 -0.002388868 0.0017685867 -0.00046362728 0.0020954704 0.0013589414 -0.0025291569 0.0009327342 -0.000303145 -0.0014532459 0.0015772227 -0.0031333058 0.0010449461 0.0007453356 -0.0028404442 0.0009105567 -0.002823092 0.0005936654 0.0009056212 -0.0017545461
report -0.0034049456 -0.0022702704 0.0025473144 -0.0037783266 0.0035214978 -0.0029624002 0.00013046418 0.000788104 0.0027251204 -0.003066575 0.0014847066 0.0038392385 0.0014028421 -0.0032129367 -0.00033665833 -0.0007290053 -0.0033385763 -0.0017332159 0.0021305948 -0.002739331 0.0005235505 -0.0027708893 -0.0024652956 0.0020322043 0.0035256553 -0.0033652114 -0.0015324011 -0.002215968 -0.0031303905 -0.002503833 -0.0027406951 -0.0025175465 -0.0010470138 -0.000950582 0.0012517913 -0.0011705008 0.0030037952 -0.00044298457 0.0028232154 0.0016417174 -0.0015544031 0.0012964854 -0.003076692 -0.00091549853 -0.0034513099 -0.0010468223 6.0932336e-05 0.0015924597 0.00039458435 0.0026263539 0.0022557713 -0.0010559864 -0.0027297991 0.0008037838 -0.0037485869 0.0020982428 0.0021173395 -0.0033969542 -0.0016504988 0.002680899 0.001765621 0.0012822677 -0.0038266617 -0.003244171 -0.0027170943 -0.003665354 0.00035597934 0.0033222593 0.001922424 0.003271107 0.0003399627 0.00083370024 0.0033053812 0.00059264986 0.0026132886 -0.003590811 -0.0010409722 8.654695e-05 0.0031804848 -0.00030267952 -2.6781854e-05 0.0029722184 1.1228173e-05 -0.0015186021 0.0018387658 0.0017558937 -0.0017445359 -0.00325402 0.002506721 0.002601999 0.0033952484 -0.00017443446 0.002471216 0.0037725612 -0.0023620934 -0.00366119 0.0024501628 0.003587346 -0.00010725228 -0.0020841497 0.0027793683 -0.0010625053 0.000588306 0.0010231911 0.0006516283 0.0031213604 -0.001332036 0.0033852484 -0.0031975948 -0.00201999 0.002332224 0.0006341035 0.0021343688 0.000664637 -0.0030453866 -0.001777235 0.00035442255 0.0013964071 0.00052486366 0.002048641 0.00031978326 0.0028150203 0.0007938071 0.0021543556 -0.002762719 0.0033803675 -0.0020796396 0.0015487744
peace -0.0014230168 0.0028514618 0.0007329269 0.003639455 -0.00079548446 0.0038145282 -0.00049952854 0.0028032113 -0.0025913566 -0.0010563006 -0.00046742547 0.0035172217 -0.002437441 -0.0017095136 -0.002254734 -0.00036280995 -0.0016940583 -0.0036383912 -0.0015085572 -0.00025819906 0.0018282621 0.0035679878 -0.00042023434 -0.0010032859 0.0030041079 0.0024027897 0.0024373543 0.0031949636 0.0032061336 0.0013349513 0.0016399232 -0.0032849372 0.002856276 0.0034316364 0.002056202 0.0036338978 0.0021793535 0.0039031082 -0.0018124386 0.0024145208 0.0018311935 0.0013536088 -0.0032053173 0.00107085 -0.00016735683 -0.00016064009 -0.0018616633 0.00076564925 -0.002162616 0.0029131286 -0.0016354693 0.00023652271 0.0034263344 0.0013696942 -0.0026744825 -0.0019098019 0.0026432287 -0.002315316 -0.0019696143 0.0021106517 -0.00043486847 -0.001721051 0.000574493 -0.0005920851 0.0009804055 -0.0029703933 -0.0010408296 -0.0016765842 0.0011435465 -0.00014733596 -0.00020418491 0.0023642634 -0.0027564967 -0.001634532 -0.0023106593 0.0012705062 -0.0036262947 -0.0014815007 -0.0017766732 -0.000536158 0.0009613019 0.0030460523 -0.0010623998 0.0005064923 -0.001501551 -0.00024164331 -0.0026019502 -9.654936e-05 0.0008427498 -0.0036742073 -0.0023811853 -1.9615534e-05 -0.0024755972 0.0028778797 0.0006864492 0.0013051886 0.0028563105 0.0011392706 0.0015971466 0.0028249116 0.00061297195 0.00048386978 0.0010034088 9.4102485e-05 0.0021354528 -0.002499389 0.0032881498 -0.00027459036 0.0030917022 0.0008413885 -0.0016989001 -0.000973187 0.0011701153 -0.0014999327 0.0025481288 0.0004486578 -0.0020211837 0.0024356586 -0.00085394474 -0.0011558355 -0.0010645122 -0.0030955866 -0.001396988 -0.0030100464 0.0029343544 -0.002919105 0.0014367558 0.0016816384
market 0.0010682571 0.0035112954 0.00041723644 0.003826116 0.00034707267 -0.0005103925 -0.002779486 0.0037308221 0.0036553834 -0.00030611508 -0.0018797534 -0.0026880195 -0.00019437599 0.0015943765 0.0030367302 -0.0031428044 0.0011305156 0.00078923133 -0.0017289644 -0.00034620508 0.00196233 0.00037431758 0.002907634 0.00061227457 -0.002916266 0.0015526757 0.0012272057 7.8298406e-05 0.0038254848 0.0035519586 -0.0008847678 -0.0010113411 0.0037455505 0.0024781018 0.0027424016 5.2992953e-05 0.00079747976 -0.0021431455 0.0006027124 0.0004460095 -0.0016101473 0.0024309957 -0.0010742277 -0.0029720732 -0.00083830766 0.00028087327 0.0015882148 0.0034429368 -0.00066433015 -0.0026545823 -0.003278874 0.0029672913 0.0016727941 -0.0025694717 0.0026292652 -9.296432e-05 0.00032053175 0.0034529532 -0.0030978674 0.0028683108 0.0023058604 -0.0029107253 0.0018558361 -0.00074395 0.0024850438 -0.0034407375 -0.0038392502 0.0004015366 0.0027244042 0.002262686 -5.6104975e-05 -0.00020406772 -0.0024710163 -0.0022059616 0.00036818476 0.002708036 0.00014344476 -0.0022164905 -0.00044547595 0.0033706794 -0.0016205354 0.003436081 0.0033061001 -0.00089210196 -0.0013312398 -0.00075073726 -0.0010461446 -0.003587807 -0.0001795652 -0.0031382882 0.0031669755 -0.00017240416 0.0034174325 0.0031706248 9.592706e-05 -0.00096370047 -0.0033730296 0.001577887 0.002570657 -0.0014616004 -0.00080026186 0.00056570815 0.00011319896 0.00010942392 -0.0038242235 -0.0013610837 0.001873484 -0.0011211766 -0.0009486726 0.002115686 -0.0009979767 -0.0021007806 -0.00058478944 -0.0007682145 -0.00020003249 -0.0017583087 0.0013738851 0.001731651 0.0008489594 0.00268469 -0.0020059112 0.00045279757 -0.002790922 -0.0027359622 -0.0006097228 -0.00012261269 -0.0020177967 0.0016004479
stock -0.0025453845 -0.0028702565 -0.0014911423 0.003346683 0.001159923 0.0020769378 -0.002215112 0.0035574653 0.0020455457 0.0036765696 0.0019332025 -0.003181579 -0.0027216566 -0.0020329854 0.0034460626 0.0015716328 -0.0028834622 0.0020752188 -0.002309052 -0.0033732099 0.0031346916 0.0011266447 -0.0021872362 -0.0023545295 0.0020408032 -0.002188436 -0.00084862596 0.0029679702 0.0019664501 0.0012576223 0.0017663126 -0.0029216073 -0.0024920455 0.0009615708 -0.0032636654 -0.002754938 0.0023788577 -0.00094387087 0.002839407 -0.0023921332 0.0015133203 0.00082863774 -0.0027953342 -0.0026869583 -0.00089953246 0.0018138122 0.0017149183 0.0014091238 -0.0019519966 0.0034405815 -0.0019561201 -0.0025051264 -0.00054856326 -0.0022839343 0.0038829055 0.0011079293 -0.0014721914 -0.0011125682 0.0028808152 -0.0021024717 -0.0030969067 0.0006664151 0.0036035478 0.0025459158 0.0032275186 0.0033910228 -0.0039024493 0.0011943863 0.002862143 0.0019792165 0.0025684596 -0.0017701328 0.0016410215 0.0002587533 -0.002948774 0.00032894278 0.0020464014 0.00031616425 0.0026707873 0.002250312 0.0021251133 -0.0012034194 0.0021729374 0.0019172801 -0.0007005028 -0.0021817076 0.0010957123 -0.0019538382 0.0010105884 -0.0029569191 0.0017580858 -0.00037859086 0.0023749059 0.0018726883 -0.0032147244 -0.0029791757 -0.00046084548 0.0018633108 -0.0028508967 -0.0029140662 -0.0005503358 0.00064603385 -0.0030546088 0.0003013743 0.00025155023 -0.0032005538 0.0010725454 0.0034603798 0.00039698556 -0.0037373863 -0.00041365915 -0.001253558 0.0025109684 0.00012931625 0.0022866367 -0.0010667436 0.0029397414 -0.0017786429 -0.0009896533 0.0035014772 0.00069437065 -0.00020845843 0.0036782722 0.0034761096 0.003472876 0.0020357105 -0.0023557458 -0.0025181624
world 0.0021064116 0.0015173391 -0.0011183253 0.00012030762 -0.0001578891 -0.0014916913 -0.0030013258 -0.0019995843 0.0033010556 0.0031332402 -0.003526711 0.003805744 0.0008773182 0.0029536055 0.002863685 0.0029202697 0.0014495176 0.003145195 -0.0006239602 -0.0034452954 0.0027279542 0.0038358194 -0.0029754678 0.002838695 -0.0005447329 0.0035739609 -0.0017806415 0.00016096103 -0.0026256333 0.0006558576 -0.002192266 -0.0002620366 0.0036359658 0.0020485066 -0.0033785587 -0.0026107365 0.0022481112 0.0037679784 -0.00088695297 -0.0031613149 0.003655647 0.0008470313 0.0013116711 -0.0026714362 0.0034951621 -0.0011907856 -0.0013082084 -0.002154836 0.003021222 -0.0013638431 -0.0021540185 0.0017297462 -0.0012616044 0.000934714 -0.0030815408 -0.0010210045 -5.3762913e-05 0.0033088657 -0.003823801 -0.0012421373 -0.0011518581 0.00023625125 -0.0013961735 -2.1026028e-05 -0.00015125603 -0.0025862865 0.0019838982 -0.0020595468 0.0021446086 0.0038539947 0.0017413126 -0.0022686026 -0.00086594344 -0.0029236688 -0.0038193865 0.0026234675 -0.0037075402 -0.0029548712 6.307134e-05 0.0023539595 -0.00060492865 -0.0029588316 0.0010802057 -0.00078884565 -0.0037454497 -0.00062158844 -0.00342917 0.0034641384 -0.002318165 -7.438917e-05 -0.0032579699 0.0038315475 -0.0020914276 0.0015152465 -0.00066427496 0.0012095066 -0.0004392218 -0.00339088 -0.0035114896 -0.001177747 -0.00084303226 0.0012212364 0.0021770634 0.0025852316 0.0007953486 0.0018738825 0.0012427347 0.0038268995 -0.003198381 -0.0004734043 -0.0017678656 -0.0014434878 -0.0018528338 -0.0036946158 0.0027290264 -0.0011809812 -0.00079676503 -0.0026164649 0.0031384903 0.0020261474 0.0032526427 -0.0011667036 -0.0009633544 0.0024066865 0.0034014934 -0.0026918727 -0.0014402665 -0.00020530428
evidence -0.0010570219 -0.0027514652 -0.002749258 -0.001983052 -0.00044973457 -0.00073940755 -0.00038846018 0.001552924 0.0011870965 0.0037068778 -0.00038215268 0.0024236115 -5.137807e-05 -0.0029579357 -0.0001819147 -0.0018506324 -0.0037627525 0.0020976565 0.0029106427 0.0013026167 0.0037039015 0.002757121 0.00015022373 -0.0031291186 -0.0022962638 -0.003886036 -0.0002769999 -0.0025182 -0.00022649311 0.00086999434 0.0014102616 -0.002984226 0.0021726165 -0.0014809978 -0.0008187705 0.00047411607 -0.0016131981 -0.003267866 -0.0002896311 0.0021449511 -0.0034308217 -0.0021171041 -0.003563507 -0.0022209308 -0.00091362407 0.0018110761 -0.0010284238 0.00012305113 0.0035213681 0.00061116443 -0.0017356222 -0.00020287049 0.00014787147 0.0016523529 -0.00097487285 -1.8740275e-05 0.0008114286 0.001866558 0.0026522656 0.002984233 -0.0020730968 0.0028258113 -0.00017635289 0.0007272057 -0.0034948331 -7.10894e-05 -0.002827842 0.003776252 0.0029249894 6.284428e-05 -0.000839496 0.0029459475 -0.0027172272 0.0037496097 0.0006415762 0.003455434 0.0030276517 0.0003061149 -0.0024156931 6.031709e-05 -0.0012834879 0.0003588548 -0.0011663949 -0.003592711 -0.0012150359 0.0032394135 -0.0038086006 0.0017782823 -0.00050553493 -0.0027474 -0.0014082445 -0.0020631312 0.0017634605 0.002656019 0.0023909262 -0.002831514 0.0015756884 -0.0015699548 -0.0022417756 -0.0012731748 -0.0037397165 -0.0032606462 0.00076855504 0.003883602 -0.0033471095 0.002099359 0.0035055499 0.0035068986 -0.0037397975 0.0007234655 0.0022647644 0.0034802067 0.0019940946 0.0010754204 8.466708e-05 0.0021650502 -0.0035274068 0.0022626214 0.002508401 -0.0029713972 -0.0038730765 0.003889959 -0.0007125051 -5.5260916e-05 0.0006592589 -0.000657323 0.0019947167 0.00044187348
car 0.0024936826 0.0038799914 -0.0033485286 0.0011881733 -0.0015907122 0.0020100353 -0.0023073724 6.9801725e-05 0.00028071835 -0.0016493904 -0.003615016 -0.0020951019 -0.0030074893 0.00051657157 -0.00013112622 -5.9145408e-05 -0.0033351954 -0.0009926908 0.0038765548 -0.0033762231 -0.0015309788 -0.0035501772 -0.00027388395 -0.00022133574 -0.0033285392 -0.002203797 0.00080875214 0.0025228339 -0.0008149468 0.0022782965 0.0036561938 0.0017806686 0.0025064074 -0.0022006605 0.0012859922 -0.003246661 -0.0015125993 -0.0023776074 -0.0034160924 0.0010729029 -0.0013145701 0.003293094 0.0008137967 0.002912113 0.0023237139 0.003820138 0.0018788115 0.0029739777 0.0024962984 -0.0038560021 0.0027534273 -0.0030197385 0.001571896 -0.0024040525 0.0015061663 0.0020990095 -0.00060999626 -0.0036310293 0.00077760284 -0.0017838422 -0.0033823883 -0.0037652277 0.00015041335 -0.0017001462 -0.00082824554 0.0019324882 -0.0007345188 -0.00067154074 -0.0033070184 -0.003792907 -0.00031796255 -0.003677098 0.0014279429 0.0033736054 -0.0017885374 0.0009152527 0.0032166967 -0.00032830908 0.0015004168 -0.0020801388 0.00069001975 -0.0028027897 0.00046896783 -0.0018675501 0.0016461296 -0.0014163236 -0.001183912 6.32285e-05 -0.0029172522 0.00016714365 -0.00016480408 0.0019525108 -0.0018670326 0.0017531628 0.0038073757 0.001342523 0.0012080608 -0.0011853694 -0.0031696255 -0.002383652 -8.399964e-06 -0.000899424 -0.0019595835 -0.0014495166 -0.0016329633 -0.003231554 0.001192109 0.002047113 -0.0028235884 0.00092156447 0.0015526 0.0020051145 -0.0024739103 0.0033044368 -0.003485017 -0.0010234264 -0.0006283213 -8.308703e-05 -0.0037503645 0.002433219 -0.0035343536 0.0030857464 -0.0017072324 0.0017525618 0.0013582518 -0.0035148924 0.0037122439 0.0033339548
oracle -0.00089578086 0.0034761527 0.0011498813 0.0014275197 0.0012883126 0.00027109153 0.0034624503 -0.003515289 0.00035981004 0.0006477884 -0.0028035326 -0.00071640057 -0.0024765653 0.0027915263 -0.0019040928 0.0002867442 -0.0035982926 0.0033331488 0.00042392008 -0.0026816097 0.001899748 -0.0038172684 -0.0020140181 0.003576901 0.0033114161 0.00023578413 -0.0016948727 0.0020850853 0.0016099174 0.0013800826 0.0036615552 -0.0039032572 5.8849946e-05 -0.00091479486 0.0026286044 0.0014912569 0.0037199839 -0.00056165503 -0.0024411576 -0.00077839487 -0.0038264971 0.0009107666 -0.0019853306 0.0035984558 0.0026289886 0.0015751137 0.0006866742 -0.0011077236 -0.003292788 0.0022351504 -0.0032675413 0.0023854594 0.0008068523 -0.002686089 -0.0022248921 -0.00022605996 0.0010563574 -0.003192876 0.0034185543 -0.0037717712 -0.00041288137 0.0012640897 -0.002383984 -0.0035961187 -0.0010269271 -0.00040139165 0.003768714 -0.0028367063 2.2349666e-05 0.0033205308 0.003868379 -0.0008762119 -0.0033069614 0.00032704635 0.003216442 -0.000857058 -0.0035261423 -0.0019782798 0.0023035295 -0.0009983853 -0.0036459959 0.0032881866 0.0014806523 0.003283766 0.0011346153 -0.003412034 0.003363523 0.003058442 0.0005216874 0.0038386246 6.5916397e-06 0.003473437 0.0031199055 1.6524462e-05 -0.0035099993 0.0032196399 -0.0012740048 -0.0015973866 -0.00019205599 0.0023504738 0.0009530569 -0.001124301 0.0013173748 0.0030227294 0.0011776353 0.0016920794 -0.001386835 0.0038824708 0.002566163 -0.00026972077 5.563474e-05 0.0029258777 -0.0005505405 -0.002452313 0.0009480059 -0.0012886177 0.00018558845 0.0038104549 -0.002292319 -0.002345785 -0.0007013551 -0.003084694 -0.00052830705 0.00073725136 -0.00045891895 0.00010998919 -0.00070577295 0.0013346183
warning 0.00020389706 -0.0029171503 0.0019262331 0.0020695392 -0.0036563985 0.002361379 0.0014316166 -0.0011629058 -0.0023012888 3.44007e-05 -0.003606171 -0.00022069497 -0.003252134 0.0034430264 0.003889826 0.00201534 -0.003637473 0.0018915804 -0.0016701118 -0.001296263 -0.0013225353 0.003210088 -0.002869679 -0.0018292635 -0.0027623633 -9.1308524e-05 -0.0032319636 -0.0019423169 -0.0020879302 -0.0037479682 0.00019227307 0.00076046714 -0.0013922041 -0.00028177298 0.0010957277 -0.0014016753 0.0017947843 0.003781236 4.852439e-05 -0.00052895444 0.0017940757 -0.0020927822 -0.00373652 0.0018862542 -0.003624675 -0.0037049272 0.0027561048 0.0024197693 -0.0036311916 0.00055159285 0.0024518943 -0.003311003 0.0028102288 0.0018860073 -0.00016976868 -0.0014697631 -0.0014901101 -0.0027146959 0.0032433018 -0.00033959013 0.0033291571 -0.0015995192 -0.0025560088 0.0021748238 0.0013245764 0.0022770253 -0.0024658858 0.0017502402 0.0020443287 0.0028269251 0.0038772007 0.0004883369 0.0030914955 -0.0028304285 -0.0036605154 0.0017856173 -0.0030555457 0.0033463938 0.0024373005 0.003542428 0.0038959451 0.0033373348 -0.0010884168 0.0017264368 -0.0017514974 0.0030317544 -0.0026189527 -0.0014730775 0.0027937852 0.00076013966 -0.0038569549 0.0027497422 -0.00046359072 -0.0011823655 0.00031744494 -0.00096918835 0.00166254 -0.0032535242 0.0020034995 -2.962663e-05 0.0020317142 0.00026935278 0.00035817092 -0.00076491747 -0.0020320432 0.0012141609 0.002278014 0.0010425658 -0.0016100951 -0.0038486184 -0.00071091263 0.0010567985 -0.0038983887 -0.0034625507 -0.00049740943 0.0021116573 0.0033575883 -0.0016654449 0.00041833098 -0.0006385881 0.0017449688 -0.0012248352 0.0021052689 0.0015708744 -0.0010674914 0.003187704 -0.003687301 -0.0033258866
sex -0.00045082404 0.0020775592 0.0006316683 0.00025651554 -0.002638099 -0.00096397125 0.00058993784 -0.0011389527 7.603465e-05 -0.0034085433 -0.0024569444 0.0022559213 -0.0033788907 0.0026612286 -0.0038727683 -0.001123266 -0.0034176344 0.0013579488 -0.003435033 -0.0023948005 0.00035971563 0.0002055285 -0.002238073 0.0016401712 0.0037201932 0.0033782118 -0.0018536089 -0.0005739465 0.0004644785 0.0020243488 -0.0031554103 0.0016314841 0.001154444 -0.00336011 -0.0006560299 0.002621476 0.0035741983 0.0012113355 0.0035129255 -0.0016159557 -0.0033001346 -0.00014592576 0.0018861197 0.00041015257 0.00026840516 0.0007615367 1.0191543e-05 -0.003618262 -0.0011340332 1.842337e-05 -3.4476256e-05 -0.0035761734 -0.0037784441 -0.000619641 0.001383568 0.0007082055 0.0013342599 -0.0034125156 0.00081165065 -0.00086712244 0.0025599943 0.0034710953 -0.002786378 0.0036779796 -0.0027123368 -0.0031249379 -0.0030127275 0.0026671616 -0.0020730875 0.003213347 0.00039402608 -0.00061682553 0.0036873636 -0.0011229778 0.0036075371 0.0020036222 0.003593064 0.0019271511 0.00095295114 -0.0024050265 0.00085106585 -0.0036815822 0.00040123292 -0.0009506895 0.00128095 0.00041194656 0.0031455585 -0.00085115724 0.0030032457 -0.0020289544 -0.0029924035 0.00027946965 0.003124433 0.0025150264 -0.0029037085 -0.003263287 -0.0030907346 0.0010366603 -0.00093820295 -0.0014107893 0.0018368034 0.0006172249 0.003851933 0.0018620488 -0.0014221359 -0.0025384251 0.0026003697 -0.0018665964 -0.001638844 0.0032859317 0.0012413443 -0.0019036655 -0.00042113368 -0.0025977707 0.0030218852 0.00053368096 0.0018878161 0.0014073559 0.0012549784 0.0019528847 -0.0034569693 0.00241752 0.0024402968 4.0033177e-05 -0.0020867067 -0.0030059118 0.0012856075 0.002045672
clothes -0.0024576685 -6.0376296e-05 0.00031656228 -0.0016807055 0.0001378936 0.0013347134 -0.002696998 0.003047092 0.001194117 0.0030951658 0.0025266004 -0.0025169966 0.002516677 0.0006496814 -0.0017096675 -0.00039331292 0.0037147515 -0.0009774764 -0.0034284024 -0.0007579983 0.003024072 0.0016675957 0.000734414 -0.0010192122 -0.0017447332 -0.0031608925 0.0003977096 -0.0031161206 -0.003867872 0.0033391265 0.003568715 7.1520053e-06 -0.0007580027 0.00093397225 -0.001000527 0.0025030398 -0.0021953264 -0.0031885605 -0.0012601633 0.00044950287 0.003132187 0.0002646491 -0.0011253229 -0.00045461048 -0.0032512522 -0.0034998714 -0.0010970297 0.0011460667 -0.0019947707 -0.0024107846 -0.0035516878 0.00021550817 0.00045489072 -0.0025401134 0.00017520407 -0.003274069 0.0011615865 -0.0012738756 -0.0031247209 0.0038790198 0.0037071537 0.002394842 -0.002435264 0.00024773274 -0.0033338834 0.0033942596 -0.0014984908 0.0027345475 0.0016769457 0.003513033 0.0030553967 -0.0028848003 -0.0007139772 0.0036495763 -0.0036934132 -0.0032250735 0.0012973001 0.0029410531 0.0037061437 -0.0019650927 0.0032747767 0.0012760537 0.0007713001 -0.0010755117 -0.002257143 0.0007728525 0.0021218942 0.0005104421 0.00275209 -0.0037792467 0.0024513202 -0.0002140928 -0.002907266 0.0005062372 -0.00097485736 -0.0034932506 0.001953878 -0.0031158817 -0.0012224987 0.0032757556 0.0008708447 -0.0013006302 0.0009314105 -0.0013750964 0.0016645886 2.8722954e-05 0.0019780342 0.002601942 -8.403339e-06 -0.00026207964 0.0026277108 0.0034011435 -0.0011999948 -0.0022939595 0.0020378018 -0.0007261626 -0.0033906894 0.0035516005 -0.0019277303 -0.001088845 -0.0020607559 0.0018493107 -0.003826076 -0.0006817591 0.0006385272 0.0018785137 0.0035394945 0.003638352
century 0.0035678109 0.0019466246 0.003863196 -0.0029306158 -0.0021358964 -0.0009193313 -0.0035448563 -0.0016332234 -0.002947731 0.0019484509 0.0029764944 0.0020527153 0.0014941494 -0.0008521517 0.0011683464 0.00058665255 0.0020213732 -0.0017911721 0.0002583871 0.0031936062 -0.00043471315 0.0023043002 -0.002977565 0.0028623308 0.0033280044 -0.0038421818 0.001914342 -0.0017990422 0.003299149 -0.0028068656 -0.0023840887 -0.0029919427 -0.002006708 -0.003732198 0.00033747754 0.0023836305 0.0015061352 0.0012594882 -0.0034413382 -0.001542885 0.0009372268 -0.0018055124 -0.003490267 0.0015450503 0.0034791897 -0.00024082985 -0.0019335374 -0.0008386714 0.0005769442 -0.0023175436 -0.003125441 0.0029721456 -0.0024161162 -0.00031079713 -0.001985575 0.0037764884 0.0004055478 0.00024389004 -0.00090671843 -0.0013797336 0.0035689373 0.003900159 0.0009204212 -0.0007868735 0.00041091573 -0.0030044897 0.0022939416 -0.002843069 0.002110832 0.00291753 -0.0024267845 -0.0036465575 -0.001687897 -0.00016849612 0.0015984225 0.0003619173 0.00375922 0.0031956462 0.0033862225 -0.0030125533 -0.0033404904 -0.0007054257 -0.0011645033 -0.0014663124 0.00049924187 0.00016927528 -0.0016063843 -0.00060409924 0.0024989739 0.002500564 0.0025623497 -0.0034416055 0.00097172445 -0.003637127 -0.002085363 0.0025171605 0.0021866544 -0.0032204075 0.0020810645 -0.0014392129 -0.0023886324 0.0036250404 -0.0026383447 0.00091382087 0.0017124485 0.0029838514 -0.003174484 -0.0022178213 0.00036265573 -6.475464e-05 4.9401737e-05 -0.0026890999 -0.0036302907 0.0018586692 -0.0019229027 -0.0034783895 0.0031352341 -0.0006730031 -0.0006239478 0.0032359199 -0.002457389 0.0036132513 0.0010244468 0.0015212884 -0.0032979762 0.001107591 -0.0016532195 0.0015588132
project -0.0011387452 -0.0007255977 0.0009912893 0.0026300277 0.0029552102 0.0020453448 -0.0010016848 0.0012718991 0.003323019 0.0019744716 -0.0025339911 -0.003210885 -0.002396369 0.0016957707 -1.4959513e-05 0.0035382789 -0.00018507784 -0.0026966392 0.0022556386 0.0036396612 -0.0035268508 0.0007828563 -0.0033491144 0.0024045464 -0.0031682558 -0.0009743964 0.0010261968 -0.0031979575 0.0023630671 0.001742961 0.0020425317 -0.0014301909 -0.0033703044 0.000692504 -0.0030823422 -0.0017925606 -0.002995561 0.0034544885 -0.0035885342 0.0033033113 -0.0022522765 -0.0035865267 -0.00073752936 0.0032689022 0.0019445897 0.0014401634 -0.0038393403 0.0028494957 -0.0035394013 0.0018097468 0.0023625742 -0.0001491768 0.00079829746 -0.0016282743 -0.0031616648 0.0034930306 -0.0007464767 -0.0030413682 -0.0033815166 -0.0023542335 0.0009281437 0.0036952088 -0.0033455582 0.00270995 -0.0015746965 0.0024167192 -0.0018128979 -0.00080749707 -0.0038928178 0.0014608878 -0.00027791038 -0.0005506326 0.0022950072 0.002114468 0.003550174 -0.0017406971 0.0026915604 -0.0023352916 0.002433626 0.0027004615 0.0019045764 -0.002105513 0.002812398 -0.0037042743 -0.0023384688 0.000993494 -0.0019046256 -0.0018209493 -0.0016459171 0.0034127706 0.00036811322 0.0012944911 0.0032349196 0.0029300733 0.0019451797 -0.00010537746 0.0011378383 -0.0005930318 0.0016242549 0.0028686493 0.0019222068 -0.00020131083 0.00092585775 -0.00047619734 0.0015197123 -0.0031167998 -4.1927765e-06 0.003596303 0.0017457053 0.0020086034 -0.000350726 0.002045377 -0.00077818637 -0.0005034735 0.0030798803 0.003683483 -0.0029638996 -0.0030679097 -0.002256012 -0.0013011957 0.001142071 0.0026877287 -0.0015018736 -0.0037726231 -0.0006935577 -0.00294299 -0.00048805424 -0.002452295
woodland -0.0030215583 -0.0018130598 -0.001049786 -0.0021863186 0.0022109563 -0.0009893277 -0.0005847339 0.0015381387 4.2442498e-05 -0.0011199036 0.0027922806 -0.0020673124 0.0015805489 8.504911e-06 0.0026993186 -0.0035894637 0.0038860731 -0.0019937446 -0.0033795359 -0.0016024443 -0.0009212316 -0.0017278647 0.0024897798 0.001257223 -0.00083261204 0.0037041751 -0.00034472544 0.0031496312 -0.0003795804 -0.0027325803 0.00032860506 0.0036106682 0.001841548 -0.0019090548 0.0007802933 0.0018150301 0.0038054807 -0.0038710104 0.0005114452 -0.0004446554 -0.0011673647 -0.0030164453 -0.0026639656 -0.0006874567 0.0016025064 -0.0011471356 -0.0014867564 0.0032046533 0.0011882157 0.0039016157 -0.0003667718 -0.003660489 -0.0008660211 -0.003440324 0.00363766 0.0004990787 -0.002495768 0.0018102422 -0.0011498028 -0.001830424 -0.00072704896 -0.00054484204 -0.00182598 0.0037493939 -0.0024740533 -0.0019692474 0.0012717743 -0.002178589 0.0023319554 0.0022926002 -0.0032416224 0.0029241152 -0.0019385879 0.0021174587 -0.0029501074 -0.0035508594 0.002621365 -0.001215848 -0.0025596377 -0.0025492492 -0.0029619276 0.0020373845 0.0033181068 -0.0038724185 0.0025939054 0.002680057 -0.0017112482 0.0030099098 -0.0005940856 -0.0021771046 -0.00058280444 0.0015488615 -0.00020516755 -0.0021863522 0.00066509185 -0.0031871963 0.0011242034 -0.001177877 0.0010961604 -0.0014839602 -0.0035539689 -0.0006493639 0.0023432823 -0.0014627656 0.002500648 0.0025109262 0.0026765855 -0.0022084145 0.0022927865 -0.0037349048 0.0024986607 -0.00058037974 0.00060547714 4.4849483e-05 0.00062147423 -0.00110213 0.002311325 -0.0022663996 0.0009083122 0.0019643952 0.00019683031 -0.0020870673 -0.0028081245 -0.0027162088 -0.0022085146 0.0024659366 0.0011992045 -0.0032211787
industry -0.00044046607 0.00054058124 -0.0013836537 -0.0015514675 -0.0024108654 0.003115437 -0.0006135912 0.0015203368 0.0006306895 -0.0025462308 -0.0027641163 0.0015706662 0.0017394169 -0.0017506037 -0.0017397013 0.003263275 0.0009021144 0.0006525492 -0.0014556512 0.002982526 0.0033075686 -0.002395419 0.0014364815 -0.000907496 0.00037322973 0.00016340116 0.0038166863 -0.0023263933 -0.0011054963 -0.0028925787 -1.4753283e-05 0.0032559647 -0.0020538096 -0.003473015 0.0036953627 -0.0027700283 0.0004087225 -0.0022776867 0.0024077888 -0.0007982906 -0.0032279212 -0.0022272025 -0.001991956 0.002313255 -0.0005970753 -0.0018779273 0.0020905596 -0.0014126162 -0.0020569765 0.0014130845 -0.0031609621 0.0033524567 0.0028054044 0.0008223015 0.0035906248 0.0033425859 0.002769955 0.0030867967 -0.0010007233 -0.00013274506 -0.0021802108 -0.0018060785 0.002969008 0.003390011 -0.0037042997 -0.002986004 0.002725179 -0.003585205 0.0015869658 -0.0026840176 -0.0017518938 -0.0009612752 0.0030616503 0.0034916026 0.0012770658 -0.002442975 0.0019766267 -0.0037603306 0.0026051367 0.0025059415 -0.0008238495 -0.001334636 0.0036256318 -0.00048368768 -0.00021757581 0.0032616577 -0.0013525727 -0.0008061197 0.00082074327 0.00035592995 -0.00072225137 0.0020936492 -0.0006385742 -0.0033124208 -0.0030580093 -0.0033973157 0.0020814408 0.0038477718 0.00021772068 0.0016569404 -0.0007534073 0.0021514297 0.003045784 0.0010840956 -0.0026666173 -0.001160172 0.0029188967 0.0024279442 0.0030289844 0.0018486714 0.0007249172 0.00151663 0.0038354786 7.874581e-06 -0.00059599325 -0.00294982 0.0025754217 -0.0024963673 0.00024891403 -0.003349658 -0.0021792385 -0.0027433664 -0.0024761206 -0.0018642881 0.0026083663 0.00035786163 -0.00073037494 -0.0005723661
implement -0.0037882342 -0.0030233534 0.00035280266 0.003455218 0.0009205398 -0.0032301801 -0.0024670656 0.0008958283 -0.0027970553 -0.003379505 0.0023503597 0.0027568836 -0.0017163006 0.003755029 -0.0020092977 0.00066370686 -0.0034521904 0.0037359353 -0.0031576536 0.0018213408 -0.0016295721 -0.0012616254 0.0022436408 0.0013558381 -0.00018742945 -0.000982432 0.001337902 -0.0036710815 0.001793114 -0.0014885506 -0.0026897846 0.0016600112 -0.0023130875 -0.00085566676 -0.0012163396 -0.0028258974 0.00037479246 0.0012478333 -0.001968105 0.0023020154 -0.0016200544 -0.0029907417 -0.002325429 -0.0010251965 0.0005595882 -0.002408987 0.0011112437 0.001145398 0.00032119104 0.0020370325 -0.0035744589 0.00043977686 -0.0034109165 0.0022495862 -0.0013758431 -0.0031350483 0.0017511038 0.0026223834 0.0009370277 -0.00013812525 -0.0037616866 0.0034758658 -0.00024554812 0.0032629762 -0.0016128313 0.00040385826 0.0030320678 0.0014525306 -0.002714498 0.0021553552 0.0023333933 0.0011364945 -0.0024003861 -0.0027520396 0.0026975397 0.0031052793 0.0002242728 -0.0036834062 0.0019397093 -0.0013626342 -0.0019349902 -0.0017318975 -0.0009500612 -8.899643e-06 0.00082916504 0.0024225598 0.002432964 0.0015637235 -0.0012621447 0.00092685694 -0.00018599475 0.0032458326 3.8694063e-05 -0.0022612312 0.0017591586 0.00019398142 -0.0030571485 0.003226935 -3.2008324e-05 -0.002791137 0.002711954 0.0006971781 -0.0026705575 0.00088678015 0.0018016441 -0.0011699804 0.0011705994 0.001248847 -0.001661561 0.0014654015 -0.0036897028 0.003841231 -0.0003070233 -0.0026169554 0.0031288522 0.0031920997 -0.0023490987 -0.0020514824 0.0031933654 -0.0028608202 -0.0006250734 0.002553346 0.0007380564 -0.0023725934 0.00047946055 0.0028054847 0.000695233 0.0014847348
issue 0.0014014489 -0.00030399614 0.0011770846 0.0035882844 -0.003627144 0.00091990293 -0.0017318932 -0.0025912442 0.0017198633 -0.003833736 0.0030128232 -0.00038307218 -0.0028867302 0.00047756365 -0.0025876178 -0.0023132735 0.002223233 -0.002907099 0.0037712154 0.0020385145 -0.003523613 -0.0024726507 0.00033152642 0.0022938508 -0.0018831627 -0.0010490869 -0.0017829718 -0.0038503483 0.0024345801 -0.003303054 0.0025902756 -0.0019500884 0.0005933756 0.0033343476 -0.0008752257 0.00019829809 0.0010417203 0.00047798993 0.00043017496 0.0021202054 0.0024398973 -0.0031090337 -0.0031802265 -0.0005578798 0.0018833964 0.0032005343 -0.0007167379 0.0036855033 0.0037450437 -0.0023566775 0.0019929905 -0.0005656994 0.0021153204 0.0012311111 0.0024116528 0.0027640571 -0.002618772 -0.003865193 -0.0032523691 0.0011364315 -0.0024960828 -0.00021352153 0.00357235 0.003708691 -0.0014172986 0.002285063 7.2427276e-05 -0.0010043578 -0.0011758329 -0.0008037077 -0.0008211976 0.0005160529 0.0030494838 0.0036357248 0.002447273 -0.00377651 -0.0037826642 0.00051435124 0.0023460486 -0.001425169 -0.0030644252 0.0015617228 -0.0004310263 -0.0026248316 -0.0032085788 -0.0016228436 0.00078749645 0.0011860307 0.0014110798 0.003768655 0.0036388836 -0.0008067181 -0.00053897576 -0.002263914 -0.0015185876 -0.0025166974 0.00071520684 -0.0022041828 0.0035959326 0.0031245342 -0.002418575 0.0023327384 0.001983518 -0.0014973015 0.0021284334 -0.0013860705 0.0030666157 -0.0012186719 0.00069124537 0.0010067234 -0.002891397 -0.0037863606 -0.00166638 -0.0023156467 -0.0010461422 0.0035668453 -0.003331457 0.0022000335 0.0007877872 -0.003875877 -0.002388816 0.003091717 0.0006655598 0.0027951263 -0.0013741945 0.00022173888 0.0018091305 0.0037445866
crisis 0.0021535468 0.00045979244 -5.0480244e-06 -6.376837e-05 -0.0028329655 0.0019776728 0.00061178516 3.3847362e-05 -0.00030767487 0.0015300659 -0.0002651192 0.00047571896 -0.003699914 -0.0037019195 0.002669171 0.0024282667 0.0031968772 -0.0015098581 -0.0036336777 -0.0022870996 0.000492205 0.001928239 -0.0004788747 -0.0035505663 0.0034787531 -0.00031933634 0.00021041592 0.0011658405 -0.0019644788 -0.0036302104 -0.003016222 0.0014281748 -0.0031821146 -0.002357612 0.0024771553 0.00048602684 -0.00075923273 -0.0018650966 0.003166668 0.0008863922 0.0011959256 -0.003664406 -0.0024050362 -0.0020891142 -0.00022943184 0.0010730092 -0.00018543251 0.001408903 -0.0025553901 0.0017534633 0.0035015577 -0.0021619427 0.0037972066 -0.0038336106 -0.0002341531 0.0009417335 -0.00042742913 0.0029212176 -0.0010081261 -0.0007930599 -0.0020953002 -0.0010744835 0.0006803959 0.00015967184 -0.003252067 0.0013749026 -0.0038300366 -0.00075115863 -0.0026520335 -0.0037154434 0.0007682241 -0.0037530747 -0.003126149 0.002055252 0.0019460645 0.0023336713 0.0015832945 -0.0020287617 0.002084425 0.0016619049 -0.0022498416 0.0012570395 0.0020896143 -0.0023547977 -0.0014114471 -0.0017205151 -0.0009842145 -0.0030023276 0.003042123 0.0036030223 0.0024173022 -0.0020672672 0.0027263423 -0.000109186585 -0.0006285467 0.00034679848 0.0004492429 -0.0025505088 0.0023501401 0.0030092753 -0.002284442 -0.003536524 -0.0024036006 -0.00015570776 -0.0010213132 -0.0027500996 3.3213426e-05 0.0012777615 0.0017090974 -7.940253e-06 -0.0031230813 0.0010742287 0.0015263703 -0.0026362175 0.0023602662 -0.0031983764 0.0015357618 -0.0010853787 -0.0033925897 0.0012525077 -0.0007477548 0.0020849407 0.0024504103 0.0013265017 0.002643844 0.0007672145 0.0035035706 6.312727e-05
accommodation -0.0005178022 0.0034835732 0.000885714 -0.000151914 0.002958712 -0.0027332145 0.00013767363 -0.0019041909 -0.003375279 -0.0019473124 0.0029749302 -0.0031528613 -0.00061971945 -0.0016546081 -0.0035639892 0.0028457602 0.002983365 -0.0021799502 -0.0015054431 -0.0001871948 -6.342299e-05 -0.0021584625 -0.00074173673 -0.0004821341 0.0011544217 -0.0036378694 -0.0016895459 -0.0013699458 0.00039233195 0.0009898517 -0.003570921 0.0004796217 -0.0011190448 -0.0029021888 -0.003106346 -0.0037378725 -0.0020643696 0.0028062442 0.0038003442 -0.0021789758 -0.0020923708 0.0020315228 0.0013458643 -0.00041334148 -0.000326316 -0.0034456716 0.0013704542 -0.003503826 0.0022573648 0.0005543316 -0.003771526 0.0005603033 0.0027228275 -0.00065703114 4.536296e-05 -0.0005170587 0.0018635904 -0.002455369 -0.0032147074 0.00011280192 0.0012003812 0.0020551195 -0.0012459585 0.0011165604 0.0031140083 0.0023514847 -0.0036819594 0.001596514 0.00038231155 0.000921443 0.00070202624 -0.0019708097 0.001658816 0.003305769 0.00015906755 0.0034137995 -0.0033800208 0.0032636432 -0.0031472163 0.002440192 -0.0014506788 0.0024951235 0.0015038892 0.001075517 7.431441e-05 -0.0011987444 -0.0006699486 0.002367819 -0.00329286 -0.0013505155 -0.0035444312 -0.0038595886 -0.0034351584 -0.002324943 0.00032459496 -0.0021261186 0.0014993986 -0.003261515 -0.0037540598 0.000872286 0.000113150454 -0.0007612051 0.0004925185 -0.0006925519 -0.0015448118 -0.0035021396 -0.00085343793 0.0015386343 0.0031329514 -0.0030113345 0.0033970703 -0.001526009 0.00020341916 -0.0009743683 0.0032537638 0.0035586446 -0.0031260957 0.002862631 0.0027410998 0.000766935 -0.0031551395 -0.0013407975 0.0029596344 0.0014281272 -0.0017217452 0.0019298386 -0.0004522844 -0.0015201677
monk -0.0004514278 -0.001844776 -0.002346018 -0.0015112783 0.0010649017 -0.0006908663 -0.0037260032 0.0034637896 0.0005720917 -0.0017765466 0.00017672623 0.00036497117 0.002443462 0.0022217336 0.0023841993 -0.002311558 -0.0023956727 -0.0036851054 -0.0037862505 -0.0020337983 0.0010031881 0.00016916987 0.0016998585 -0.0034743906 -0.002807168 0.0028861188 -0.0024900388 0.0019127333 0.00068823586 -0.0005541883 0.0016221206 0.0029564763 -0.0007069564 -0.0037994608 -0.0016742575 -0.0019760898 0.00317419 -0.0032291415 -0.003473721 -0.0009607769 0.0020282874 -0.0019579742 0.0031618103 -0.0029755423 0.0027057566 -0.001711113 0.003808135 4.6148303e-05 -0.0006027227 -0.0015181768 -0.00095287047 -0.003303914 0.001792416 -0.0002207251 -0.0038059663 0.0035332888 -0.003260632 0.0032590958 0.003030781 0.0007341331 -0.002584249 -0.0038440472 -0.0013877475 0.0023093014 0.0005950133 0.00013612492 -0.0013329897 0.0001829865 -0.001628382 -0.003037618 -0.00015460938 -0.0015695199 0.0023361652 -0.0016911775 0.00020330088 0.0033283713 -0.0015297403 0.0016831286 -0.00234703 -0.00013229798 -0.0036949313 -0.0035673731 -0.00035495553 0.0026887276 -0.0011308833 -0.00022889794 0.00024019562 0.00039324426 0.0016268867 0.0022678927 -0.0032096545 0.003650745 0.0024757832 -0.0034246973 -0.002540845 -0.0016002747 -0.0031588566 0.00015936872 -0.0019036635 -0.00072371104 -0.0011989893 0.0030168483 -0.0015722604 -0.003357183 0.0014786607 0.0013607396 -0.0029899688 0.0029023667 0.0021804287 0.0031147238 -0.00041485718 -0.002171423 0.0029694482 0.0023295002 -0.0019173676 0.0025525305 0.0018902755 0.0036364596 -0.002886854 0.0020093329 -0.0002616519 0.00016526302 -0.00025229776 0.0018079728 0.0018849446 0.00021981697 0.003295287 0.0035382954
news -0.00022129841 0.0030285777 0.0028062607 0.0027134644 0.0026064299 0.00012013932 0.00071479933 -0.00088070694 0.003017158 0.00362389 -0.0019862775 -0.002382328 0.00389655 0.0023381268 0.0038708278 -0.003700791 -0.001370557 -0.0031914862 0.0012697972 -0.0017503586 0.0006588404 -0.0015817387 0.0006593102 0.0008728152 0.0008843388 -0.0037569385 -0.00025006026 0.0011988947 0.0034759035 -0.0024039873 0.001838417 -0.0035597528 -0.0025856106 0.00032838937 -0.0024720174 -0.0031982884 -0.00022648073 -0.0028205493 0.0033603273 0.002664209 0.0026166078 0.0027059158 0.0011351737 -0.0022110853 -0.00027162954 0.0028902395 0.001955674 -0.0007417142 -0.0029194402 0.003333177 -0.0033303087 0.0037559601 -0.000470193 0.003044893 -0.0013170048 0.001318633 -0.0015014726 0.002986398 0.0005209456 -0.0029937252 0.0004064756 -0.0012316011 0.00046132656 0.000772539 0.0025629643 0.0006799879 0.0016515678 -0.0010054724 0.003479441 0.00039897003 -0.0033331893 0.0037020824 -0.0007776815 0.0036719283 -0.0022408569 0.00073984073 -0.0025940798 0.0032010514 0.0024317796 0.0033003497 -0.0006159162 0.0011737037 0.0032227188 -0.0031717443 -0.00041228533 -0.0017467248 -0.002047307 0.0025914554 0.0003930122 0.0036088752 0.0019792384 -0.0030139342 -0.0025538644 -0.0023451163 -0.0017576984 -0.0032416845 -1.9300707e-05 -0.0035599926 -0.00071981363 -0.0011142206 -0.0018474001 0.0022362284 2.9805567e-06 -0.0034714192 0.0038679258 0.0029543298 0.0010848445 -0.0034181112 0.0021112417 -0.0009913773 0.0028751455 0.0022892838 0.0014482766 0.002179926 -0.001486728 -0.002643138 -0.002782817 0.0018829736 0.0014202029 0.0013182343 -0.0028328695 -0.0019686294 -0.0022364375 0.0018538695 -0.0015225225 -0.0002391841 0.0038519893 0.00176437
ecology 0.002218202 -0.0035891621 0.0031197707 0.0025189738 -3.6767285e-06 0.0007494594 0.0029993092 -0.0038684425 -0.0037919676 -0.0035822904 -0.0035246727 0.002039444 -0.0004437395 0.0018118733 0.001261567 -0.0037380022 -0.0015000604 0.00039401147 0.002290477 0.0032022125 -0.0005307929 0.00034699606 -0.0033443884 -0.0011752824 0.0017179276 -0.0018631971 -0.0021972002 -0.002880307 0.0023407144 -0.0009189062 0.0012259005 -4.24686e-05 -0.0021369706 0.003043764 -0.00046708915 0.0020222177 -0.0003247892 0.0036894218 0.0030846999 -0.00080562633 0.0016571606 -5.0983475e-05 0.0010880725 0.0008646944 -0.0021537782 -0.0030530496 -0.0022152998 0.003136428 -0.0038722528 0.0035370935 -0.00074462127 0.0014458423 -0.0036686233 0.0036586241 -0.0036451607 0.0011107465 0.0026981696 0.001622122 0.0022788546 -0.0022456278 -0.0009492389 -0.0037401817 -0.0010650704 0.0014895585 -0.0028253647 0.0010240653 0.0038933954 -0.0026874994 -0.003590958 0.0011620729 -0.0017263362 -3.8690655e-06 0.0013401394 -0.00084785547 0.0037588784 -0.00049664435 -0.0011314343 -0.00039042943 0.0012381199 0.0013943948 0.0023345314 0.0023145764 0.0017288328 -0.0007243363 -0.00056962227 0.0012439851 -0.0024558858 0.0020328162 -0.0026563986 -0.0026833788 -0.0001253932 0.0034590366 -0.00044362096 -0.0032563175 0.0025424748 -0.0023660748 0.00035224025 -0.0012958304 0.003708995 0.001499651 -0.0033510532 0.0027957 -8.267844e-05 0.0037956538 -0.0016461429 0.0012065136 -0.0032188885 -0.0006556086 -0.0012302323 -0.0003955132 0.0013328589 0.0011123626 -0.0038853858 0.00037848437 -0.0027896697 0.0006129986 0.0020658653 0.0021153744 0.0018804937 -0.0013385713 0.00033210276 0.0037606144 -0.0025838262 -0.0014877783 0.001810745 -0.0015526137 -0.0025057858 0.0009958809
chemistry -0.00228716 0.0030295374 -0.0034491275 0.0036862637 -0.00011560495 0.0028936472 -0.001120948 0.0004908013 0.0034300936 7.296602e-05 -0.0025591576 -0.003410331 0.0026312035 0.0031137718 0.003647955 -0.0017448015 0.0017376767 -0.00032263837 0.00092816673 -0.0005845291 0.0015344701 0.0011876918 -0.0027218799 -0.0026554284 -0.0013383258 0.00086945883 0.003546391 0.003084198 -0.0006981901 0.0024372777 0.0011263766 -0.0036917375 0.0015825676 0.0036352845 0.0031020532 0.0034661198 0.0027767979 -0.0037051307 -0.002346007 -0.00097602763 0.00080085127 -0.001081764 0.0008438172 0.003499316 0.0026685223 0.0026680417 -0.00025225576 0.0006261142 -2.8874708e-06 -0.0022211564 -0.0010700902 0.0020118246 -0.0022024326 0.00089674967 -4.7945636e-05 0.0023605495 4.976688e-05 0.0015106304 0.00090990606 -0.0019295511 0.003203239 -0.0015440187 0.0009903911 0.00237337 -0.002674095 0.0006700996 -0.0032692682 0.0028213738 -0.0018559203 0.0012562595 0.0014954652 -0.003277816 0.0013718749 0.0008446994 0.0014377361 0.0026365612 -0.0028229163 -0.0010558858 -0.00029798195 0.0007885528 0.002272747 0.00035451073 0.0026885031 -0.002668852 -0.0030445422 -0.0031309712 0.0011661551 -0.00026555205 0.00019596836 -0.003286699 0.0033733973 -0.0011286285 -0.002493148 0.003785819 0.0036396515 0.0011830922 0.0019082822 0.001886432 0.0006482907 -0.0017009423 -0.0033849964 0.0015606273 0.0031374672 0.0017082582 -0.00046081474 -0.00042596032 0.0016206058 0.0035444335 0.0019693936 -0.002439303 -0.0015648002 -0.0013205755 -0.0022002924 -0.0017944811 0.0025874157 0.0031928509 0.0022339614 0.0023404008 -0.0016856295 -0.00086662825 0.0019232157 -0.0015971325 0.0012381417 -3.627458e-05 -0.001252667 0.0025191659 -0.003175667 0.0028237347
effort 0.00054306316 -0.0025875648 -0.0021787845 0.0035811595 0.0024598562 0.0012018122 0.0038732865 0.0023961589 0.0037633933 0.0037704578 0.00066388334 -0.001448126 0.0024689545 0.0029415393 0.0001915211 0.003433622 0.0020254822 -0.00237385 0.003472277 0.0033065586 0.0008776274 0.0033808744 -0.0016951006 -0.003024857 0.0027997901 -0.001602606 0.001872887 0.0028606998 0.00067633326 0.0038309996 0.0035741022 0.003367154 -0.0013712724 -0.0036138007 -0.00057615706 -0.003150878 0.0035558497 -0.0034980942 -0.0035588108 0.0006570623 -0.0014578744 -0.0017636806 0.0012586497 0.0019589942 -0.0030956874 -0.0034739983 0.00024508822 -0.0029228174 0.00090175675 -0.0037927513 -0.0037122916 0.002734604 -0.0023419056 -0.0012658356 0.00088729383 0.002115558 -0.0010658591 0.0025754548 0.0027330695 -0.0019986036 0.0036649387 0.0031678036 -0.00090957206 -0.0020753194 -0.00034884867 -0.0017263873 0.0010669191 -0.00043386527 0.0021982167 -0.0019314452 0.0007437771 -0.0031307735 -0.0027729876 0.0014085558 -0.00029537518 0.0030021535 0.0010403362 0.0026137007 -0.0015569873 -0.0032179884 0.001716756 0.0009732911 -0.0012055323 -0.0032130757 0.0004265432 -0.0031302983 0.00025522718 0.0005480109 0.0019074798 0.0030777701 -0.0010968224 0.0016544941 0.0008269608 -0.001459099 -0.0010697751 -9.6663876e-05 -0.0007941708 -0.0019007698 0.0006556513 0.0010457132 -3.0209483e-05 -0.0014833771 0.0033570237 -0.0027269532 -0.0006034846 -0.0025284374 -0.0030180009 -0.0021839617 -0.0003103679 0.0021001215 0.0027812568 0.0021577203 0.003176188 -0.0032809305 -0.0007898857 -0.0027801883 -0.0037733633 -0.0011937718 0.0022554123 0.0016117633 0.0010871595 -0.0024153206 0.0028338295 0.0016707332 0.0034665014 -0.0019362022 -0.0028763327 -0.003434186
atmosphere 0.0010376205 -0.002626559 0.0022730103 0.0036534993 -0.0036455845 0.002816598 0.0013256454 0.0026700404 -0.0005462894 -0.0027548505 -0.0028990502 0.0005518905 -0.00085128314 -0.002997107 0.0026967218 0.0022459703 0.00037896144 0.00010773583 -0.0038632422 -0.0032262134 2.342016e-05 0.0019263589 -0.0019773159 0.0021282097 0.00014241457 -0.0022212008 -0.0013120056 0.002550287 -0.002061155 -0.0031554715 -0.0035609698 0.0005806087 -0.0003712403 -0.0019087229 0.0020874413 -0.001056935 -0.00095852936 0.0033744425 0.0010143212 -0.0016831375 -0.0005468734 0.0019403255 -0.0020966548 0.0006960588 -0.0018275692 0.00072835584 -0.0012866505 -0.0020069375 0.0030357044 0.0003134305 -0.0015751541 -0.0022469724 0.0016493897 -0.0006087419 0.0023541385 0.002348786 0.0010299003 -0.0012547116 0.00094800274 -0.0023371375 0.0026554835 -0.0027405145 -0.00044008365 0.003596331 0.0020537132 0.00012177155 0.0015389012 -0.0006816745 0.0009472762 -0.0029618265 -0.0022213955 0.0016559758 0.0037475056 -0.0018191756 0.002187065 -0.0036450506 -0.0030489413 0.0019683493 0.00060146954 0.0015988414 0.003187553 -6.7355927e-06 0.0009373893 0.0023730316 -0.00016157693 0.002972141 -0.0018684512 0.00030595658 -0.0009924147 0.0016470366 0.0005769509 -1.8775232e-05 -0.0016064539 -0.0034936317 -0.002147451 -0.00014516868 -0.0011598084 0.0022907578 -0.0034502437 -0.0012000904 -0.0037590526 0.0011558713 0.001606809 -0.0012695473 0.002802852 -0.0033362356 0.00041286426 0.0009766569 -0.0033247296 0.0033577268 0.0011086082 -0.0025227503 0.0017315238 0.003178084 0.00036523057 -0.0006636783 0.0013503651 -0.00015657037 0.0024627533 -0.0010694687 -0.0008718349 0.0016915721 -0.0036508057 -0.0034322299 0.00048122666 0.0005409655 -0.0029433223 -0.001749571
citizen 0.0007630854 0.0036002465 -0.0028692547 -0.001516305 0.00046551152 0.0008085534 -0.0011363397 0.0034276338 0.0023871236 -0.0016608775 0.0037707547 0.0014994338 -0.0021886271 0.0034489431 0.00036037166 0.00059614907 0.002184023 -0.0019747035 -0.0027241914 -0.0005271823 0.003292714 0.0037944207 -0.0023926622 7.318065e-05 -0.0016350189 0.002994679 -0.00024356553 0.00053632824 0.0030564992 2.428749e-05 -0.0028193493 -0.002363459 0.0008763684 -0.0029510008 -0.0026386653 0.0025995106 -0.0036328917 -0.0003271206 0.0012199801 -0.0036216637 0.0031580538 -0.0037498975 0.00055796106 -0.00053733727 0.0013406571 0.0026137512 0.0012119471 -0.001216339 0.0030351987 0.0004280154 0.0014136058 -0.0008726258 0.00084666436 0.003337059 -0.0009862798 -0.00350135 -0.0033856318 0.002955029 0.0018005121 0.003052002 0.003505083 -0.002004375 -0.0020901784 -0.0015234982 -0.003731245 -0.00082296506 0.0007686477 -0.0035898192 -0.0032685318 -0.00064684293 3.9427956e-05 0.0015591863 -0.003522479 0.00019183544 0.003595557 0.0028868893 -0.0032657636 -0.002895208 0.0012187609 -0.00020021088 0.0033168436 0.0007186095 -0.0021635795 -0.0008899184 -0.0005470266 -0.0035365392 -0.0025110783 -0.003777907 0.0012848827 0.0011580974 0.0018378625 -1.5571602e-05 -0.0011926068 -0.0017038714 -0.0022963183 0.0005113228 0.0035605186 0.0033089118 -0.0031457187 0.00064300396 0.001043322 -0.00031426092 -0.000985707 0.0031221954 0.0034559874 0.0001462808 -0.0004004369 -0.0028829647 0.003701661 0.0029913296 0.003538942 -0.0020655317 -0.0021475365 -0.00244274 -0.0036845726 0.002145642 -0.0019278458 0.0021623233 0.0027202028 -0.0011744701 0.0006600845 -0.0033568738 -0.00066508417 -0.0020415315 0.0035853107 0.0015817593 0.0020268129 0.0020853148
plan -0.00039277674 -0.00038756512 -0.0016838722 -0.0013317995 -0.002900194 -0.0020790447 1.710714e-05 -0.0026236202 0.001511994 7.015782e-06 -0.0026907218 0.0017779084 -0.00047750922 0.003338265 0.0020712374 -0.0009976465 -0.0018596749 0.0036796336 0.0013240495 0.00067696854 0.0037971262 0.0024332614 0.0013157311 0.0025081914 0.0033074815 0.0032573277 -0.0015064005 -0.0011752805 0.0028443877 -0.0010391613 3.403283e-05 -0.00021963722 -0.003837292 -0.0007294855 0.0015579542 -0.0027264105 0.0024783534 0.0030597327 0.002946292 0.0013122689 0.003313815 0.0024331706 -0.0012490774 -0.003275 0.00091518386 -0.0030566254 -0.002931523 -0.0021769984 0.00249405 0.0025268232 -0.0025620088 0.0012988609 -0.0032056828 0.0031012823 0.0025644084 -0.00030807318 0.0021693949 0.0037456222 0.002269677 0.00070770754 0.0008437342 -0.002380322 0.0026279015 0.0030713 -0.0008286154 -0.00077087386 0.0010091793 0.00030247233 0.001286193 0.00025447248 0.001565766 0.00105842 -0.0037919602 0.0038286215 0.00057311397 -0.00042637248 0.002508901 0.000100421494 8.4654675e-05 -0.0016374517 -0.002066725 0.0026878861 0.0015906509 0.0012234069 0.00013786231 -0.003098654 -0.0011327447 -0.0013694756 0.002752993 -0.0027061787 -0.00048143158 0.0034802062 -9.978947e-05 -0.00082451664 -0.00011562024 -0.0037553976 0.002280648 -0.0023012748 -0.002360771 -0.0007748973 -0.0016248566 0.002816463 -0.0038811662 -0.001956369 0.0011218438 -0.00094474567 -0.0035296592 0.0020768924 -0.0014407195 0.0034370746 0.0021850495 0.0023491925 0.00075003353 -0.0009524493 0.0029301082 -0.00016847503 0.0021314353 -0.0029398992 -0.0014678718 -0.0024400146 0.003323851 -0.0030860566 -0.0032991397 -0.0003740266 -0.00035485876 0.00089692284 0.0009342288 -0.00058311515
surface 0.0030470344 0.0018387169 0.0021221717 0.002683719 -0.0037038028 -0.0029592174 -0.0011602746 -0.0009544027 0.0019470893 0.0038230836 -0.0010909169 -0.0018183172 0.0010865253 0.0018953555 0.0020445222 2.025631e-05 0.003875662 -2.8363498e-05 0.0013544621 -0.0031165169 0.0026735286 -0.00029864785 -0.0035998959 0.0015995338 0.00069054414 -0.0018131539 -0.0017934683 0.0025849468 -0.0033615641 0.0036248215 0.0016671716 -0.0010483585 0.0022719887 0.0010597317 0.0028721853 0.0010759186 -1.17956715e-05 -0.003240713 -0.001996377 0.0034682492 0.0026213203 0.0025189386 -0.0027582361 0.0029575187 -0.0020475436 0.0017806778 0.003162408 0.0027873958 0.00038311884 -0.0036446129 -0.002768083 0.00029199498 0.0016601144 -0.0009347717 0.00079184526 -0.0005994469 0.0016962183 -0.0007657197 0.003306155 0.0012868546 0.0034826833 0.00065850595 4.049576e-05 0.0006347525 0.0025965995 0.0017715667 0.0017622326 -0.0015478183 -0.0009767915 -0.0013083735 -0.0013923863 0.0026453584 -4.3798344e-05 0.00065673713 -0.0008296443 0.0038814112 -0.0012596429 -0.002292473 -0.003002738 -0.0019480367 0.0034813357 -0.0023297921 0.0016184954 -0.00032088367 0.0033606058 -0.001608978 -0.0004968346 0.003125313 0.0019385814 -0.00021700082 -0.000959465 0.0014413144 0.0008604245 -0.00057708076 0.0007712214 0.00011345143 0.0028792068 0.0036743863 -0.00022655286 -0.0032436547 0.0014181016 0.00086584076 0.0015272615 -0.002275964 -0.0024751604 0.0035001338 0.0035067445 -0.0025678177 0.0014823566 -0.002054417 -0.0010455786 0.0009011297 0.0033068873 -0.0015712719 -0.0038849865 -0.001626166 0.0023653253 -0.002593605 -0.002571425 -0.00015523564 -0.001314982 -0.001285303 0.0010162934 -0.00056707347 -0.0027568857 0.00206431 0.0026293963 -0.003348282
lawyer 0.00093509135 0.0009499912 0.0028015627 6.9792084e-05 -0.0032555684 -0.0016152889 0.0010993928 -0.002170217 -0.0017876166 0.0035375275 0.002391501 -0.0032399117 -0.002586785 -0.0003931192 -0.0008176718 -0.0006726637 -0.0037778437 0.0015139204 0.00072874705 -0.0025942933 -0.0023248836 0.001429394 0.0032491824 -0.0019500926 0.0034534817 -0.0012291075 -0.00059864786 0.0015763359 0.0031054695 0.0022120618 0.0010185315 -0.0015105064 0.0011612318 -0.0020627098 -0.0017322174 -0.0005289236 0.00029240747 0.0031345098 -0.0030368734 0.00040356422 -0.001986391 -0.0012393568 -0.00062592526 0.0018779056 -0.0010049054 0.0006020923 0.0036856642 0.0004696653 -0.0017902532 0.001912065 -0.00028258175 0.0006395358 0.0020096947 0.00023241561 0.0016352338 -0.0019872934 0.00044699782 0.00077532907 -0.0022428532 0.0015876726 0.00027296031 -0.0023112549 0.0027375834 -0.0036544164 0.00021399112 0.002213869 -0.003531441 -0.0031953736 0.0011421395 0.0014314513 0.0013366117 0.0010088349 0.00011103159 -0.0019206261 -0.0029364114 0.0032484697 0.002398747 0.0038923065 -0.00036895231 -0.002945077 -0.0013733959 0.0010502202 -0.0038842934 -0.0035154496 0.00046971484 0.0027158782 0.002410699 -0.002489863 0.0027435403 0.003216565 0.0034684003 0.0025955292 -0.0016470802 0.0013197407 -0.0016564452 -0.0017762545 0.0023198444 -0.00032297778 0.0027979526 0.0037872947 -0.0027382062 -0.0012019954 -0.0024409129 -0.0027341156 -8.348804e-05 0.0028311233 -0.0010775421 0.0029469575 -0.003732261 -0.0017771125 0.000100165234 -0.0018093169 -0.0034160158 0.0020925836 0.0014496192 0.0033181338 0.0027330872 -0.0038578883 -0.0033544432 -0.0018575637 -0.0025823119 -0.00017977807 0.00037272068 -0.0037852763 0.0032788324 0.003850677 0.00019296866 0.0020107583
senate 0.00116837 5.6915138e-05 2.7537395e-05 -0.0008477397 -0.0031107059 -0.0013404866 0.0005968556 -0.0020888506 0.00042383993 0.0030324596 -0.0027778465 -0.0031649743 -1.2782054e-05 -0.0019100588 0.0038920755 0.0016803948 -0.0022742145 0.00041784867 -0.0012516415 0.00020597973 -0.0030483592 -0.0022333004 0.001266283 -0.00085676747 0.0034635328 -0.0030214274 -0.003266055 0.0008946951 0.0019793585 -0.003192208 -0.0034648704 -0.00045884933 -0.0033103467 -0.0023384704 -0.00071378204 0.0007583821 0.0036475973 0.0033257066 0.0019581958 -0.0026336482 -0.0035830461 0.0027414598 -0.0010241435 0.0020222878 -0.0036742256 -0.002786504 0.0039054705 -0.0019749645 0.00271908 0.0027508154 0.0013562819 -0.002115371 0.0007667849 0.0024695138 -0.002343427 0.00028529562 -0.003306544 0.003672927 -0.0035888103 -0.0035584639 0.0027991978 -0.0028698407 -0.0011274193 0.00067525054 0.0014509845 -0.0002048984 -0.003552008 0.0029182336 -0.0005232259 0.0035113872 -0.002959524 0.0010761503 -0.000586686 0.0028694847 0.0004636206 0.003464147 0.0035087946 -0.0036598532 -0.0019554016 -0.00013745356 -0.0020293894 -0.0030660061 0.0009390428 -0.002223923 0.0008068924 -0.0035565298 -0.0008724291 -0.0012122076 -0.0018532373 -0.0035747602 0.0016060494 0.00283353 0.0013324047 -0.0016577841 0.0017503187 -0.0003456773 0.003375976 -0.00050972885 0.003567779 0.0009980031 -0.002549064 -0.0029833403 -0.0029778332 0.0021095905 -0.0009555089 -0.002365811 0.0013660397 -0.00031864978 -0.0032341282 -0.0034852843 0.0024117783 -0.003441056 0.0010742573 -0.0023630005 0.002797734 0.0033735274 -0.0030775564 -0.0035603938 0.0012643009 0.0035223255 0.0014908417 -0.0015510696 4.203265e-05 -0.0028895692 0.0008036054 -0.000719379 -0.0018042466 -0.0023260976
graveyard 0.0024181958 0.0013838739 -0.002787527 0.0030626412 -0.002992103 0.00090916775 -0.002559891 0.0007417789 0.00068609515 0.0033618496 0.0036487342 0.001388474 -0.0038366448 0.0037891278 -0.0008351344 0.0023858056 -0.00016038418 0.0013603888 0.0033306547 0.00095210137 -0.0014314667 0.002904321 0.00022529982 -5.7180107e-05 -0.0034821127 0.0014596981 -0.001278007 -0.0032385215 -0.0020954956 -0.0039003566 -0.0013983654 0.0016267401 0.00039967027 -0.0009480834 9.981977e-06 -0.0008150571 0.00047460734 -0.0023509825 -0.0033715907 -0.0012117882 -0.003494807 -0.0033722532 -0.0015307672 -0.003429712 -0.0030775385 0.00048638985 -4.0494557e-05 -0.0031294941 -0.0017102553 -0.0019717654 0.0038717014 0.002602007 -0.0023096965 -0.0015880003 -0.0027967687 -0.00046511265 -0.002623649 -0.0015908987 0.0008300073 -0.0003399805 0.0028847957 0.0016716742 -0.00039207836 -0.0012363772 -0.0019120357 -0.0012111792 -0.0027467278 0.00131005 -0.0025790504 -9.618516e-05 0.0023675452 0.00019642286 0.0011443491 -0.0013738247 -0.0034813434 -0.000562825 -0.0016759089 -0.0025380554 0.0035431148 0.0011960221 0.00045465244 -0.00034809404 0.0026703565 0.0014079186 0.0012938664 -0.0005569556 -0.0021967816 -0.0011995079 0.0026348748 -9.396565e-05 -0.0016028987 0.0017783529 0.00026643358 -0.00064854784 -0.0013861872 -0.0017626211 0.0024339508 -0.001033283 0.00049939874 0.0007869533 -0.0022683025 0.0003229192 0.001164388 -0.0009109693 0.0016526954 -0.0036083004 0.003068797 0.0017088812 0.0012780342 -0.0024695355 -0.0015513048 -0.0021570493 -0.00023560108 0.0022901546 0.0017508706 0.003198556 9.5042094e-05 -0.0026084825 -0.0017560882 -0.0037579595 0.0026053041 8.910755e-05 0.00093267957 -0.00062171445 0.0012371117 0.0035749285 -0.00017942632 0.0028118144
seepage -0.0020774975 0.0028184168 -0.0010750635 -0.0038891332 -0.00046720743 0.0020475928 0.0030193145 -0.0017536161 -0.0027481113 0.00039159573 -0.0010900336 -0.0014944926 -0.002151203 0.0035999895 -0.0018254753 -0.0022128401 -0.0024016628 -0.0017123761 -0.00019387135 -0.0015980318 0.003269895 -0.002429571 -0.00011709684 -0.0037920391 -0.00055740494 -0.0034026965 -0.0019538288 -0.002584935 0.0023560168 -0.00089909026 0.0009921207 -0.00015204964 0.00095360575 -0.00081037544 0.0015899974 0.0007599951 -0.00042194116 0.002841579 0.00045012636 -0.0028228285 0.0034170959 -0.0035755713 -0.0026547147 0.0031866154 0.0038304604 0.0007280892 -0.0011229214 0.0009111987 0.0005579363 -0.0012437067 0.0008749103 0.0006449121 -0.0027972658 0.0016694093 -0.0028556483 -0.002924201 -0.0012488054 -0.0032628214 -0.0014526062 -0.0032271964 0.0014365311 0.0012791132 0.0022742455 0.0008855709 0.00067278853 -0.001055283 -0.0006678338 -0.00056847994 -0.001331548 -0.0020228205 0.0004903967 -0.0028126633 0.003230342 0.0035522922 0.0026880887 -0.0021133434 -0.0029961646 -0.0015516119 0.00031663434 0.0001815049 -0.0011302222 0.00043358302 -0.002925014 -0.0027654143 -0.0005925973 -0.0016048921 0.0027660257 -0.0015863884 0.003751563 -0.0022798383 0.0038376795 0.0007289339 -0.0009550783 0.003213549 -0.0005123681 -0.0024937317 -0.0010408725 -0.0027896785 -6.2980434e-05 0.0037294426 0.0012290009 0.0036027075 -0.0025082 0.0022398068 -0.0034612697 -0.0013633316 0.0031285249 -0.00039907199 0.00033730615 -0.0014676282 -0.0038648706 -0.0018247097 -0.00159163 -0.0025744354 0.002977323 -0.003397287 0.0034805834 0.0037231555 -0.0036152026 -0.0029153172 0.003367518 0.002928007 0.0038584063 0.0023454023 -0.00012937801 0.0013647645 -0.00032768183 0.0019216829
inmate 0.0026556223 0.0033736995 0.0019567101 0.0011060432 -0.0029926815 0.003520529 0.00288809 -0.002103321 -0.003725194 -0.0028641934 -0.0013073545 0.0038233441 0.002150362 0.00045679384 -0.0011925758 0.003287441 -0.0013425864 0.00081373926 0.002632309 0.0035497614 -0.003450905 -0.0017259928 0.00027094403 0.0027006043 -0.0003040999 0.0009467119 -0.0021376766 0.0003523806 -0.0002475408 0.0011635034 0.0010870239 -0.00023402098 -0.00092791626 0.0013547284 -0.0006205142 0.0014647203 -0.00018877971 -0.0022732762 -0.0013658013 0.0032168375 0.0034321742 0.0025485614 -0.0023491227 -0.0029466534 -0.003482639 0.00017489858 0.0029712657 -0.0016684587 -0.00059514755 -0.0027024793 -0.0012593288 0.0004876895 0.00049581844 0.0018155572 -0.0036031608 -0.0021159006 0.0017400052 -0.000344449 -0.0037084613 0.00051375607 -0.003682269 0.003663898 0.00014878952 -0.00043841705 -0.00044672895 0.000616732 -0.0010107966 -0.00060932455 0.0033456746 -0.0015465391 -0.00015477529 -0.00074478413 -0.0035285347 -0.0032285454 0.0033762113 -0.0019463826 0.0032471009 0.0020696076 0.003262647 -0.00084722537 0.0004066148 0.0029672354 -0.0018726342 0.0021720317 -0.0021983543 -0.0027797143 0.00059306284 0.002214987 0.00328502 0.0036879112 0.00024599503 -0.0038111815 -0.0024397695 -0.003254776 -0.0028530075 0.0013489441 0.001891948 -0.0008481341 -0.0005067673 -0.0033104012 -0.001885344 0.0022859918 0.0032597731 0.0034852766 0.0019859334 0.0011322479 -0.003837458 0.0025106343 -0.0007883132 0.00095851073 0.0016754844 -0.00054342725 0.0035255388 0.0023134807 0.0006710111 0.00023689657 -0.00059372437 -0.00039861546 -0.00013671402 -0.0019318304 -0.0031936122 0.000748276 -0.0008163075 0.0031796403 -0.0008570963 0.00039492006 -0.002373764 -0.0002859615
space 0.0036573648 -0.0030538184 0.0007711439 -0.00054995803 0.003808318 0.00078765984 0.00025279683 0.0029960554 -0.00032912687 0.0019262135 -0.0038524463 0.0038950033 0.0013890811 -0.0031772288 0.00172001 -0.0022859839 0.003572514 0.0013149636 0.0036749023 0.0019889048 0.0023470277 0.0031272855 -0.003517992 0.0015968677 -0.00073605956 -0.0001355956 0.0018936542 -0.0034246794 0.002250536 -0.00020982718 0.002001759 -0.0029981732 -0.0035872853 -0.0030321402 -0.001905201 -0.001374672 -0.0038962448 -0.0028097813 0.0034773208 -0.0037683675 0.0036476734 0.0025904898 -0.0016072255 -0.0024605049 -0.0016940641 -0.0033113053 -0.0027475783 -0.00013676907 0.0001583436 0.0013538895 0.00065918936 -0.003542439 0.0014006363 -5.2797594e-05 0.0009819224 0.00022490956 0.0032323305 -0.0025750964 -0.0019720097 -0.0035030742 -0.001430585 -0.0027059254 -0.003247679 0.0008130932 -0.00086412893 0.0012661994 0.0015672059 -0.0037564936 0.0030183492 0.0029776962 -0.003393211 -0.0034767932 0.003390077 0.0021744715 -0.00051520666 0.0031546452 -0.001049025 0.00023404683 0.0012001425 0.003450433 0.0005951591 0.001647396 0.00079763134 -0.0007409071 0.0009495002 0.003416216 0.0009771205 -0.0010614566 0.00096948794 -0.0034910468 0.0022201396 0.0005865444 0.0024007773 -0.0035192424 -0.0021526488 -0.001305088 0.0020532445 0.0028077709 -0.00080276554 0.0005920259 0.0006510903 0.000717639 -0.00034833298 0.0002228929 0.0019520012 0.0023753576 -0.0005963376 -0.0014884842 0.0024678526 -7.059893e-05 2.5017632e-06 -0.00091992173 0.0010577306 -0.0010059989 -0.0005725786 -0.0012625499 0.0022082666 0.0032063765 -0.002944271 0.0003493005 -0.0013867595 -0.0013047018 0.0030452295 0.00059849024 -0.0021169146 0.0035079867 0.0024647198 -0.0033459042
history 0.0026372527 0.002151294 0.00232175 0.0019171431 0.0032874318 -0.0013051429 -0.0026449906 0.0012523815 -0.003162108 0.0017855961 -0.001563942 -0.0010510726 0.0037454101 0.00016703746 -0.0018519713 0.0019710248 0.00140104 -0.0013041366 -0.0001999471 0.0031580953 0.003207589 0.0019043661 -0.0024100267 0.001138944 -0.0036803382 -0.00252221 -0.003128558 -0.0017491806 -0.0018855671 -0.0008708359 0.001183621 -0.0014487485 -0.0017169528 0.00014875224 0.0031653647 0.0006439176 0.00090685574 -0.0020360348 0.0016466951 -0.0012750892 0.0017892282 0.0038504936 0.0022360769 -0.0033012403 -0.0038906983 0.002660875 0.0025552276 0.0020870585 0.0015233952 0.0011180205 0.0019495632 -0.0006716101 0.0004426655 0.00037608147 -0.00035618452 -0.0033235168 0.00061900244 0.0033374361 0.0022507664 0.001442245 0.0019477659 0.003271712 0.0025180443 -0.0008489591 0.00031804692 -0.0011717475 -0.0005676432 0.0016848675 -0.0015799169 0.002841275 0.003494644 0.003766552 -0.001946407 0.0016899483 -0.003089202 0.0013111957 0.0027088083 0.0024028257 -0.002200585 0.0013781299 0.0032923773 -0.0022755198 -0.0015650028 0.0028716247 -0.0007281542 6.6518325e-05 -0.0025527112 -0.00048556871 -0.00351775 0.0017311075 0.0012751648 0.0037016904 0.0016226714 0.001057711 -0.0035083895 0.0012915095 -0.0031482785 0.0035818918 0.002937914 -0.00028453127 0.0014738586 -0.00014924655 -0.003830723 -0.0023381892 0.001193727 0.003216549 -0.0016617994 -0.0021477519 -0.00027957442 -0.00048245603 0.0025307396 0.001563616 0.003437308 -0.0002224871 0.0036812632 -0.0017374764 0.0023389722 0.0021490555 0.0025813119 0.0013940602 -9.048326e-05 -0.00086779654 -2.9011477e-05 0.0030901132 2.047924e-05 -0.0004044292 0.0019956366 0.0007198338
preparation 0.002189964 -0.00043357952 -0.00046789405 0.0024061496 0.0031722886 4.6551804e-08 -0.00054835423 0.00021860415 0.001867052 -0.0019760341 -0.0016238418 0.0022262596 -0.00040029307 -0.0017788196 -0.0028081867 0.0037594447 -0.0013106766 -0.00050352194 0.0005150616 -0.0029048042 -0.00371127 -0.0009734725 -0.0004676954 0.0016738869 -0.0020586462 -0.0009227111 -0.0020815034 -0.0015382058 0.002657594 0.003200714 0.0023578384 -0.0018988946 -0.0025767218 0.0025277562 0.001124547 0.0008290577 -0.0007772544 -0.002610384 0.000983985 -0.0036026526 0.0028716133 -0.00032680877 -0.0035763888 6.325996e-05 -0.0029470634 -0.0007559693 -0.00022691104 -0.0015218909 -0.00056297163 0.00093192986 -0.0031746838 0.0025772788 -0.0024461509 0.00027156444 -0.00019276199 -0.0021570614 -0.0014208779 0.0025584558 0.00076330965 0.0012462961 -0.0018680047 -0.0035042476 0.000949971 -0.002858936 -0.0023631675 -0.00038213673 0.0017100002 -0.0015561392 -0.0034455012 0.00034525356 0.0028569652 -0.00062475546 -0.001826757 0.0013434276 -0.00078507204 -0.0036253456 0.00032137867 -0.0019765382 0.0038564207 0.003886917 -0.0019904652 -0.0033220826 -0.0035666013 -0.0027444502 0.0014945065 0.00046140896 0.0034083917 -0.00016963446 -0.0035009973 0.0015003632 -0.0017844585 -0.0031402467 -0.0020527376 0.0010648991 0.0003045595 0.0012934537 0.00065745617 0.0009830836 -0.0024811977 0.0010877764 -0.0028722086 0.0034798745 0.0022817971 -0.00211095 0.0024605286 -0.0007067003 -0.0022872468 -0.0038690409 0.0019169901 0.0021303517 -0.0014787862 -0.00033672314 -0.0034799506 0.0011558338 -0.0011657584 0.0022933749 -0.003664135 0.0033873562 0.0026047896 0.00041755536 -0.0011910863 0.0013946203 -0.002343291 0.003902496 0.003116051 0.0004823115 -0.001623718 -0.00069564703
crew -0.0026562284 0.0021298763 -0.002669344 0.0031641265 0.0034594755 -0.0010060248 -0.0033130124 0.0037294133 -0.0008218463 0.0017285307 -0.003147939 -0.00072912464 0.00088334776 -0.0021879752 -0.0032995085 -0.0037378946 -0.0021365304 -0.0023019796 -0.0026296794 0.0013992321 -0.0010908482 -2.2681132e-05 -0.0030884212 0.0036615506 -0.0026959549 -0.0009417338 -0.001700187 0.0021232225 -0.0008215394 4.789663e-05 0.0012289556 0.001949956 -0.0038627624 0.0020637964 0.0028910332 0.0012485714 0.0005440717 -0.002746248 0.00027032712 0.0002961808 -0.0034667258 -0.00053703116 0.0019586843 0.0017163699 -0.0024458522 -0.0008026432 0.003585784 -0.0019738812 -6.744034e-05 -0.0030833778 0.0030969554 -0.00040620696 -0.0038104772 0.0006111592 -0.0033163005 0.0038080816 -0.002130818 0.0035401043 0.002296468 0.001644919 0.0015548632 -0.0027685682 0.002983596 0.0013029509 0.0016768407 0.0004301001 0.0014173967 -0.0014789728 0.002029611 0.0018035264 -0.0036570036 -0.0012414268 0.003809268 0.0003148782 0.0038846857 0.0005991227 -0.0032716133 -0.00381101 -0.0016909747 -0.0017218221 -0.0009421083 0.0027776784 -0.0032653098 -0.003552562 0.0011108265 0.0014253847 -0.0018942947 0.00119291 0.0016129231 0.0006160462 -0.0013873642 -0.0024730011 0.0014358613 0.0036915175 0.0011545464 -2.6442965e-05 -0.0012157507 -0.0018651738 0.0005419679 -0.00093902694 -0.0012722475 0.0029478604 -0.001007418 0.0034463708 -0.0024570215 -0.0019097643 -0.00020780897 -0.0036677886 -0.0021587932 -0.0008043689 -0.0028905557 0.002111294 -0.003063513 0.0012236929 0.0021587494 -0.0035279964 0.0026817643 -0.0014618384 0.0026587152 -0.0005179308 0.0019869132 -0.00094859226 -0.0016357593 0.0030703167 0.001832011 -0.0036969502 -0.0028024197 0.0016459305
round -0.00012783051 0.0015003008 5.8161764e-05 -0.002539984 0.0029498602 -0.0009082145 -0.0024404796 0.00073626905 0.00036134216 -0.003562172 -0.0021817863 0.0019037052 -0.003359815 0.0021116685 -0.0021860707 -2.4204308e-05 -0.0018936414 0.0031309202 -0.0016690205 -3.7097238e-06 0.002660048 0.00027263322 0.003703727 0.0013465182 -0.00062957517 0.001602921 0.0029528681 -0.003773039 -0.0013079683 -0.0032335622 -0.002728479 0.00092648214 0.0010629504 0.0035261696 -0.0020806617 -0.0006721736 0.000750263 0.0013703627 0.00021030648 5.007062e-05 0.0035660018 0.0034361107 -0.0006766037 0.0017881362 0.0003255772 0.0005671632 -0.0017990139 -0.003368373 -0.0032147472 0.00019613997 0.0013787556 0.0013374499 0.0020820405 -3.466621e-05 -0.0019603076 0.0033457032 0.0031650562 -0.00036418307 0.0031273693 0.0010488488 -0.001568668 0.0014310639 0.002286171 -0.003608206 -0.0025111216 -0.0031704244 -0.0011956607 -0.002041774 0.0024096842 -0.0026576677 0.0019714667 0.00069863803 0.0038503741 0.0007847808 0.00089158956 -0.0009969898 -0.0021123122 0.001756873 -0.0012611605 0.0018918451 -0.0009303423 -0.0012626327 -0.003408892 0.0011762431 -0.0031880452 -0.0013430017 0.0027895689 -0.003485884 -0.0030136171 0.0009990985 0.0004946678 0.0027637884 -0.0020480955 0.0021687518 0.0028831332 0.0018680354 -0.002838105 -0.002295844 -0.0024041492 0.0029968645 -0.00091322477 -7.6985045e-05 0.002248545 0.001094378 -0.0033879625 -0.0011590284 -0.0015655109 0.0014290692 0.00079312205 0.0010767729 -0.0027300846 0.0009864508 -0.00079311465 -0.001246114 0.0017526975 -0.0007082574 0.0011433939 -8.612064e-05 0.0031126062 -7.791395e-05 -0.002787524 -0.001502597 -0.0015783398 -0.0026795424 -0.0035185313 0.0025105951 -0.0010219825 0.0028165008
egg -0.0013225041 -0.0035581533 9.56863e-05 -0.0005180851 0.0010119962 0.0027801192 0.0027237453 0.002785618 0.00053172983 0.0037304147 -0.0028274555 -0.00043475447 0.002218722 -0.00027494962 0.0019370514 0.0025373797 0.0035696707 0.0030640517 0.0018104628 -0.003599825 -0.00010122275 0.00031800361 -0.0029933958 -0.0010297088 -0.0027629274 -0.0010887106 -0.000810821 0.0017446635 -0.0013875673 0.0031610199 -0.00011133138 0.0028751001 0.0021568176 0.000648838 -0.0014499696 0.002961174 -0.0038368758 0.0024523933 0.0032705592 0.0016340171 -0.00090755103 0.00048256508 -0.0031416484 0.003230406 3.664601e-06 0.0025684673 0.0012921814 0.0038443722 -0.0016225005 -0.0023843092 -0.003829855 -0.0015184373 -0.001607202 -0.0026772746 0.00043368948 -0.0037976897 -0.00385388 0.002999564 -0.0038352932 -0.0018265822 -2.5475247e-05 0.0014510354 -0.0007289918 -0.00074359815 -0.000987134 -0.0014929541 -0.0006718314 -0.0009429257 0.0011383826 -0.0032231559 0.0023430486 0.0017847678 0.0035144363 -0.0010080674 -0.0035786864 -0.0020286636 -0.0028202382 -0.003646041 0.0026858023 -0.0009581334 0.0024921494 0.0032192648 -0.0002460943 0.0012329232 0.0028050053 0.0032102189 -0.0009044112 0.0033471147 0.0034637477 -0.0033529678 -0.00026549766 -0.0008331203 2.8598703e-05 -0.0016530063 0.0011350511 -0.00384986 -0.0015042697 0.002909442 -0.0018372544 0.0038386458 0.0022471303 0.0020549395 0.00041185072 0.0036241512 0.00049056904 0.0023620834 0.0023983459 0.0012603898 -0.0023730502 0.0036278954 0.002229581 0.00048621834 0.0006976297 -0.0017604157 -0.001119929 0.0011705902 -0.003605148 -0.0003256363 -0.0008455297 0.0024456838 0.0007881457 -0.000101097285 0.0016663051 0.00307515 0.0006802983 -0.0033758902 0.0010323249 0.0019136494
term 0.0037177736 -0.0011691026 -0.00014932078 0.0008526265 -0.0025965697 0.00011017968 0.0030960336 0.0018630922 -0.0014072636 0.0013662725 0.003423733 -0.0026786032 -0.0021998195 -0.0025083357 0.0017739926 -0.0027506736 0.0032187148 0.0016713109 0.00010897921 -0.003171925 -0.001761896 -0.003511727 -0.0017475953 0.0013821268 -0.0004914077 0.00036706915 0.00010750776 -0.00030356614 -0.0012134572 -0.0030156616 5.465815e-05 -0.0015900548 -0.0012703763 -0.0005670013 -0.00030976156 -0.0034822894 -0.0007008363 0.0026912228 0.00052415265 -0.003458983 0.0035107008 0.0036520327 0.003878433 0.0024388481 0.0023345884 0.0027808484 -0.0018702584 0.001655372 -0.0018994884 -0.00037973403 -0.00087879837 -0.00090908824 -0.00096330204 0.0017104587 0.0012324395 0.0034281816 0.0018108807 0.0011103427 -0.0016936831 0.0031647903 0.003030479 0.0031970707 -0.001109428 0.003231181 0.0028918493 -0.0009486866 -0.0022726196 0.0020306245 0.002546855 -0.0026802197 -0.0035177576 -0.002932817 0.0018627818 0.0013280893 0.0036809982 0.0005370558 -0.00011488828 0.0036957532 0.0033269261 -0.0024075136 -0.0015138999 -0.0024537176 -0.0025158508 0.0009558496 -0.003192981 -0.001467987 -0.0013563883 0.0013934803 -0.00080415857 -0.0036403784 0.0006313477 -0.0038014941 0.0017263473 0.003083832 -0.0027831213 -0.0022491259 0.0038206938 -0.00012031254 -0.0024053862 -0.0038421338 0.0015657163 0.0013743928 0.0011667763 -0.00094043417 0.002235741 0.0021239836 0.00080289005 0.0016547672 0.0020022749 -0.0011311895 0.0021788862 0.00222289 -0.0013264341 -0.00017058196 -0.0028884574 0.0019515014 -0.0015777157 0.00015679027 -0.0009538111 -0.0027391168 -0.00023500572 0.0008540139 0.002952224 -6.843872e-05 0.00041363324 0.003028647 -0.0015545745 -0.003609911
life 0.0031037396 0.0005503702 0.0007211305 -0.0019854764 -0.00034243203 -0.001704402 0.0027009859 0.0014698221 -0.00071494613 -0.0014306349 -0.0004996395 0.0037210968 0.0022614796 -0.0028320572 0.002295175 0.002167359 0.001613335 0.002332256 -0.0033921504 -0.00031744174 -0.0018019394 0.0023152942 0.0027216647 -0.0012757296 0.003422474 -0.000549561 -0.0006241016 0.0035795239 -0.0036831554 -0.000421818 0.0014761463 0.0013551617 -0.000337262 0.001273058 0.0010728107 3.839592e-06 0.0031539048 0.0023324455 -0.003470298 -0.0037620643 -0.0026890857 -0.003357557 0.00025982244 -0.0028225065 -0.0022109002 0.00026920557 -0.0008943848 0.0033160544 -0.0015448317 -0.0010783349 -0.00048731337 0.00087669113 -0.0006214521 -0.00048436198 0.0024256413 -0.00243262 0.0019044643 0.003491863 0.002119358 -0.0009192872 0.0038963428 -0.0021951692 -0.00097140577 -0.00062148453 0.00092641363 0.003287013 -0.0032105225 0.0001423589 -0.00055729534 0.0030085228 0.002556753 0.0024236448 0.0025062454 -0.0018341566 -0.0024197751 0.0033288633 0.0029425346 -0.00058914354 0.0032385765 0.00065094524 -0.0009113923 -0.0027189476 -0.002900387 0.00012561993 0.00023932548 -0.003037359 -0.0034973226 -0.0028052775 0.00046754908 0.003245997 -0.0010043783 -0.00073563185 -0.002557847 0.0019272882 -0.002795331 -0.0030417873 -0.0036814208 0.0015169969 -3.0125868e-06 0.0012389743 0.0006804011 -0.00063026184 -0.0004819767 -0.0034643053 -0.0012424282 -0.00037634568 0.0037029574 -0.0005817834 -0.003286478 0.0011137887 -0.0034907346 0.0023956725 0.0017773814 -0.0020368206 -0.0019371482 -0.0003033191 0.00022299225 0.0025852404 -0.0018637478 0.00212894 0.0017667495 -0.0003407743 0.00047395847 -0.0029451763 0.00025984907 0.0034278538 -0.002219884 -0.0031043375
withdrawal -0.0018800207 0.001488966 -0.00027899674 -0.0001739104 -0.0029048477 -0.0024545256 0.0030789222 0.003048103 0.00012547438 -0.0030171855 0.0031894706 0.00025957378 -0.00041716383 0.0034319467 0.00048241485 -0.0014824194 -0.00026548537 0.0022986694 -0.0020718316 -0.0003472801 0.0013286999 0.00058643695 -0.0026088206 0.0028114682 -0.00030189854 6.1062374e-06 -0.001601881 0.0037861564 -0.003767125 -0.0009599397 -0.003150089 -0.00036881925 -9.242185e-05 0.0031961352 1.0730249e-05 -0.0037560582 0.003460752 -0.00043943207 0.0022737929 0.0014262184 -0.0026114392 -0.0031972555 -0.00095763284 0.0020857875 0.0033876342 9.655248e-05 0.0003634211 -0.00036934417 -0.000787801 0.00021006695 -0.0024974074 0.0029062564 -0.0028392512 -0.0020365587 0.002240899 0.002060956 0.0017546144 0.0024103357 0.003594672 -0.0005720663 -0.0021841933 -0.00046927616 0.0001629938 -0.0035403424 -0.0035047769 -0.0006538362 -0.0022856898 0.0034372571 0.0024530778 0.0005413769 0.0024739204 -0.0031298785 -0.0033213517 -0.0037759752 -0.0011723081 0.0026759312 0.0027024753 0.0014080006 0.0010729785 0.002708696 0.00023098591 -0.0011146542 -0.0036945737 -0.0012449906 0.0020459604 -0.0032845142 -0.002091714 0.0021245664 -0.0031902127 0.0015612113 -0.0006249493 -2.9681403e-05 0.00041179726 0.002820908 -0.0023256643 0.003254327 -0.0019409355 0.0019186592 -0.0034192367 0.0036345113 0.0027498808 -0.0019118502 0.0017488559 0.0038750644 -0.00041721374 -0.0013002595 -0.0018759983 -0.0005170012 -0.0008575292 0.00085625966 -0.0006801474 0.00037242557 -0.0026706385 0.0024583177 -0.0035073233 -0.0009286385 5.273589e-07 0.002275442 -0.00060436764 0.002408099 -0.003760289 -0.00015817228 -0.002161183 0.00019979345 0.0025060282 0.0013828385 -0.0022959977 0.0019936573
series 0.0015957621 0.0037140807 -0.00022933868 -0.0017771914 0.000393281 0.0017512769 0.003686237 0.00046572433 0.003705675 0.0009668946 -0.0013912197 0.0018960199 -0.0032185896 0.002811873 -0.0022261578 0.002609003 -0.0021554166 -0.0017277787 -0.0009048357 0.003106834 -0.0008335167 0.0011500615 -0.0035938814 -0.0026322005 0.0003421293 0.0026629288 -0.0029531594 0.002169592 0.0032974684 0.00090556685 -0.0003321884 -0.001291728 0.00022744176 -0.0025455437 -0.0033619744 0.0037865646 0.0037953665 0.0023036632 -0.0039015948 -0.00013405633 0.00019026238 -0.0024866846 0.00037805454 0.0031000474 -0.0011418371 0.0038144882 -0.0037881567 -0.003563125 0.001788754 -0.0019840805 -0.001919213 -0.001109333 -0.0038141191 0.0012064355 0.0013325082 0.0008785429 -0.002129333 -0.0012404271 -0.0014645343 0.002106105 -0.0018365004 -0.0038920017 -0.0010495966 0.0013410061 -0.0037009635 0.0011834108 0.00074116327 -0.003581365 -0.00094707595 -0.0032434263 -0.00031750393 -7.819753e-05 0.0025580123 -0.0014509578 -0.00070337637 -0.00012050798 0.003191698 -0.0029640738 0.0023923644 0.00044780146 -0.00041387405 -0.0029127572 0.0016968267 0.0021299112 -0.003824994 0.003328228 -0.0016846792 -0.00050412334 -0.0002807029 0.001026324 -0.0024578173 -0.0009652441 -0.0034725466 0.003781643 0.0021090053 -0.0036902672 -0.00080612 -0.0028753802 -0.0026926072 0.0023379524 -0.0035530482 0.0019734453 -0.0023132935 0.0026120106 0.002298565 -0.0032859626 -0.0007150687 0.0020512207 0.003723678 -0.0012823237 -0.00071171 -0.00033509 -0.0023543092 -0.0025774136 -0.003220049 0.0036311557 0.0025042964 0.0016017405 -0.0011980617 -0.003518162 -1.8514153e-05 0.0010084943 0.0011292647 -4.4944686e-06 0.00039949504 0.0016009533 0.0019136601 -0.00015225004
liability 0.0012521066 0.00015923622 -0.0025177612 0.001981958 -1.19562e-05 0.0030779925 0.0018837486 -0.0013804298 0.0022962887 0.0011105487 -0.003860007 -0.0030439463 0.0028236972 -0.0018798634 -0.0017872809 0.0032358267 0.0019223124 -0.0007348467 -0.0018603631 0.0029711376 0.0013780409 0.00041132563 -0.0014292997 0.0038516226 0.00048192544 0.0031941792 0.00030528748 9.4268726e-05 -0.0034618 -0.003850532 0.0005076241 0.0026809168 -4.1549996e-05 -0.0015076424 -0.00085096405 0.0021255456 -5.4667726e-05 0.0014731454 -0.0019143183 -7.415655e-05 0.0012283291 -0.0019559914 0.003176331 0.0022137682 -0.00048536566 -0.0035044067 0.0018111977 -0.0003786663 -0.002100653 -0.0031678255 -0.0034917835 0.0013244887 0.0003750685 0.00051957363 0.0017102064 -0.0036432168 -0.0013290008 -0.00069748313 0.00046862 0.002580997 0.0025990752 0.0037364126 0.0027784507 0.00065312075 0.0010730457 0.0020997142 0.0014065788 0.0034434062 0.0027903956 -0.0009634528 0.0030593923 0.0012887947 -0.0016651049 0.0012435749 0.0017260689 -0.0012620857 -0.0031403557 -0.00034035917 0.0016444828 0.0032445022 -0.0033923916 -0.0020644395 -0.0002831145 -0.00046485764 0.0034294399 -0.0034362748 0.0031629624 -0.002446719 -0.0020827588 0.0013308553 0.0006316019 0.0031048271 -0.0020445092 0.0009834812 0.00019950625 -0.0023369705 0.0003367379 0.0008574733 0.00040827712 0.0033412683 0.0010404269 -0.0036762287 0.0008743728 -0.0033908356 -0.00080627506 0.0034266033 0.00044620674 -0.0035398775 -0.0031672055 0.0015818932 0.0005502354 -0.0035628064 0.00058950234 0.00074772135 -0.0039006497 -0.0024317259 -0.0016434009 0.0009474667 0.0032785768 0.0022498774 -0.0032033615 -0.0022836435 0.0037451994 0.0009190904 -0.0033910342 0.0034324292 -0.0015446824 0.0014007952
mother -0.0016096574 -0.0011220132 -0.00069569726 0.00025406497 -0.0021547351 0.0012065272 -7.6992765e-06 -0.00022282453 -0.0020202687 -0.0034581984 0.0012948533 -0.0024751914 -0.000111529254 0.0037909017 0.00067956187 0.0017177913 -0.00030331372 0.0027095464 -0.0018692579 0.0026614338 0.0018183416 -0.00035883306 -0.0018502258 -0.0017350103 -0.0029343832 0.0020619826 -0.0035036993 0.0026972927 -0.0005145419 -0.0016672437 -0.0036117125 0.0021686524 0.0035457665 -0.0038770775 0.00045464904 0.00019304243 0.0035292474 -0.0014321187 -0.0003285666 -0.0016677333 -0.0026567574 0.0033913834 -0.00011984343 -0.0038542405 -0.0020124654 -0.0028993648 0.0035542788 0.0030035141 -0.0026867676 0.0029288447 -0.0011201435 -0.0013310132 -0.002920563 -0.003770684 0.001525654 0.0013453983 0.0016631745 -0.0012883913 -0.003351683 0.001024452 0.0016812036 -0.0034131338 0.0007318857 -8.988578e-05 -0.0033317457 -0.0023222559 -0.002326025 -0.00068834005 -0.003614285 0.0020256883 -0.00018370365 -0.00013052208 -0.0024602895 0.0013880691 0.0022771035 0.00023151643 -0.00024064259 0.0028890886 0.002271741 -0.0011518977 -0.001624483 0.0018985171 0.0008998657 -0.0028051424 0.0011459783 0.0032987886 -0.0006332536 -0.0035065128 0.001646378 0.00021145286 0.00089399324 -0.000321013 0.0026304158 -0.0033471354 -0.0032906905 -0.0022945504 0.0015378012 0.0038708213 -0.0038634753 0.0027932264 0.00064097316 -0.0005155781 -0.0013475069 -0.0009438361 0.0013674467 -0.00078608905 -0.0035332977 -0.0008088719 -0.002329521 0.0017777941 -0.003205663 0.002062212 0.00072075095 -0.002073542 -0.002648532 -0.0022678142 0.00020051423 -0.00039293108 -0.0024984272 0.002479851 0.0021421015 -0.0013630097 -0.0025035276 0.0030884885 0.0002622802 0.0015827689 0.0002935657 0.0021788308
medal 0.001893275 0.0004519821 -0.0008193523 0.003002597 -0.00017025207 -0.0012533447 0.0009885624 0.0017180413 0.0017731438 -0.0020100255 0.0032778198 -0.0019805604 0.0028397886 -0.0017051528 0.00080750516 -0.0035104628 -8.522228e-06 0.0020063906 -0.003211857 -0.002586298 -0.0028361075 0.0023729927 -0.0012995125 -0.0010208283 0.0031345754 0.0025404873 0.00051706185 -0.00037944538 -7.5093965e-05 0.0028597966 -0.00076720497 -0.0013254739 -0.0010890334 0.0038397731 -0.0016211919 0.0038891677 -0.00023957943 0.0015899556 -0.0013546924 -0.00339047 -0.00012900369 -0.003416523 -0.0021911152 -0.0017625686 0.0015174391 -0.002582658 2.7687769e-05 -0.0027163872 -0.0036210471 -0.0001846625 0.0028664363 -0.003042764 0.0021869603 -0.0032670589 -0.0036002235 0.0019521317 -0.0038240838 -0.0038210298 0.0010395555 0.00094765425 0.0010575511 -0.0004003904 -0.0012209709 -0.0016101717 0.0005932431 0.001110831 0.00077588035 -0.001977272 -0.0011936021 -0.00010628307 -0.00032434307 -0.0020761574 0.0032940393 -0.0034393552 0.00030403698 -0.0031798154 0.000845863 0.0005173594 -0.000935109 0.002607313 0.0012026551 -0.0030933495 0.0008802856 0.0029116264 0.0018270595 -0.002500391 -0.0028679909 -0.000934059 -0.000901086 0.0030419305 -0.0004978197 0.0027183904 -0.0031362495 -0.002359564 -0.0016943543 -0.0003710651 -0.000821332 4.921565e-05 0.0009821078 0.0010137764 0.00012150836 0.0013485773 -0.0015153412 -0.003489055 0.0022584745 0.002045901 -0.0011538514 0.0012218052 0.0015617664 -0.0038677887 -0.00023851014 -0.0032352596 -0.0032851787 0.0022245084 0.001487051 0.0036837303 -0.002479005 0.0015958871 0.0014076672 0.0032228369 -0.0032071183 0.0006159964 -0.0017307133 0.0022814304 0.0015065735 -0.0038765061 0.0006368697 0.0015802226
death -0.0014812748 0.00032037112 3.974064e-05 -0.0038426572 -0.0019837194 -0.0016018503 -0.0034706378 0.0014074305 -0.00095723564 -0.0015201472 0.0033658543 -0.0011648553 -0.0034011283 0.0010123864 -0.00045246794 -0.0022660329 0.0011896234 -0.0026079467 0.0022923078 -0.0012508826 0.0035969494 -0.001779317 0.00017382484 2.1462616e-05 0.0030321004 0.0013687577 0.0016453235 0.0021732808 0.00059356465 -0.00025595535 0.0015210747 -0.0006405378 -0.00079159264 -0.0020078036 -0.0027794335 -0.003864497 0.0036061136 0.00016863743 0.0012874502 -0.0019258643 -0.000506488 8.3150495e-05 0.0037395337 -0.001947186 0.0020781695 0.0005114612 0.0039001356 0.0005165039 -0.0007964515 0.0010656401 0.0032262637 -0.0014402838 -0.0014628308 0.0036802583 0.0013888626 -0.00033410537 -0.0032594397 -0.00061233935 0.00019244908 -6.889467e-05 0.0030391722 0.0025452904 0.0005835032 0.0038129322 -0.0015791109 0.0015008809 -0.0008750649 -0.0023834403 0.00036174114 0.0005013614 0.00015560507 0.0011052551 -0.0013583997 0.0014275807 0.0005268664 -0.0021062745 0.0023618194 -0.0019975842 -0.0018874421 0.0019738276 0.0028321825 -0.0013213842 -0.00029116805 0.0031015375 -0.0014494545 1.0451178e-05 -0.002120818 0.0011473543 -0.003426521 -0.0013724306 -0.0011753077 -0.0022656897 0.0038281814 0.0022487994 0.001983822 -0.0019821147 -0.0020794028 0.0015419493 -0.003586859 0.00037657967 0.0008531109 0.0028827952 -0.0033670585 -0.0018338051 0.001361609 -0.003028433 0.00065582525 -0.0028796927 0.0015375238 -0.0029002822 -0.0037397025 0.0034460782 0.0023209418 -0.0005433124 -0.0022023632 0.00031245084 -0.0008643965 -0.0025690026 0.0005209912 -0.0010875728 0.0033004961 0.0023222272 0.0017699323 0.0037536565 0.0014681895 -0.0016778592 0.0038616168 -0.0025729553
price -0.0032550101 0.0026378154 -0.0015468121 0.0016975047 0.0013939058 -0.00061513454 -0.003490688 0.0033958955 -0.0035182694 -0.0026950536 0.00086166715 0.0003931772 -0.0033635464 -0.0007905639 0.0022743042 -0.00021124013 0.0038379368 -0.00093705603 0.00044633556 0.003799711 0.0014077884 -0.0013820879 -0.0038758004 4.375612e-05 0.0011533092 -0.00013512255 0.0011657467 -0.00047229766 -0.0021217023 -0.00044857754 -0.00012544272 -0.0021023296 0.0031159485 0.002314255 0.0006810671 0.0010719448 0.0035399683 -0.0027222503 -0.0030238652 -0.0026887506 0.003430625 -0.0018813267 0.0018931688 -0.00037161965 -0.0005363684 -0.0033804341 0.0011082437 -0.003619879 8.383184e-05 0.0037036715 -0.0006012032 -0.0028967557 -0.0021407222 0.00082833203 -0.002079898 -0.0034781971 0.0033765913 0.003471231 -0.0030967747 -0.0038567919 0.0024489197 -0.0032974095 0.0032798257 -3.196857e-05 0.00046870773 -0.0020966202 -0.001938447 -0.00042911843 0.0027273213 0.0030580345 -0.0035065538 -0.0014116279 3.514061e-06 0.0014082819 -0.0024676577 0.0025926237 0.0014090561 0.002724125 -0.0031014562 -0.0038340855 -0.0023372842 0.0007419163 0.0002572829 -0.0022450923 -0.0038049645 0.0014466352 -0.00012565007 -0.0011661291 0.0007382851 -0.00025603935 -0.0026702308 -0.0018372636 -0.00023230849 0.0022603485 -0.003832678 -0.0014902999 0.001148987 -0.0024705157 -0.00096933654 -0.00031116934 0.0015984128 0.0032075401 0.0024842324 0.0038598056 -0.0007425235 0.0030075356 0.0019201258 -0.0032449267 -0.001145533 0.0029736897 0.0033095365 -0.003543001 -0.0023891525 0.0008097666 -4.974607e-05 0.0018574847 -0.0021006828 0.00206284 -0.0010521545 -0.0016775457 0.0021666144 0.0017689826 0.0006912702 0.00015224061 -0.00019143157 0.0023080518 0.0019684923 -0.0028513444
