77 128
77 -0.0037763184 -0.0014908907 -2.854162e-05 0.0028503453 0.0018537733 -0.0012865119 0.0019693344 -0.0009477772 -0.00068367313 0.003258772 -0.003879423 0.0018216368 -0.0012987065 -0.0028814732 0.0036801642 0.003012767 -0.0020856317 0.0030358825 -0.0009048405 0.0012782715 0.001307061 0.003758419 0.0024273305 0.00043469717 -0.002783314 0.003510063 0.0031067047 -0.0018011536 0.00022123446 0.0019618715 0.0019315266 -0.003726591 -0.0005993637 -0.00265621 0.0010533519 0.0026484956 0.00022973139 0.0009249504 -0.0024083667 0.00047638692 0.00021266087 0.001258474 -0.0014425397 -0.00080878893 0.00037509753 -0.0021636386 -0.0011910642 -0.000704001 -0.0001166974 0.0026626624 0.00076628965 0.0036866874 -0.0022512225 0.0029000102 -0.0038198936 0.0019952797 0.0026395037 -0.0009668012 -0.0025524981 -0.00019950433 0.00010010403 -0.0025039776 -0.0032050186 -0.0019179066 -0.000525455 0.0033824372 0.003798393 0.0029127868 -0.001242514 0.0033678568 0.0031358704 -0.00062961894 0.002411913 0.003593301 -0.0032572544 0.0038030427 -9.0974965e-05 -0.0037228507 -0.002044756 0.0020866406 0.000529872 -0.0036381548 0.0017346566 -0.001062467 0.00036591303 0.00020704124 0.0009416724 -0.002684742 -0.00038959063 -0.001504486 0.00032575574 -0.0032388384 -0.0032627357 -0.0032265594 -0.0030727875 -0.0013879843 0.0016373147 0.0011185054 -0.0034587306 0.0008147374 -0.0006088727 0.0031083548 0.00023272185 -0.002330248 -0.0035051818 0.0021674656 -0.0031673296 -0.0002605957 0.0037086965 -0.0023612303 -0.001220846 0.0004308097 0.0036613997 -0.0006764935 -0.0015046288 0.0036064046 -0.0035608427 0.00014283182 -0.0010877248 -0.0037235636 0.0015451675 -0.001709359 0.0023073687 -0.0035691925 -0.0016056582 -0.0034287428 0.001671622 0.0009736556
67 0.00033424905 -0.0023015947 0.003306244 0.0036198224 0.00044747727 -0.0026511194 -0.0019618317 -0.0023713142 0.0023981938 0.0018746816 0.0023236296 0.0017516039 0.0036471374 -0.0038109818 -0.0009072142 -0.0003467193 -0.00075519044 0.0025744212 -0.0013855193 -0.0032695692 -0.0011525288 0.0005053609 0.0032633536 -0.0011695466 0.003202738 0.0006314184 -0.0015618776 0.0009012351 -0.0037104124 -0.0021025846 0.0028957878 0.00138849 -0.0037641735 -0.0029378613 0.0015974912 -0.003853395 0.003696432 0.0019872205 0.0031577721 0.0031693652 0.0021099497 0.0011723234 0.003147085 -0.0018777136 0.0038919374 -0.0011921251 -0.0009824892 -0.0014410779 0.0015858726 -0.0036347492 -0.0038840065 0.0018916767 -0.002110771 0.0024595652 -0.0007034187 0.0006466147 0.0037344988 0.001615411 0.0028810494 0.0031973184 -7.348887e-05 0.0030663474 0.0008941345 0.0022039944 -0.0026969383 0.002222147 0.0035085885 -0.001911862 -0.00302925 0.0015438333 0.0036474094 0.0031444938 0.0035652923 -0.0017628026 -0.00046928713 -0.0015288028 -0.0002135967 -0.0023080478 -0.002514651 0.002585512 -2.8611714e-05 -0.003800349 -0.0006913613 0.0013028459 0.0027163585 -0.0013005907 -0.0030683468 -0.0026382352 -0.0021868579 0.0026214954 -3.0936346e-05 -0.0035074314 -0.0010819441 -0.00066084415 0.0028623566 -0.00045980577 -0.0009663058 0.0037421572 -0.002213807 0.00020358166 -0.0034724234 -0.0028344356 0.002788672 0.0006654756 0.003422218 0.0009889626 -0.0025163759 -0.00043517875 0.002100142 0.0038386944 0.003631665 0.0028093138 -0.003382731 -0.0008770332 0.0010262396 -0.0017169211 0.0034921202 0.0025009688 -0.003610988 0.00043379958 -0.001919523 -0.0025758697 0.0033828262 -0.001386083 -0.001339666 -0.00056392676 -0.0030702583 0.002211455
66 0.003540612 -0.0010102357 -0.0030958857 0.0031658625 -0.001172161 -0.0013924884 0.0016890154 -0.0031092241 -0.003097141 0.0037112397 0.002753016 -0.00089668116 -0.0018535093 0.0008338108 -0.002143138 0.0015134697 -0.0010357546 0.0038532477 0.0009345489 0.0013417479 -0.0038582962 -0.0035387299 -0.0019084248 0.002677235 -0.00011880228 0.0027452451 -0.001998251 0.0002851146 0.001934285 0.0037158788 -3.3672608e-05 0.00011328107 -0.0037901863 0.0030203827 0.001403169 -0.00221078 -0.0027966183 -0.003286871 -0.0024907372 0.0029554744 0.0010383282 -0.00012670635 0.0021056973 -0.003691085 0.0027643128 -0.002746367 -0.0015228831 -0.001696044 -0.0032733679 -0.00034066904 -0.0034423417 -0.00073137734 0.0016297003 0.001532398 -0.0020569866 0.0018810756 -0.00085485826 0.0015994424 -2.9813134e-05 -0.00077770476 -0.0038276217 0.0023729606 0.0035332795 -0.0020958646 0.003359278 -0.0015459722 0.00024783518 0.003194964 -0.00056139834 -0.0016631458 -0.001753332 -0.0007654685 0.0023686176 0.0006531938 0.0020933633 0.00150824 -0.002073794 0.0006988071 0.002416485 0.00193109 0.00047152466 -0.0009012069 0.0025490194 0.0038412707 -0.00100432 0.0026451664 0.0019753221 -0.0026516402 0.003599842 -0.00083491637 0.0037938745 -0.0034308075 -0.00036169312 -0.0016839816 -0.0021592572 -0.00033562683 0.002097985 -0.00019112561 -0.0026037002 0.0034277195 0.0019611067 0.0006328654 0.0035959 0.0026554277 0.0036532846 0.0009363605 0.0031624315 0.0010857198 -0.0027548252 -0.0036416021 -0.00018676261 0.0014772606 0.0031201881 0.0025898358 0.00038993586 -0.0014179022 -0.0012584941 0.0037606256 0.003466293 -0.0022575234 0.0014575091 -0.0011480849 0.00075000245 0.002515974 0.00090352766 0.0028550278 -0.0014629841 -0.0034142155
76 -0.0011845881 -0.003177977 -0.00030543745 -0.0014799567 -0.000295353 -0.0033376378 0.00038517264 -0.0038798226 -0.0021571114 -0.0029450464 0.0030628517 -0.0015438066 0.0038649896 0.00028552476 -0.0026701284 -0.001577768 -0.0020352327 -0.00084865186 0.002852853 -0.0026295078 9.618863e-05 -0.0008200034 0.00029012607 0.0006100661 -0.0032527363 0.0030629274 0.0034549253 -0.00068761763 0.0031083496 0.0010332236 -0.002154782 -0.0016245281 -0.00029267266 -0.0027525125 -0.0025463656 -0.0016695941 0.00047347162 -0.0030774127 0.00082853634 0.0014231595 -0.00064326444 -0.0029226649 0.0007310838 0.001510189 -0.0016358442 0.0016935342 -0.0022159251 -0.0031060702 -0.003116098 0.002526683 0.0020774982 0.00078276196 0.0034818016 -0.0020013177 -0.00315674 0.0038322222 0.00071536674 0.0015713829 0.003686034 0.0037757591 0.002734049 0.0025817256 0.0033486485 0.0031145622 0.0009045104 0.0023433827 -0.0022955295 -0.003673843 -0.00055475894 0.00011315164 0.0025707413 -0.0024698847 -0.002771829 -8.344618e-05 -0.002609672 -0.0009706262 0.0032042505 -0.0013327944 0.0008006016 0.0012260403 0.003738274 0.0031248848 0.0017249464 -0.0010890004 0.0032772138 -0.0011048347 0.0014016631 0.0005819107 0.00266183 -0.0009724154 0.0021757581 -0.0029581257 0.0026045651 0.00032149992 -0.0036152883 -0.0020595398 -0.0028350907 0.0013250994 -0.0017078745 0.0017817444 0.002210917 -0.00048868556 -0.00023996638 0.0008031593 0.0017281062 0.0016343918 -0.001556663 0.0026321255 -0.0013094635 0.0014615017 0.00046187447 0.002467093 -0.0010347806 0.0029320726 -0.0028108612 0.0035597384 -0.0019952748 0.0026456919 0.00067310047 0.0015727488 0.0023928487 0.0016632815 0.0016335173 -0.003417588 -0.0023407708 0.001219556 -0.0017341694 0.0038368606
65 0.00021675402 -0.0028272672 -0.00011063373 -0.00073208817 0.0014893879 0.0010020686 0.0031120668 -0.0012132861 0.003838742 0.0014524184 -0.0002516588 0.0023532037 -0.0030210116 -0.00064166443 0.0038657782 0.0011747944 0.00043856658 0.0030239732 -0.0015261034 -0.000737766 0.003188444 -0.0010346117 0.00044291472 0.003670694 -0.0018410346 -0.0008796603 0.0032114312 -0.0014475026 -0.0014009989 0.0029455603 0.002841767 0.00046580913 -0.0028775928 -0.000100391 -0.00040313657 -0.0027452526 0.0038595821 0.0023932098 0.0016753064 -0.002875924 -0.0028503148 -0.002817516 -0.0032923087 0.0021592085 -0.0021168676 -0.0029620172 -0.0032025408 -0.001612853 -0.0005640546 -0.0012047492 0.0027196226 -0.0035430463 0.003703664 0.0031192675 -0.0033567396 0.0026546444 -0.0037279634 -0.0036478997 -0.0033834768 -0.0014261558 -0.003465297 -0.0015314787 0.0029604158 -0.0030975856 0.0006141339 0.0016750423 -0.0035483486 -0.0001765987 0.00088912906 0.0035781977 0.0038854016 -0.0026075311 -0.0033524784 0.00039270878 0.0035550606 -0.0003971661 -0.0028831963 0.0011048443 -0.00026797652 -0.0021212832 -0.0014109671 -1.8615054e-05 -0.0002741712 -6.169386e-05 -0.003339894 0.003560751 0.0027962825 0.0038656476 -0.0018165783 0.0020441427 -0.002087649 0.0012800442 0.0015296506 -0.0027839409 -0.003204779 0.0034944362 0.0017276537 0.00052718655 0.0007378797 0.0025278165 0.0029160967 -0.0020503197 0.003370176 -0.0031100775 0.0004100689 0.0015897454 5.628698e-05 -0.0023679377 0.0013162526 0.0030256838 0.0009952344 -0.0010769689 -0.00025341575 -0.00028818636 -2.3806185e-06 -0.0028044046 -0.00014939421 -0.0026186332 -0.0020297295 -0.0020234243 -0.0020509118 -0.003711313 -0.0030179338 -0.0018811869 -0.0033049004 0.0002737908 -0.00092849624 -0.00032433544
24 -0.0017656345 -0.0002816618 0.00053654326 0.0035202473 -0.0022124867 0.0013266192 -0.0007547483 0.001084575 -0.00012354893 0.0038098928 -0.0028870224 -0.0025050272 -0.0038774894 0.0007894911 -0.00059262995 0.0034805534 -0.0012983292 -0.0035720693 0.0022665628 0.0024175758 -0.0018281024 -0.002007722 0.001366515 -0.002033854 0.0030869017 -0.0026247078 0.0021905971 -0.0011035592 2.1570126e-05 0.0035579363 0.0016773876 0.000551341 -0.0038914657 -0.0026309094 0.00048765555 -0.0024300218 0.0004256802 -0.003781377 -0.0025029683 0.0014755867 0.0033857354 -0.0034139021 0.0021656577 -0.0025153924 -0.0022981495 -0.00021020616 -0.0034151082 -0.00031263276 -0.00066269375 0.002933348 -0.0036555405 0.0034347635 0.0034602361 0.0006868364 0.0013490306 0.0011130779 0.0008238747 -0.0035607317 0.0027765827 -0.0031157036 -0.0030928445 -0.0026824914 0.0015324781 -0.0021520525 -0.0013809709 0.00034081 7.4394724e-05 0.0031239004 -0.003708579 0.0029314912 -0.0013002629 0.002583526 -0.0011052701 0.003369963 -0.0018407167 -0.0028670563 0.001030191 -0.0027282669 0.00018764583 0.0032218224 0.001089078 0.003509131 -0.0010091291 -0.0013162144 -0.0036801414 0.002710974 0.0030186747 0.0021650228 -0.0011609524 -0.0037794597 0.0020079713 -0.003212195 -0.0019198317 0.0021559014 0.00017078411 -0.0036361043 -0.0015659154 0.0027107683 -0.0013546795 0.00021799479 0.0015255079 0.0038320725 0.0037066767 -0.0026110834 -0.0009196216 -0.0025338263 0.002895809 0.001864534 0.0030023032 0.0022076438 0.0017408511 -0.0010464487 -0.0020812652 0.0022416895 0.0005352733 -0.00038447836 0.0006894173 0.0036230066 -0.0017189237 0.0013498216 -0.0027370849 0.001047831 0.0014800286 0.0017909849 -0.0008515523 0.0013139779 0.0008074252 -8.9609726e-05
72 -0.0022945278 0.0032809554 -0.003027387 -0.0035743373 -0.0026641635 0.003712801 0.0013097752 -0.0026328885 0.0008404445 -0.0025524567 0.00094116083 0.0028340234 -0.0035727068 -0.0020511209 -0.0038633337 0.0030388383 -0.0001012382 0.0034780828 0.001808203 0.0011157815 -0.0009522056 -0.003264558 -0.0026029188 -0.0011977497 5.246001e-05 -0.0037308056 0.0036467188 0.0016647658 -0.0032466715 0.0021654125 -0.0031022744 0.0032633736 -0.0014599201 0.0037400562 0.003820655 -0.0038127569 -0.0026776362 -0.002219416 0.0022254277 0.0030731226 0.0026855425 -0.0030502956 -0.0030415726 -0.0003124005 -0.00045779414 -0.0017334908 -0.0018478452 -0.0018802437 0.00025350068 -0.002006082 -0.00091050344 0.002157332 -0.0030318447 -0.0033384697 -0.0038234778 -0.0009170027 -0.0024160824 -0.00337143 -0.0025773009 0.0017591584 0.003260499 0.0010472325 0.0029053718 0.001331816 0.0035116214 0.0017783997 0.003488064 0.0027716658 -0.003063787 -0.003597786 -0.0025312775 0.002503398 0.00017555183 -0.003776317 0.00096103275 -0.00028652963 -0.002618297 -0.0027188286 0.0019214979 -0.0025151907 -0.0015102711 -0.0020366577 0.0011384 -0.00034842402 -0.0011439743 0.0010130303 -0.0006421245 0.000466099 0.0011444875 0.0034823099 0.001707262 0.0029166574 -0.0030201608 0.0017296377 0.0037195627 0.0025553412 0.00012876827 -0.0006657983 0.00056187133 -0.0024229516 -0.0037987216 -0.0036356435 -0.0011068303 -0.003451635 -0.0018510735 -0.0017457285 0.0023000499 0.0026742062 -0.00021092912 -0.00054400164 0.0026892035 -0.0035745034 -0.0022525801 0.0018162221 0.003159599 0.0038440034 0.00083316624 0.00066526124 -0.0035371224 -0.0012295195 -0.0012467182 -0.0036957914 0.0008815158 0.00091749296 -0.0028315664 -0.0038870287 -0.00073008024 -0.0032116119
56 0.0005211865 0.001114213 0.0024854734 0.0012567353 -0.001972678 -5.917904e-05 -0.0023681128 0.0008382908 0.00089968194 -0.0021179512 0.0027463974 0.0031945975 0.0036995383 0.002678972 -0.0016071885 -0.001725557 -0.0007176586 0.0018268225 0.0019565132 0.0036611452 0.00056430255 0.0009619943 0.0038820747 -0.0016193154 -0.0037069805 0.00079592085 -0.002689716 -0.0026190514 0.0025391292 -0.000233096 -0.0036115784 -0.001042868 0.00109885 0.0010762963 -1.4790857e-05 0.0009738813 0.0031516685 -0.0018172396 0.0014727144 -0.0026080213 0.0033082957 -0.00058881025 0.00376551 0.0008067827 0.003193735 0.0038087028 0.002480323 -0.0036619904 0.0032407334 0.0027894923 -0.0017328537 -0.0001667672 -0.00082571234 -0.0019794796 0.00043568193 0.0019238865 -0.00081705075 -0.0020845179 -0.003406197 0.0036242104 -0.00052741374 -0.0001636673 0.0006226517 0.0023582345 -0.0029820208 0.0023221246 -0.0033027146 0.0015780501 -0.002907896 -0.0034945614 0.0014184355 -0.0013920928 -0.0014788597 0.001774254 0.0026217762 0.0029458178 0.0022196847 -0.0026705428 0.0020607838 -0.0032268937 -0.00037410654 -8.337045e-05 0.0038681698 -0.0013895902 0.0020384523 0.0014823598 -0.0038429047 -0.0032535428 0.0023721145 -0.0002521305 -0.002664528 -0.0024103883 0.0013449979 0.0018395071 0.0037443035 0.0023981764 0.00037075588 -0.003749769 0.0034069119 0.0036707022 -0.0011793505 0.0026327565 0.001273566 0.0038409485 -0.0033000465 0.0036208408 0.0026404716 -0.0028761635 -0.0036813396 0.002980419 -0.003693658 -0.0019912892 -0.0024670342 0.0026586358 0.0024639233 0.002645763 -0.00073241524 -0.0038556631 -0.0019376215 -0.00030166277 -0.0032855913 0.00047479974 -0.0027793034 0.0026170057 0.002631047 0.003045016 -0.0026203634 -0.0013031435
63 -0.0015981598 -0.00020670933 -0.0023755645 0.0022045337 -0.0007123951 0.0004140971 -0.003513767 0.0036487062 -0.0008248221 0.0016367156 0.0027088253 0.001291665 0.00081515644 -0.002890827 0.0008729124 0.003249168 0.0028218864 0.003212851 0.0017386613 -0.0007955523 0.0024117362 -0.00012507896 0.00092623715 -0.0018433295 0.002096229 -0.00052225165 0.0019857327 0.0023534868 -0.0016404741 0.0013183441 0.0036705164 -0.0013474006 0.00043525928 0.001717364 -0.0035775718 0.0031644548 -0.003388661 0.0016419274 0.0029065222 -0.00014757538 -0.0036753244 -0.002481526 0.0038535902 0.001919686 -0.0023292338 2.8011049e-05 -0.0027535346 0.0024993843 -0.0010908612 -0.0027472156 0.0033907238 0.0030245443 -0.0028077841 -0.00033548326 0.002951957 -0.002536806 0.0005016109 -0.0026690578 0.0022108415 -0.0035281605 -0.0019387981 0.00010447107 -0.0020354777 -0.001681954 -0.0036766308 -0.0011484105 0.0018266299 -0.0028388589 0.0037191736 -0.0038081245 -0.003567333 0.0017720056 -0.00010752011 0.002239374 -0.0010670352 -0.003104244 0.0019577316 0.0032329191 0.0033709744 0.0038930946 -0.00080552825 -0.0011579989 -0.002616861 0.0005281179 -0.002359341 -0.0023085792 0.0029056973 0.002418074 -0.0026166283 -0.00075178867 -0.00036153675 -0.0023323225 -0.0025836914 -0.0021761605 0.0030580244 0.0025017918 0.0008371297 -0.0034002191 -0.002490517 -0.0028391303 -0.0026111435 -0.00352379 0.0018618201 -0.0018922577 0.0025518187 -0.0034786656 -0.003606367 0.0025350347 0.0011092529 0.00096322905 -0.0029870935 0.0015475188 -0.00083477946 0.0023153194 0.0021265273 0.0026555404 0.00092213665 0.0032971846 -0.003137156 -0.0019175545 0.00034570688 0.0029173149 -0.0029804856 0.00042683136 0.0028139483 -0.0034751648 0.00013146397 -0.0017721023
39 0.0003051267 0.0011614594 -0.0008789916 0.0030076345 0.0038973892 0.0038791364 -0.00069120934 -0.0014184689 -0.0018932724 -0.0031248957 0.0023441222 0.003751874 0.0032798888 -0.0009984173 -0.0035546331 0.0013297827 0.00062283094 -0.0020510848 0.003165091 0.0027367142 -0.0014852192 -0.003160249 -0.0027933496 -0.0021214704 -0.002345728 -0.0022445878 -0.00070533756 -0.0038001577 -0.0028296835 0.0023877847 -0.0020735962 -0.001404539 0.001002228 0.0031231071 5.5900156e-05 -0.00077593856 -0.000495937 -0.00036488107 0.0019969365 0.00017637777 -0.0038276166 -0.0028246553 -0.00030847415 0.002902922 0.0018393177 -0.001390761 -6.7491237e-07 0.00060864113 -0.0020732773 0.0016242046 -0.0017850145 0.0015977283 -0.0008508803 0.0005928189 0.0030530302 -0.003086963 -0.00015747824 -0.0034088604 0.0013460174 0.0012747913 -0.001513067 -0.0024955159 -0.0021902383 -0.0037335942 -0.0010248122 0.0035310874 0.002457928 -0.001324439 0.0011574024 -0.0011790453 0.0019667733 0.00057492685 0.0010877646 -0.00067764154 -0.0024671704 -0.00096153584 -0.0031125003 0.0018060284 -0.0002731369 -0.0020610758 -0.0025321618 0.0038489725 0.00044379564 0.0012588471 0.0023759636 0.00025934522 -0.0016256896 0.0025675136 0.0006406485 0.0014634889 0.0038047961 0.00022673582 -0.0018166858 -0.0026278014 -0.0025219326 -0.0018515722 0.0015624472 -0.00022183664 -0.00067595614 -0.0026599613 0.0027357747 0.0027907062 -0.0005617304 0.0012445456 -0.0028264436 4.7707414e-05 0.0032925426 -0.0027122556 -0.002251427 0.0015303999 0.0031622956 0.0023240633 0.0027606508 -0.0011142176 0.001789921 -0.001222284 -0.00199568 -0.00020464695 -0.0013381467 -0.0017219263 -0.00038070107 0.003265478 -0.0029102955 -0.00033376281 0.0017000303 -0.0021677937 0.0018949797 -0.00054277957
71 -0.0020594057 0.003795912 0.0035758482 0.0034583856 -0.0038265018 0.0011254547 -0.0009563262 0.0031529698 0.0005702531 -0.0018058533 0.0014512328 -0.0031404723 0.0016773037 0.0015275467 -0.0010481867 -0.0011985158 -0.0030400408 -0.00030185896 -0.0009661097 -0.001580868 -0.0038203204 -0.0013286828 0.0010950322 -0.0020980104 -0.0001591825 0.00017319604 0.0001398832 0.0030569234 -0.00231889 0.0034085063 0.0018956187 0.0024971145 0.0030972492 6.412634e-05 0.0037553702 0.0034850074 -0.0023637437 0.001259142 -0.0032484785 -0.003700425 -0.001331277 -0.0038303775 -0.0029741346 0.0013650641 0.0018263864 -0.0015163989 0.003862357 -0.002511086 0.0026144537 0.001676915 0.0036988934 0.00069287326 0.0007800036 0.00016436636 -0.00048397962 -0.0016420921 -0.0016058467 0.0036405479 0.0010791708 0.0036305494 -0.002996973 -0.0010918742 -0.00076734484 0.0030854098 0.0010663405 -0.0029486713 -0.0012325861 -0.0030801732 0.00023072913 0.0036520064 0.0028916516 -0.00052525534 0.0025812115 0.0010937203 0.0038940767 0.0019198583 -0.0020787402 0.0024875756 0.0015840027 -0.00078291196 -0.0024136996 0.0030018068 -0.0019057298 -6.5769156e-05 -0.0021485502 -0.0010782708 -0.0033765316 0.0030404339 0.0022729589 0.00028621117 -0.0026374692 0.00062502315 -0.0025961972 0.0035708877 -0.0009041331 0.0021313066 -0.000653094 -0.0038568503 -0.00051123794 0.0036645927 0.0022463237 0.00368216 -0.0028732847 -0.00032483344 -0.00012285187 0.0018557826 0.00095822697 -0.002867632 0.0013173531 0.0034693761 -0.0036091798 0.0028556427 0.00058221363 -0.0011800051 0.0004798504 0.002334839 -0.0018244169 4.9414044e-05 -0.0034566373 0.0018179017 -0.0034226 0.00015228108 -0.0037098667 -0.001216386 -0.001332328 0.0008260181 0.0021411171 -0.0022164935
28 -0.0017398997 0.0023875367 -0.0021843626 -0.0021627909 0.0015647461 -0.0009428993 0.002542026 -0.002281815 -0.002904867 -0.00092651125 0.0006114197 -0.00033377725 0.003506338 -0.0010682079 0.00022860269 0.00057294394 0.0020717673 0.0029249708 -0.0031781432 0.0034074357 0.003557268 0.0020100346 -0.0007307715 -0.0035950937 0.0011097748 0.0034028215 -0.0004093294 0.0016874331 -0.0022877713 0.003089425 -0.00015981717 0.00050248206 0.0024961429 -0.0007539193 -0.000874721 0.002612685 -0.0007936168 -0.0010780669 -0.0037426767 0.0026339826 -0.00077268825 -0.0030167187 0.0034871404 -0.0014456587 -0.003129046 0.0024634553 0.0021477602 0.001534859 0.0032617154 0.0011471302 0.00021286824 0.0015944928 0.0012016678 0.0025405462 0.0020816312 0.0014646794 -0.0023183234 0.0018337752 -0.0014056589 -0.0018097924 -0.0014528228 -0.002922193 0.0017254039 -0.0014586204 -0.002774247 0.0036993776 0.0024359692 -0.0036888262 -0.0011168569 0.0021331937 -0.00011604256 -0.002062387 -0.0016822527 0.0014886517 0.0031546499 0.0006714882 -0.0036249384 0.0016459381 -0.0018068636 -0.001763122 -0.0015144662 0.0036387779 -0.0011973832 0.0033678284 0.00033294165 -0.0009942278 0.002979809 0.0022082182 0.0026339088 0.0020028155 -0.002708249 0.0010477086 0.0031469124 0.00066522165 0.003184256 -0.00256621 -0.0018771468 0.0031323745 0.002252828 -0.0023839474 -0.003214932 0.0027046 -0.0038518137 -0.0003947049 -0.0034766907 -0.0023385733 -0.003531331 0.0021911818 0.0027210528 -0.0032803582 -0.0012041333 -0.0014231883 0.001793585 -0.0024006981 -0.0013038062 0.0021923126 -0.0027367459 -0.00045551095 0.003260911 -0.0005304506 -0.0027473497 0.003436017 0.0028634823 -0.0017269842 -0.0024617042 0.0013455654 0.0025744813 -0.0013630156
59 0.002713127 -0.0031923696 -5.1844613e-06 -0.0032761372 -0.0028213698 -0.0032365704 0.0034804388 0.003301977 0.0026023795 -0.000293432 0.00084328186 0.00087355706 -0.0031038502 0.0018240386 -0.0023397051 -0.0009942878 0.0037679293 -0.0013480202 0.0015721832 -0.003068383 -0.0017586142 -0.0032269855 -0.00357683 0.0030809322 0.0002631839 -0.00299388 -0.00097375805 0.0027310345 -0.0035901668 -2.485072e-05 -0.0031925223 -0.00324853 -0.0025260823 0.0005320212 0.001444683 -0.0029870803 -0.0014745544 0.0034743503 -0.0001308936 -0.003267741 0.0030553534 -0.0024485227 -0.00333184 0.0028452685 0.0013291069 -0.0017001866 0.001000199 -0.00292878 0.0007530704 -0.0037603374 -6.714195e-05 0.00024008905 0.0005853507 0.00011708812 0.0020710162 -0.0033650734 0.0005362077 0.003392202 0.0015167394 0.0029628817 -0.0010300055 0.00072510104 0.0023371796 0.0009768443 -0.00066097773 -0.003240145 8.820144e-05 -0.0025769433 0.0035769488 0.00036960535 -0.0036084782 0.003241006 0.0011343699 -0.0020329957 -0.0017582243 -0.0012003543 0.0037667989 -0.0037031593 0.0026453044 0.0017783026 -0.0037124774 -0.0022222174 0.00018364837 5.168042e-05 -0.002770318 -4.3498185e-05 0.0012174833 0.0033195508 0.002746404 -0.003624401 0.00048416978 0.0011698531 0.001318375 0.0017482233 0.001111592 -0.0011260385 0.0009857903 0.0019142628 0.0007288842 0.002995258 0.0031272848 -0.002315945 -0.003776922 -0.001389255 0.0009734167 0.0003275809 0.003888467 0.002391956 0.0013337553 0.0016547168 0.0026094352 0.00016073983 -0.0002743025 -0.0026253336 -0.0020268222 -0.00076407765 -0.002088852 0.0034672439 0.0029243173 0.0019498101 -0.003006258 -0.0024319328 0.0037858773 0.0024160095 0.0021108591 0.00020068932 0.0016465331 -0.0036611008
60 -0.0007264622 -0.001716919 0.0012867848 0.0036176662 0.00065301446 0.0026557501 -0.0025294707 -0.0009466144 0.003739984 -0.00059709867 0.0024716642 0.0027445753 -0.0038338276 -0.0013041514 0.0031745965 -0.003463233 -0.00020393675 0.0004931865 0.0036736692 -0.0021813815 0.0037583949 0.0033779908 -0.0024273486 -0.0001394242 -0.0029528625 0.002757259 -0.0013894796 -0.0023414362 -0.0016629434 -0.002686862 0.0014034093 -0.0026816993 -0.002238341 -0.0025272237 0.002659998 -0.000586672 -0.0036254942 0.0010707632 -0.0030716124 -0.0016528688 -0.0014360525 0.0014575344 -0.0024052116 0.0016842237 -0.0010185145 -0.0005388182 -0.00071716803 9.209159e-05 -0.0012868184 -0.000106699124 0.00067531795 -0.001044996 -0.0030890547 -0.000112262926 -0.0022521077 0.0022547012 -0.0017926213 -0.0026660198 2.6727263e-05 -7.960228e-06 0.0032187107 -0.0019394628 0.00076651515 0.0027020338 -0.0004224662 -0.0036557142 0.003362416 -0.0016283104 0.0033095041 -0.00019286839 -0.0008090204 0.0035746442 -0.0011806377 0.0011236934 -0.0013221414 -0.00030897497 0.00010142087 0.00061576505 -0.0038584706 -0.003224329 0.0030750365 0.0030485191 -0.0015886171 -0.00087166805 -0.0017292473 0.0037578067 0.0028736417 0.0016356879 -0.0009026853 -0.0024128733 -0.0020323861 0.002812695 -0.0016184514 0.0017808963 -0.0009158706 0.0030718525 0.0018945406 0.0005235441 0.0030309458 0.0035353487 0.0002694914 -0.0031281272 0.0038652937 0.0002162575 0.0038533877 -0.00085030287 -9.601316e-05 -0.0026782618 0.002510915 0.00019173992 0.0030219855 -0.0006248685 0.00089406973 -0.0020423518 0.00045509348 0.0018307829 -7.694798e-05 -0.00042474663 -0.0019529616 -0.00053278106 -0.0009727082 -0.0028489318 -0.0032412668 0.0019067762 0.0011965648 -0.0020710607 -0.0007638514 0.00054722343
64 0.0008685064 0.0027187623 0.00097390654 -0.002321118 0.0005604681 0.0031948308 0.0011774501 -0.0020590469 0.00037827925 -0.0021102019 0.0029958899 -0.0017475589 -0.0014862966 -0.0009870586 0.0032331215 -0.001802344 -0.0010069577 0.0033839939 -0.003767181 -0.0010617573 0.0006688061 -0.0005852305 0.00058331835 -0.00025002242 0.002095346 -0.003619796 -0.002422978 -0.0028171877 -0.0011054389 0.0037239755 -0.000338061 0.0022171475 -0.00010195598 0.0012257688 -0.00079706253 -0.0034959323 0.00042580062 -0.00016752629 -0.0028093422 -0.0038553702 -0.0018710687 -0.002328102 -0.003661824 -0.00020111719 -0.0036079285 -0.0032908856 0.0006016434 0.001831196 -0.0034528947 -0.0019238521 0.0024580176 -0.001791063 0.002185413 -0.00085413374 -0.0018175704 0.0005419719 0.00035640242 0.0028980293 0.0010769515 0.0030228 -0.0018476091 0.0015643579 -0.00016854188 0.0018697524 0.0026466714 -0.0014996075 0.0026341465 0.0002597038 0.0025915988 -0.0020663722 -0.001454214 0.0026437216 -0.003157379 -0.003456314 -0.0012385842 0.0032635366 0.0028350016 0.0008053961 -0.0004988768 0.0038892708 -0.000778393 0.0021530443 -0.0012315834 -0.0031351747 -0.0028406223 0.003858414 -0.0013641759 0.00014473827 -0.0029905324 -0.0031222946 -2.5523845e-05 0.0035432344 0.0033729197 -0.0011490603 0.0005710576 -0.00038563827 -0.0004585121 0.00043652585 0.003352604 0.002579872 0.0020419413 -0.003421007 -0.0027781695 -0.0018079698 -0.0014379944 0.0016610974 -0.002780073 0.0032732466 0.0017855096 -0.0034398818 0.0012510571 -0.0017559271 0.0008076275 0.0035276578 -0.0032271852 0.0033423188 0.0012100673 -0.002150028 -0.002532879 -0.0017495884 0.0013665707 -0.0036661762 -0.0007772517 0.001902687 -0.00047679272 0.00077975955 -0.0037778995 -0.0021735705
70 -0.00054502697 -0.0008329628 0.0032747572 -0.002787738 0.0011808719 -0.0031123594 -0.0027218258 0.0006069374 -0.00067014986 -0.001354084 0.0035335515 0.0037315595 -0.0023845294 -0.0032781651 0.0019738541 -0.0018669958 0.001036577 -0.0024110493 -0.00230867 -0.0014872141 0.0030233106 -0.00096318516 -0.0007533789 0.00026734298 0.0038489522 -0.000897791 0.0016066853 -0.0017192806 0.0008775596 0.0002024459 0.0008947002 -0.000933318 0.0010914705 -0.0012499242 -4.9605485e-05 -6.661508e-05 -0.0017831125 -0.0007763352 0.00082988135 -0.0029799317 -0.0014856671 0.0010159273 0.0023265292 0.0030668408 0.0002791805 -0.0020812918 -0.0029093493 -0.0028570218 -0.0027954506 -0.0033284677 -0.0010787057 -0.00037111025 0.0006049162 -0.0024620926 0.002665495 0.000892146 -0.0030842046 0.0033823394 0.0010545717 -0.0037573338 -0.00033720394 -0.00019943962 0.00041800668 0.0018180693 -0.0027150938 0.003112382 -0.0030843003 -0.00045329815 -0.0011423471 -0.0018866055 -0.00038027123 -0.0035573323 -0.0015522998 -0.00016664884 0.0014529697 -0.00049657305 -0.0023347465 0.0022037383 -0.0035595316 -0.00052327523 -0.0022141212 0.0038230442 -0.00054350897 -0.0024986994 -0.0011394112 -0.00085791294 0.00011956886 0.0002985328 -0.0030918617 -0.0007225165 -0.00089476205 0.001690716 -0.0018528174 0.002060232 0.0007079696 0.0007771806 0.0013029322 0.0019320332 -0.0036575904 -0.0017070889 0.0039004432 0.0018810291 0.0029929231 -0.0020205393 0.0012457536 -0.00060271844 -0.00015638985 0.00048186583 0.0034546198 -0.001719081 -0.0024617568 0.0011404066 0.0032065997 0.0035007077 -0.0038988711 0.0011579411 -0.00094197184 0.0006941784 0.0019639 -0.0013891878 0.0011881525 -0.0039050875 -0.0001132694 0.0034114877 -0.00061691273 5.5153738e-05 -0.0011935058 0.0036705937
26 0.0024657538 0.00155624 0.0011961234 0.0018457294 -0.0012905627 -0.0032950281 -0.0038462875 0.00061202934 -0.0029457049 0.0011452496 0.0031418703 -0.0009794577 -0.003515284 -0.0004886352 -0.00029983994 0.0026152516 6.0052887e-05 -0.0019364927 -0.0021847577 -0.0021502047 0.0027214421 0.00079147104 0.0016323397 -0.0025673544 -0.00077756826 0.0016121736 -0.00085384713 -0.003572716 0.00091019616 0.002908051 -0.0030867124 -0.00075021695 -0.000930101 -0.0031889144 0.0037563543 -0.0022292146 -5.0691557e-05 0.0016890421 -0.0016591559 -0.003301147 -0.0006538005 0.0038462558 0.003418638 0.0036353797 -0.0011690564 0.0030811816 -0.0025159142 0.0026339702 -0.0020010152 0.003453277 -0.0013147983 -0.00035014894 -0.003502177 0.0009106713 -0.0009740063 0.0025140506 -0.0011829073 -0.0012949274 -0.001828147 0.0015301944 -0.0011376397 0.00085686665 -0.003414177 -0.003649409 -0.0013028516 0.0021805817 -0.0033638615 -0.00030697687 0.002953716 -0.002498896 -0.003032961 -0.00087124534 -0.0021506008 0.002325027 0.0013383566 -0.00028084827 -0.0008279566 -0.0008942527 0.0019830032 -0.003028502 0.0004421854 0.0009638806 0.0013968609 -0.0029739542 0.0015760815 -0.00068488857 0.001292877 9.84858e-05 -0.0034500188 -0.0037776658 -0.0018556962 0.0009742213 -0.0021244478 -0.0015997555 -0.0017944525 0.0022023956 0.0014767724 0.002986907 -0.0031112668 0.0010073209 0.0025772646 -0.0015862205 -0.0006070117 0.0034519152 -0.0025101174 -0.0024483139 0.0013786556 -0.0014439613 -0.0022991523 0.00054333766 0.0007633596 -0.0016072394 0.0034649726 -0.0014054673 0.0036529985 0.0035130214 -0.0002913242 -0.0014144807 0.0018863392 0.0010627538 -0.0031235784 -0.0021669068 0.002931587 -0.0008134269 0.0026299134 0.0037492667 -0.0033470732 -0.0036031131
11 0.0010714667 -0.002444694 0.0026964722 -0.0027442025 -0.00040338706 -0.00014203454 0.003488812 -0.002969489 0.00060495577 0.00068814534 -0.0025866749 -0.0011890476 -0.0019118905 0.00014188071 -0.00027856402 0.0033943735 -0.0004159232 0.0004775576 0.003665527 0.0024436405 -0.0010684553 7.54927e-05 0.00063899765 0.003336406 0.0019467368 -0.0014681754 -0.0012622114 -0.003516246 -0.0023255092 -0.0024511812 -0.0038279595 0.0012758367 0.0018307671 -0.002815284 -0.0027385682 -0.003416535 -0.0030220249 0.0025246392 0.0033096522 0.0007419478 -0.0024722766 0.0011504934 -0.0025223072 -0.0030947747 -0.0013687431 0.0038686146 5.975418e-05 0.0023710984 0.0019297644 0.0018932886 0.0014768726 0.0003718199 -0.00039388 -0.0013338173 0.003558534 -0.0024102323 -0.0036680186 0.002278696 -0.0015639133 -0.00056137674 -0.00046704113 -0.0013814962 0.003762189 -0.002660142 -0.0021833426 0.00096077495 0.0012569304 -0.0036798038 0.0015437796 -0.0014504779 -0.0027367424 0.00029912486 -0.0016977189 -0.0015463666 0.001954208 -0.0029956452 -0.001403524 0.0027742842 0.0027482177 -0.0030436674 -0.0031233497 -0.0032040451 -0.0034152747 0.0023804319 -0.002985398 0.0021049744 0.0038162007 -0.0034918922 0.003613095 0.0023804524 0.003012339 0.0026826423 -0.003420871 0.0024639193 -0.0034952017 0.0028864269 0.0037036743 -0.0014756598 0.00313727 0.0016616287 0.0033481638 -0.0010062681 0.00029238933 -0.0029973325 0.0017887788 0.0025184485 -0.0011265129 -0.00010590451 0.0031132626 -0.0007649268 0.0009614896 0.0034532563 -0.0037498989 -0.00033164196 0.0014148549 0.0031745092 0.0009885745 -0.0009060058 0.0031975582 -0.0019869758 0.0012345089 0.0011616973 0.002575897 0.0011787973 0.0019396145 0.00039572275 -0.00010889198 -0.00035078952
23 -0.0026771752 0.0010061217 -0.0013245293 -0.0020275125 -0.003555843 0.0011073995 0.00277869 -0.0017251791 -0.0031001337 0.0012395874 -0.00016181236 -0.0010047955 0.003634295 0.0015210637 0.0020502764 0.00231571 -0.003666048 0.0030329677 -0.0016489726 0.0030403573 -0.00054207 0.0020644106 0.0035991955 -0.0030388837 0.0020788773 0.0016612902 0.003567244 0.0034147745 -0.0021243934 -0.0006764087 0.0025636507 0.0022518497 -0.00031009258 0.0014396581 -0.0013892979 -0.0029646342 0.0009348657 0.0011738467 -0.0031195206 0.0019306456 -0.0024032863 0.0020818417 -0.0021574714 -0.0006402357 -0.0012321342 0.0021556306 0.0018602414 -0.001854765 0.0036729996 -0.0019661249 -0.003004613 -0.003854006 0.0021463803 -0.0010633263 -0.0031586175 -0.0023653542 -0.0023447056 -0.0008948793 0.00040379865 -0.0018403345 0.002779538 -0.0032333704 0.0011554373 -0.00077132485 -0.003394954 0.0025372512 -0.0018475546 -0.0019032294 0.0010191309 0.0014270023 0.0019042427 0.0025147148 -0.0009800346 -0.0038660716 0.0028470394 -0.003138816 -4.197227e-05 0.00027572658 0.0023326057 -0.0008641439 -0.0008980855 0.0019988548 0.0032590074 0.0029073488 0.0011947792 -0.001168658 -0.002001914 0.0026818756 0.0017200116 -0.002423496 -0.003497649 -0.002802149 0.0024234576 0.0021695183 -0.0023256072 -0.00093972054 0.0017556433 -0.0036573738 -0.0024183083 -0.00029076266 -0.0014135018 -0.0005505839 0.0016669126 -0.00029081202 -0.0014626541 -0.0010068802 0.0033587874 0.0006809529 0.00303249 -0.002648724 0.0011482856 -0.0028395264 -0.00086820277 -0.003012119 0.0030147242 0.0025101702 -0.0013197113 0.00025787952 0.0023850251 -0.00095168146 -0.002229549 -0.0019547835 -0.0022767114 -0.0037257867 -0.0037800828 -0.00289376 0.0010493571 0.0033251273
25 0.002623803 0.00051294867 0.0032688135 0.0012600112 -0.00303133 0.003274158 -0.002436266 -0.002235026 0.0006732673 0.00053308636 0.0016047943 0.00015472744 0.0019810207 0.0014800898 -0.002411438 -0.0007723327 0.003362216 -0.0014573782 -0.0018985795 -0.0018641527 2.8089711e-05 -0.0028385047 -0.0038625577 -0.001921094 0.0026928766 0.0019243042 0.00016076608 -0.0013891341 -0.0032811754 -0.0021489824 0.0028101702 0.0008949997 -0.0033322088 0.0009131298 0.0014156288 -0.0037627667 0.0036934188 -0.0029059558 -0.0031574897 0.0029783146 0.00087879866 -0.0010114769 0.00068631914 0.0022568125 -0.0019540472 -0.0007187903 -0.0022338326 -0.0005267497 -0.0006273167 -0.0019016325 0.0026376003 -0.0019663577 0.0031847695 -0.0019656203 -0.0038125133 0.00369269 -0.0011693737 -0.0007388089 -4.1008745e-05 0.00016873154 0.0021736105 0.0009049854 0.00053609884 0.0015074804 0.0017700461 -0.003770805 -0.0038378977 -0.0016150414 -0.0015011142 0.00038930107 -0.0038260026 0.0025649022 0.0017368927 -0.003473212 0.0025541682 0.0031719937 -0.0031103985 0.0032432973 -0.001303202 0.00021160075 -0.0027984022 -0.00210039 -0.00028032326 -0.0013570569 0.0011024559 -0.0033188849 0.0017891574 -0.0031395687 -0.0014580912 -0.0024312988 -0.0038000233 -0.002707623 0.00051990466 0.001035878 -0.0005795179 -0.001706715 -0.0032205053 -0.0028920495 0.001021313 0.0035322974 -0.0007113502 0.0029013606 0.0010053766 0.0035382817 -0.0011724484 -0.00053434 0.001521357 -0.003816275 -0.0026875238 0.0006629503 -0.0026557134 -0.0005859877 -0.0008106917 0.0027394951 -0.0038284939 -0.00032247798 -0.0035934558 0.0011725795 -5.607053e-05 -0.002865001 0.002893691 0.0011480745 0.0032509032 0.0028468992 0.00027970358 0.0002894728 -0.0014643477 0.0026542635
38 0.00082184066 0.0012742236 0.0011082379 -0.0017683692 -0.0024807488 -0.0012511073 -0.0018477582 -0.0016467809 -0.00082284835 -0.0037415866 0.0012900654 -0.001304578 0.0037995307 -0.0018703246 0.0026234207 -0.0035066148 0.00022439173 0.001137334 -0.0016912291 0.0007579048 0.002960836 -0.0014351791 0.0030715037 -0.003402151 0.0007715569 -0.0014295002 0.0037096862 0.0035167555 0.0025872996 0.0012817195 -0.00068227836 -0.0005650353 -0.0027507946 0.0018010546 -0.0034786763 -0.00057210366 0.0024321093 0.0010348513 0.0014250502 0.0019134381 -0.0022557704 -0.0029902111 -0.0013511418 -0.0027462372 -0.0032620593 -0.002232938 -0.0001931536 0.0024675715 0.000541563 0.0018142591 0.0018356111 0.0037593276 -0.0026694506 -0.0029351383 -0.00070903567 -0.00017165903 -0.003075329 0.00195881 -0.0022760883 -0.0038575283 0.0033634664 0.0027208882 -0.0025330016 0.0031875237 -0.0011621391 0.0033827312 -0.003254248 -0.0020289691 0.0039026763 -0.0036895543 -0.0021169041 0.0030413033 0.00013203669 0.0028658395 0.0015635274 -0.0011647128 -0.0030836037 0.0036584106 0.00082310714 0.0018093778 0.0029511924 -0.00370912 -0.0031377864 0.002044798 -0.0004225345 -0.0036509386 0.0024992076 0.00019415402 -0.0013389977 -0.0019203308 0.0017473416 -0.00069883326 0.002346256 -0.0010647787 0.0012584443 -0.0035766682 0.000978322 -0.00052189146 0.0018100837 0.00068088446 -0.0026231979 0.002516398 -0.0025985248 -0.0013274415 0.0035890995 0.0021074845 -0.0026867387 -0.0031939633 0.0007329584 0.00013267514 0.0020584408 0.002369052 -0.0004476463 -0.0006559382 -0.0020460282 0.0027950925 -0.0013362584 0.002308339 0.0034564997 0.0016166592 0.0020569747 -0.0018615508 0.0017336648 0.0010941367 -0.0028287705 0.0016354434 0.002431431 -0.0034654872
4 -0.001534948 -0.0019470959 -0.0015698692 0.0028444196 -0.0020673596 0.00056554424 0.0029486595 -0.0013807325 0.0003378472 -0.0016505003 -0.0019863471 0.0027409703 -0.00038394524 0.00055619597 0.0002488243 -0.0027174402 -0.0006254739 0.003040833 -0.003462819 -0.0018836029 -0.002418582 -0.002475644 0.0018571422 -0.0020965491 -0.002239824 -0.00015179062 0.0011960858 -0.0008073282 0.0014756847 0.0009615721 -0.0034608427 -0.0018706223 0.00046814556 0.0027199434 -0.0019095014 -0.0017616448 -0.00029015567 0.0018223656 -0.0035710456 0.0022754974 -0.001428124 -0.0037244733 0.00033293114 0.002039286 -0.0023727992 -0.0007509444 -0.0038224645 0.0008756281 0.0023577458 -0.0017711591 0.003208556 -0.0038473613 0.00058076816 -0.003731097 -0.0025691104 0.003365457 -0.003246256 -0.003129553 0.00079473027 0.002881631 0.00014259879 0.0011868833 0.0004215756 0.00018934587 0.002666587 -0.0016550054 -0.00068840757 0.0027830123 0.00070087257 -0.001297221 0.0019302835 0.00018642443 -0.0027492847 0.001679319 0.001921007 -0.0031924322 0.0033370168 -0.0016438175 -0.00097577705 -0.0036095998 -0.00134753 0.0028822487 -0.0005795374 0.0014758498 -0.0037170982 0.00056832115 0.0034514917 -0.002523449 0.0037152795 -0.0016380406 0.0037418888 0.002175262 0.0021150312 0.0030673628 0.002438332 -0.0012128643 0.0031769436 -0.0031507437 -0.001392371 0.0020119455 0.0012008292 0.0020417443 -0.0031846978 0.0030478495 0.0035921284 0.0014943663 -0.0023220936 -0.00046273865 -0.003183289 0.0009435227 -0.00046615535 -9.264034e-05 -4.5813664e-05 -0.0023283586 0.0028463693 0.0036314994 0.002938975 -0.002888497 0.0024006364 0.0006619542 -0.0012670571 0.0017715654 -0.0036957422 -0.0013787963 -0.0017046705 -0.0031533851 0.0005444159 0.0035418603
32 -0.0005584711 0.0010999324 -0.0013381199 0.00096109667 0.0017764239 -0.0036750508 -0.0015879025 -0.0027888105 0.001637474 -0.00012865989 -0.002246499 -0.0016708118 -0.0011289384 -0.0018241758 0.003471863 -0.003454987 -0.003277598 0.0036855561 -0.0033467712 0.0026279117 0.00083274266 0.002926209 -0.0030317085 -0.0026560258 0.00013044552 -0.0019687903 -0.00051462144 -0.001377911 0.0009655882 0.0016327729 -0.00113575 0.0034885444 -0.0024395417 0.0030847723 0.0011310213 -0.00030522313 -0.001416641 0.000377694 -0.0014412435 -0.0014289562 -0.00047568604 -0.0026021746 -0.0034377698 -0.0032710824 -0.0013766543 0.003193105 -0.0035106577 0.0014130388 -0.0030998734 -0.0034773946 0.0004829446 -0.0016412752 -0.0020789604 -0.0011794353 -0.0020919328 -0.001441306 0.0008007572 -0.0015612475 -0.0032112792 0.0025438827 0.0010274178 5.008006e-05 0.002143429 0.0038748765 -0.0013911851 0.0029298342 -0.002229292 -0.0019905348 0.0032446475 -4.2916414e-05 -0.0037871792 -0.00042187236 0.0022848318 0.0030279502 0.002996613 0.0028713748 -0.0028481307 0.0023273644 -0.0035107515 0.0035766594 0.0016366248 -0.0021088093 -0.0007490118 -0.0021421842 0.0014589474 0.0026965067 0.00357883 0.0033205713 -0.0009218349 -0.0029463845 0.0032491656 0.00334094 0.003382213 0.0037009388 0.0005195607 -0.0034123214 0.0033468225 0.0013935786 -0.003478298 0.00036967138 0.0007997287 0.00033566184 0.0030900023 0.0008308999 0.0035802312 -0.0030340555 0.0012229133 0.0013734045 -0.0019077626 0.0010254388 -0.0037880735 5.05662e-06 0.00081858377 -0.0021301913 -0.003636549 -0.0022675185 -0.0027499534 -0.0038375687 -0.00012942671 -0.0019190772 -0.0016719301 0.0014071799 -0.0007797806 -0.0007937718 0.0022847927 0.0018348972 -0.0034448341 0.0021914789
22 -0.0011804011 0.00035113766 -0.00051166496 0.0023912229 -0.0027523625 -0.00013353421 -0.00042511127 0.0026032624 0.003642702 0.0010246205 -0.0014955142 -0.0022763303 0.00097368483 -0.0016498026 0.0010225304 -0.0029820548 -0.0010976361 -0.0014322848 -0.00012893116 0.0024067794 -0.0033095065 -0.0011344815 -0.00073463394 0.002749389 -0.0025722568 7.589781e-05 0.0007656928 0.0013307683 0.0020052586 -0.0028287105 -0.0031142365 -0.0030906957 0.0030790376 -0.0014728779 0.002338828 -1.9892628e-05 0.0012696753 0.0012914136 0.001300982 -0.00033904353 -0.00031829075 -0.001210884 0.0016164194 0.0027175704 -0.0002431305 -0.0021798024 0.0033957385 -0.0028898641 0.000117052885 0.0035125236 -0.003552636 0.0017826539 0.0019676483 -0.0018928922 -0.0011976395 0.000793357 0.0022626182 -0.0017075932 -0.0009813015 0.0008442136 0.0025229666 -0.0006855208 0.0022590896 -0.0026283828 0.0017260447 -0.0010088505 -0.003834703 0.0037567844 -0.0018286243 0.0022190043 -0.0013887775 -0.002794614 0.0032512688 0.0008421533 0.0033055644 -0.0013667797 0.0029616265 0.00087380456 0.0021043103 0.00043370566 -0.0032165656 -0.00087766355 0.0033501456 0.0032487467 -0.0010033569 0.0029767621 -0.0028333408 0.0025738531 -0.00046361802 -0.0015777287 -0.000809398 -0.0013230613 -0.0008373617 -0.003059262 0.0031070872 -0.0012509339 0.0014654094 -0.0023404385 -0.0010189821 0.0014114144 -0.0019154672 -0.0028040463 0.00060370285 -0.0020305822 -0.0025924996 -0.0015893534 -0.00018231549 0.0031913163 0.0016808776 -0.0038101166 -0.0004934796 -0.0031754102 0.0029235475 -0.0018801951 -0.0027744933 0.0032657264 0.0029047239 -0.002132955 -0.0005392793 0.0008724103 -0.0010668947 -0.0036502634 -0.003021055 0.00036402405 -0.0004554915 0.0021392957 -0.0033747882 0.003227151
62 -0.0014308026 -0.0038547418 0.0027856028 0.0033087824 -0.00017679959 -0.003242322 0.0025957827 0.0038256992 -0.0028733078 -0.001844879 -0.0027881688 0.0015639623 -0.0034491378 -0.003188428 -0.00015681477 4.38243e-05 0.0022735582 0.0017089631 -0.000709053 -0.0012669014 -0.0018949192 -0.0038423839 0.0029415265 -0.0024496873 -0.0029830793 -0.00013908213 -0.0029861294 -0.0038359503 -0.0014869015 -0.0028160817 -0.0018771476 -0.0026025155 -0.001891622 -0.0013164426 -0.0026264617 0.0013717574 0.003697983 -0.0036377003 0.0018363956 -0.0038390986 -1.6463698e-06 0.0014750249 0.0020378402 0.0036688342 0.0019428922 -0.0015673747 0.0014504046 -0.0012791837 -0.0022574805 0.0015765 0.0007034501 0.0022350685 -0.00019789064 0.0023956813 0.0014695377 -0.0034762362 -0.0001028535 0.0014398627 0.0010045127 0.00275201 0.001336032 0.0007578273 -0.0026034552 0.0018773143 -0.0034414935 -0.0014535924 0.0006616338 0.0031306434 -0.0013785785 0.0016648946 -0.0015401564 0.0031722712 -0.002473762 7.1150316e-05 -0.0027686602 -0.0023025915 -0.0033091633 0.0023194146 0.001935427 -0.00031580363 -0.0007922752 0.00044382285 -0.002903496 -0.00011643765 0.0030406204 0.00283869 -0.0023640515 0.0028392167 -0.0028395425 -0.0025579568 0.0019474673 -0.0022255639 0.003375793 0.0025101954 0.00068455364 -0.0025313348 -0.0029387623 -0.0029642684 0.0034658369 0.00045343302 0.00095468113 -0.003053324 0.0025148399 -0.0007652944 -0.0030392192 0.000467671 0.0034906515 0.0012020043 -0.0014110215 -0.0012377311 -0.0018411974 -0.00080985896 0.0021575775 -0.0015928218 0.0014910905 -0.0011153473 0.0016199746 -0.002552536 0.0025532239 -0.001873724 0.0012012701 -0.001966502 -0.0018580992 0.0022508511 -0.0019085155 -0.0029697765 -0.0016347027 -0.0030836647
69 0.0038905076 0.0011746647 0.0023418823 0.0037644028 0.0019180916 0.0015853047 -0.001966564 0.0009940797 -0.00033955884 0.0038029777 0.00086479384 -0.0008455617 0.0036345865 0.0012087208 -0.001101317 -0.00095362833 -0.00285558 0.0020613875 0.0019276231 -0.0015232464 -0.003498831 -0.0006807364 -0.0001895989 0.00060315087 0.00011492058 -0.0004854785 0.0024498857 0.0021018747 -0.00373324 -0.0014882544 0.0029265322 -0.0017318032 -0.0006905446 0.0001413945 0.003708767 0.0021600062 -0.0009992071 -0.0031471408 0.0033771368 0.0015289169 0.0018891095 0.00020817651 0.0019028794 0.00093350693 -0.0020696297 -0.001546598 -0.0021044158 -0.0019841148 0.00013553443 -0.0014559601 0.0010252318 0.0021821687 -0.0016355033 -0.0020576036 -0.0017902591 -0.000244994 -0.0033173896 -0.002016989 -0.0014860389 -0.0002602469 0.0015717947 -7.692502e-05 0.003418993 -0.0027303973 -0.0013952422 0.0014143117 -0.0023068849 -0.002561927 0.0038663773 0.00067321764 0.0015110067 -0.0030307933 0.0033274593 -0.00094432925 0.003452984 -0.00021337476 -0.0014016072 0.0017614863 0.0016065136 0.00205777 0.0020528128 -0.00077942637 -0.0017849305 0.0010611305 0.00012159159 0.0009179111 0.0017712478 0.0037222567 -0.0026930515 0.0031279018 -0.0020834804 0.0010802476 -0.0018349788 -0.0026350652 0.00046456215 -0.0012998279 -0.0006300032 0.0016490421 -0.0037261606 0.0028916402 -0.002811467 0.00201967 -0.0029742036 -0.0035645282 -0.000390257 0.003508987 0.00079007837 0.0007563422 0.0032620635 -0.0016054476 -0.0009988818 -0.0036721125 0.0012988221 -0.0015284626 0.002618791 0.0014164648 -0.00065067393 -0.0032014078 -0.0029775442 -0.0015863415 -0.0023702022 4.8172602e-05 -0.0009257401 -0.0037465573 -0.00022302826 0.0026764919 0.001522978 -0.0018868907
37 0.0028491404 -0.00032773725 -0.0014322194 0.0036781493 -0.0010204179 -0.001090114 0.0025246774 -0.00041924044 -0.00020670502 -0.0013982963 -0.00030881885 0.0032053308 -0.0005089385 0.0005579093 -0.00285635 -0.002086385 -0.0015705511 -0.0006698397 0.0022904654 -0.00048518382 -0.00083679863 -0.00014923063 0.002134635 -0.0030821033 -0.00030496955 0.0020497805 0.0012386856 0.0037923462 -0.001348016 -0.0033166348 0.0028885677 0.0024320139 -0.0008389394 -0.00073192304 0.001255446 0.0036788597 -0.0016633568 0.00096072064 -8.397773e-05 0.0018297586 -0.002086623 0.0020231544 -9.256032e-05 0.00043331855 -0.0032149847 0.0032988088 -0.0024896092 0.0009644825 -0.00035388875 -0.0029161302 0.0004763339 9.917846e-05 0.0027824026 0.001796083 0.0038572997 0.0029764667 0.0013837458 -0.0025016253 -0.0012928749 0.0019416753 0.003027678 0.0025798175 -0.0006854868 -0.0019535378 -0.0008237349 0.0033839603 -0.00021728469 -0.0030727342 -0.00013645725 0.0014946297 0.0031401396 0.002959799 0.0007254503 0.0005254355 -0.0005118987 -0.0011083211 0.0032040188 -0.0012867759 -0.0033618328 -0.0004938688 0.001849295 0.0016324199 0.0032243233 0.0034399773 -0.0036737276 0.0023365528 0.001798863 0.0035640944 -0.002875306 -0.0019915965 0.0012079414 0.002937126 0.0026723437 -0.0034754816 -0.0032512434 -0.00036895717 0.002403152 0.0025267412 -0.0035426924 -0.0027049165 0.0028515789 0.0012637334 -0.00034200156 0.0018444918 0.0024947834 -0.00015836001 0.0020515234 -0.0011454573 0.0025128534 -0.002957361 -0.0025370046 -0.00024230445 0.0028408489 -0.0008122118 0.0038262117 0.0036790862 0.00013508931 0.0028187903 -0.0024929487 -0.00133414 0.0005405687 0.0011133892 -0.0022232123 -0.0015252018 -0.0037251308 0.0034694467 -0.0020580017 -0.0026110003
36 0.0029398103 -0.003089171 0.00079320895 -0.0035353722 -0.0019172818 -0.0023537737 0.0012288213 -0.0031407708 -0.0027119934 0.001139348 0.0009875383 -0.00053901965 -0.003746996 0.0024329182 0.0037123098 -0.0037185468 0.003823255 0.0032284702 -0.0021913848 0.0036943804 -0.0023144851 0.00012394063 -0.00096237514 0.0027856817 -0.0033349611 0.00041659805 0.001048059 0.00055867236 0.00069186784 -0.0014710078 -0.0031846808 0.0026268982 -0.0007293007 -0.001257687 -0.003255702 0.00045601832 0.0011747445 0.0027673529 0.0020260585 -0.0031376726 0.0030855695 -0.0025597448 -7.851461e-05 -0.0006565711 0.0002765843 -0.00284925 -0.0033622505 0.00054355274 -0.0012286536 0.00063535874 0.0022895872 -0.0014880361 -0.0031529777 0.00089222874 0.0011534004 -0.0029839298 -0.00052179757 -1.9340216e-05 0.0028127872 0.0023546377 0.0024548173 0.0015872463 0.00050970435 -0.0037051921 -0.0039044095 0.0030994734 -0.0027001014 -0.002892323 0.0023256897 -0.0014959819 0.0031573398 0.0027934157 0.0025572293 0.0021898688 0.0010879522 -0.003584691 0.0037766024 -0.001725511 -0.003145448 0.0008709726 -0.0005921641 -0.0013917784 5.7088335e-05 -0.0028961212 -0.0017787666 0.0024303792 0.002934328 0.00175277 0.0013167392 0.0020786184 -0.0007387235 -0.0036124708 -0.0018835622 0.00064641924 -0.0025545857 -0.00077022245 -0.00087007246 -0.0030894394 0.0010278529 0.0019111133 0.0010160918 0.0016325347 -0.002925086 -0.0020155355 -0.00012221189 1.0237407e-05 -0.00014561988 -0.00082115 0.0016128796 -0.0023545078 -0.0001879093 -0.00082524226 0.0029433053 -0.0022671549 -0.002074285 -0.0037973137 0.0028168946 0.002757256 0.0010847977 -0.0025130473 0.0020495204 -0.0030047307 -0.0034734092 -0.001037877 -0.0027088893 -0.0012675849 0.0012222994 -0.0016529845
27 0.0036452166 -0.001622746 -0.00024782072 -0.002645437 0.00013539786 0.0013764406 0.00029903668 -0.0023917323 0.0022728853 -0.00034165086 0.00046488142 0.0016795527 3.661306e-05 0.002810722 0.0024553856 -0.0020969813 -0.0036736818 -0.0010000765 -0.0029723796 -0.00033475316 0.0026024147 0.00024386853 -0.0019440439 -0.0010431922 0.0009877632 0.0023920767 -0.0019115853 -0.0014347116 -0.00030647896 -5.7920817e-05 0.0016713477 -0.00046811756 -0.0014611796 -0.0029533424 0.0021657955 0.0025031543 0.001922481 0.002757505 0.0034253723 8.198066e-05 0.0019529078 0.0014737976 -0.00077933626 0.0038145033 -0.0038616243 0.00269728 0.002619498 0.0028339103 0.0019722625 -0.0004662209 -0.0012178546 0.000293374 0.002314981 -0.0034541104 -0.0024804706 0.0033085546 -0.0038283323 0.0014618931 -0.0015381918 -0.00052286644 0.0012318533 -0.0009957565 -0.002902748 -0.0017847532 -0.0034416434 0.0008339991 0.003729074 0.0013240931 0.0028143553 -0.0004024438 0.0020718784 0.0028754766 0.00059771625 0.0032059934 0.0036364933 -0.0038894196 -0.00028054463 -0.0011900187 -0.0037871734 0.0003033774 0.0014678129 0.0024580741 -0.0016099444 0.0011042439 -0.0021679038 0.0022557245 -0.0023501453 -0.002680467 -0.00089796225 -0.0027021791 0.0012323505 0.0022130276 0.0023446037 -0.0025686617 -0.0022068764 0.001481285 -0.0011963275 -0.00059980643 -0.0030068734 0.0010161859 0.0015615444 0.0030823168 0.002119985 0.0028686235 0.00091717264 0.0017938734 -0.003702693 0.0027722102 -0.0011664454 -0.0029209163 0.00085854664 -0.0018716616 -0.00052699493 -0.0008450863 0.0032195868 0.0022471682 -0.00065491797 0.0013409634 0.00097005995 0.0010861643 0.0002490891 0.002192077 -0.003519711 0.0021143798 -0.0027939382 -0.0025984638 0.00042357057 0.0015907775
21 0.0007877731 -0.0012192163 -0.0022293907 -0.0011031125 0.001927219 -0.0014322818 0.0021664435 0.0017061221 0.0018876458 0.002615384 0.0036689467 -0.002683107 -0.0008165285 0.0038632613 -0.0026136783 -0.0007609896 8.1316655e-05 0.0019957656 -0.00049689563 -0.0022363737 0.0021248902 -0.003011244 0.0020135185 -0.00020904685 0.0012047781 -0.0018290058 -0.0037674326 2.2447119e-05 -0.0018617808 0.0019750271 -6.126715e-05 0.002142957 -0.0004963966 -0.0008197148 -0.003630204 -0.0038850685 -0.0031850047 0.0017611323 0.003685544 -0.0024173977 -0.002117164 0.0010106283 -0.0033386385 -0.0019127582 -0.0027424619 -0.0013082167 -0.003804175 -0.0027143767 0.0003552673 0.0012540476 -0.0035724593 -0.003609272 -0.0029932864 -0.002383686 0.0025362656 -0.0029209163 -0.0022977267 0.00070618256 0.0034146514 -0.0013721059 -0.0007637695 -0.0010001052 -0.0036231554 -0.0038462146 -0.0030551078 0.0035689746 -0.0034636455 0.0011663109 0.003829231 -0.0033153065 -0.0028933033 -0.002012299 -0.0015165703 0.0009110528 0.0019014155 0.0025076994 -0.0038827292 0.0031649836 -0.0022738597 0.0031861016 0.0032626844 -0.003466988 0.000889337 -0.0008059134 -0.0034296792 0.0026809522 -0.00049967965 0.00026747858 0.0002807934 0.0024660463 -0.0026188488 -0.00205505 0.0022168115 -0.0008037944 1.8898021e-05 0.0035584588 0.0011865237 3.342487e-05 0.0021962905 -0.0015594584 -0.0037812456 -0.0038982653 0.0026996657 0.0037689335 -0.00064444315 0.0016453704 0.0006565231 0.0007216492 0.002599566 0.00039201128 0.0027585921 -0.0033505969 0.00062121276 0.0019645514 0.002142379 -0.002291251 -0.001325375 -0.0021908612 -0.002182403 -0.0033777521 -0.0004591406 0.0012699482 0.0016049256 -0.0009687161 0.0008721001 -0.0034176116 -0.0035274818 -0.0010679972
52 -0.0011586712 0.0011164049 0.0021530855 0.0019120595 0.0010989992 -0.0010403643 -0.0038534824 -0.0030046403 0.0013167852 -0.0006212364 0.0023824752 -0.0013367804 -0.002930672 -0.0037899553 -0.0024119932 -0.0017765032 0.0025069797 -0.0035203733 -0.0010978172 -0.0027001277 -0.0034635933 -0.0020452477 -0.003488186 0.0036666556 0.0031210578 -0.0017032028 0.00016913548 0.003298299 -0.0019491808 -0.0018762161 2.6114041e-05 -0.00013503518 -0.001059915 -0.0038564566 0.00078525627 0.00078818126 -0.0027499185 -0.0030622962 -0.0024242 -0.00055483263 0.0010930179 -0.0021003222 -0.0013109514 -0.00080014917 -0.0024657585 0.0016285367 -0.0016304795 0.00069601485 -0.0012652718 0.00092409994 -0.0032731018 0.0034935693 -0.0019865374 -0.0036905135 -0.0033610866 0.0011736832 -0.0015928214 0.0029529026 0.00065777317 -0.003474807 -0.0008638803 0.00037091775 0.00042003806 -0.00017086256 -0.0035929426 0.0031852177 -0.0022428262 0.002376572 0.0019922552 0.002591938 0.0007720844 -0.00319624 0.0025933066 -0.0012831003 0.00037095367 0.00090488826 -0.0019570263 -0.0034945635 0.0009911413 -0.0002476493 -0.003550083 -0.00090304454 0.001382721 0.001789201 -0.0036858837 -0.0011891953 -0.0025449265 0.001423917 -0.00051180006 0.0006744321 -0.003065323 -0.003850954 -0.0013749594 -0.0025501747 0.0038468302 0.0025812064 -0.0032345688 0.0018236882 -0.0028684074 -0.0031225537 0.003242373 -0.000633813 -0.003015665 -0.003467376 0.0033034196 -0.0018778926 0.0002855062 0.0019249505 -0.0028366523 -0.0028863393 0.00027316916 -0.0035343934 0.00170659 -0.0021362142 -0.002024692 0.0018431249 -0.0032149423 -0.0038219518 -0.0032568227 0.0011188075 -0.00341153 -0.0015360689 0.00024807494 -0.0010318169 0.0022876966 0.00046657375 -0.000714229 0.0018565791
75 0.0025157244 -0.0011202152 0.003772272 0.0017323577 0.00077152037 0.0038719417 -0.0034025086 -0.0032875289 0.0038358362 -0.0009194106 -0.0017541406 -0.0008815478 0.0036548683 0.0004310056 0.00081611745 -0.0020722323 -0.0031812005 0.0037315006 0.0026370585 -0.0030342464 -0.0032483253 0.0021785148 0.0012491978 0.0032537144 0.0007592533 0.002827486 0.0022978627 -0.00016129298 0.001405753 0.00037562332 0.002383227 -0.0016034275 3.056178e-05 -0.002129595 -0.0014232503 0.00039128307 -0.00038211138 -0.0038867784 -0.0008927093 -0.0016766726 -0.002831131 -0.0020569891 0.00010578829 -0.0031066816 0.0025137658 0.0013340678 0.001440653 -0.0016755868 -0.00029786388 0.0012309977 -0.0021272667 -0.00064808514 0.0026068483 0.00025150445 0.0035163017 0.0019440079 0.0020809884 0.0036515063 0.000907156 0.00010546257 -0.0019568787 0.002980116 0.0018308308 0.0005024878 0.0030758332 -0.0032807747 -0.0014642765 0.0030415645 0.0017579785 0.0010231185 0.0012440349 0.00017564253 -0.0007876395 0.0002746048 0.0014808447 -0.002948124 0.00016532211 -0.00064488134 0.0028289687 0.0034815948 -0.0018974994 -0.0024239237 -0.0024800103 0.00033183538 0.0029714063 -0.001476791 0.0011876491 -0.0025452243 -0.002440234 0.0021182597 -0.0037596487 0.0021611433 0.00064037717 -0.0027285097 0.00288639 -0.003838488 -0.003888548 -0.0016888784 0.0017949094 0.0014080317 0.002462438 -0.00062395143 -0.0010216506 0.0026398245 -0.0025730545 0.0006090015 0.0006379477 -0.0010938098 -0.0013197511 0.00188766 -0.0033638864 -0.0007642845 -0.0011832183 0.0030161086 -0.00088009087 0.0021948698 0.0018070287 -0.0031839653 0.0036959324 -0.0010339837 0.002159265 0.0024837304 0.0007874529 -0.001804026 0.0023149468 -0.003201871 0.0007444637 -0.0027773823
2 -0.0025657665 -0.0038119985 -0.003833068 -0.0034398078 -0.0015828878 0.002747703 0.0031152768 0.0003877907 -0.0015439786 -0.0013011738 -0.0010998393 -0.003703283 0.0025579457 -0.0033570433 -0.0035147958 -0.0020902825 0.0025893315 -0.0020155937 0.0008621201 -0.002666211 -0.00046055563 0.00040124153 0.0022030124 -0.001184813 0.0013260363 -0.0029734897 0.00023105227 0.0014228143 0.002338855 -0.0030096162 0.00022089065 -0.0009096485 0.002709 0.0037516544 0.0017857376 0.0012325943 -0.0023328697 0.001780807 -0.00060755614 0.00027217178 0.0025104468 -0.001272811 0.0033361316 -0.0037865709 0.00320626 0.0011313302 0.00021689959 0.00321475 -0.0029465035 0.0023225893 0.0023513567 -0.0017184658 0.002695427 -0.0004552429 0.0018033598 -0.0016400254 -0.0033279671 -0.0022510015 -0.0026974597 0.0037077884 0.0014448785 -0.001184004 -0.0025911774 0.0026968017 0.002515534 -0.00072692527 0.0038031 0.0009637308 0.002548176 -6.0810624e-05 -0.0012728835 -0.0028982463 0.0023693666 -0.0020454074 0.0011458036 0.001780928 0.0018244141 0.001332582 -0.0016174046 -0.0036990056 0.0010779926 -0.00018561656 -0.003216119 0.0016661185 0.0020188533 -0.0030157152 -0.003220512 -0.0018060359 -0.0017274832 -0.00037170932 -0.0023929358 0.0011049957 2.8509512e-05 0.002522568 0.0033507992 -0.0032011718 0.0031145676 -0.0026298314 0.0012470231 0.0034686888 0.0030562952 -0.00068278884 -0.0013231422 0.001820529 0.0018544071 -0.003464566 0.000784492 -0.0018146306 9.0490386e-05 -0.0015558334 0.001982992 0.0007606183 -0.0038123047 0.0036522949 0.0022225673 -0.0038875702 -0.0021791235 -0.0027479487 0.0011918371 -0.003431282 -0.0037267087 -0.0030678662 -0.0010960946 0.00034220805 -0.002278161 0.002743508 0.0023292454 0.0009467409
55 -0.001715004 -0.001090695 -0.0022263953 -0.003099108 -0.0023557523 -0.00063417404 0.00027659745 0.001912694 -0.0010811845 -0.003650746 -0.0015826578 0.002523697 0.0008242325 -0.0027649424 -0.0024462848 -0.0031939286 0.0029793703 -0.0021957438 -0.00209979 -0.001989914 0.00037425614 0.0034160153 -0.0020271202 0.0002001788 0.00063003565 0.000538112 -0.002164523 0.001877137 0.0031375606 -0.0023376492 0.0018329985 0.0025895583 0.0015829196 -0.00046269473 -0.0025348526 -0.0037169494 0.001614116 0.0011900928 0.0035152503 0.0036957348 -0.003675776 0.0006507865 0.00055250456 -0.0034606834 0.003095277 -0.003036367 0.0036259326 -0.0028797023 0.00010705551 -0.0035251349 -0.0014203701 -0.0036090564 -0.001026014 0.002917064 -0.0007418848 0.00294758 0.0014447814 0.0026182202 -0.0028237624 0.0036078368 0.0009900643 -0.0027408586 0.0012052194 -0.0012988179 0.0014037718 0.0019412572 0.0023306278 -0.00071027485 0.00094390893 -0.003369108 0.0015208311 -0.00095660373 0.0027607265 -0.0023769203 0.0018176212 0.0018047125 -0.0033315916 -0.0026180474 -0.0027166835 0.0023247218 -0.0005992008 0.0008846132 0.0017288586 -0.00016800559 -0.0026821818 0.0029891334 -0.0004538373 -0.0023034378 -0.0038692297 0.00026408542 -0.0011445527 0.0010170857 -0.0017114413 0.0018029895 0.0009304646 0.0023731242 0.0036533952 0.0017547307 0.0021582665 0.0031652728 0.0037158655 -0.0028280616 -5.427514e-05 -0.0025736184 -0.00048088733 0.0018065387 0.0028464547 0.0022053036 0.0024647126 0.0034406083 0.0014341295 -0.003267354 -0.0018884075 -0.003363257 -0.0038855819 0.0016917406 -0.0008287575 -0.0030815366 0.0012683024 -0.0028124154 -0.0012645249 0.0014199886 -0.00019091184 0.003704884 -0.002199064 0.0014169951 0.002554212 -0.0005637139
49 -0.0012374801 0.002687893 0.0035791364 -0.00058245694 0.0025915108 0.0018095125 -0.0020805197 0.0030234226 0.0021483058 -0.0012505399 0.0011307888 -0.0015797185 0.0013513941 -0.0012265869 0.0012054531 0.0030234035 0.003861672 0.0019869034 -0.0036518357 -0.0007680612 -0.0007565586 0.0019045176 -0.001075418 0.0016238322 0.002995716 -0.0019121111 -0.0023326846 -0.0015428528 0.002355884 -0.00022097984 -0.0013308569 0.0003036287 0.0036448154 -0.002849981 0.002096898 0.00311074 -9.261919e-05 0.0020158736 0.0019076187 -0.0020029307 0.00096282584 -0.0022463754 -0.00027908102 0.0030860815 -0.001856242 0.0034145846 -0.0018884464 -0.0036874926 0.003611013 -0.0034920701 -0.00035153696 -0.0016864752 -0.00010360445 0.0030162327 -0.0031397298 -0.0028596614 -0.0012790659 -0.0031236212 0.0035956409 0.0012274008 0.0017585162 0.002806241 0.001077109 -0.0029913208 0.003274616 -0.0014629599 0.00051499694 0.0023467876 0.0022393125 0.0008780971 -0.0013101668 -0.0031256378 0.0015989129 0.0021393572 -0.0028103276 0.003275132 0.0038629726 -0.0024297247 -0.0031205032 -0.0011292299 0.0032461707 3.8580067e-05 0.0006867021 -0.00092758384 -0.0031902867 0.0020271046 0.0025725148 -0.0031938588 0.0013168058 -0.0009027898 0.00067585934 0.0039015745 -0.0004405027 -0.0036161754 0.00020579962 -0.00083830825 0.0030360834 0.0024282814 0.001384582 0.0027128395 0.002596089 -0.0029152902 0.0029807966 -0.0022155407 -0.0011489796 0.0010143074 0.0023469203 0.002675401 0.00023311978 -0.003571236 -0.003006731 0.0021910842 -0.0026110965 0.00053847395 -0.0029605478 0.0012661783 0.0028959564 0.0013598306 0.0019409589 -0.0038134141 0.0006838835 -0.0011656961 0.003399606 -0.0034120388 -0.000578507 -0.0030092942 -0.001075392 -0.00013844231
30 0.0010479674 -0.0026545066 0.0038698874 0.0038825918 0.0035141692 -0.0001407073 -3.3634078e-05 0.0006606057 -2.544695e-05 -0.0025306148 0.0017651214 3.0866293e-05 -0.0033995262 -0.0022354044 -0.00063857465 -0.0013101372 0.0021258553 -0.0013152726 -0.0031342756 0.0014482696 -0.00072069315 0.00088130165 -4.309921e-05 0.0030836528 -6.394595e-05 0.0026718238 -0.001316311 -0.0024263102 -0.0038846608 6.908071e-05 -0.00244939 0.0032485377 0.0018264123 0.0031974663 0.0035237316 -0.0032170992 -0.0014932675 -0.00089487043 -0.00041822475 -0.0038315558 -0.0019544517 -0.0010593901 -0.0038662879 -0.0034839981 0.0011908473 -0.0031123024 0.0029304284 -0.0012396106 -0.0015576949 0.0013800149 0.0017159109 -0.00089389994 -0.0021266842 -0.0013234682 -0.0015019437 -0.0018891016 0.0021620656 -0.0034330178 -0.0006563517 0.0013899268 -0.00097459345 -0.0017331854 -0.0030915716 0.0033351548 -0.0017834572 0.00093791244 -0.0022483694 -0.0029878253 -0.0019874647 -0.0010707361 -0.003794914 0.00326845 0.000116301715 -0.0007832998 -0.0033749945 -0.0016272984 -0.001313675 0.002861937 0.00094450946 -0.00065353385 -0.00097450975 -0.0036957995 0.0016050213 -0.0025567873 0.0018193008 0.0005774339 -0.00047172216 -0.00086872507 -0.0007900173 -0.001358955 0.0014934635 -0.0036839428 -0.000916119 -0.0027248973 0.0016295078 0.0011507592 -0.0029727463 0.0011992711 -0.000599283 1.2538413e-05 9.7016e-05 0.0016151266 0.0035296993 -0.0016080204 -0.0014865977 0.003277618 0.0018641041 -0.00017513316 0.0016256896 -0.0031443741 0.0033946082 -0.0035098367 0.00033794044 -0.0013358258 -0.0019987004 -0.00084366696 0.0021434384 -0.00023132574 0.0038558026 0.0023974571 -0.00026316714 0.0030472812 0.0034802097 -0.00385958 -0.0011661225 -0.0038963212 0.00092350156 -0.0005957422
42 -0.0022090732 0.0038915116 -0.0028132533 -0.000961302 0.00203964 -0.0036896926 -0.00016153815 -0.00092790154 0.0029940763 -0.0036152147 -0.0033572633 -0.002656237 0.003247854 -0.003775846 -0.0012046844 0.0015727138 -0.0012461018 -0.003270301 0.0015430552 0.000380152 0.0008099037 -0.0017591595 -0.00014405696 -0.00045152134 0.0030333465 -0.0029820707 0.0025080773 0.0007485524 3.2592983e-05 0.000567471 0.0010928431 -0.0018734297 -0.0037344238 -0.0028159707 0.0029632868 -0.0008073471 0.0019767052 -0.0027356246 0.002414872 -0.0037473212 -9.921326e-05 -0.0038787029 -0.0036530534 0.00070180814 -0.0003661348 0.0015220481 0.0008729499 0.001116449 0.0016589474 -0.0002745722 -0.0018315436 0.001704879 0.0026654298 -0.0012733355 -0.0027802342 -0.0024151846 -0.0002353058 -0.00043299654 0.0030080704 -0.0031315037 0.0010240161 0.0008603814 -0.00082349544 0.00012058578 -0.0036215533 0.003470942 0.00011929506 0.0036169912 -0.00018023331 0.0036981713 0.0036566476 0.0004520906 -0.0006319401 0.003443373 -0.0012683083 -0.0012668554 -0.0009964298 -0.0038532752 -0.0022978527 0.0020014353 0.0037645884 0.0021586122 -0.003253086 0.0012553927 -0.0007645046 0.00045478897 0.0007337128 -0.0033018421 -0.0011191436 0.0012293503 -0.0036707497 -0.0037395267 -0.0037997481 0.0034907446 0.00015320386 -0.00236259 -0.00036407253 0.002643562 -0.0038670192 0.0025956177 -0.0038556734 -0.0036520222 -0.002403342 -0.0029787037 -0.0026604952 0.002475553 -0.0020902592 -0.0031813795 0.0025181693 -0.0014029484 0.0025007762 -0.0038128186 0.0027589314 -0.0038732109 -0.0033049549 -0.0017579149 0.0012009718 -0.0012088318 0.0009448102 -0.0016884957 0.002771959 0.0013116817 0.002439714 0.0037924598 0.0017846669 0.0021044714 -0.0012630227 0.0033136124
53 0.0033783594 2.8894528e-05 -0.0007382815 0.0038576256 0.0012726656 -0.002380893 0.0023900545 0.0016138279 0.0038814147 -0.0012015759 -0.0005156403 -0.0011008792 -0.0011631685 -0.0018859584 -0.0028357508 0.0013723455 0.00017072402 0.0032297308 0.0036120228 0.002310614 -0.0030749377 -0.00088019733 -0.0019283363 -0.0031907111 0.0019946424 0.0037195366 0.0036806928 -0.00071245467 -0.003299 0.0032942132 0.0032601424 0.0014350258 -0.00027936324 -0.0004147518 0.0006990352 0.0032097944 -0.0017648174 -0.0006318171 0.00042469296 0.00106006 0.0034112255 -0.0032042365 0.0018974295 0.002026639 0.0026855636 -0.0020212582 0.0025189898 0.0037211047 -0.0006877611 -0.0036622076 0.0021319701 0.0015843385 0.0031191867 0.0015971188 0.0007052078 0.0008725431 -0.0031355554 -0.0029280314 0.0024732056 0.0038868051 -0.00037831158 -0.0005738935 -0.0011610357 0.0009143881 0.0005589871 -0.0021495624 0.0020711564 0.002529174 0.0009675861 -0.0019895816 0.000271147 0.0026567974 -0.0031546622 -0.0012643327 -0.0013697098 0.00061827083 0.0013080438 -0.0025291853 0.001089498 0.0006811417 -0.0038978404 -0.0038825627 -0.0029273431 -0.0024565572 0.003082227 0.002355186 -0.0034082832 0.0035318274 -0.0015179407 0.000102968515 -0.0038922683 0.0023169755 0.0019018064 -0.00026770425 0.00311943 -0.0022300745 -1.1725986e-06 0.0019877416 0.003341804 -0.00022438448 0.0032673269 0.0003762518 0.0030089875 -0.00071731047 -0.0007004768 -0.0006765509 0.0006293166 0.0014412883 -0.00065679004 -0.00038915555 0.0017309024 -0.003738512 0.0028025396 0.0013729425 0.0010851638 -0.00046585687 -0.0016762953 0.0034152668 -0.0026395803 -0.0025411057 0.00050345744 -0.0028808548 -0.0005419543 0.0037163447 -0.002083291 0.002553883 0.0008983931 0.0026273325
45 0.0036610498 -0.002427462 0.00044870228 0.0019379688 -0.001975838 0.0023453413 -0.00093138905 0.0033515838 -0.0001730564 -0.002040437 -0.0037856833 0.0030482172 0.003258412 -0.00036045891 0.0007917305 -0.0021738298 -0.0034224526 -0.0027756533 -0.00013276444 -0.0011141207 0.0010659212 0.0025052207 0.0011163896 0.0037739365 -0.0034934282 -0.0002111663 0.0022327711 -0.0025194553 0.0008994791 -0.0005107433 0.0036651143 0.0017626932 -0.0032673115 -0.00079938205 -0.0020545633 -0.0008814881 0.0019468477 -0.0018864095 -0.001445795 -0.0010844355 0.0021523118 0.0012223527 -0.0027420109 0.0020942928 0.0001960759 0.0036527268 0.0036960538 0.0027374183 0.0013692782 -0.00011030246 -0.00093517924 0.0012823651 -0.002549152 0.0026667083 -0.0037859816 -0.0014265075 -0.0026894133 0.0036189223 0.00015575597 0.0024244771 -0.0027333847 -0.00039198739 -0.0008455398 0.00089643983 0.0007667747 0.0018832814 -0.0012900165 0.00063262734 0.0007461928 -0.00095980323 -0.0027502633 -0.0007013951 -0.0035763427 -0.0017776341 -0.0033553906 0.002846399 -0.0021775644 0.003058992 0.0010127409 0.0013287291 -0.0025451782 -0.00057252654 0.0036275177 0.0029210101 -0.0021066605 -0.0019507193 0.002563845 0.00033772233 0.0017636615 0.00093565433 -0.002327621 -0.0017262086 0.00020469807 -0.0033427863 0.0036849666 -0.0014508222 0.002987837 0.0011154119 0.0035476196 0.0020631102 -0.003284131 -0.0010966867 -0.0011206007 0.00024989204 0.0020184622 0.0037639677 0.0024860047 0.0014496534 0.0028398798 -0.0014933478 -0.0035102777 -0.00095129386 0.0025226125 0.0025534576 -0.0035126742 0.002428818 0.0017401684 -0.00052670954 0.0030380993 3.1585746e-06 0.0021184166 -0.00050678925 0.0027769522 0.0034724085 -0.0011218517 0.0010775795 7.13455e-05 0.0024017498
20 -0.0019547208 -0.0020275407 0.00013974869 -0.0037522588 -0.00092398736 -0.0010740124 -0.0029236507 0.00014974349 0.0013765923 0.0016938436 -0.002640276 0.003868634 -0.0023462581 -0.0021953636 0.0015517549 0.001391958 0.0037899066 -0.0015867422 0.0013616721 0.0009797376 -0.0019688685 -0.0028804834 0.0017493697 0.0028169886 0.003645783 -0.0033970585 0.00340192 0.00031505554 0.002461036 0.002198624 -0.00049595797 0.0033876922 0.0032890998 -0.0006189219 0.0026172604 0.00043192005 0.0007146615 0.0027272278 -0.0011783531 -0.00065449066 0.002859085 -0.0035001913 0.0002703854 -0.0005143101 -0.00078192365 -0.0037066026 -0.0032028009 -0.0037815957 -0.001726061 -0.0031272906 0.0013929722 -0.00048207564 -0.0016823192 -0.00010606852 0.001288265 -0.0024921806 0.0032721628 0.00012167562 0.0001302019 -1.0680907e-05 -0.0015582242 0.0023945183 -0.0019593614 0.0017878708 0.0015664058 0.0014318813 0.0021225293 -0.0034770258 0.003588521 -0.0010379709 -0.0020346616 0.0038015416 0.0017383097 -0.0008939015 -0.0032888963 0.003353547 -0.0017248921 0.001107916 -0.0037580708 -0.003410364 0.0011955044 0.002936331 -0.0013329125 0.00032251936 -0.0007093745 -0.0018095844 0.003749604 -0.0014385139 0.0010503929 0.0026199115 0.0026353986 0.00085567834 0.0014392912 0.003293142 7.37732e-05 0.0015153689 -0.0035257891 0.0013738138 -0.0029090382 0.0005729525 7.064827e-05 -0.0032239342 0.0029648119 -0.0023042238 0.0025354966 -0.0037708606 0.0023812228 0.00093068596 0.0036963946 0.0037176092 -0.003285283 -0.00041042588 -0.0012733336 0.0032960027 -0.0034117287 -0.0010300904 -0.0035949294 -0.0025568833 0.00049369474 -0.0029331497 -0.0022166192 0.0010758409 0.0022024433 0.003338816 -0.00046416835 0.0023894226 0.0012978843 0.00029966008
19 -0.0027032336 -0.0017372998 0.0029686503 -0.0012103491 0.0020376293 0.0026040657 -0.0012529419 -0.0010392584 0.0015648792 0.0025356596 0.0035244273 0.0007569428 -0.002743292 -0.0024039901 -0.0015961281 -0.0037645076 -0.003384974 0.0024969098 -0.0013518729 0.0011053886 -0.00090280565 0.0027720248 0.00034964227 -0.0035943496 0.0038670083 0.0021955164 -0.0025339418 0.00046793118 0.001886347 0.0021001613 -0.0019733177 -0.0008283801 -0.0011741921 0.0012924498 -0.00013643809 -0.0010960416 -0.00027810028 0.0031632895 -0.0018430488 0.001395709 0.003567415 0.0033595185 -9.8975375e-05 0.001014364 -0.0019379812 -0.001980525 0.002390859 0.00013717425 -0.0012810025 -0.002639435 -0.0004429464 0.003895931 0.00084372156 0.002913854 0.0012789612 0.0016966142 -0.0035864678 0.0025252516 0.0027391675 0.0014048568 0.000956842 0.0033975502 0.00028533494 -0.0016611768 -0.0016333993 0.0025596262 0.0033511075 0.00062682555 -0.003883673 0.0030199657 0.0029310829 0.0005675958 -0.0030961032 0.0026216747 0.003712947 -0.00091292156 0.00033995576 0.0035790035 0.0024909268 -0.0029399304 -0.00023278221 -0.0012536558 0.0031214438 0.0033760464 -0.0018288271 0.0010885235 0.0014489179 0.0034052518 -0.003657375 -0.0003952477 -0.0016599777 -0.0038866168 0.0013486363 -0.00015517033 -0.0021683236 0.00045634285 0.002031762 0.0016075193 -0.0030233127 0.0012150329 0.00031800073 0.0019360768 0.002212079 -0.0028457295 0.0024017342 -0.0037170236 0.0017042279 0.001418361 0.00084241095 0.0015552844 -0.0031076458 0.0016596471 -0.0038274378 -0.0009475284 -0.0030011989 0.0007258735 0.002194804 0.00036498567 0.00062015874 -0.0024345983 -0.0036986896 0.0006485876 0.002380376 -0.0036059415 -0.0002698107 0.0027283118 0.0038014266 -0.0018021946
3 -0.0025150874 -0.0015265596 -0.0034148071 -0.00067530636 -0.0033853927 0.0030648052 -0.0032800655 0.0039022458 -0.00030640888 -3.4535373e-05 -0.0036597901 0.0023664748 0.00015861538 -0.0028124813 0.0013008906 0.001906392 -0.00245148 -7.298876e-05 -0.001930332 -0.0021154403 0.0005791695 -0.00029995712 -0.0005826488 -0.00028043307 -0.0026591336 0.001577168 -8.112201e-05 -0.0033828977 0.0016505417 -0.001228529 0.0032648826 -0.0002779708 -0.0022083442 -0.0003363864 0.00066734944 -0.0016542351 -0.0011236324 -0.0033105132 0.002994306 -0.0014482159 -0.00066269125 -0.0031545106 -0.00030125672 -0.0024738489 0.001908943 0.00329105 0.0004945276 0.0017348996 -0.0011327984 0.0016944502 0.0034447948 -0.0010234308 0.0033621332 -0.0033911315 0.001252752 -0.0037886275 0.0012319917 -0.0008732133 0.0010066469 -0.0021760615 0.0018947262 0.00093586964 -0.0017037741 -0.00024337224 0.0038303304 0.0005445449 -0.00021199897 -0.0036058424 -0.0032416608 0.0027513506 -0.00303213 -0.00034820093 0.0034138646 0.0029801799 0.0011609049 0.0021621364 0.0033804462 0.00059314637 -0.00069913664 0.0017748647 -0.0005862995 -0.0021241393 -0.0025569825 -0.00049125234 -0.0018619528 -0.0015182272 0.003109551 0.0020953084 -0.0009374814 0.0006484533 0.00293792 -0.0014020158 -0.0004238203 0.0019413544 0.000353725 0.002931569 0.00070086046 -0.001677181 -0.003175473 0.0032769043 -0.0014026464 -0.0035714977 0.00045494214 -0.002993518 0.0034974993 0.00276267 0.00331183 0.0013787751 -0.00080944796 -0.003384426 -0.003194131 0.0004011321 0.0024086102 0.0028261102 -0.00026492498 0.00011777368 -0.0014238002 0.001914639 -0.0011128417 0.003668907 0.0018968391 -0.002291568 0.0005501712 0.0020353184 -0.002844066 -0.0008514068 -0.0026626675 0.0025876728
35 0.00071184884 8.927913e-07 0.0012927407 0.0018941017 0.0036300053 -0.0031610348 0.0015986965 0.002387644 -0.00082936086 0.0017584375 -0.0036946426 -0.002707366 -0.0026987935 -0.0011787643 0.003688242 -0.0035969974 0.0008800858 -0.0018283144 0.003506628 0.002714365 0.0014945336 -0.001407994 -0.002467725 -0.002291081 0.0032935513 -0.0020078728 -0.0026685959 -0.0013480528 0.00022033657 0.00064669567 -0.0030086807 0.00050577574 -0.002972287 -0.0010596244 -0.002948084 0.0026377807 -0.0006991668 -0.00068339077 -0.0012761283 0.0008753879 0.0017044708 0.002802292 -0.0009400302 0.0014476443 -0.002117706 -0.00114345 0.0025895361 0.0013383307 0.00023611219 0.0027841565 0.0020194089 3.3279684e-05 -8.372918e-05 -0.0007877234 0.0023857947 -0.0014426901 -0.00071307074 0.0018055959 0.0014491943 -1.8728413e-05 -0.0020534727 0.0019246322 -0.00035607847 -0.002645691 0.0028561612 -0.0004306913 0.00049085397 -0.0009868426 0.002721402 0.0014068768 0.0007545155 -0.0010819515 -0.0009867327 0.0011453014 -0.0032776296 0.001752732 -0.0023081508 -0.0015137237 0.00243818 -0.0038364846 -0.0025590581 -0.0027651046 -0.0023957163 0.0005924023 -0.0029406399 -0.0013711513 0.0027761643 -0.0016925711 -0.003672235 0.0032783481 0.0027842612 0.0021425015 0.0022435575 -0.00032161726 0.0033718343 -0.0025008537 0.0032313615 -0.0033831499 0.0028565447 0.0029835314 0.0010164087 -0.0025029276 0.00247912 0.0011601333 0.0013976612 -0.003890749 -0.0018033751 -0.0029481058 -0.0008793278 -0.002412375 -8.737384e-05 0.0031150456 0.0017425586 0.0015156768 -0.0019859972 -0.003138172 -0.0018365593 -0.0038200908 -0.0038551174 0.0020778337 0.0030252475 -0.0036890008 -0.0023623582 -0.002596894 0.0036193891 -0.0011432988 -0.00089853926 -0.003103647
44 -0.0004531834 -1.6836444e-05 0.0028742081 -0.0015362932 -0.0036967983 0.0009057374 -0.0023021377 -0.0035188415 -0.00089335453 -0.0033320587 -0.0025410438 -0.002355091 0.0038179795 -0.00018075964 -0.00020927427 0.00010127208 -0.0036427625 -0.0014628419 -0.0038447552 0.0036742992 -0.0014357417 -7.9406855e-05 0.00030008735 0.001985062 -0.00023612802 -0.002502433 0.0009173865 -0.001478537 -0.001890505 0.0026848046 -0.0027871858 -0.0030231564 -0.00011043588 0.0022668638 0.0019566985 0.0029717106 0.003423051 -0.00018480896 0.0015921136 -0.0032394943 -0.003759365 0.00082861126 -0.003057171 -0.0015494707 0.0028379261 0.0015766518 0.0023559618 -0.00060811173 -0.0035429038 0.0013486608 -0.0003195966 -0.0032028542 -0.0022311436 0.001253661 0.0019281358 0.002453024 0.0037058706 0.0009896647 0.003834232 -0.00039661187 0.0028167018 -0.00092266314 -0.0037127263 -0.0002144193 0.001022241 -0.0025388154 -0.0002534236 -0.003450217 0.0031071417 0.002527429 -0.0036547396 -0.0006950854 0.0029490518 0.0037822262 -0.0002673502 -0.0036490741 -0.0010539154 -0.002942395 0.003357754 0.0019194051 -0.0032914944 0.00321674 0.0014871608 -0.002288003 0.0015821095 0.0026743729 0.0020308404 -0.0032974752 0.001997516 -0.0018274415 -0.0024638087 0.0034930785 9.6482145e-05 -0.003772175 0.003536936 -0.0032358177 0.000208737 0.0027253993 -0.001742643 0.0004511929 -0.0029092724 -0.0027410754 -0.0008690718 -0.003418892 -0.0038434677 -0.0002911632 -0.0028377785 0.0031239644 -0.002152523 0.002342048 0.0013763525 0.00225444 0.0004725278 0.003622006 0.002359072 0.00377597 -0.0026746579 0.00038684174 0.001915482 0.0006644903 -0.0009639179 0.0018521918 -0.0038647952 0.0005374317 -0.0011251348 0.0017127146 0.0033658294 0.002303585
50 -0.0009614669 -0.0022891052 -0.00087740127 0.0014156675 -0.0032414787 0.0034294561 0.0010502161 -0.0026837257 -0.0034156768 0.00019021434 -0.0019227179 -0.0028573247 -0.002648433 -0.00027180795 0.0013183943 -0.0021971823 7.131287e-05 0.0005227357 0.0022207743 -0.001519311 0.0017486266 -0.0019809413 0.0014692075 -0.002281172 -0.0016822988 0.0017121476 -0.002090901 -0.0011790575 -0.0021586055 0.00031736272 0.00024267203 0.0023668502 0.00186549 0.0022361137 -0.0020273011 0.0022261285 0.0020566643 -0.0024744722 0.00025506638 -0.0032897703 -0.00050112786 0.0030005956 -0.003836674 0.0034049463 0.002681536 -0.0012759046 0.0012501031 -0.002290488 -0.0008944041 -0.0021932235 0.00291814 0.0032564458 -0.0006228252 0.0009268383 -0.0035391832 -0.002698371 0.0022165815 0.002081197 -0.00027282006 0.0037001297 0.0018012621 0.00026440463 0.0012064807 -0.0022398965 -0.0025963408 0.0024923177 0.0025625254 -0.0006962088 -0.0033921667 -0.0008538209 0.0034312545 -0.0031814717 0.00032047878 0.0027267106 -0.00011029475 0.0022551734 -0.003681997 -0.0029518334 0.00068285986 3.7829645e-06 -0.00017426362 -0.00048068815 -0.00066911965 -2.6816382e-05 -3.3387518e-05 0.0027629058 -0.00068437465 -0.000913721 -0.00107892 -0.0030074725 -0.0009985714 0.0023899532 0.0027236638 0.0018186292 0.00057277037 -0.0011774178 0.00013305648 -0.0026259385 -0.0019006004 0.0022325437 0.0013381301 0.0012923798 -0.0014038904 0.0015182762 0.0032796096 -0.0019258179 0.0024842343 0.000687027 -0.0036147013 0.0030851301 -0.0029738608 -0.0035094775 0.0003636177 -0.0004584352 0.0016051162 0.0013289389 0.00355637 0.0036937166 0.00032375957 -0.0037027656 5.9086073e-05 -0.0006081329 0.0012727599 0.00027788416 -0.0018209334 0.00025973358 -0.0017076806 -0.0020097413
73 -0.0034632187 -0.0022633309 0.0010826738 -0.0032728454 0.0025372098 -0.0014233429 -0.0022034913 0.00073356053 0.0028686123 -5.5446308e-05 -0.0001531815 -0.0015974637 -0.0023459736 0.0019402406 0.0010628159 -0.0027308124 0.0023981594 0.0038731296 0.0024738424 -0.0026473415 0.0025673232 0.0037619513 0.0016312964 -0.002031376 -0.0038105876 0.0030442523 0.0029161468 -0.0016054701 0.0026633905 0.0029535894 -0.00053757045 0.002596895 -0.003340616 0.0027939288 -0.003532615 -0.00037107803 -0.0013628963 -0.0036725712 0.0030958399 0.0010766844 -0.0017209434 -0.0032663469 -0.0034356113 0.0012762162 0.0006540294 0.0028041918 5.482331e-05 -0.003088395 -0.00029598916 -0.00036246039 0.0021348284 0.0014636 0.0006825528 -0.0020178417 -0.0029523019 -0.0009745353 5.8654638e-05 -0.0021702878 -0.0035855917 0.0009432556 0.0018544034 2.7745333e-05 0.0013579717 -0.00083929766 -0.0036299818 -0.0034568855 0.0031359964 -0.0015713337 -0.0009512682 0.002153597 0.0034415796 -0.0028608937 0.0017969911 -0.0008195327 0.0036963183 0.0029573701 -0.0012229037 -0.0035120244 -0.0019099907 0.0030481785 -6.3672014e-05 -0.002558859 0.0035491176 0.0025450408 -0.001854539 0.002939421 0.0022709763 -0.0032416594 -0.0033790728 0.0029967558 0.0011994774 -0.0037153093 -0.00020873567 0.001732426 0.0037234025 -0.0012255529 -0.003394214 -0.0028168254 -0.001589427 -0.0022872197 -0.00033281016 5.0478593e-05 -0.0018911568 0.0033079947 0.0008114684 0.0023348583 0.0030795985 -0.00033634156 -0.00056931545 -0.0038775294 0.0020173145 0.001414295 0.0013531889 0.0015202429 -0.0022257068 0.0030666387 -0.003862483 0.002991804 -0.0019033614 -0.0004680839 -0.00083685556 -0.0017183301 0.0022045255 0.00010566213 -0.0005559832 0.0008721391 0.0038819986 0.002272846
46 0.00088128983 0.001956129 0.0035416496 -0.0030052466 0.0016729902 -0.0007829852 -0.0008369604 5.3809792e-05 0.003412253 0.0014365307 0.0011941014 0.0013983896 -0.000903206 0.0037008773 -0.0022510819 -0.0035598164 0.0016443675 -0.0012645432 -0.0004812038 0.0032601666 -0.0014440947 0.0013399122 0.0015917349 0.0032691543 0.0023862561 0.0035077196 0.0022512067 0.00083337177 -0.0016828789 0.0022634426 0.0010402617 -0.001358453 0.0016796655 -0.0037518167 -0.0009776134 -0.0024714407 -0.0022139752 0.0036793735 0.0036080044 -0.0010860269 0.0012602312 -0.0025427083 -0.0011559925 -0.00041272317 0.0010548537 0.0007217647 -0.0011854138 0.0017550357 0.003689257 0.0017704519 0.002071421 0.0035866997 0.002021657 -0.00066630455 -0.0012373575 0.0017267212 -0.002131192 0.0009383062 -0.0037422567 0.0031215025 -0.003244063 -0.003759659 0.0017220418 0.0023210256 -0.0023011668 -0.0013853293 -0.003822611 -0.0024033259 -0.0013724088 0.003776758 -0.0034718765 0.0010036891 -0.0028540522 -0.003533221 -0.0037624917 0.0006014327 -0.0015815456 0.0015358516 0.0019234432 -0.00058137055 0.00012048692 0.0011433228 0.00020792324 0.0008983973 -0.0035068656 -0.0032922444 0.003842839 -0.0019375146 -0.0023390898 -0.0013760387 0.001715357 -0.00061656587 0.002909766 -0.0010849108 -0.001953311 -0.0038739403 0.0010219105 -0.0035905454 0.0033762602 -0.0032831656 -0.0021353732 0.0027411892 0.0032609375 -0.00063275674 5.2644744e-05 0.0012303056 0.002732352 0.002846003 -0.0014182696 0.00116504 -0.0013994443 0.00013194677 -0.001997847 -0.002188903 0.0033536265 0.0006007381 -0.002463147 -0.00044916396 -0.002832179 -0.0005908144 0.0031408044 -0.0032872788 0.0015062653 -0.0009999076 -0.0037449298 0.0011127938 0.0014039087 -0.0030384394
31 0.001542192 4.0979612e-05 -0.0008834173 -0.0033214125 0.0030365367 0.0032469733 0.0026340762 -0.0022110771 0.002149751 -0.0025011662 0.0018202484 -0.003458085 0.00033041823 -0.0024863856 0.002117212 -0.0015036941 -0.0019421893 0.0018427789 0.00027205207 -0.0032859715 0.00056448154 0.0020960253 -0.0004332583 0.0023163685 0.00155984 0.0027053203 -0.0018059683 -0.0019624224 -0.0027941396 -0.00047204286 -0.00012225335 -0.0030422134 0.0035772067 0.00071478914 0.0022254428 -0.0027537686 0.0027883966 0.0030842847 0.002026217 0.0023016469 0.0016493384 0.00015341838 -0.0009640658 0.0031889556 0.0037486274 -0.0031333086 0.00077444356 0.003266361 0.00070176536 -0.0020047196 0.0014840704 0.0030822468 0.0020384286 -0.0010723819 -0.0030853 0.0035459446 -0.0025744948 0.0025898751 -0.0012303113 -0.0030472707 0.003684542 5.064752e-05 0.00096228905 -0.0017856249 0.0016227036 -0.00171676 -0.00180105 -0.0003414314 0.0038757988 -0.000700358 -0.002313144 -0.003879129 0.0026473799 -0.0029440385 -0.002139091 0.00064680737 0.0015463365 -0.0037965851 -0.0005595104 -0.0008575095 0.002829096 -0.0025302519 -0.00021522102 0.0015597307 -0.0025333457 0.0024801493 -0.0014227576 -0.0037140523 -0.0010608808 0.0026806486 0.0031331205 -0.0019135878 0.0027708423 0.0009986396 -0.0030572694 0.0033409826 0.0022810781 -0.0038764717 -0.0022690294 0.0032586965 -0.0017519463 -0.0035621356 -0.0037883634 -0.0025872046 -0.0016645315 0.002176527 -0.00076092157 -0.0029412094 0.0002500452 -0.0027293442 -0.00074746367 -0.0029077425 0.0034712092 -0.0002771472 -0.0010891927 0.0031445657 0.00057063234 -0.00063344155 -0.0033346997 -0.003595668 -0.000925334 -0.0011869716 -0.002812831 -0.0009722514 -0.002730385 0.0031218706 0.002844411 -0.000820759
61 -0.00045535414 0.0022260763 0.0026276347 0.00051528605 0.0008261524 0.0025345993 -0.0019715552 0.0036134557 0.0038435662 -0.0023325651 -0.0017826342 -0.0021141714 0.0004647129 0.0026381465 -0.0017863828 -0.00085061195 -0.0036178234 0.003055138 0.0013368619 0.00075381645 0.0017646453 0.0010104076 -0.0017255475 -0.0009224238 0.002704058 -0.0015745301 0.0016334053 -0.001633665 -0.0034737962 0.0035504906 -0.00079000817 0.0010016841 -0.0029668156 0.002584198 -0.0029556872 0.0016953606 0.00380482 -0.0010319261 -0.0036149963 -5.54801e-05 0.0026417042 -0.0037877124 -0.0013894218 -0.003686226 0.0012888699 0.00019430062 -0.0037807762 -0.0012030007 0.0022612857 -0.0035186158 0.0035228888 -0.0027618033 0.002097428 -0.0007370069 -0.0026795233 -0.0022296053 -0.0025166955 0.0018293152 0.0031603002 0.0032257417 0.0004910925 -0.0019411148 -0.0006892898 0.0011152426 -0.002982256 -0.0037943968 0.0034430407 -0.0018307314 -0.0005622267 0.0007463977 -0.0017910656 0.0016184582 -0.0031479518 0.0037137144 -0.0012599962 -0.0038063403 0.0032514809 -0.0017431043 0.001858998 -0.00198848 -0.0009462112 -0.00076542265 -0.0028324616 -0.0026917509 -0.0008636573 0.0034001733 0.002425022 0.0008129973 0.00065746537 0.00053789216 0.0022053204 0.0019120259 -0.0026605744 -0.0012486109 -0.00055384566 0.0034827532 0.0012028812 -0.0024830212 -0.0031817127 -0.0013841691 -0.0009213294 -0.0034850324 0.0038022846 0.0018513708 -0.0013865341 -0.0022770124 7.205334e-05 -0.0014966812 -0.002932918 0.0020818484 0.0037085423 -0.0018764066 -0.0027959722 0.002587046 0.00339753 -0.0022599844 -0.0011219867 -0.00082018087 0.0009824407 -0.002892553 -0.0033429228 0.0020591521 0.0027892343 -0.00062211533 -0.0015743639 0.0005835368 0.0004691659 -0.002341547
43 -0.0018256967 0.0017005746 0.001438949 0.002686899 0.00072544534 -0.0023866193 0.001680517 -0.0013696541 -0.0023293213 0.002267822 -0.002320966 0.000249267 -0.0022357926 0.0027232554 -0.0031025845 0.0005622106 0.00057984755 -0.0034386395 0.0034461285 -0.0016060068 0.00033399885 -0.0013980091 -0.002270745 0.0023293179 0.0012290935 -0.0022891723 0.0001558467 4.5197554e-05 -0.0017435206 -0.003125007 -0.0036803659 0.0005701986 0.0036639038 0.0017442935 -0.003201648 0.0020813115 -0.0015416986 0.0029915401 -0.0029369525 0.0029131135 0.0015523073 0.0036522422 -0.00023958177 0.0009421276 -0.0011304821 0.00062332035 0.0033537075 0.003613388 -0.0010257465 -0.0027204216 -0.001940009 -0.0014193323 0.0022413258 -0.0015042612 0.0003234189 0.0023653517 0.0021138105 -2.5839776e-05 -0.0016472008 0.0014305618 0.003847892 6.350125e-06 -1.293174e-06 -0.0011697966 2.0511996e-05 0.003841372 -0.00290429 -0.0014474898 0.0008822237 -0.0017138403 -1.565163e-05 -0.0038370648 0.00080613734 0.0031477646 -0.0007364778 -0.0019878603 -0.0015870858 0.00089019793 0.0025818436 0.00029975202 0.0010168047 -0.0014511762 0.002815583 0.003788975 -0.0030408783 0.0021560339 0.0016269569 -0.0023451878 0.00073154486 -0.002493169 -0.002685494 0.0008981517 -0.0007724315 0.0005079701 0.0023469988 0.0024197912 -5.5395016e-05 0.0029187964 0.0012883068 0.0006254368 -0.0027305568 -0.0034838852 0.0019408202 0.00174039 -0.00018917395 0.0018039129 -0.0031408393 0.0031357743 -0.00015731604 -0.0037992904 0.002078009 0.0016083425 -0.0030019877 -0.001666432 -0.0035477257 -0.00048130497 0.001654036 -0.0027040287 0.0029402575 0.00028804422 -0.0020938222 -0.00077667565 8.296313e-05 0.0031660576 -0.003705022 -0.00037384007 0.00245961 -0.0010079405
58 -0.0012291631 0.00128579 0.0025283443 8.377713e-06 0.002154214 -0.0032629904 -0.0030233897 -0.003755701 0.0016655435 -0.0026001835 0.0017238974 -0.002912054 0.0028709057 -0.0027206023 0.002238036 0.0014519634 -0.0029711416 0.00033750775 -0.0018493073 0.0030857022 0.0016797088 -0.001717762 -0.003130398 -0.00068808417 0.002873396 -0.0016940796 0.00043314038 0.0036520474 0.0028263817 0.00076132326 -0.0034478416 0.0005594943 0.0028005803 0.003193348 0.001963688 -0.0036224416 0.00029557603 -0.0005855242 -0.00044257852 0.00054798345 0.0020102477 -0.0027490044 -0.0003514446 -0.00083855656 -0.003443378 0.00085872045 -0.0025135847 -0.0022305478 -0.001168547 -0.0019666727 0.0030718115 0.00020035906 -0.003648451 0.0005723951 0.0016755457 -0.001330824 -0.0006575262 0.0032918318 0.0023685521 0.00043008325 0.0035865 0.0034330818 -0.0014741882 0.00037266294 -0.001166682 0.0029195044 -9.693456e-05 0.0038123808 0.0018369785 -0.0025534527 -0.0018690819 -0.0007953901 0.0006779714 -0.0033566435 -0.001798952 -0.0017333702 -0.00094308675 -0.0016058098 0.0002949051 -0.0014374087 -0.0027109452 -0.003657297 0.0001027104 0.0009838771 -0.00051916164 0.0019271297 0.002670761 -0.0031923659 0.0030307178 0.00316079 0.003238341 -0.001656983 0.00083604123 0.0022126287 0.0018572032 0.0015246932 0.0017740551 -3.1867203e-05 -0.0013008921 -0.002498059 -0.0034041328 0.0022557033 0.002869166 0.0030611407 -0.0015753609 -0.0024227514 -0.00011245721 -0.0029698797 0.0014184614 -0.0033718979 -0.0008560361 0.003559776 -0.0023695815 -0.0016720233 -0.00023984426 0.00064178824 -0.0036497794 0.0009462829 0.003777224 -0.0014379183 -0.0012233251 -0.0035082516 -0.003437114 -0.0014988424 -4.377221e-05 0.003399403 0.00261423 0.0028664295
29 -0.0013675144 -0.0033602319 -0.0037136802 0.002558861 -0.0023492484 -0.0028329606 -0.0010291386 -0.0017808066 -0.0017520266 -0.0013890426 0.001015782 -0.0006693611 -0.0030424697 -0.0034818957 0.0035090023 -0.00028204263 0.0005763544 0.003745691 -0.00370893 0.0010378737 0.0022016151 4.888463e-05 -0.0024032753 0.0013177297 0.002835699 -0.0016955029 -0.0035263763 -0.00021808283 0.0037182972 0.0020715294 -0.0030795552 -0.00041168317 -0.0020845002 0.0037905267 -0.0025412175 0.002009181 -0.00066747953 -0.002248747 -5.7469737e-05 0.002121139 -0.0037728492 -0.0010819891 0.001663734 -0.0032975667 0.003199608 -0.0035914704 -0.0003722422 -4.7461188e-05 0.0034944438 -0.0036154862 -0.0027706323 -9.996595e-05 -0.001333851 0.0014417192 -0.0024334504 -0.0036506285 -0.0033445058 0.0010720993 0.00053303223 0.0016786663 -0.0026999451 -0.0029621841 0.0015340652 -0.0014511677 -0.0038801155 -0.0012693105 0.002398746 -0.001212404 0.0028380123 -0.0019631735 -0.0035622893 -0.00081173144 0.00030235847 0.0011178196 0.0012467672 -0.003025465 0.0032884995 0.0023567574 -0.002226606 0.0035712882 0.0017500417 0.00379901 -0.0012862883 0.00020084054 -0.0023519835 -0.0018925292 -0.0036717674 -0.002797987 -0.001802007 0.0019286314 -0.0004757889 0.0010894025 -0.00044243495 0.0020951282 0.00015075272 0.0024448987 -0.00047743597 0.0018295632 -6.445389e-05 0.0003237606 -0.00067795883 0.0026327597 0.00079989055 -0.0020850531 -0.00028917895 0.0012767218 0.003204909 -0.0018378219 0.0019999777 -0.0029612035 0.00060472 -0.0011641197 -0.0022885746 -0.0019985083 -0.0024060952 -0.0017476161 -0.0033324363 -0.0028641238 0.0008560784 0.001070777 0.0011184971 -0.00081143406 0.00063147506 0.0005721024 0.00019996872 0.00075545703 -0.00041222372 -0.0038034476
48 0.0008819704 0.003493211 -0.0015926203 -0.0036442596 0.0022982517 -0.002882683 -0.003269126 -0.0016433771 -0.00067026226 -0.0012926303 -0.002920922 -0.0035935738 -0.0031341666 -0.0034808745 -0.0013542623 0.0036091984 0.0037746406 0.0023481348 -0.0032903384 -0.0027560277 0.0027192186 -0.0032446969 -0.00077933434 -0.002958938 -0.0015586319 -0.0009464837 -0.002752196 0.00063971453 0.001096735 -0.0034855676 -0.0015767625 -0.0005254629 -0.0035934828 0.003445058 0.0015761318 -0.00054992916 0.0019417305 -0.0008347674 -0.0021697634 -0.00093770825 -0.0033017073 0.0018163234 -0.0010092133 -0.00029980997 -0.0037313665 0.0006106196 0.00072290323 0.0017109405 0.0023247334 0.00022248397 -0.00045793178 0.001736962 -4.358366e-05 -0.0013696532 -0.0030539671 0.0008787734 0.0017252762 3.0642615e-05 -0.0013770498 0.0019305979 -0.003153492 -0.0030547064 -0.00028070007 -0.003646493 0.003091159 -0.0035971997 -0.002950437 -0.0009078118 -0.003818307 -0.0028664242 -0.00138877 -0.00030422787 -0.0035987883 0.0024994516 -0.002421817 -0.00034727965 -0.0025845072 -0.0038840815 0.0032328363 -0.0010219396 -0.0037271671 -0.00060685986 -0.0018677193 -0.0011471353 -0.0007448791 0.002000041 -0.0027608783 0.0030712953 0.0023791648 -0.0025428575 0.0008659768 -0.0026999258 -0.00033619002 0.0005274048 -0.002740426 0.0015397574 -0.0030214055 -0.0003408241 0.003136924 0.00066842436 -0.00024972003 0.0008976469 0.0015112003 -0.0024458738 0.001860562 0.0029453414 0.00091789337 -0.0024074218 -0.00010855613 -0.0016362689 -0.002509584 0.0018879088 -0.000957942 0.0027460495 0.0011394196 4.1513358e-05 0.0035627123 0.003511576 -0.0015306 -0.0020620765 0.0035148747 -0.0032597631 -0.0016811683 -0.00060568494 -0.0030763969 0.0025426925 -0.0011372158 -0.0016788365
18 -0.0014202023 -0.003844959 0.0019551173 0.0019985158 -0.0031426414 0.003748193 -0.0020485101 0.0006325531 0.0034885404 -0.0007743099 -0.0032123579 0.0023671312 -0.0039000914 -0.00051224476 -0.0028318362 0.0036949841 0.0013645969 0.00014423818 0.00156338 0.0022713745 -0.003479479 0.00055778737 0.0017045105 -0.0037104697 -0.0025544818 -0.0029040778 0.0010795211 -0.0036370605 -0.0007341787 0.00086694135 0.0027060164 -0.0021180057 0.0008680851 -0.003057922 0.0025766024 -0.0007051121 -0.0008730356 0.0019235015 -0.00087974 -0.0005824749 0.00042897012 -0.0023192153 -0.0006510141 0.0015044808 -0.003138117 -0.0032613855 0.0009147398 0.0033412536 0.0029664782 -0.0029131612 0.0032876832 0.0006539881 -0.002529732 0.0021611738 -0.0024469756 -0.0020600627 -0.0018178368 0.003886391 -0.0028871996 0.0007258761 0.0034848743 -0.0011120752 -0.0033826593 -0.0006886546 0.0003179837 -0.0019201227 0.0011952651 0.0026554682 9.029352e-05 0.0017539582 -0.0014303577 6.5784196e-05 -0.0033742974 -0.00011552508 -0.00045792223 -0.0022832805 0.00078417896 -0.0022899604 -0.0008258881 0.0013149076 -0.0034861257 -0.002277188 -0.0030044385 0.0011284075 -0.0019695405 -0.0014326039 0.0033022133 -0.0037444641 -0.0017839043 -0.0028208122 0.0032849382 0.0017333744 -0.003335974 -0.0031419497 -0.0026318282 0.0036990491 0.0020627251 -7.240436e-05 -0.0012279749 0.002055402 -0.00034904497 -0.002251776 0.000807764 0.0006718205 -0.00042359892 -0.0036667218 0.003685104 0.0036106806 -0.0026775172 0.0031918683 0.00064773526 0.0017342253 0.002981208 -0.000668453 0.0016789358 0.00031354712 -0.0023565444 -0.00012724209 0.0028094957 -0.0030392616 0.00356503 -0.0028796128 0.0016088809 -0.001260828 0.0008806647 0.0022603634 -0.003889878 0.003501997
9 -0.00041974752 0.003473581 -0.001728447 -0.0036124752 0.0033895199 0.0006819389 -0.00012509877 7.9941805e-05 -0.0026482763 0.0029745917 0.00012808919 0.0017016258 0.00046707576 0.00024810515 -0.00069754093 -0.0023712148 -0.00041948844 -0.000335178 -0.0009049179 0.002816246 0.0036025464 0.0015631131 -0.00052484294 0.0020520692 -0.0016393526 -0.003174345 -0.0032611345 0.0020026057 0.0021038388 -0.0026926408 -0.002917599 0.003698384 0.0039058288 0.0006374898 0.002681303 0.0020675359 0.0005758543 0.00038181775 0.0013245979 0.002817727 0.0009859275 -0.0014072655 0.001749096 0.0022255538 -0.0016029531 0.0011286465 0.0013580663 -0.0005149157 -0.0007829507 -9.4384544e-05 0.0001611471 -0.0025179575 0.0030224659 0.002669148 0.0035237726 -0.00083804067 -0.0011755752 -0.0029448497 -0.0024692174 0.0033332345 -0.0007860053 0.00039171567 0.0020545858 0.0027438633 0.0028937971 -0.0026096704 0.0016537373 -0.0034636303 -0.0022303346 -0.003652853 0.0007288924 -0.0015446941 0.00033024076 0.0032436983 -0.0038895486 -0.0027345095 0.0010586764 -0.0027000583 -0.0022834567 -0.0018526649 0.0027261905 0.0022996487 -5.725452e-05 0.003630932 0.003742118 0.0020847728 -0.0016770961 -0.0011839387 0.0018350265 -2.6853706e-05 0.002253492 -0.0030482092 0.0010460039 0.0018740892 -0.0036177381 -0.0036189628 -0.0023909213 -0.0020917866 -0.0017638626 0.00077226054 -0.0017293611 0.0008915211 0.0021683539 -0.00064613105 0.0033472294 -0.0033708492 0.0014203415 -0.00043470837 0.0018075367 0.0014284506 0.002941275 0.0018657362 -0.002158568 0.002086713 -0.0025881082 -0.0033711926 -0.00053904904 -0.0026098825 0.0021886348 -0.003714017 -0.0024363366 -0.0032575596 0.0024528278 0.0031767772 0.0010124618 -0.0028658456 0.0014379657 -0.0023237015
68 0.002919912 0.0033954005 0.0036226795 -0.0038500049 0.003857657 0.002901576 0.0004072532 0.0025120208 2.1017424e-05 0.0021987953 -0.0015500184 0.00019838182 0.003131439 0.00043751384 -0.0014289714 -0.0038891814 -0.00011285102 0.0037935528 -0.0025447793 -0.0026628568 -0.002457479 -0.0007680155 -0.00018830408 -0.0007919243 -0.0006237525 0.0030870114 0.00069163577 -0.0008804471 -0.0023566145 0.00048192308 0.0028178599 -0.0030452635 -0.00032342857 0.00023760577 -0.00045591846 0.0007982601 -0.0012943505 -0.0027734288 -0.0032028374 0.00042494727 -0.0032426398 -0.0020718167 -0.0011650277 -0.0020420537 -0.0008762474 0.00014671191 0.0031671927 -0.00025814 0.0024155788 0.0017427893 -0.0013514778 -0.0029600342 0.00072566594 -0.0024882946 0.0026180712 0.002469563 -0.00034226448 -0.0016311759 0.0007911438 -0.003299345 0.0014469315 -0.0019181663 0.0008757672 0.0011272461 -0.0014639397 -0.003550394 0.0012982681 -0.00023093069 0.0026608028 -0.0021785167 0.0010128779 -5.4242904e-05 0.000885487 0.0010199161 0.00045180117 6.5130885e-06 -0.00031124178 0.00077035796 0.0022498996 0.0009093804 -0.0018981841 -0.0034326937 0.00017430722 0.003234162 0.002061991 0.0017645457 -0.0021438142 0.002172058 0.00066733814 -0.0037704639 0.0036926174 -0.0026953178 -0.0021798934 -0.000512042 0.002555459 0.0030887357 0.0029867985 0.0009928691 -9.236702e-05 0.00015473152 -0.001326604 -0.00026966268 0.003757467 -0.0011092798 -0.0012889053 0.001775706 0.0027951582 0.001989248 0.00025699334 0.0014148352 0.0022730916 -0.0035469178 -0.0020679864 0.002416231 0.0033257278 0.00020027753 -0.002356199 -0.0005592593 -0.0037636654 -0.002660888 0.0013456226 -0.0034504195 0.0018770549 0.0025455165 -0.00015557326 -0.00025307943 -0.00086824887 -0.0034970148
6 0.0014814739 0.0024965552 0.0035166861 -0.0010120154 0.0024642628 -0.0030421377 0.0035990796 -0.002340702 -0.0015369593 0.0011480871 -0.00042881386 -0.0026649225 0.0030666674 -0.0032097893 -0.0029786492 -0.0023499823 -0.0015524713 -0.0021420033 -0.0011938333 0.00056590355 -0.0022338529 0.0017941823 0.0017424145 0.0027658667 0.0031653948 -0.0033041132 -0.00097626506 0.0010782534 -0.0036528448 0.0003437548 0.0023021046 0.001140435 0.0036022519 -0.0015753979 0.00052816153 -0.0014740389 0.002298588 -0.00027607926 0.0024347894 -0.0038956332 -0.0015360278 0.0020794848 -0.0013650024 -0.0022953472 -0.0018795833 0.0033691349 -0.0012524995 -0.0012529261 0.0015180666 -0.0019865513 0.00020280531 0.003604357 0.002479358 -0.002126413 -0.00010005168 0.0018504623 0.002075425 0.0005609963 -0.0008462206 0.0022368892 0.0020042595 -0.0024807365 0.0022477044 0.00055981264 0.00014787167 -0.0037230093 -0.0026474032 -0.0005196194 -0.0002866784 0.0025746378 -0.0007083843 -0.0019795166 0.0004815833 -0.00044909935 -0.0025682752 0.0018371103 -0.00022122457 -0.0025405646 -0.0036927522 -0.0034633083 0.0015465736 0.0033354023 -0.0008016086 -0.00058670645 -0.00019884662 -0.0024397096 0.0027555511 -0.0025061658 0.0033221021 0.0031842191 0.0033694345 0.0028245097 -0.002413471 0.0008907356 0.00013321421 0.0007668845 -0.0014155685 0.0008726491 0.002357762 -0.00029674475 -0.0003643127 -0.0008200111 0.0015242363 -0.0017220648 0.0033249713 -0.0033943162 0.0035423234 -0.0018356334 0.003658696 0.001727339 0.0016016726 -0.0002581014 0.0007437533 0.0037852083 -0.00096211344 -0.0032377956 0.00030002312 -0.0018685558 0.00089852023 0.002776457 -0.0017625374 -0.0017420996 -0.00046236403 0.003331337 0.00071284483 0.0027698989 -0.0023302021 -0.00034886537
